9.981614351272583008e-01,-1.001625880599021912e-01,-1.508766174316406250e+00,7.535048127174377441e-01
9.981614351272583008e-01,-1.001625880599021912e-01,-1.508766174316406250e+00,7.535048127174377441e-01
9.981614351272583008e-01,-1.001625880599021912e-01,-1.508766174316406250e+00,7.535048127174377441e-01
9.981614351272583008e-01,-1.001625880599021912e-01,-1.508766174316406250e+00,7.535048127174377441e-01
1.000211220072493079e+00,-1.000997602123906843e-01,-1.513255384331362974e+00,7.531507281622729089e-01
9.983430104925831161e-01,-9.979585943937667458e-02,-1.509012787951884205e+00,7.541024809767133963e-01
1.001883230850020956e+00,-1.006252647149932233e-01,-1.504577756548223899e+00,7.526356444679758173e-01
9.973145586717085953e-01,-1.003186477735540233e-01,-1.506283028136811142e+00,7.528687122200713455e-01
9.973145586717085953e-01,-1.003186477735540233e-01,-1.506283028136811142e+00,7.528687122200713455e-01
9.973145586717085953e-01,-1.003186477735540233e-01,-1.506283028136811142e+00,7.528687122200713455e-01
9.937633359353140738e-01,-9.948571285145507703e-02,-1.515656750347318171e+00,7.547744897688515309e-01
9.937633359353140738e-01,-9.948571285145507703e-02,-1.515656750347318171e+00,7.547744897688515309e-01
9.995885998595178679e-01,-1.005174610085936143e-01,-1.500781163449857347e+00,7.516567267113767326e-01
1.000827700229482309e+00,-1.004288073490080396e-01,-1.513711370788339172e+00,7.545608068601186158e-01
1.001002337066125181e+00,-1.005467394011879678e-01,-1.505754264649476815e+00,7.530301694042303984e-01
1.001002337066125181e+00,-1.005467394011879678e-01,-1.505754264649476815e+00,7.530301694042303984e-01
1.001002337066125181e+00,-1.005467394011879678e-01,-1.505754264649476815e+00,7.530301694042303984e-01
1.004405843994808700e+00,-1.003852859239737633e-01,-1.509216488286573732e+00,7.535910571412629544e-01
9.952929159033949702e-01,-9.994998191186409142e-02,-1.504839121168176641e+00,7.527259563880724924e-01
1.000472157918639970e+00,-9.972723198027511060e-02,-1.513062242839607663e+00,7.544266934277068515e-01
9.940698407826288330e-01,-1.004497440324528257e-01,-1.505786082709137386e+00,7.528162001591285346e-01
9.940698407826288330e-01,-1.004497440324528257e-01,-1.505786082709137386e+00,7.528162001591285346e-01
1.004047909775937164e+00,-1.007518784773557829e-01,-1.502638938906678989e+00,7.518110115768177337e-01
1.004047909775937164e+00,-1.007518784773557829e-01,-1.502638938906678989e+00,7.518110115768177337e-01
1.004047909775937164e+00,-1.007518784773557829e-01,-1.502638938906678989e+00,7.518110115768177337e-01
9.942611353505571570e-01,-9.973307355016633458e-02,-1.498762348281619694e+00,7.504349526020793748e-01
9.972725972907867664e-01,-1.007485105296565264e-01,-1.517201403894387512e+00,7.563614280159118852e-01
9.965587998581446616e-01,-9.987636758020737582e-02,-1.499783603898133810e+00,7.501974042366503781e-01
9.960335611870831940e-01,-1.001682982467801408e-01,-1.512665628345198465e+00,7.556141890224875590e-01
1.000063583757547336e+00,-9.988559335571647879e-02,-1.513670075045609797e+00,7.530091027952898752e-01
1.000063583757547336e+00,-9.988559335571647879e-02,-1.513670075045609797e+00,7.530091027952898752e-01
1.000063583757547336e+00,-9.988559335571647879e-02,-1.513670075045609797e+00,7.530091027952898752e-01
9.973176083432366834e-01,-1.002437261481237962e-01,-1.506461211510252474e+00,7.549908582377753419e-01
9.983744035279399354e-01,-9.938621909167505430e-02,-1.515830071907291243e+00,7.538477965157213134e-01
9.983744035279399354e-01,-9.938621909167505430e-02,-1.515830071907291243e+00,7.538477965157213134e-01
9.936698507736486663e-01,-9.988033336206945945e-02,-1.498631789633530387e+00,7.516389782089523131e-01
9.936698507736486663e-01,-9.988033336206945945e-02,-1.498631789633530387e+00,7.516389782089523131e-01
9.936698507736486663e-01,-9.988033336206945945e-02,-1.498631789633530387e+00,7.516389782089523131e-01
9.930969675824453669e-01,-9.971604116033666587e-02,-1.515353648573051437e+00,7.537215726775133851e-01
1.000288058984744710e+00,-1.002239485461783458e-01,-1.501153094589156023e+00,7.517722306677980804e-01
9.947731638784241825e-01,-1.000328096329685668e-01,-1.504047718614599516e+00,7.525171989974386300e-01
9.977887424681081141e-01,-9.991846158799268240e-02,-1.507289671561168554e+00,7.522675651225239069e-01
9.996585725436685221e-01,-1.001684753399210287e-01,-1.503539728360436367e+00,7.544733798521431334e-01
9.950514211755289162e-01,-9.964332901915395890e-02,-1.508872964702411945e+00,7.530138808703890074e-01
9.950514211755289162e-01,-9.964332901915395890e-02,-1.508872964702411945e+00,7.530138808703890074e-01
1.000965964869955815e+00,-1.001826738852785309e-01,-1.509036425699458839e+00,7.545102817854947297e-01
1.000965964869955815e+00,-1.001826738852785309e-01,-1.509036425699458839e+00,7.545102817854947297e-01
9.890488876565595167e-01,-9.995180950715783219e-02,-1.506526439611246326e+00,7.539976702905303307e-01
1.006862257171731612e+00,-1.003876269604342952e-01,-1.512782213310366108e+00,7.541986597492392752e-01
1.006862257171731612e+00,-1.003876269604342952e-01,-1.512782213310366108e+00,7.541986597492392752e-01
9.887641148241522737e-01,-9.983664588846299925e-02,-1.494905438166658662e+00,7.514619836197120595e-01
9.887641148241522737e-01,-9.983664588846299925e-02,-1.494905438166658662e+00,7.514619836197120595e-01
9.983209455531235621e-01,-1.001645908345813185e-01,-1.523700174553505038e+00,7.563969156380169201e-01
9.983209455531235621e-01,-1.001645908345813185e-01,-1.523700174553505038e+00,7.563969156380169201e-01
9.980808590141875269e-01,-1.001351168268249936e-01,-1.505404395865979073e+00,7.545194571098755576e-01
9.909073909284885628e-01,-9.935528531800470742e-02,-1.523980122457370134e+00,7.576812474660468144e-01
9.998424028946002462e-01,-1.007242364660544537e-01,-1.491362997357532638e+00,7.487960280006928926e-01
9.977040176598122034e-01,-9.997610432782921830e-02,-1.525144312493337262e+00,7.570104690867132113e-01
9.977040176598122034e-01,-9.997610432782921830e-02,-1.525144312493337262e+00,7.570104690867132113e-01
9.988287316443276165e-01,-1.004995580887293322e-01,-1.494979102799735449e+00,7.508043800818934299e-01
9.927301631734644083e-01,-9.967208071421355953e-02,-1.519340428687382172e+00,7.546276984156717882e-01
1.009154399764821797e+00,-1.011038703908683500e-01,-1.500373264732097756e+00,7.511834793438064706e-01
9.964061655496094794e-01,-1.002857265658487623e-01,-1.517069502593922481e+00,7.561021520681505681e-01
9.980958510168872477e-01,-1.004170646054148852e-01,-1.497373088449553746e+00,7.478466331703663705e-01
1.000122502978235239e+00,-1.003414105123546091e-01,-1.522387045790500437e+00,7.585201415588329610e-01
9.991462206695584936e-01,-9.989590856162283705e-02,-1.504980061257801038e+00,7.497369092509447164e-01
1.000055488693361916e+00,-1.006442332835499193e-01,-1.514063958189469261e+00,7.554257838535516356e-01
1.005472256149564592e+00,-1.006633252801144573e-01,-1.497627051993955627e+00,7.509141506567729163e-01
1.005472256149564592e+00,-1.006633252801144573e-01,-1.497627051993955627e+00,7.509141506567729163e-01
1.005472256149564592e+00,-1.006633252801144573e-01,-1.497627051993955627e+00,7.509141506567729163e-01
9.992827058852252753e-01,-1.003516455779668443e-01,-1.503280300313995399e+00,7.519721176821491104e-01
9.935180387910623745e-01,-9.993211689856321134e-02,-1.508660530764456720e+00,7.542449029347949585e-01
9.976331052036683245e-01,-1.002468116321954678e-01,-1.508087882949878944e+00,7.540891488160496037e-01
9.961517129212144050e-01,-9.999959267397127982e-02,-1.498255067947837471e+00,7.495158119551729170e-01
9.961517129212144050e-01,-9.999959267397127982e-02,-1.498255067947837471e+00,7.495158119551729170e-01
9.982751753858708499e-01,-1.004446078373637946e-01,-1.499176675751322074e+00,7.510298205450491871e-01
9.926511708365932662e-01,-1.000174646873233653e-01,-1.499964342184285648e+00,7.485277352248772553e-01
1.001544947866328750e+00,-1.002268442194303860e-01,-1.509346591893736100e+00,7.547378336918891817e-01
1.000386989846082653e+00,-1.004660865628895089e-01,-1.502367199619318638e+00,7.495800766724793895e-01
1.000386989846082653e+00,-1.004660865628895089e-01,-1.502367199619318638e+00,7.495800766724793895e-01
1.000386989846082653e+00,-1.004660865628895089e-01,-1.502367199619318638e+00,7.495800766724793895e-01
1.000386989846082653e+00,-1.004660865628895089e-01,-1.502367199619318638e+00,7.495800766724793895e-01
1.000386989846082653e+00,-1.004660865628895089e-01,-1.502367199619318638e+00,7.495800766724793895e-01
9.921234686587051543e-01,-9.941560951312226890e-02,-1.503362350088179866e+00,7.501934993332897150e-01
1.002859091202988662e+00,-1.008836619819069302e-01,-1.506728321437503126e+00,7.520230902396639605e-01
9.901583977480644672e-01,-9.918689176707881638e-02,-1.511414037474594796e+00,7.554371101018011458e-01
9.901583977480644672e-01,-9.918689176707881638e-02,-1.511414037474594796e+00,7.554371101018011458e-01
9.991574931854094732e-01,-1.004679742530646819e-01,-1.523214880516885028e+00,7.551985694132169469e-01
9.991574931854094732e-01,-1.004679742530646819e-01,-1.523214880516885028e+00,7.551985694132169469e-01
9.989756594990273353e-01,-9.996983047581528559e-02,-1.498843738879950704e+00,7.518335419841806200e-01
1.000022827780346235e+00,-9.975610000154983004e-02,-1.508793194830119866e+00,7.531222344332293428e-01
9.909474120627668192e-01,-9.912618289211851119e-02,-1.517283071269057038e+00,7.555256023242583607e-01
9.956462076174398268e-01,-9.990772334429823265e-02,-1.500987990259114779e+00,7.533266843209935892e-01
1.004602816937071319e+00,-1.002516410111187889e-01,-1.507151933820598533e+00,7.537911347467988188e-01
9.886628695071233430e-01,-9.959178892373632408e-02,-1.509547135087415448e+00,7.528335210853835946e-01
9.886628695071233430e-01,-9.959178892373632408e-02,-1.509547135087415448e+00,7.528335210853835946e-01
9.886628695071233430e-01,-9.959178892373632408e-02,-1.509547135087415448e+00,7.528335210853835946e-01
1.008870529575375707e+00,-1.006796387732463993e-01,-1.512937095503983143e+00,7.573352029682185460e-01
1.008870529575375707e+00,-1.006796387732463993e-01,-1.512937095503983143e+00,7.573352029682185460e-01
9.921763632514747355e-01,-9.935234298296186095e-02,-1.500921214773349277e+00,7.477434312901902747e-01
1.001591158940082771e+00,-1.004800694740159706e-01,-1.506984335660699337e+00,7.563654700244119011e-01
9.988461958834553567e-01,-9.998855213636592687e-02,-1.500198560748214005e+00,7.491083306047781054e-01
9.964628067208652906e-01,-1.002802501613070107e-01,-1.504882680536005601e+00,7.539380309347800679e-01
9.984084763765791459e-01,-9.937503606825842661e-02,-1.514459569599380551e+00,7.523565293847123137e-01
1.001133105279530700e+00,-1.000901102620068428e-01,-1.508674811886107747e+00,7.551013871496096153e-01
9.973559899746211599e-01,-1.001345886773904459e-01,-1.503971754193451416e+00,7.507244698120526527e-01
9.992831105938160263e-01,-1.001131607503114862e-01,-1.527129850835886593e+00,7.596119096314779551e-01
1.000617530395469634e+00,-1.002450776017213135e-01,-1.501430475644374374e+00,7.492899425954825388e-01
9.969224943598329336e-01,-9.992168272794553496e-02,-1.524528353890888477e+00,7.583013453003136783e-01
1.001666935297675698e+00,-1.006484030246296291e-01,-1.501909281500303228e+00,7.514928786778599656e-01
1.000704979905855385e+00,-1.001125707822189403e-01,-1.513771864943149748e+00,7.511229232674708767e-01
1.000704979905855385e+00,-1.001125707822189403e-01,-1.513771864943149748e+00,7.511229232674708767e-01
9.893015366563541191e-01,-9.978460082442355827e-02,-1.505824394204543282e+00,7.528003783872960764e-01
1.008744846632549708e+00,-1.009994437698911313e-01,-1.509367722631008046e+00,7.543046197276166431e-01
9.830668295207329876e-01,-9.905955046599700109e-02,-1.510838578135763388e+00,7.540791632740032613e-01
1.008008588445241438e+00,-1.010631593282488444e-01,-1.494179868711762005e+00,7.494555263938614820e-01
1.008008588445241438e+00,-1.010631593282488444e-01,-1.494179868711762005e+00,7.494555263938614820e-01
9.920044432383158250e-01,-9.986053170350485397e-02,-1.516362938332268095e+00,7.557150416917695068e-01
9.999716845394155396e-01,-1.006503483134772448e-01,-1.513623864231144811e+00,7.536188547205845412e-01
9.999716845394155396e-01,-1.006503483134772448e-01,-1.513623864231144811e+00,7.536188547205845412e-01
9.885163508853638259e-01,-9.981503618987939974e-02,-1.516511924605679296e+00,7.544392174362787307e-01
9.885163508853638259e-01,-9.981503618987939974e-02,-1.516511924605679296e+00,7.544392174362787307e-01
9.885163508853638259e-01,-9.981503618987939974e-02,-1.516511924605679296e+00,7.544392174362787307e-01
1.001085736154495809e+00,-1.007741538384164248e-01,-1.518973612937633666e+00,7.564670831332449552e-01
1.001209116581176284e+00,-1.000359322228481368e-01,-1.496668507129755188e+00,7.515034727968422645e-01
9.979150208360330065e-01,-1.006024550063051165e-01,-1.503922634158631366e+00,7.522815067991396321e-01
9.955759282533717114e-01,-9.979339533883174740e-02,-1.512830423685238568e+00,7.518594139303770296e-01
9.955759282533717114e-01,-9.979339533883174740e-02,-1.512830423685238568e+00,7.518594139303770296e-01
9.978835314770029274e-01,-9.994065447957063697e-02,-1.511228272235556336e+00,7.530259324818502353e-01
9.978835314770029274e-01,-9.994065447957063697e-02,-1.511228272235556336e+00,7.530259324818502353e-01
9.964727241769425481e-01,-1.000117874281466757e-01,-1.511310104576136126e+00,7.526625306036320850e-01
1.007256862734805969e+00,-1.006276376220474195e-01,-1.508445560950657960e+00,7.533014305563850987e-01
9.924863292909896773e-01,-9.981143564685704406e-02,-1.508850544502406521e+00,7.539642819638229243e-01
9.953512872211613960e-01,-9.956694699777481061e-02,-1.500558057841116177e+00,7.501933854511331212e-01
1.003065327467213663e+00,-1.010089267933621804e-01,-1.496379770003917420e+00,7.511001081782252564e-01
1.000240114737480202e+00,-9.977180806804099300e-02,-1.519267681070795017e+00,7.550860554906906330e-01
9.878249059041877000e-01,-9.976025899249965634e-02,-1.501410004683026767e+00,7.498653637376980763e-01
1.005789579936661848e+00,-1.006586519756436787e-01,-1.497405888540676022e+00,7.510258935410897285e-01
1.005789579936661848e+00,-1.006586519756436787e-01,-1.497405888540676022e+00,7.510258935410897285e-01
9.943012891636789918e-01,-1.003004893642954892e-01,-1.510833841286603807e+00,7.571342956398989799e-01
9.943012891636789918e-01,-1.003004893642954892e-01,-1.510833841286603807e+00,7.571342956398989799e-01
9.948839310368954303e-01,-1.001400743399611798e-01,-1.503940866804017951e+00,7.514746626722533795e-01
9.994018066728912464e-01,-1.004612425631308120e-01,-1.507921970240058807e+00,7.534925906263025830e-01
9.991420106581389016e-01,-1.003171335171876705e-01,-1.502443587086104371e+00,7.515184747869083637e-01
9.991420106581389016e-01,-1.003171335171876705e-01,-1.502443587086104371e+00,7.515184747869083637e-01
1.002697251762815656e+00,-1.002546326571781415e-01,-1.513054497800677911e+00,7.547482622974861499e-01
9.946164172884299770e-01,-9.951119573509133176e-02,-1.518759247613990393e+00,7.568211665841007019e-01
9.946164172884299770e-01,-9.951119573509133176e-02,-1.518759247613990393e+00,7.568211665841007019e-01
1.001838272746968128e+00,-1.010713278869504461e-01,-1.487674130020951502e+00,7.467601398719725392e-01
9.940562139278616982e-01,-9.948231877532887069e-02,-1.525187751900432875e+00,7.586992723119441173e-01
9.963843881173168882e-01,-9.983995984624524644e-02,-1.493009078184464711e+00,7.473852301278718357e-01
1.006463997620671069e+00,-1.005545543663590030e-01,-1.515700777184406212e+00,7.561507557523687861e-01
9.961878178118375171e-01,-1.004028832681572725e-01,-1.508018447692870856e+00,7.513477811376981785e-01
9.981261076821028588e-01,-1.005353177154619526e-01,-1.506092110094575220e+00,7.548620696504074745e-01
1.000799342563958971e+00,-9.989245695261149416e-02,-1.515163686663955067e+00,7.526397991790527708e-01
9.975708449582224580e-01,-1.000361678417436423e-01,-1.505749561588444196e+00,7.542274752635925728e-01
9.975708449582224580e-01,-1.000361678417436423e-01,-1.505749561588444196e+00,7.542274752635925728e-01
9.961809479964522929e-01,-9.958734031144772514e-02,-1.518525513820606410e+00,7.544487775474421065e-01
9.936255068616771657e-01,-9.972079016462948031e-02,-1.496607717161485995e+00,7.497787161259035216e-01
9.936255068616771657e-01,-9.972079016462948031e-02,-1.496607717161485995e+00,7.497787161259035216e-01
9.980162958086740144e-01,-1.002140336673532639e-01,-1.520557801180061119e+00,7.564742577565823911e-01
1.006022575756490900e+00,-1.008244381969176651e-01,-1.476606658485535517e+00,7.444268838869017024e-01
9.913546451589232422e-01,-9.945366980816301716e-02,-1.525740513719621605e+00,7.541258123839313932e-01
1.004873820933626316e+00,-1.004592161174890641e-01,-1.494525433424806815e+00,7.503370172225898305e-01
9.970427233588132765e-01,-9.985398153402730292e-02,-1.521349981176683075e+00,7.558970570915735099e-01
9.970427233588132765e-01,-9.985398153402730292e-02,-1.521349981176683075e+00,7.558970570915735099e-01
9.967356754825587029e-01,-1.002209769633375519e-01,-1.503542044353262996e+00,7.527468562322711110e-01
1.001970593233226570e+00,-1.003959559691706555e-01,-1.501242778220563956e+00,7.499185775202046322e-01
1.002690304539631150e+00,-1.003437147869780527e-01,-1.516984098742846454e+00,7.550319669418369406e-01
9.875223104499191162e-01,-9.939185478491434356e-02,-1.509993536774782541e+00,7.535634188768347563e-01
1.003782923582442921e+00,-1.002233168991848722e-01,-1.512283847971240158e+00,7.533550979451988372e-01
9.907368391973006005e-01,-9.956314060177197389e-02,-1.510563818348354514e+00,7.547199539689665171e-01
1.001221706860212946e+00,-1.002902578967935915e-01,-1.507119901528170436e+00,7.519810231645840393e-01
9.949750645903091550e-01,-9.985270305808270630e-02,-1.510185081900010662e+00,7.527386549401290372e-01
9.949750645903091550e-01,-9.985270305808270630e-02,-1.510185081900010662e+00,7.527386549401290372e-01
9.949750645903091550e-01,-9.985270305808270630e-02,-1.510185081900010662e+00,7.527386549401290372e-01
9.949750645903091550e-01,-9.985270305808270630e-02,-1.510185081900010662e+00,7.527386549401290372e-01
9.971877819725109005e-01,-9.994571742834468253e-02,-1.511771107765508937e+00,7.556214207712973474e-01
1.003088991167305544e+00,-9.997263180125606774e-02,-1.509109309011362532e+00,7.522935413995830434e-01
9.966499039533480708e-01,-1.004791801286285674e-01,-1.509834268934298285e+00,7.552779605471463542e-01
9.967393627384092403e-01,-9.980689829092354026e-02,-1.507616864300331372e+00,7.518004312279853441e-01
9.942436262094422883e-01,-1.001862421939508918e-01,-1.512730858981321758e+00,7.553776319971116093e-01
9.942436262094422883e-01,-1.001862421939508918e-01,-1.512730858981321758e+00,7.553776319971116093e-01
1.000960168859632127e+00,-1.001555216029491463e-01,-1.496526438958917682e+00,7.488946288006693708e-01
1.001701359738641051e+00,-9.991295635148586540e-02,-1.516531184880882233e+00,7.544452300990884819e-01
1.001701359738641051e+00,-9.991295635148586540e-02,-1.516531184880882233e+00,7.544452300990884819e-01
1.003994985596358358e+00,-1.000101939685871105e-01,-1.500365499121325108e+00,7.528345026267446727e-01
9.932554536025588465e-01,-1.002172124632739331e-01,-1.510109254148399360e+00,7.526778626557140139e-01
9.932554536025588465e-01,-1.002172124632739331e-01,-1.510109254148399360e+00,7.526778626557140139e-01
9.932554536025588465e-01,-1.002172124632739331e-01,-1.510109254148399360e+00,7.526778626557140139e-01
1.005149862184456122e+00,-1.000042679291828218e-01,-1.506639317836950376e+00,7.539884916446230045e-01
1.005149862184456122e+00,-1.000042679291828218e-01,-1.506639317836950376e+00,7.539884916446230045e-01
9.961722069815951430e-01,-9.923709851648467029e-02,-1.510535270789299167e+00,7.523231419974276690e-01
9.961722069815951430e-01,-9.923709851648467029e-02,-1.510535270789299167e+00,7.523231419974276690e-01
9.961722069815951430e-01,-9.923709851648467029e-02,-1.510535270789299167e+00,7.523231419974276690e-01
9.961722069815951430e-01,-9.923709851648467029e-02,-1.510535270789299167e+00,7.523231419974276690e-01
9.997637877457807853e-01,-1.003360983418569718e-01,-1.496902562783136714e+00,7.519015185761888098e-01
1.000362351275269512e+00,-1.005885026220523226e-01,-1.513845836920239218e+00,7.549785785694671514e-01
9.912163905705441147e-01,-9.955284779378482940e-02,-1.507094632984077975e+00,7.519892869866127150e-01
1.005448824132764818e+00,-1.001005794805757687e-01,-1.516275355023117388e+00,7.568988749903352575e-01
9.972826862875650011e-01,-9.994495417158068273e-02,-1.501563113041203490e+00,7.509307538883843725e-01
1.002095705834259665e+00,-1.003333176342093847e-01,-1.516894150210835956e+00,7.557494874869102874e-01
1.002095705834259665e+00,-1.003333176342093847e-01,-1.516894150210835956e+00,7.557494874869102874e-01
9.951518221128171637e-01,-1.001426866715778297e-01,-1.505420917981901363e+00,7.534492739518797721e-01
9.951518221128171637e-01,-1.001426866715778297e-01,-1.505420917981901363e+00,7.534492739518797721e-01
9.941022785268197604e-01,-1.001565062576034865e-01,-1.506557701704012375e+00,7.517272303963691282e-01
9.981384529360177726e-01,-1.003141455491760453e-01,-1.507548989167048825e+00,7.518113500662644277e-01
9.904862437705758138e-01,-9.928615224350481605e-02,-1.507514857632132221e+00,7.515274233097954948e-01
1.007855916114456685e+00,-1.011911412626910894e-01,-1.524227111755725561e+00,7.588456087477155609e-01
9.865483203608851337e-01,-9.945303059918467192e-02,-1.506234142249325281e+00,7.503652366054955891e-01
1.003565813476652080e+00,-1.005854608202682993e-01,-1.506474319210770796e+00,7.515495084951040461e-01
9.896113544630243952e-01,-1.004321682675256844e-01,-1.512166658803407504e+00,7.548099470172556780e-01
9.896113544630243952e-01,-1.004321682675256844e-01,-1.512166658803407504e+00,7.548099470172556780e-01
1.003813766343448322e+00,-1.002399622393661399e-01,-1.492999292485421181e+00,7.500783639402646141e-01
9.941997358500042070e-01,-9.934773408903789516e-02,-1.529821191852613671e+00,7.600665140002993425e-01
1.001838091250703888e+00,-1.001583374663301274e-01,-1.485598363435177038e+00,7.432344094485286989e-01
9.886960095148372707e-01,-9.932565390285973128e-02,-1.535770001691856734e+00,7.592050047392417955e-01
9.954704261953466471e-01,-1.000387296375571944e-01,-1.503105752297387854e+00,7.533437861903692356e-01
1.003265318408949058e+00,-1.010044186781185460e-01,-1.518423309845044811e+00,7.557655225402982735e-01
9.940312632242657154e-01,-1.004271628927918825e-01,-1.503425203429988422e+00,7.535070119937159472e-01
9.981424881824041417e-01,-1.006271435151106508e-01,-1.506793791653162629e+00,7.531605641466121437e-01
9.992364788953076449e-01,-1.008069706138010752e-01,-1.510785424679586653e+00,7.559874383601027370e-01
9.961491063186330708e-01,-1.002627621665588831e-01,-1.506283561252762304e+00,7.536856107312889241e-01
9.964286330482923226e-01,-1.001266656091849006e-01,-1.517646924527812358e+00,7.577833538903008259e-01
9.969673589677461312e-01,-1.004220060180053553e-01,-1.504692681051128078e+00,7.523025745380029772e-01
9.979435510209417881e-01,-1.001981889464147873e-01,-1.517014709521747440e+00,7.544115932609861686e-01
9.997004500637372004e-01,-1.003624131947383619e-01,-1.491970702768911083e+00,7.488586738281026722e-01
1.001144015247034558e+00,-1.005076028713057512e-01,-1.522136247195673198e+00,7.577536691400953428e-01
1.001144015247034558e+00,-1.005076028713057512e-01,-1.522136247195673198e+00,7.577536691400953428e-01
9.956469789267339277e-01,-9.975167712000694575e-02,-1.492469055333603745e+00,7.461649325316483949e-01
9.956469789267339277e-01,-9.975167712000694575e-02,-1.492469055333603745e+00,7.461649325316483949e-01
1.003706173752526576e+00,-1.009052570674651844e-01,-1.523099858031667697e+00,7.597454907337174435e-01
9.871415099618282563e-01,-9.962195036673536508e-02,-1.494995661537293685e+00,7.484408991134792188e-01
1.002450231751845999e+00,-1.008694894141835136e-01,-1.507434264071787267e+00,7.562632552304398015e-01
9.995751597407382949e-01,-9.981868059736981325e-02,-1.503948206949997868e+00,7.487792881981862880e-01
9.995751597407382949e-01,-9.981868059736981325e-02,-1.503948206949997868e+00,7.487792881981862880e-01
9.992227678346055075e-01,-1.000938972856959958e-01,-1.507115983500691536e+00,7.561685959285004976e-01
9.995474395707703019e-01,-1.001501239924910275e-01,-1.523151338287407563e+00,7.538813128909043204e-01
9.995474395707703019e-01,-1.001501239924910275e-01,-1.523151338287407563e+00,7.538813128909043204e-01
9.950676716306764424e-01,-1.009809875737092133e-01,-1.489158896531477483e+00,7.520963096310810947e-01
1.004887495788478358e+00,-1.000372922714765356e-01,-1.519125456900584092e+00,7.532652666173683675e-01
1.000031471069962707e+00,-1.001752461541506739e-01,-1.503589869051818573e+00,7.545216961370513342e-01
9.992653380952529751e-01,-1.002794614866427403e-01,-1.509326065719611032e+00,7.507818500806427986e-01
9.992653380952529751e-01,-1.002794614866427403e-01,-1.509326065719611032e+00,7.507818500806427986e-01
9.992653380952529751e-01,-1.002794614866427403e-01,-1.509326065719611032e+00,7.507818500806427986e-01
9.992653380952529751e-01,-1.002794614866427403e-01,-1.509326065719611032e+00,7.507818500806427986e-01
1.000843028511240407e+00,-1.003515252982164901e-01,-1.495341677038575678e+00,7.519530770661009278e-01
1.002153221223580637e+00,-1.000744810830234560e-01,-1.520554107923245413e+00,7.558547611560892943e-01
1.000896408443260555e+00,-1.003175680667389991e-01,-1.497726239557267913e+00,7.509893214979929121e-01
1.004016860084481655e+00,-1.010611081566469005e-01,-1.503795092719842019e+00,7.499432079218364411e-01
9.923618417603623509e-01,-1.005806234353069512e-01,-1.508908685741588984e+00,7.573198500662038368e-01
1.001710475265611189e+00,-1.003127209603166536e-01,-1.510183250228819496e+00,7.517483125354662565e-01
9.935564797779341539e-01,-1.003208694541682655e-01,-1.506044105745632633e+00,7.544302685902565253e-01
9.988193424000817444e-01,-9.973773542359572197e-02,-1.508469877936260195e+00,7.518170546754607830e-01
9.988193424000817444e-01,-9.973773542359572197e-02,-1.508469877936260195e+00,7.518170546754607830e-01
9.931775877516585416e-01,-1.000192670091747393e-01,-1.523564834975689619e+00,7.555900994802073889e-01
1.007144410137539969e+00,-1.005766601981113173e-01,-1.492221745808506528e+00,7.513142594231895233e-01
1.007144410137539969e+00,-1.005766601981113173e-01,-1.492221745808506528e+00,7.513142594231895233e-01
9.901964887966838713e-01,-1.000234165618774235e-01,-1.515562055647264650e+00,7.544560214919815433e-01
9.901964887966838713e-01,-1.000234165618774235e-01,-1.515562055647264650e+00,7.544560214919815433e-01
1.006131606696482717e+00,-1.008312718665731605e-01,-1.491007535158821673e+00,7.478028376509218145e-01
9.905791930966859615e-01,-9.931561090228355204e-02,-1.524765003612637004e+00,7.573090654684937473e-01
9.905791930966859615e-01,-9.931561090228355204e-02,-1.524765003612637004e+00,7.573090654684937473e-01
9.993423974375651442e-01,-1.009029524446528048e-01,-1.489606274790034046e+00,7.479272426370980886e-01
9.945111278137334088e-01,-9.921766815431939945e-02,-1.519141449502661834e+00,7.554688501416859658e-01
9.980808476425000464e-01,-9.942566546238015834e-02,-1.500779887332259088e+00,7.502589927579930151e-01
1.004286187508623307e+00,-1.007661076316714449e-01,-1.503795488329749075e+00,7.507496033814563541e-01
1.004286187508623307e+00,-1.007661076316714449e-01,-1.503795488329749075e+00,7.507496033814563541e-01
9.990509510944886040e-01,-1.004373297861191894e-01,-1.512099678447462736e+00,7.558892903369793803e-01
9.953846605765708233e-01,-9.967074150398309851e-02,-1.507221800338115703e+00,7.527383993267933171e-01
9.953846605765708233e-01,-9.967074150398309851e-02,-1.507221800338115703e+00,7.527383993267933171e-01
9.943397312025227253e-01,-9.978562832277530770e-02,-1.517764239879574983e+00,7.543521798513942445e-01
9.971081731222631861e-01,-1.003086592998324034e-01,-1.505170052881314113e+00,7.523370615893956170e-01
1.009648759747030278e+00,-1.005409482747033761e-01,-1.506231387236149688e+00,7.534036737225292546e-01
9.890991654990309856e-01,-1.000028672118630363e-01,-1.515885350999233383e+00,7.550792736824628593e-01
1.005440154377493567e+00,-1.001515460900893745e-01,-1.498908034425631142e+00,7.499252995865567373e-01
9.893537987687480717e-01,-9.929306698984283197e-02,-1.511635456756888818e+00,7.565203714343936570e-01
1.007507683990451541e+00,-1.007837972408359428e-01,-1.498798193761474495e+00,7.502072234126502259e-01
9.971196412216318805e-01,-1.000616960274160055e-01,-1.518557343301098150e+00,7.571481091631165894e-01
9.963559654448715941e-01,-9.999621654026698281e-02,-1.501796077799817608e+00,7.511258904222637423e-01
9.959198282197178065e-01,-9.992420103347311733e-02,-1.512970354300049669e+00,7.529441754457245617e-01
9.999911774047577362e-01,-1.003161093939660964e-01,-1.506795793308220777e+00,7.540557582467812825e-01
9.954691879813929445e-01,-9.976401851289892764e-02,-1.521088127852290528e+00,7.548932998018609286e-01
9.963605488061900717e-01,-1.004430712439423751e-01,-1.502608542235633005e+00,7.538519576302891156e-01
9.986582263215493249e-01,-9.982795624157439485e-02,-1.513828402659606498e+00,7.535940103267650958e-01
1.002395898854511858e+00,-1.006310870202952873e-01,-1.500548928058196729e+00,7.525478255481011791e-01
9.893318319900277213e-01,-9.925035188506174666e-02,-1.516300975043560095e+00,7.560855344552996904e-01
9.893318319900277213e-01,-9.925035188506174666e-02,-1.516300975043560095e+00,7.560855344552996904e-01
9.979072976057935529e-01,-9.981464708127005259e-02,-1.494316491161998384e+00,7.496520291886510368e-01
1.006668386651689673e+00,-1.001356395896179363e-01,-1.519263551569064230e+00,7.567487805981785165e-01
9.962583356721789185e-01,-1.000822119927955584e-01,-1.493429166180194834e+00,7.493444225588556939e-01
9.962583356721789185e-01,-1.000822119927955584e-01,-1.493429166180194834e+00,7.493444225588556939e-01
1.002383016855207254e+00,-1.005543797274598000e-01,-1.525631583681799075e+00,7.576943980322263794e-01
9.992915691532519018e-01,-1.008585122542590973e-01,-1.496430478705666367e+00,7.502366340741913886e-01
9.968746283582003986e-01,-1.004454195198602184e-01,-1.507487751369764206e+00,7.522514054773635772e-01
9.968746283582003986e-01,-1.004454195198602184e-01,-1.507487751369764206e+00,7.522514054773635772e-01
9.985112198458366839e-01,-1.004242434343004670e-01,-1.515668106281547800e+00,7.549169702121345527e-01
9.985112198458366839e-01,-1.004242434343004670e-01,-1.515668106281547800e+00,7.549169702121345527e-01
1.006287598978405917e+00,-1.004726926811608523e-01,-1.507696987596031990e+00,7.526552958618544231e-01
9.913028510673499438e-01,-9.971379202651228790e-02,-1.517314951685956315e+00,7.554248012511188826e-01
1.004304285756759674e+00,-1.007188973162505830e-01,-1.500173064532545286e+00,7.513167820601958091e-01
9.939709295552440205e-01,-1.000393010055569964e-01,-1.503203477114437137e+00,7.513682754782815554e-01
9.939709295552440205e-01,-1.000393010055569964e-01,-1.503203477114437137e+00,7.513682754782815554e-01
1.007076358241978831e+00,-1.005935908651579697e-01,-1.502341392111843144e+00,7.524654289136266661e-01
9.863578489842659280e-01,-9.936196276200190414e-02,-1.518975942757895936e+00,7.550039629479534664e-01
1.009222256610582180e+00,-1.013342115269621202e-01,-1.494474482827088169e+00,7.522135204949650378e-01
9.901751698036204141e-01,-9.978913398953261071e-02,-1.520837371240167046e+00,7.559343465078810498e-01
9.901751698036204141e-01,-9.978913398953261071e-02,-1.520837371240167046e+00,7.559343465078810498e-01
1.002142619593104023e+00,-1.008364193265560010e-01,-1.492753078545757228e+00,7.495736275141373639e-01
9.953911690045746941e-01,-9.972919199025882808e-02,-1.513472649590345220e+00,7.534627221410148401e-01
9.953911690045746941e-01,-9.972919199025882808e-02,-1.513472649590345220e+00,7.534627221410148401e-01
9.993317011859712551e-01,-1.004813575779186646e-01,-1.500621342588221330e+00,7.531569294424049765e-01
9.972318147559489088e-01,-9.961230904819472209e-02,-1.513178760025431613e+00,7.533936328959713880e-01
9.972318147559489088e-01,-9.961230904819472209e-02,-1.513178760025431613e+00,7.533936328959713880e-01
9.989444936836219258e-01,-9.952562540522355561e-02,-1.513088535438291693e+00,7.549479008877342245e-01
9.989444936836219258e-01,-9.952562540522355561e-02,-1.513088535438291693e+00,7.549479008877342245e-01
9.989444936836219258e-01,-9.952562540522355561e-02,-1.513088535438291693e+00,7.549479008877342245e-01
9.989444936836219258e-01,-9.952562540522355561e-02,-1.513088535438291693e+00,7.549479008877342245e-01
9.989444936836219258e-01,-9.952562540522355561e-02,-1.513088535438291693e+00,7.549479008877342245e-01
9.989444936836219258e-01,-9.952562540522355561e-02,-1.513088535438291693e+00,7.549479008877342245e-01
9.935221731673195000e-01,-9.972562387392658323e-02,-1.508536160428280981e+00,7.545211083137411956e-01
9.976005228997218977e-01,-1.001225277736894625e-01,-1.508490316360485695e+00,7.523953619628268585e-01
1.001934022996621598e+00,-1.011815049032449010e-01,-1.503561060042573283e+00,7.517796392146630646e-01
9.933579277466307866e-01,-1.005668923697802947e-01,-1.512417040618868391e+00,7.539576564219284682e-01
9.993232037757283637e-01,-1.008309003207133736e-01,-1.521137296964256036e+00,7.569554222714884872e-01
1.002273238562154001e+00,-1.006497471839419566e-01,-1.500430686687841186e+00,7.501359454189850950e-01
1.002273238562154001e+00,-1.006497471839419566e-01,-1.500430686687841186e+00,7.501359454189850950e-01
1.002273238562154001e+00,-1.006497471839419566e-01,-1.500430686687841186e+00,7.501359454189850950e-01
1.002800790301000999e+00,-1.008814899645969626e-01,-1.500158722505868791e+00,7.516066124326078457e-01
9.987557961562019138e-01,-1.000221938324538096e-01,-1.515455455860026612e+00,7.548898176456074749e-01
9.983830165503396747e-01,-1.003186036153853877e-01,-1.497221815429039093e+00,7.506788699522380925e-01
9.947496752904848583e-01,-9.956704540103322731e-02,-1.520523787037456609e+00,7.559656579053559700e-01
9.959335551769396000e-01,-1.002588127097777532e-01,-1.516935504369661736e+00,7.569490719571673187e-01
1.002925011912928932e+00,-1.000054245531757369e-01,-1.499792846087746323e+00,7.508953663064126260e-01
9.934966871495354290e-01,-1.002877303968397887e-01,-1.506128458516690305e+00,7.531694956655662354e-01
1.003191568894761021e+00,-1.003195940880870635e-01,-1.498578611958765627e+00,7.512631939157048411e-01
1.003191568894761021e+00,-1.003195940880870635e-01,-1.498578611958765627e+00,7.512631939157048411e-01
9.976929258132019029e-01,-1.005197250130992342e-01,-1.521860903937571674e+00,7.585331200307666721e-01
9.891045813315616497e-01,-1.000721041918913035e-01,-1.514312134037891555e+00,7.547232205307362607e-01
1.002133563900350133e+00,-1.012846981025714577e-01,-1.501946719226942228e+00,7.536215837441613274e-01
1.002133563900350133e+00,-1.012846981025714577e-01,-1.501946719226942228e+00,7.536215837441613274e-01
1.003422497624358645e+00,-1.000366480120485069e-01,-1.511212347757572072e+00,7.530167503610762925e-01
9.905751991071515272e-01,-9.959861610326217751e-02,-1.515580606442002320e+00,7.541468644294170298e-01
1.003907065626700401e+00,-1.005006947681984925e-01,-1.515970246985676173e+00,7.559556859811191742e-01
9.965465379780983346e-01,-9.981532536329498773e-02,-1.499418544861836899e+00,7.504634480549666753e-01
1.001930712663305911e+00,-1.000369160149253145e-01,-1.507979837634319198e+00,7.529041233780036091e-01
9.957670006157076648e-01,-9.981649362183923901e-02,-1.525301942938446897e+00,7.576484437565371710e-01
9.999023771488352308e-01,-1.003956636281117254e-01,-1.498930360098331471e+00,7.521778681771128516e-01
9.999023771488352308e-01,-1.003956636281117254e-01,-1.498930360098331471e+00,7.521778681771128516e-01
9.986141818140247262e-01,-1.001641461884903717e-01,-1.510883232284575328e+00,7.529507914011536185e-01
1.001178018095663758e+00,-1.005316752848778722e-01,-1.498639120279909198e+00,7.516942505350904247e-01
1.001095323971657569e+00,-1.003634023733180058e-01,-1.509079017994639171e+00,7.535134153044200644e-01
1.001095323971657569e+00,-1.003634023733180058e-01,-1.509079017994639171e+00,7.535134153044200644e-01
9.977548097739009636e-01,-1.005650975062261782e-01,-1.500654019269303419e+00,7.502185758789606806e-01
1.005502920393837707e+00,-1.011705926591850296e-01,-1.499790315948464903e+00,7.507045097603535222e-01
9.965212220130563736e-01,-1.004437045643743615e-01,-1.511480009688589643e+00,7.548360442608221810e-01
9.969499517559625712e-01,-9.981096319538704242e-02,-1.508401219671748894e+00,7.534112137271684606e-01
1.000188214982368429e+00,-1.002208321485392184e-01,-1.510312277696116423e+00,7.547598750613324636e-01
1.001950809470619097e+00,-1.005135318788632215e-01,-1.504979639154853110e+00,7.518606105080551938e-01
9.957342729621371236e-01,-1.000579263259031987e-01,-1.510944776254374844e+00,7.531713131341177814e-01
9.957342729621371236e-01,-1.000579263259031987e-01,-1.510944776254374844e+00,7.531713131341177814e-01
9.924711255159739398e-01,-1.000088818108320066e-01,-1.502021457354351108e+00,7.520477930663110877e-01
9.924711255159739398e-01,-1.000088818108320066e-01,-1.502021457354351108e+00,7.520477930663110877e-01
1.003290617491668701e+00,-1.001900094803034880e-01,-1.512432453887356143e+00,7.534588908326746992e-01
1.003290617491668701e+00,-1.001900094803034880e-01,-1.512432453887356143e+00,7.534588908326746992e-01
9.974597374993736665e-01,-9.963784047466589522e-02,-1.510663292309721184e+00,7.548898202218899955e-01
1.000428294704804655e+00,-1.008851072304210589e-01,-1.501956163405204769e+00,7.529210395008193446e-01
9.899163499332364058e-01,-9.916274637337320341e-02,-1.519851308777367516e+00,7.548473003493988420e-01
1.005797018534757781e+00,-1.010404572623394420e-01,-1.497960225163272208e+00,7.519032710898623240e-01
9.997909419630772732e-01,-9.975600513011835535e-02,-1.516988933139765683e+00,7.532353209988191800e-01
9.931069191782121441e-01,-1.004297290135348630e-01,-1.508190410340189747e+00,7.559502001180808950e-01
1.000368937414766624e+00,-1.000422114818538544e-01,-1.515404120310325897e+00,7.545133613170998954e-01
1.000368937414766624e+00,-1.000422114818538544e-01,-1.515404120310325897e+00,7.545133613170998954e-01
9.942494875079911365e-01,-1.000553564206673740e-01,-1.505708749378734890e+00,7.531992135059313309e-01
9.942494875079911365e-01,-1.000553564206673740e-01,-1.505708749378734890e+00,7.531992135059313309e-01
9.942494875079911365e-01,-1.000553564206673740e-01,-1.505708749378734890e+00,7.531992135059313309e-01
9.942494875079911365e-01,-1.000553564206673740e-01,-1.505708749378734890e+00,7.531992135059313309e-01
1.001055872132561753e+00,-1.002303020741253103e-01,-1.506909799113659965e+00,7.529692619561317857e-01
1.001055872132561753e+00,-1.002303020741253103e-01,-1.506909799113659965e+00,7.529692619561317857e-01
1.001055872132561753e+00,-1.002303020741253103e-01,-1.506909799113659965e+00,7.529692619561317857e-01
1.001055872132561753e+00,-1.002303020741253103e-01,-1.506909799113659965e+00,7.529692619561317857e-01
1.001055872132561753e+00,-1.002303020741253103e-01,-1.506909799113659965e+00,7.529692619561317857e-01
1.001055872132561753e+00,-1.002303020741253103e-01,-1.506909799113659965e+00,7.529692619561317857e-01
1.001055872132561753e+00,-1.002303020741253103e-01,-1.506909799113659965e+00,7.529692619561317857e-01
1.001055872132561753e+00,-1.002303020741253103e-01,-1.506909799113659965e+00,7.529692619561317857e-01
9.965565043176474180e-01,-9.962499141939747116e-02,-1.525000334591186890e+00,7.556784588660433455e-01
1.000803368012773920e+00,-1.007229143462026744e-01,-1.495025545334086825e+00,7.510821608498097213e-01
1.000022754024140204e+00,-1.003874501941758868e-01,-1.527753125755768826e+00,7.597387301039653096e-01
1.000022754024140204e+00,-1.003874501941758868e-01,-1.527753125755768826e+00,7.597387301039653096e-01
9.922518719117534580e-01,-1.000684795309878111e-01,-1.493175754452377380e+00,7.479336290820606248e-01
9.987504585357374065e-01,-1.001456458620175183e-01,-1.516676649605452898e+00,7.554838976217254087e-01
9.931429344344223642e-01,-1.002065335983261113e-01,-1.502113113414421441e+00,7.523016195016568597e-01
9.978740398254849486e-01,-1.000827563576963397e-01,-1.504240948180863846e+00,7.517637980083547999e-01
1.001477535049956957e+00,-1.003787362289557533e-01,-1.501789358405713148e+00,7.517847533388809511e-01
9.913249049120254064e-01,-9.943523791072919615e-02,-1.520498373538099468e+00,7.560187288385791238e-01
9.944666106329257405e-01,-1.002059667145384914e-01,-1.496718285143457505e+00,7.508175668120186108e-01
9.944666106329257405e-01,-1.002059667145384914e-01,-1.496718285143457505e+00,7.508175668120186108e-01
9.978647007571482819e-01,-1.003562160076428428e-01,-1.522750268727506961e+00,7.578506012902315181e-01
9.937259120021934011e-01,-1.002429285042363005e-01,-1.488476932943932241e+00,7.480381548115511148e-01
1.001725138674354865e+00,-1.007422696745128993e-01,-1.511682667112378420e+00,7.550105900180767993e-01
1.000468009613678433e+00,-1.006238523125439627e-01,-1.509907575944125613e+00,7.531235620931134855e-01
9.965337566956231630e-01,-1.004894117359190764e-01,-1.498978881768726623e+00,7.509163078144115433e-01
9.965337566956231630e-01,-1.004894117359190764e-01,-1.498978881768726623e+00,7.509163078144115433e-01
1.003692028843380157e+00,-1.005960744907262311e-01,-1.521237390766201791e+00,7.572705269299280229e-01
9.888082113793902339e-01,-9.967302588958155962e-02,-1.494228280346744597e+00,7.475164546031117796e-01
1.002451321855015509e+00,-1.005889286277179273e-01,-1.524184093941961526e+00,7.612799095627067469e-01
9.934061251360377653e-01,-9.963468398669605985e-02,-1.492672672454117055e+00,7.481739105081761654e-01
1.005028035392961261e+00,-1.000088907821118506e-01,-1.534377426994416815e+00,7.605063102010901632e-01
9.958604836254089099e-01,-9.970494487072405210e-02,-1.499506820961180376e+00,7.510609869988450482e-01
9.958604836254089099e-01,-9.970494487072405210e-02,-1.499506820961180376e+00,7.510609869988450482e-01
9.984454634047148502e-01,-9.981240377777728101e-02,-1.532115200850837855e+00,7.588537185194410561e-01
1.000523032218334496e+00,-1.005859014338413432e-01,-1.498030188315349953e+00,7.525342461411598238e-01
9.879662797378785388e-01,-9.916589274804930854e-02,-1.515809582130804190e+00,7.533277731284411249e-01
1.003875682074002018e+00,-1.006154650486989488e-01,-1.506255470547090525e+00,7.559312181340247516e-01
1.003875682074002018e+00,-1.006154650486989488e-01,-1.506255470547090525e+00,7.559312181340247516e-01
1.003875682074002018e+00,-1.006154650486989488e-01,-1.506255470547090525e+00,7.559312181340247516e-01
9.946437310045352920e-01,-9.966274864743260298e-02,-1.508552528422933525e+00,7.529971291371087005e-01
9.946437310045352920e-01,-9.966274864743260298e-02,-1.508552528422933525e+00,7.529971291371087005e-01
1.000751757669213537e+00,-1.004251108178346868e-01,-1.519964241549420558e+00,7.569917352023323165e-01
9.942084329722120639e-01,-9.978754390356878168e-02,-1.508805659288298129e+00,7.519845904907601630e-01
9.942084329722120639e-01,-9.978754390356878168e-02,-1.508805659288298129e+00,7.519845904907601630e-01
9.942084329722120639e-01,-9.978754390356878168e-02,-1.508805659288298129e+00,7.519845904907601630e-01
1.006356359481381801e+00,-1.007938674633196280e-01,-1.504743596041528741e+00,7.536875062579178053e-01
9.923659058087708207e-01,-9.923544206494948339e-02,-1.516563681825631615e+00,7.544248002127192931e-01
1.004428406481277181e+00,-1.011279881402052661e-01,-1.505404779749397903e+00,7.540668259572663734e-01
9.900816288297147327e-01,-9.997276363934756716e-02,-1.515846891820218145e+00,7.532027044242975977e-01
1.004816880044919536e+00,-1.002389802705534183e-01,-1.494483795116396063e+00,7.515946761973045787e-01
9.991763900122151432e-01,-1.009854405282129691e-01,-1.524074234762117896e+00,7.557455584958536754e-01
9.978182349314567157e-01,-1.011929624190836680e-01,-1.503794773474791402e+00,7.518917822569358700e-01
1.006416293295564035e+00,-1.004858137285744163e-01,-1.519161184901952621e+00,7.553484424515758411e-01
9.871275687362323081e-01,-1.000210202254236125e-01,-1.507977516040221566e+00,7.561808796307520897e-01
9.871275687362323081e-01,-1.000210202254236125e-01,-1.507977516040221566e+00,7.561808796307520897e-01
9.871275687362323081e-01,-1.000210202254236125e-01,-1.507977516040221566e+00,7.561808796307520897e-01
1.001739503721710722e+00,-9.990438375520163672e-02,-1.518806910843803148e+00,7.549687482446733044e-01
1.002709241423289876e+00,-1.010776542786149534e-01,-1.495105333062139552e+00,7.495549731699362450e-01
9.958361556048002106e-01,-9.962576254145030785e-02,-1.510044752788482603e+00,7.559640071121473959e-01
9.980669341928178895e-01,-1.004875197741433301e-01,-1.502902486741025445e+00,7.528295101925785993e-01
9.980669341928178895e-01,-1.004875197741433301e-01,-1.502902486741025445e+00,7.528295101925785993e-01
9.980669341928178895e-01,-1.004875197741433301e-01,-1.502902486741025445e+00,7.528295101925785993e-01
9.922925853922429651e-01,-9.921379395959629977e-02,-1.516481658261941590e+00,7.538654502290829118e-01
1.001340702356548595e+00,-1.011433199197284555e-01,-1.488331996373448263e+00,7.492087576857490161e-01
1.001340702356548595e+00,-1.011433199197284555e-01,-1.488331996373448263e+00,7.492087576857490161e-01
1.001340702356548595e+00,-1.011433199197284555e-01,-1.488331996373448263e+00,7.492087576857490161e-01
1.001340702356548595e+00,-1.011433199197284555e-01,-1.488331996373448263e+00,7.492087576857490161e-01
1.001340702356548595e+00,-1.011433199197284555e-01,-1.488331996373448263e+00,7.492087576857490161e-01
9.953391458519751378e-01,-9.993514534742437005e-02,-1.530813625579329651e+00,7.587542840020018442e-01
9.984877056807968110e-01,-1.005285309836310148e-01,-1.494363388864924591e+00,7.495879015191921901e-01
9.984877056807968110e-01,-1.005285309836310148e-01,-1.494363388864924591e+00,7.495879015191921901e-01
1.001873436885987401e+00,-1.006338270184282957e-01,-1.518018327890100716e+00,7.571440960596029779e-01
1.009872187326466220e+00,-1.006444118019288875e-01,-1.500877789720626021e+00,7.492655808709777210e-01
1.009872187326466220e+00,-1.006444118019288875e-01,-1.500877789720626021e+00,7.492655808709777210e-01
9.890013842189053772e-01,-9.993517039574258132e-02,-1.517464458787421533e+00,7.570570953823840821e-01
9.890013842189053772e-01,-9.993517039574258132e-02,-1.517464458787421533e+00,7.570570953823840821e-01
9.998917180994266740e-01,-1.003647542661281339e-01,-1.499193434860254914e+00,7.507549259085308790e-01
9.998917180994266740e-01,-1.003647542661281339e-01,-1.499193434860254914e+00,7.507549259085308790e-01
9.996313746569828185e-01,-1.006091661382034347e-01,-1.500461139922139919e+00,7.541354594797395894e-01
9.996313746569828185e-01,-1.006091661382034347e-01,-1.500461139922139919e+00,7.541354594797395894e-01
9.932673602172413796e-01,-9.970715373436761508e-02,-1.506207556134583347e+00,7.516997451630117455e-01
1.000226763862868573e+00,-1.001568236212219548e-01,-1.502865390264441769e+00,7.541510034316251110e-01
9.933314725580537630e-01,-9.954121682481925637e-02,-1.515597672284305641e+00,7.534813162376186035e-01
9.915716922858874849e-01,-9.966717407213980529e-02,-1.504002358720510912e+00,7.517632600295407475e-01
9.915716922858874849e-01,-9.966717407213980529e-02,-1.504002358720510912e+00,7.517632600295407475e-01
1.011568378348703723e+00,-1.010142561281694995e-01,-1.513586432611627286e+00,7.563584082714378543e-01
1.011568378348703723e+00,-1.010142561281694995e-01,-1.513586432611627286e+00,7.563584082714378543e-01
9.924587518451331025e-01,-9.957376303715316512e-02,-1.509809748662570561e+00,7.527330978542257078e-01
9.924587518451331025e-01,-9.957376303715316512e-02,-1.509809748662570561e+00,7.527330978542257078e-01
9.969060324221207248e-01,-9.982987373899511463e-02,-1.516536804863077847e+00,7.552581258021029420e-01
9.969060324221207248e-01,-9.982987373899511463e-02,-1.516536804863077847e+00,7.552581258021029420e-01
9.998119046915575625e-01,-1.003941536818466762e-01,-1.497539064417029220e+00,7.501438750721037829e-01
1.005042074969004107e+00,-1.008187919310191555e-01,-1.515603670210957654e+00,7.546203981505642533e-01
1.000021688293218025e+00,-9.987465427922383177e-02,-1.506359424061182395e+00,7.547730325730113154e-01
9.951469248274498192e-01,-9.937318550275996143e-02,-1.521884820522581450e+00,7.560278391300070400e-01
9.991657226365483480e-01,-9.989549144064177599e-02,-1.498103413735386802e+00,7.499722106084356632e-01
1.004747006436215839e+00,-1.002606697120723839e-01,-1.503433211867522656e+00,7.535599233830571064e-01
9.943805709234020407e-01,-1.005768601540201340e-01,-1.507976534003530711e+00,7.545615581290848750e-01
9.990596128720511393e-01,-1.008078470908263108e-01,-1.523716130585547779e+00,7.602058167988573478e-01
9.988060727668330863e-01,-1.005416517749417732e-01,-1.497275955904699085e+00,7.485672424510927403e-01
1.001601000076030923e+00,-1.006398083662209814e-01,-1.523603578666552494e+00,7.584447306738265615e-01
9.872371051132579067e-01,-9.977920887716740239e-02,-1.495842931951223864e+00,7.487647722644786841e-01
9.872371051132579067e-01,-9.977920887716740239e-02,-1.495842931951223864e+00,7.487647722644786841e-01
1.003868696704804275e+00,-1.007764971753621064e-01,-1.512414226171042264e+00,7.561793284357252176e-01
1.003868696704804275e+00,-1.007764971753621064e-01,-1.512414226171042264e+00,7.561793284357252176e-01
9.956132468347496101e-01,-1.001387176521368744e-01,-1.499917311666666864e+00,7.497102286892685097e-01
9.982792239159835601e-01,-1.004405710995766032e-01,-1.506141403003984136e+00,7.546356794661104317e-01
9.998067037795823619e-01,-1.003700229580403447e-01,-1.510934362097301253e+00,7.548455347236288082e-01
9.998067037795823619e-01,-1.003700229580403447e-01,-1.510934362097301253e+00,7.548455347236288082e-01
1.000722709923205667e+00,-1.002567073616688342e-01,-1.511290256317038949e+00,7.539076451406677704e-01
9.990294240003562143e-01,-1.004210993607374119e-01,-1.511759629807017724e+00,7.555481944897896041e-01
1.005319526438883448e+00,-1.003448490029816981e-01,-1.516202657868828574e+00,7.546999967902228157e-01
9.940508882565340931e-01,-1.001473477471524626e-01,-1.502853028003290126e+00,7.526741999441343145e-01
9.982519795826997333e-01,-1.000647042870050768e-01,-1.513179892527717341e+00,7.535741579094963338e-01
9.988463188518468261e-01,-1.003500533223116165e-01,-1.513868827737231415e+00,7.560796904190975054e-01
9.997648896692705733e-01,-1.000699271553928404e-01,-1.507623924533895376e+00,7.518884980687382535e-01
9.980900344056268247e-01,-1.005616509959198490e-01,-1.506537689150350801e+00,7.534393521584211717e-01
9.929606744708091570e-01,-9.979577060006131206e-02,-1.502508646011913696e+00,7.505908995296217689e-01
9.983561470859114717e-01,-1.002047701353499382e-01,-1.502830467016858851e+00,7.538788946848596906e-01
9.910130105577740212e-01,-9.931831297922685819e-02,-1.513007862964001804e+00,7.523624815743856775e-01
1.003218786565548415e+00,-1.008585062223735507e-01,-1.494991003912068628e+00,7.517484772298503870e-01
9.934096444258956327e-01,-9.969476230900552183e-02,-1.508499852700070365e+00,7.520788170665446692e-01
9.952961559020822024e-01,-1.000714017152134344e-01,-1.508017251448270368e+00,7.545845079630457697e-01
9.952961559020822024e-01,-1.000714017152134344e-01,-1.508017251448270368e+00,7.545845079630457697e-01
9.902698546731447671e-01,-9.960116724316447900e-02,-1.520050517688740221e+00,7.567835932855747627e-01
1.000214002589375983e+00,-1.004012410025899305e-01,-1.508653067844675899e+00,7.519309785640527766e-01
9.937966642432380926e-01,-9.933654538936743938e-02,-1.515669198335282353e+00,7.568003940040627375e-01
1.000394913829402377e+00,-1.006537096497485684e-01,-1.503885886398707017e+00,7.503333666823039927e-01
9.969293388390549904e-01,-1.001528754144083710e-01,-1.519353866698614164e+00,7.584333514308949642e-01
1.000488284972116171e+00,-1.004513222775822862e-01,-1.500677970587888099e+00,7.502184710836480308e-01
1.000328219215440129e+00,-1.000971070412128433e-01,-1.509946771546004429e+00,7.529309222488191899e-01
9.952380204991363444e-01,-9.968618727693355497e-02,-1.511559545863263132e+00,7.546197311416293907e-01
9.952380204991363444e-01,-9.968618727693355497e-02,-1.511559545863263132e+00,7.546197311416293907e-01
1.000084792382327281e+00,-1.005944387400945911e-01,-1.509994136206932680e+00,7.548091990717062938e-01
1.000084792382327281e+00,-1.005944387400945911e-01,-1.509994136206932680e+00,7.548091990717062938e-01
9.908257870046439653e-01,-9.999934693531291330e-02,-1.507915642466252981e+00,7.540220467800832216e-01
9.978643659713585246e-01,-1.003076678503080771e-01,-1.515830029107097854e+00,7.552512320266476786e-01
9.986540417872965536e-01,-1.003743728195093804e-01,-1.503373807898130465e+00,7.511321364808569712e-01
9.986540417872965536e-01,-1.003743728195093804e-01,-1.503373807898130465e+00,7.511321364808569712e-01
9.987615393206600301e-01,-1.004262787354760766e-01,-1.510443647624825747e+00,7.541963685374385440e-01
9.929763205645862900e-01,-9.956177987933180484e-02,-1.521301367877799793e+00,7.550780573810154106e-01
1.003189017609555922e+00,-1.006939885503345122e-01,-1.498914215550657403e+00,7.527504098567555646e-01
1.003189017609555922e+00,-1.006939885503345122e-01,-1.498914215550657403e+00,7.527504098567555646e-01
1.003650831849456138e+00,-1.010141138406630834e-01,-1.514151808806065924e+00,7.550348944053718592e-01
9.922198267418002038e-01,-9.988472516596888506e-02,-1.494950433594783856e+00,7.497098533188604197e-01
9.963692792432855549e-01,-9.988050174518012247e-02,-1.524692688903640070e+00,7.570411046383543896e-01
9.983310904329989466e-01,-1.000890027959177725e-01,-1.507403943356803389e+00,7.555482073666610621e-01
9.983310904329989466e-01,-1.000890027959177725e-01,-1.507403943356803389e+00,7.555482073666610621e-01
9.983310904329989466e-01,-1.000890027959177725e-01,-1.507403943356803389e+00,7.555482073666610621e-01
1.001927537867151718e+00,-1.006432490159668708e-01,-1.520690096340309383e+00,7.547627630254478692e-01
1.001927537867151718e+00,-1.006432490159668708e-01,-1.520690096340309383e+00,7.547627630254478692e-01
9.938383882912494860e-01,-9.955693309022731197e-02,-1.495322734509811013e+00,7.511598174742234457e-01
9.938383882912494860e-01,-9.955693309022731197e-02,-1.495322734509811013e+00,7.511598174742234457e-01
9.881336579745313431e-01,-9.947421955126688198e-02,-1.519231605607207491e+00,7.550083281503671140e-01
1.008526910156483547e+00,-1.008601119709586491e-01,-1.515145882881211659e+00,7.554748266683203317e-01
9.889101694845334745e-01,-9.960971142177955928e-02,-1.505392017921787007e+00,7.530516676540395249e-01
1.007443024196106318e+00,-1.011119631861837481e-01,-1.498449798854971649e+00,7.511040224602392179e-01
1.001851358063488018e+00,-1.006909626202950048e-01,-1.507095927077589881e+00,7.522157684733812300e-01
9.989746537809546245e-01,-1.000023076614944412e-01,-1.508116210957708203e+00,7.532972893109147750e-01
9.939306791009184794e-01,-9.997658453308060078e-02,-1.508996112249460841e+00,7.517900162810351450e-01
1.011977636122923130e+00,-1.013648139286504185e-01,-1.501515322553305554e+00,7.540387335839862093e-01
9.917760926967160717e-01,-9.979589584773813915e-02,-1.512473101578349688e+00,7.522845268484654735e-01
1.006540863721130830e+00,-1.006250753459016350e-01,-1.525626254328676046e+00,7.570387820092451259e-01
1.006540863721130830e+00,-1.006250753459016350e-01,-1.525626254328676046e+00,7.570387820092451259e-01
9.871377989137799513e-01,-9.939262251544730975e-02,-1.493394676664420162e+00,7.511133769502209567e-01
9.871377989137799513e-01,-9.939262251544730975e-02,-1.493394676664420162e+00,7.511133769502209567e-01
1.003252268143794312e+00,-1.007672676202446271e-01,-1.513656368436537170e+00,7.544759365862607758e-01
9.950124129660434802e-01,-1.003940335766859981e-01,-1.494842714536168238e+00,7.502082524255063722e-01
1.001296823179149920e+00,-1.000342919317561280e-01,-1.508768828995427080e+00,7.524316868655324120e-01
1.001296823179149920e+00,-1.000342919317561280e-01,-1.508768828995427080e+00,7.524316868655324120e-01
9.942294498935747571e-01,-1.002258609481870427e-01,-1.507577510166919321e+00,7.535286788393495971e-01
1.000621245039659657e+00,-9.983023572187732508e-02,-1.515223682145298678e+00,7.535953767692640248e-01
9.937643036967134247e-01,-1.001744298615568074e-01,-1.507924724914718739e+00,7.536702420692774629e-01
1.001153498368533512e+00,-9.998462888818053507e-02,-1.509789949503678841e+00,7.524233209891985075e-01
1.001153498368533512e+00,-9.998462888818053507e-02,-1.509789949503678841e+00,7.524233209891985075e-01
9.975739837393219345e-01,-9.996599614455961569e-02,-1.508210611036358673e+00,7.545041339882856413e-01
1.004027692443637099e+00,-1.002543048545483373e-01,-1.510959076846549509e+00,7.544246315203925191e-01
9.919477044868684201e-01,-9.956749334686647301e-02,-1.508529689860624634e+00,7.490657193594723040e-01
9.919477044868684201e-01,-9.956749334686647301e-02,-1.508529689860624634e+00,7.490657193594723040e-01
1.000529785386025106e+00,-1.004368549818068362e-01,-1.508863118917135093e+00,7.537911091036736400e-01
1.003710816151649921e+00,-1.005066427905296489e-01,-1.509022718969922794e+00,7.529403985141267519e-01
9.844567620916236939e-01,-9.919830428088284580e-02,-1.505852275373152915e+00,7.516874754796741831e-01
1.008705151971904801e+00,-1.010351132181374206e-01,-1.492234973581498148e+00,7.491050439259054894e-01
9.911919972368025133e-01,-9.965364096554456264e-02,-1.509739020687523414e+00,7.543945926111236266e-01
9.982052303991948428e-01,-1.003844455792987783e-01,-1.511442584429824487e+00,7.535934304851527044e-01
9.999664535417124300e-01,-9.943525036998511479e-02,-1.526134500379008996e+00,7.558774333564535208e-01
9.972411280714031934e-01,-1.004747608679228271e-01,-1.491971494406036935e+00,7.473968238538611919e-01
9.972411280714031934e-01,-1.004747608679228271e-01,-1.491971494406036935e+00,7.473968238538611919e-01
1.002364153475741038e+00,-9.999715740170991851e-02,-1.523801519090160594e+00,7.595405052868140494e-01
9.995402464272434839e-01,-1.005093890081309727e-01,-1.497239999408981781e+00,7.488709388319592097e-01
9.982320840384047989e-01,-1.004066022529248592e-01,-1.512343707625805056e+00,7.560287360995003869e-01
1.001666655763123082e+00,-1.000893149167778329e-01,-1.516781824402054779e+00,7.556431777692257379e-01
1.001661726341906533e+00,-1.007698217171546645e-01,-1.498720285787925821e+00,7.498351742957967137e-01
9.960508508867176314e-01,-1.005712414779856567e-01,-1.505881223481517761e+00,7.539110352225786293e-01
1.000658617122155203e+00,-1.001834093199689968e-01,-1.507570888467229864e+00,7.542647385393749238e-01
9.976877385741277360e-01,-1.005177317895564193e-01,-1.513490382575485071e+00,7.538303124487478746e-01
9.905215441606751714e-01,-9.920238389719368555e-02,-1.516636419716630879e+00,7.564032393452410075e-01
9.990740779771779545e-01,-1.010529965436188088e-01,-1.489393570483501072e+00,7.515057154946964690e-01
9.984505449264624577e-01,-1.004578254390626618e-01,-1.521750281199035104e+00,7.567946965725490527e-01
9.984505449264624577e-01,-1.004578254390626618e-01,-1.521750281199035104e+00,7.567946965725490527e-01
9.996134996848258236e-01,-1.007323164242193703e-01,-1.492891985563165491e+00,7.490474120288257431e-01
9.996134996848258236e-01,-1.007323164242193703e-01,-1.492891985563165491e+00,7.490474120288257431e-01
9.996134996848258236e-01,-1.007323164242193703e-01,-1.492891985563165491e+00,7.490474120288257431e-01
1.003021160309636839e+00,-1.010832937522374575e-01,-1.503564553342612964e+00,7.534743946340873855e-01
9.972826746468430592e-01,-1.005577702416930730e-01,-1.505624145487617360e+00,7.524169006863730136e-01
1.001261248928878134e+00,-1.007159871617516467e-01,-1.524498908805737685e+00,7.580829472923915624e-01
9.976678808880884430e-01,-9.974766836159272565e-02,-1.504408169407782214e+00,7.505392316864949454e-01
1.005180084574159860e+00,-1.009083279796266913e-01,-1.502138383298229796e+00,7.535112548198782401e-01
9.961130041069512497e-01,-1.003042240656365630e-01,-1.510055278324577754e+00,7.528695727964349604e-01
9.979279020244785636e-01,-1.004003312520686253e-01,-1.510183330564936144e+00,7.541621988567919210e-01
9.952081368728405986e-01,-9.976127882404534075e-02,-1.502751694050265652e+00,7.494098259443553456e-01
1.003924861857707684e+00,-1.010491764921357949e-01,-1.500994111778462647e+00,7.532128293321348478e-01
9.988994788386409418e-01,-9.945449833250301352e-02,-1.529640835678493183e+00,7.573212069132700952e-01
1.001632267001226095e+00,-1.004906346384317750e-01,-1.493501516163789677e+00,7.531453334346379647e-01
1.001632267001226095e+00,-1.004906346384317750e-01,-1.493501516163789677e+00,7.531453334346379647e-01
9.998623047802612795e-01,-1.004741274086856234e-01,-1.515539629430587842e+00,7.539447922295068327e-01
9.998623047802612795e-01,-1.004741274086856234e-01,-1.515539629430587842e+00,7.539447922295068327e-01
9.998623047802612795e-01,-1.004741274086856234e-01,-1.515539629430587842e+00,7.539447922295068327e-01
9.998623047802612795e-01,-1.004741274086856234e-01,-1.515539629430587842e+00,7.539447922295068327e-01
9.985973070315777855e-01,-1.008135472510975628e-01,-1.507315114073180640e+00,7.548252282621599196e-01
9.958609918669596439e-01,-1.004231303287601573e-01,-1.498586720709597531e+00,7.485174478406748655e-01
9.970026703278174196e-01,-9.980975584489147623e-02,-1.523568500214205201e+00,7.587735492838706408e-01
9.944048335920727677e-01,-9.969028206514629620e-02,-1.497467008062905114e+00,7.491761342105796029e-01
9.944048335920727677e-01,-9.969028206514629620e-02,-1.497467008062905114e+00,7.491761342105796029e-01
9.944048335920727677e-01,-9.969028206514629620e-02,-1.497467008062905114e+00,7.491761342105796029e-01
9.973980232058256012e-01,-1.002681959055112954e-01,-1.512278630966359172e+00,7.545710461671067959e-01
9.987026220846931812e-01,-1.006610907633487817e-01,-1.503376903394430197e+00,7.518914339368722999e-01
1.002810608457836539e+00,-1.007211881648036184e-01,-1.514246455466596197e+00,7.541432658483713247e-01
1.001290651143339483e+00,-1.005625037518559917e-01,-1.509565053244233956e+00,7.544660434148929840e-01
1.001124853617156196e+00,-9.995038478602358278e-02,-1.505561527160476532e+00,7.511154603233380911e-01
1.001124853617156196e+00,-9.995038478602358278e-02,-1.505561527160476532e+00,7.511154603233380911e-01
9.932476310664197783e-01,-1.003097167749022189e-01,-1.506137127306248713e+00,7.531995361217787011e-01
9.962986671210072309e-01,-1.003339035587756389e-01,-1.498689755735397089e+00,7.517002499074478816e-01
9.964100306377882132e-01,-1.001004881419605697e-01,-1.518048174147849760e+00,7.555974744488996864e-01
9.998998026521881410e-01,-1.003964601504669790e-01,-1.511334701422238913e+00,7.521243871751152055e-01
9.946914832293533015e-01,-9.966361597827055885e-02,-1.503745787835504721e+00,7.543289102277425107e-01
1.001197411445786889e+00,-9.962608322960435359e-02,-1.522912334790951672e+00,7.555990353012895788e-01
9.920442331088331622e-01,-9.892737177612746791e-02,-1.508924614212412640e+00,7.539183968991882701e-01
1.010261506598333137e+00,-1.004543904552678002e-01,-1.495608158434277080e+00,7.496990590645482566e-01
9.867483974198208996e-01,-9.886433302501160258e-02,-1.523297007083229015e+00,7.564675656100654511e-01
1.001079637886174378e+00,-1.004999545748455347e-01,-1.511346695270172624e+00,7.541986901948491973e-01
9.959165732179499075e-01,-1.002586557882008955e-01,-1.502961922861947297e+00,7.531553052955651806e-01
1.001769707982849367e+00,-1.005093982326499408e-01,-1.516847055564962021e+00,7.567183926373177716e-01
9.950334248361970557e-01,-9.998360535407024852e-02,-1.496743274989112527e+00,7.492362340903973017e-01
9.950334248361970557e-01,-9.998360535407024852e-02,-1.496743274989112527e+00,7.492362340903973017e-01
9.950334248361970557e-01,-9.998360535407024852e-02,-1.496743274989112527e+00,7.492362340903973017e-01
9.950334248361970557e-01,-9.998360535407024852e-02,-1.496743274989112527e+00,7.492362340903973017e-01
1.007990464576957068e+00,-1.006543591595238374e-01,-1.511906862251265693e+00,7.541124262982735749e-01
9.840166903549126820e-01,-9.953561787241950454e-02,-1.497654529937507695e+00,7.516199467963454728e-01
1.011726677836513044e+00,-1.009779212980121688e-01,-1.516441416160359879e+00,7.573894877885294363e-01
1.011726677836513044e+00,-1.009779212980121688e-01,-1.516441416160359879e+00,7.573894877885294363e-01
9.866358152616743205e-01,-9.985103788174740091e-02,-1.491331431687041631e+00,7.506139348089664320e-01
1.003659349379463883e+00,-1.005588218062068301e-01,-1.501892654454253018e+00,7.511992253468200431e-01
9.889319113801989802e-01,-9.904780734079361715e-02,-1.520207367884957028e+00,7.556146697901207077e-01
1.003610764109778675e+00,-1.000676657425833144e-01,-1.503838990006588272e+00,7.504738788194805776e-01
9.948435225826450790e-01,-9.971409810512338323e-02,-1.516928624613222087e+00,7.578953483522783419e-01
9.964322659363675783e-01,-9.974808629153859851e-02,-1.506313384422682811e+00,7.504483176536254074e-01
9.964322659363675783e-01,-9.974808629153859851e-02,-1.506313384422682811e+00,7.504483176536254074e-01
1.001733343808531407e+00,-9.964849387471051700e-02,-1.501952024652594142e+00,7.498089810368130381e-01
9.987122213863574016e-01,-1.007020620120621518e-01,-1.515686340904520701e+00,7.549207182273683925e-01
1.001935346417794914e+00,-1.003128719818575237e-01,-1.506316243236538233e+00,7.548449129853849193e-01
9.988020348897521661e-01,-1.003863743649975465e-01,-1.504808749746371355e+00,7.529757792743212441e-01
9.964559164434602101e-01,-9.989700765173671615e-02,-1.505376770952622456e+00,7.519198110964874227e-01
9.978232741198307387e-01,-1.002948509953412726e-01,-1.515071318196732131e+00,7.546652877666418791e-01
9.978232741198307387e-01,-1.002948509953412726e-01,-1.515071318196732131e+00,7.546652877666418791e-01
1.003714307335809242e+00,-1.005309307141829950e-01,-1.495724884047443748e+00,7.508744989548331583e-01
9.903231016104543372e-01,-9.970255966110022627e-02,-1.507338765511403444e+00,7.531455269525187957e-01
9.959594291963621560e-01,-9.990574782254899033e-02,-1.494175563735745671e+00,7.483429534069035993e-01
1.000105044534795207e+00,-1.003298496190334205e-01,-1.512198341278580438e+00,7.531161125719040283e-01
9.927625188694735314e-01,-9.970587048972882893e-02,-1.509309332864859687e+00,7.559450181534771440e-01
9.969918473627881195e-01,-1.002727270555921618e-01,-1.516383344666599076e+00,7.558425847660401597e-01
9.969918473627881195e-01,-1.002727270555921618e-01,-1.516383344666599076e+00,7.558425847660401597e-01
9.990088416202407284e-01,-1.008286251474721645e-01,-1.483915166836529576e+00,7.504662397203698543e-01
1.004251492488764885e+00,-1.006831757012557060e-01,-1.517344608929223293e+00,7.572030658316126761e-01
9.971960283831463601e-01,-1.003984605284031495e-01,-1.496349487564476499e+00,7.478133965887566736e-01
9.971960283831463601e-01,-1.003984605284031495e-01,-1.496349487564476499e+00,7.478133965887566736e-01
9.963498106635979568e-01,-9.998231302945016774e-02,-1.516550333761653935e+00,7.560691803287743484e-01
1.000355319230635809e+00,-1.003140033700117284e-01,-1.507438308924887949e+00,7.539994798144405985e-01
1.000355319230635809e+00,-1.003140033700117284e-01,-1.507438308924887949e+00,7.539994798144405985e-01
9.975769163382528504e-01,-1.003450093193356402e-01,-1.521386129509544549e+00,7.580251376530343643e-01
9.958494902060159859e-01,-1.001746840194124855e-01,-1.510718105941223133e+00,7.537839783736814958e-01
9.989615704291311404e-01,-9.990894997281726808e-02,-1.511949436496294208e+00,7.556160011105296226e-01
9.961208579459627233e-01,-9.984357961232048773e-02,-1.512422511108938661e+00,7.511701146259347484e-01
9.927280886499104673e-01,-1.001102331496727532e-01,-1.506255576601158275e+00,7.518265491530840006e-01
1.007183685511737092e+00,-1.003395670829597547e-01,-1.518459689699696247e+00,7.566478552856421569e-01
9.882220285924393499e-01,-9.951987734181474976e-02,-1.506429607711444296e+00,7.553391575004635428e-01
1.010627906946245824e+00,-1.009316475696689641e-01,-1.512607404218372364e+00,7.561467473197556188e-01
1.010627906946245824e+00,-1.009316475696689641e-01,-1.512607404218372364e+00,7.561467473197556188e-01
1.010627906946245824e+00,-1.009316475696689641e-01,-1.512607404218372364e+00,7.561467473197556188e-01
1.010627906946245824e+00,-1.009316475696689641e-01,-1.512607404218372364e+00,7.561467473197556188e-01
1.010627906946245824e+00,-1.009316475696689641e-01,-1.512607404218372364e+00,7.561467473197556188e-01
9.831389943970889611e-01,-9.869702372048932970e-02,-1.503113207965969922e+00,7.514852804136790132e-01
1.006095327070382739e+00,-1.009305352999042282e-01,-1.510718197992249268e+00,7.551898156025051989e-01
1.006095327070382739e+00,-1.009305352999042282e-01,-1.510718197992249268e+00,7.551898156025051989e-01
9.913602831968639784e-01,-9.987819112187534820e-02,-1.506276466359919519e+00,7.526316653961533376e-01
9.913602831968639784e-01,-9.987819112187534820e-02,-1.506276466359919519e+00,7.526316653961533376e-01
9.913602831968639784e-01,-9.987819112187534820e-02,-1.506276466359919519e+00,7.526316653961533376e-01
9.961885256210850637e-01,-1.000611930271363276e-01,-1.510494009603825294e+00,7.527161030957586485e-01
9.961885256210850637e-01,-1.000611930271363276e-01,-1.510494009603825294e+00,7.527161030957586485e-01
9.957362923089004836e-01,-1.000615105190769266e-01,-1.516089813227590843e+00,7.561942248121314991e-01
9.957362923089004836e-01,-1.000615105190769266e-01,-1.516089813227590843e+00,7.561942248121314991e-01
9.955519531135893496e-01,-1.001631972939941440e-01,-1.505669938971980537e+00,7.541358964119900810e-01
9.968898919762233524e-01,-1.000998209338088696e-01,-1.501802870761182795e+00,7.512069899553336372e-01
9.968898919762233524e-01,-1.000998209338088696e-01,-1.501802870761182795e+00,7.512069899553336372e-01
9.960972455749736998e-01,-1.001360924791746404e-01,-1.521333512410281807e+00,7.539985854857318426e-01
9.969093028302066228e-01,-9.988532312959925996e-02,-1.509287699664914939e+00,7.549699788231262199e-01
9.977399136444384808e-01,-1.003477634893176484e-01,-1.503271906661951318e+00,7.513825128564166622e-01
9.977399136444384808e-01,-1.003477634893176484e-01,-1.503271906661951318e+00,7.513825128564166622e-01
9.977399136444384808e-01,-1.003477634893176484e-01,-1.503271906661951318e+00,7.513825128564166622e-01
9.975397053917733903e-01,-1.000507569335496449e-01,-1.513001183547290962e+00,7.546081804296828066e-01
9.975397053917733903e-01,-1.000507569335496449e-01,-1.513001183547290962e+00,7.546081804296828066e-01
9.936380125474768565e-01,-1.000469577155911616e-01,-1.497189013866577989e+00,7.510324838704122152e-01
1.006063033811136931e+00,-1.005194669197990720e-01,-1.516721555775071950e+00,7.557049335480886532e-01
9.925556251478995229e-01,-9.994916571941327155e-02,-1.495542876489829531e+00,7.505601685438154647e-01
9.925556251478995229e-01,-9.994916571941327155e-02,-1.495542876489829531e+00,7.505601685438154647e-01
9.987508956206702093e-01,-1.001057680473692452e-01,-1.519703621720594366e+00,7.553114153505450235e-01
1.007927808173212814e+00,-1.009250001617429532e-01,-1.499210147650812841e+00,7.524100549012466832e-01
9.943439343258519969e-01,-1.000604741795275837e-01,-1.517727209802083754e+00,7.544348677882540821e-01
9.959317174010942075e-01,-9.988379510142884887e-02,-1.507308534865133831e+00,7.544123266340332368e-01
1.000369888031604093e+00,-1.003679589431622082e-01,-1.516975330072947159e+00,7.547104142174222430e-01
1.001357739255190893e+00,-1.001515195067838870e-01,-1.509211786602570049e+00,7.539087113936453477e-01
9.999172953755728344e-01,-1.001516100774409862e-01,-1.500439802669021105e+00,7.505106123152501807e-01
9.990195822653771263e-01,-1.004583700430578819e-01,-1.515288727398637736e+00,7.546797434188351472e-01
9.976050869433910062e-01,-9.997936818443568796e-02,-1.492692940880118613e+00,7.493658326045059548e-01
9.976050869433910062e-01,-9.997936818443568796e-02,-1.492692940880118613e+00,7.493658326045059548e-01
9.976050869433910062e-01,-9.997936818443568796e-02,-1.492692940880118613e+00,7.493658326045059548e-01
9.976050869433910062e-01,-9.997936818443568796e-02,-1.492692940880118613e+00,7.493658326045059548e-01
9.942582640874918498e-01,-9.955936054362109211e-02,-1.515426338595472489e+00,7.541691718338834338e-01
9.994526631096095626e-01,-1.005235978857783319e-01,-1.491816866614564363e+00,7.526282462025134512e-01
9.933462168174008733e-01,-9.923872198358808794e-02,-1.525406563914019742e+00,7.555367158865485822e-01
9.933462168174008733e-01,-9.923872198358808794e-02,-1.525406563914019742e+00,7.555367158865485822e-01
9.933462168174008733e-01,-9.923872198358808794e-02,-1.525406563914019742e+00,7.555367158865485822e-01
9.892575755181715058e-01,-1.000990380615797287e-01,-1.489505720796310495e+00,7.494749771424324969e-01
1.006041984920190258e+00,-1.006202441414387194e-01,-1.526374100244201948e+00,7.563286101845541065e-01
1.003825252727378992e+00,-1.010447079568065759e-01,-1.499307988453067564e+00,7.520263751204394609e-01
9.875865279450168899e-01,-9.968826557674136113e-02,-1.510481822500737037e+00,7.535249325641290019e-01
1.002264115029490421e+00,-1.000920778666383182e-01,-1.507093592345918998e+00,7.522265878374747583e-01
9.928532884912090184e-01,-9.950660772428286671e-02,-1.519958858901544252e+00,7.566983865645108276e-01
9.977371817346920579e-01,-9.990041095014580430e-02,-1.503502515120799687e+00,7.527018712468900308e-01
9.941767383505081268e-01,-9.932864025557901211e-02,-1.525758929345270687e+00,7.557549041182685112e-01
1.008346715356392309e+00,-1.003753548085394021e-01,-1.506209868525062889e+00,7.503225064902745434e-01
9.913139655506397752e-01,-9.954285049097286175e-02,-1.521825597421274434e+00,7.562214911364358860e-01
1.003662266295170413e+00,-1.011127329205628034e-01,-1.491499495003148379e+00,7.495010167030190518e-01
9.955593795046162597e-01,-1.003030682874583440e-01,-1.511080524968398953e+00,7.544188327298937402e-01
1.002479888341331948e+00,-1.012928863770907323e-01,-1.514317435321195227e+00,7.581991702857642235e-01
9.937550416837784839e-01,-1.004866323458971089e-01,-1.502345697522009083e+00,7.515278777405791644e-01
9.937550416837784839e-01,-1.004866323458971089e-01,-1.502345697522009083e+00,7.515278777405791644e-01
9.937550416837784839e-01,-1.004866323458971089e-01,-1.502345697522009083e+00,7.515278777405791644e-01
1.003029472857599025e+00,-1.009127830080833177e-01,-1.514384699292828040e+00,7.565127466075013407e-01
9.913700245621897000e-01,-1.000286408486891626e-01,-1.521916651738800086e+00,7.594577030567132292e-01
1.010945213049055713e+00,-1.008793103967585425e-01,-1.509825312308841649e+00,7.523657956897076282e-01
9.843512264994258576e-01,-9.914393128070214667e-02,-1.514937577229090282e+00,7.558686190520105264e-01
1.006211173121088542e+00,-1.007075847466204210e-01,-1.517078918836080481e+00,7.557379910549116842e-01
9.973183263745647453e-01,-9.967246474584975924e-02,-1.506837154484237606e+00,7.547074644833875467e-01
9.973183263745647453e-01,-9.967246474584975924e-02,-1.506837154484237606e+00,7.547074644833875467e-01
1.003807691917433242e+00,-1.005303541921981347e-01,-1.520822156776059364e+00,7.565812521790737932e-01
9.936965643994627451e-01,-9.972619197838242244e-02,-1.498505175115266042e+00,7.490300707115722378e-01
1.000166622726436749e+00,-1.002361414942572332e-01,-1.513181953964440218e+00,7.561748038965943053e-01
1.000166622726436749e+00,-1.002361414942572332e-01,-1.513181953964440218e+00,7.561748038965943053e-01
1.003702371033108554e+00,-1.005012013916242175e-01,-1.517849155669432903e+00,7.552214210353366264e-01
9.955254081131879040e-01,-9.985438388535118615e-02,-1.508625054641780316e+00,7.529266915604216903e-01
9.955254081131879040e-01,-9.985438388535118615e-02,-1.508625054641780316e+00,7.529266915604216903e-01
1.000118549888904695e+00,-1.002685696950594701e-01,-1.513435923266798655e+00,7.540358134493916342e-01
9.992274690535919435e-01,-1.002791803713691809e-01,-1.501154348673837013e+00,7.516948974660790928e-01
9.899578009045623128e-01,-9.958346497339835846e-02,-1.520295645210504087e+00,7.582727073666309936e-01
9.899578009045623128e-01,-9.958346497339835846e-02,-1.520295645210504087e+00,7.582727073666309936e-01
9.899578009045623128e-01,-9.958346497339835846e-02,-1.520295645210504087e+00,7.582727073666309936e-01
1.003545932091909343e+00,-1.006862799141245990e-01,-1.496088140451315329e+00,7.486354313844217900e-01
1.000308575715651571e+00,-1.002286291039629074e-01,-1.524697360575999472e+00,7.566056464689330241e-01
9.920161189965136517e-01,-9.938178405466931153e-02,-1.515235767631838426e+00,7.549117125350193191e-01
9.920161189965136517e-01,-9.938178405466931153e-02,-1.515235767631838426e+00,7.549117125350193191e-01
9.920161189965136517e-01,-9.938178405466931153e-02,-1.515235767631838426e+00,7.549117125350193191e-01
9.982916667627947938e-01,-1.002961234506013349e-01,-1.506864962745101177e+00,7.501157905994562114e-01
9.958297984993565999e-01,-1.001300684484935505e-01,-1.493068109174830349e+00,7.523947524134914078e-01
1.001132444076954231e+00,-1.004619449152062277e-01,-1.509192357098956272e+00,7.524624192431735858e-01
9.927557324721952847e-01,-9.930659477806325075e-02,-1.516345056695771909e+00,7.546209182109984148e-01
9.927557324721952847e-01,-9.930659477806325075e-02,-1.516345056695771909e+00,7.546209182109984148e-01
1.006343829160539105e+00,-1.010326968208908188e-01,-1.504207072119134070e+00,7.521225171650227637e-01
9.883379782562832228e-01,-9.960947491427672718e-02,-1.514332928516038290e+00,7.556856830225997523e-01
9.883379782562832228e-01,-9.960947491427672718e-02,-1.514332928516038290e+00,7.556856830225997523e-01
1.013371748850567577e+00,-1.013621861986722383e-01,-1.501474151483111363e+00,7.507429519051237454e-01
1.013371748850567577e+00,-1.013621861986722383e-01,-1.501474151483111363e+00,7.507429519051237454e-01
1.013371748850567577e+00,-1.013621861986722383e-01,-1.501474151483111363e+00,7.507429519051237454e-01
1.013371748850567577e+00,-1.013621861986722383e-01,-1.501474151483111363e+00,7.507429519051237454e-01
9.881340917832832638e-01,-9.934092643591881100e-02,-1.526527590292209524e+00,7.577167017041046559e-01
9.881340917832832638e-01,-9.934092643591881100e-02,-1.526527590292209524e+00,7.577167017041046559e-01
1.005570844631698657e+00,-1.009167100810732659e-01,-1.488777624274704836e+00,7.493130425259734162e-01
1.005570844631698657e+00,-1.009167100810732659e-01,-1.488777624274704836e+00,7.493130425259734162e-01
1.000983895385401112e+00,-1.003006641218266437e-01,-1.523455336707354224e+00,7.585844317743342113e-01
9.919886773413879588e-01,-9.990367718960142807e-02,-1.489067267591538624e+00,7.488027635381006020e-01
9.919886773413879588e-01,-9.990367718960142807e-02,-1.489067267591538624e+00,7.488027635381006020e-01
9.942823865028199704e-01,-9.998085026216012305e-02,-1.514916985498693469e+00,7.547478423120554947e-01
1.005981550410526282e+00,-1.003341372834665457e-01,-1.502088962779394965e+00,7.514058745393933370e-01
9.920747833190780574e-01,-9.924865316770092871e-02,-1.515368109842021971e+00,7.538620732151664061e-01
9.920747833190780574e-01,-9.924865316770092871e-02,-1.515368109842021971e+00,7.538620732151664061e-01
9.956740533001952054e-01,-9.972243868378866116e-02,-1.508837067304268809e+00,7.541921393510716554e-01
1.001872782174320964e+00,-1.002904311585873232e-01,-1.496519104987132254e+00,7.510563802087749652e-01
9.945608410504337416e-01,-9.950023823320160166e-02,-1.507616950894821617e+00,7.519016117317465220e-01
9.945608410504337416e-01,-9.950023823320160166e-02,-1.507616950894821617e+00,7.519016117317465220e-01
9.945608410504337416e-01,-9.950023823320160166e-02,-1.507616950894821617e+00,7.519016117317465220e-01
9.945608410504337416e-01,-9.950023823320160166e-02,-1.507616950894821617e+00,7.519016117317465220e-01
9.950132189672050709e-01,-1.002038992739474194e-01,-1.497546942597355768e+00,7.521263388780100589e-01
9.950132189672050709e-01,-1.002038992739474194e-01,-1.497546942597355768e+00,7.521263388780100589e-01
9.997622678255448925e-01,-1.005994284003261380e-01,-1.514985410961978474e+00,7.550265544666713291e-01
9.993349465932017672e-01,-1.010612716150609963e-01,-1.499450893687279907e+00,7.537834214067314909e-01
1.000748469353472281e+00,-9.973291693637387212e-02,-1.503628904955220502e+00,7.503497425045497771e-01
9.900682889263660025e-01,-1.005722193425761385e-01,-1.513255828851605589e+00,7.585218653875387407e-01
1.003346868053107244e+00,-1.007749518231844388e-01,-1.496774783040688339e+00,7.499742806134681583e-01
9.950951156783693907e-01,-1.006690120140543293e-01,-1.516321130744908041e+00,7.582746918238858491e-01
9.950951156783693907e-01,-1.006690120140543293e-01,-1.516321130744908041e+00,7.582746918238858491e-01
1.000933728634825881e+00,-1.009887850259719444e-01,-1.506474488312487647e+00,7.513818962625651299e-01
9.936354253933664671e-01,-1.004148087711720372e-01,-1.501096973460082085e+00,7.538974526315326274e-01
9.991553077319680343e-01,-1.005024373211107769e-01,-1.510055746994155790e+00,7.535355937838597029e-01
9.991553077319680343e-01,-1.005024373211107769e-01,-1.510055746994155790e+00,7.535355937838597029e-01
9.991553077319680343e-01,-1.005024373211107769e-01,-1.510055746994155790e+00,7.535355937838597029e-01
1.000277729674533767e+00,-1.008171640547882997e-01,-1.506530119863787487e+00,7.540408650628186438e-01
1.000277729674533767e+00,-1.008171640547882997e-01,-1.506530119863787487e+00,7.540408650628186438e-01
9.954435068525837593e-01,-9.967770828858504850e-02,-1.522649785330429717e+00,7.574807884494259014e-01
9.955340747224161735e-01,-9.997114649694952004e-02,-1.491944145222540374e+00,7.481578577902027183e-01
9.926700979536857705e-01,-9.994816469421165250e-02,-1.528283506309135786e+00,7.590940284913378910e-01
1.000132933595794249e+00,-9.980800693828405235e-02,-1.509177941321958372e+00,7.529309621574699074e-01
9.947564905681524072e-01,-9.972615297228394626e-02,-1.513927310627587897e+00,7.557658773113186124e-01
1.007372421753409464e+00,-1.004445135180128817e-01,-1.504266390719353863e+00,7.520844575591814074e-01
1.007372421753409464e+00,-1.004445135180128817e-01,-1.504266390719353863e+00,7.520844575591814074e-01
1.007372421753409464e+00,-1.004445135180128817e-01,-1.504266390719353863e+00,7.520844575591814074e-01
9.993420049870960220e-01,-9.997946355280534769e-02,-1.509690979579265235e+00,7.544738634089299678e-01
9.993420049870960220e-01,-9.997946355280534769e-02,-1.509690979579265235e+00,7.544738634089299678e-01
9.993420049870960220e-01,-9.997946355280534769e-02,-1.509690979579265235e+00,7.544738634089299678e-01
9.993420049870960220e-01,-9.997946355280534769e-02,-1.509690979579265235e+00,7.544738634089299678e-01
9.923591164322781433e-01,-9.988636873053330367e-02,-1.495946263078182348e+00,7.492416732641099530e-01
9.927228694425975775e-01,-9.952394811107756478e-02,-1.516466010839976786e+00,7.554776220438572665e-01
1.000915916282634877e+00,-1.005732233683431648e-01,-1.501169067748191477e+00,7.508306524710302021e-01
9.927439814362324366e-01,-9.966673125615546636e-02,-1.518638745270221246e+00,7.554627303444609865e-01
9.927439814362324366e-01,-9.966673125615546636e-02,-1.518638745270221246e+00,7.554627303444609865e-01
9.983852032592595016e-01,-9.978972529976157246e-02,-1.519161958338426599e+00,7.573880015718906789e-01
9.983852032592595016e-01,-9.978972529976157246e-02,-1.519161958338426599e+00,7.573880015718906789e-01
1.000093722983983469e+00,-1.006508404576275523e-01,-1.493054741446505629e+00,7.483996440486684332e-01
1.000093722983983469e+00,-1.006508404576275523e-01,-1.493054741446505629e+00,7.483996440486684332e-01
9.988217072649878681e-01,-1.003893299442792097e-01,-1.519228391145388324e+00,7.582631897064467941e-01
9.980523165714344502e-01,-1.003086413259633436e-01,-1.492326543050032539e+00,7.481266623645134173e-01
9.980523165714344502e-01,-1.003086413259633436e-01,-1.492326543050032539e+00,7.481266623645134173e-01
9.980523165714344502e-01,-1.003086413259633436e-01,-1.492326543050032539e+00,7.481266623645134173e-01
9.980523165714344502e-01,-1.003086413259633436e-01,-1.492326543050032539e+00,7.481266623645134173e-01
9.980523165714344502e-01,-1.003086413259633436e-01,-1.492326543050032539e+00,7.481266623645134173e-01
9.980523165714344502e-01,-1.003086413259633436e-01,-1.492326543050032539e+00,7.481266623645134173e-01
9.980523165714344502e-01,-1.003086413259633436e-01,-1.492326543050032539e+00,7.481266623645134173e-01
9.933746976043111854e-01,-9.963406447083662798e-02,-1.524169280112043889e+00,7.582340792608041058e-01
9.986491788491375088e-01,-9.933805796259430332e-02,-1.500845521496187329e+00,7.510640613302426161e-01
1.007866449927879104e+00,-1.003963884157006436e-01,-1.506913863420539235e+00,7.525127008033813958e-01
9.935983170610986903e-01,-9.998962721064852399e-02,-1.503871098604899537e+00,7.541232857967968828e-01
9.935983170610986903e-01,-9.998962721064852399e-02,-1.503871098604899537e+00,7.541232857967968828e-01
1.003778480901280634e+00,-1.004258188075396463e-01,-1.514338335025393167e+00,7.545053963076409076e-01
9.930278886219304768e-01,-9.974234850629001836e-02,-1.504770026715041453e+00,7.529113206699791228e-01
9.997609409369273559e-01,-9.975112826439279379e-02,-1.504383970973365292e+00,7.527034311604692274e-01
9.962264478011323421e-01,-9.917933112996395184e-02,-1.508276387208322689e+00,7.527795153571252840e-01
9.994375775952358820e-01,-9.963227940377587799e-02,-1.507523008543741661e+00,7.549504440280526696e-01
1.004288983826404857e+00,-1.010076424866416661e-01,-1.502029953227874470e+00,7.478072137657961749e-01
9.925915067696605698e-01,-1.003620797056999775e-01,-1.516884611112629733e+00,7.584636585952947430e-01
1.003489953264230738e+00,-9.985858843490631742e-02,-1.507417787648973606e+00,7.513990428890581219e-01
1.003489953264230738e+00,-9.985858843490631742e-02,-1.507417787648973606e+00,7.513990428890581219e-01
1.003489953264230738e+00,-9.985858843490631742e-02,-1.507417787648973606e+00,7.513990428890581219e-01
1.003489953264230738e+00,-9.985858843490631742e-02,-1.507417787648973606e+00,7.513990428890581219e-01
1.003489953264230738e+00,-9.985858843490631742e-02,-1.507417787648973606e+00,7.513990428890581219e-01
1.003489953264230738e+00,-9.985858843490631742e-02,-1.507417787648973606e+00,7.513990428890581219e-01
9.941442439247386575e-01,-1.002528586242468767e-01,-1.508150028816703125e+00,7.544129339582463789e-01
9.941442439247386575e-01,-1.002528586242468767e-01,-1.508150028816703125e+00,7.544129339582463789e-01
9.920323143809346433e-01,-1.001233751554748835e-01,-1.499201626252852249e+00,7.514731780883610046e-01
1.000677857445168462e+00,-1.003344439572055879e-01,-1.519534265394150152e+00,7.553683577290533080e-01
1.002680599223064961e+00,-1.007261408061971147e-01,-1.506892448797807260e+00,7.527626531422104694e-01
9.996917846249552264e-01,-1.000668753902298341e-01,-1.515661731805738821e+00,7.564890167185636116e-01
1.000113217883521255e+00,-1.004939452591183807e-01,-1.515743364607029964e+00,7.559047081390017908e-01
1.000113217883521255e+00,-1.004939452591183807e-01,-1.515743364607029964e+00,7.559047081390017908e-01
1.000113217883521255e+00,-1.004939452591183807e-01,-1.515743364607029964e+00,7.559047081390017908e-01
9.958536981070297278e-01,-9.973806346753430474e-02,-1.495725590546488792e+00,7.497087888895612728e-01
1.000831797849871529e+00,-1.009403541977673957e-01,-1.510657478082855221e+00,7.548692354153280215e-01
9.985709795180551795e-01,-9.965077694890407678e-02,-1.525433848516032365e+00,7.581437079665539480e-01
1.000663810003836307e+00,-1.008926829614621157e-01,-1.501743118152256251e+00,7.526592455086487110e-01
9.954989740982254087e-01,-9.939874410057869536e-02,-1.503030799405884910e+00,7.495088586113847207e-01
1.001439419752333304e+00,-9.965725541227385409e-02,-1.506152250636031642e+00,7.538639492879239956e-01
1.001439419752333304e+00,-9.965725541227385409e-02,-1.506152250636031642e+00,7.538639492879239956e-01
9.970661197023099609e-01,-1.001175982982392687e-01,-1.509702639285427361e+00,7.552108446228676941e-01
1.007686743791320616e+00,-1.008504704962968623e-01,-1.505891579092023758e+00,7.521674999681786655e-01
9.901726020557027885e-01,-9.932795312202020999e-02,-1.517304931200375462e+00,7.540625307127897248e-01
1.000187596363435460e+00,-1.002717063449409529e-01,-1.504796280661208074e+00,7.533944028124427428e-01
9.923256959737174476e-01,-9.992452276055061033e-02,-1.506540498450048782e+00,7.514192771134426962e-01
1.008901701582103350e+00,-1.008637765628951494e-01,-1.494254727480078815e+00,7.508640217628906877e-01
9.929621607237618663e-01,-9.996521795855364823e-02,-1.522236496519808524e+00,7.577336459586921924e-01
1.003346111942755581e+00,-1.003558669812697618e-01,-1.491258926224498405e+00,7.482708096203166681e-01
9.902151923514252996e-01,-9.951578679607191169e-02,-1.536234648575293127e+00,7.603326685777592742e-01
9.946899297635919401e-01,-1.000040164060820164e-01,-1.493131304104234891e+00,7.490894123614468825e-01
1.002495900170903287e+00,-1.007100178280098124e-01,-1.511677344227563946e+00,7.523897742635042851e-01
9.943272686191894083e-01,-1.002049605405199856e-01,-1.509808564035989953e+00,7.534451076744537179e-01
9.943272686191894083e-01,-1.002049605405199856e-01,-1.509808564035989953e+00,7.534451076744537179e-01
1.001486372025555349e+00,-1.008206716934360730e-01,-1.502220703080978659e+00,7.543340890331977633e-01
9.940585188691931640e-01,-1.000430448311739745e-01,-1.510301975916728656e+00,7.535561863051539744e-01
1.006658855551194165e+00,-1.008307933583179744e-01,-1.504642746576367651e+00,7.532043464603515037e-01
1.006658855551194165e+00,-1.008307933583179744e-01,-1.504642746576367651e+00,7.532043464603515037e-01
9.923089813612200327e-01,-9.966294300242334314e-02,-1.501524858458944234e+00,7.513117941523546062e-01
1.005799852892105717e+00,-1.004546453015763285e-01,-1.524164381261704060e+00,7.578968876880498584e-01
9.881171762631854039e-01,-9.979318363086318866e-02,-1.496263411140548616e+00,7.489794592740997015e-01
1.010933753385833578e+00,-1.010412367098415393e-01,-1.498983748590682952e+00,7.524887728596278968e-01
9.851750970513530881e-01,-9.922556446563472743e-02,-1.508283154262003878e+00,7.525361517319025806e-01
1.013148745299583542e+00,-1.010795968242998583e-01,-1.509002102960889324e+00,7.544101778058341923e-01
9.842419887514679555e-01,-9.893433787095884391e-02,-1.519992395476743585e+00,7.546243116330099143e-01
1.011290237799893799e+00,-1.007116294125948164e-01,-1.497012326676149696e+00,7.534302793215583716e-01
9.813272071486563997e-01,-9.933231690814602055e-02,-1.523375221933972679e+00,7.592762081130683960e-01
1.006917740114476434e+00,-1.006188922088965126e-01,-1.499824542227862656e+00,7.528025924451549056e-01
1.006917740114476434e+00,-1.006188922088965126e-01,-1.499824542227862656e+00,7.528025924451549056e-01
1.006917740114476434e+00,-1.006188922088965126e-01,-1.499824542227862656e+00,7.528025924451549056e-01
9.935661514511464620e-01,-9.985691076481977013e-02,-1.503885112858663664e+00,7.521748818084784682e-01
9.984858028498120319e-01,-1.001125732739895358e-01,-1.523279111240596340e+00,7.571506846924694889e-01
1.002288426128832288e+00,-1.008422073058288515e-01,-1.503561854310454970e+00,7.510327175729671900e-01
9.956248347991327741e-01,-9.982087443424790540e-02,-1.513647923816964225e+00,7.539564488867828151e-01
9.959446273674301686e-01,-9.977221376962475130e-02,-1.499588926029626013e+00,7.509066747301365030e-01
9.994319413129385543e-01,-1.005018914890720011e-01,-1.524301797575266626e+00,7.582401430946046350e-01
9.939172594094517477e-01,-9.946159293158057801e-02,-1.502623401058790886e+00,7.507471837899076794e-01
9.968229404639794566e-01,-1.004614787637419931e-01,-1.508979216606403995e+00,7.540206705615000171e-01
9.944167889800621385e-01,-9.962062217011855014e-02,-1.508862615441563415e+00,7.530490179121623884e-01
1.000952700656564831e+00,-1.004192540396602051e-01,-1.508663974535901842e+00,7.509502015113455053e-01
9.991744407460325661e-01,-1.001645098023840469e-01,-1.509542641368894600e+00,7.511171956764248758e-01
9.996486052965568581e-01,-1.004690612915150605e-01,-1.525124887342635294e+00,7.535871158567162276e-01
9.919574011672555036e-01,-1.000751854427143622e-01,-1.497371795536292849e+00,7.478813755585042022e-01
9.919574011672555036e-01,-1.000751854427143622e-01,-1.497371795536292849e+00,7.478813755585042022e-01
1.000247846439552557e+00,-1.006732964111102108e-01,-1.517535191472377809e+00,7.566642450275889997e-01
9.967920099444006476e-01,-1.009441559491754681e-01,-1.503976238785381447e+00,7.551175711503483878e-01
9.977283605400660838e-01,-1.005069014735548855e-01,-1.504794166108941900e+00,7.554830217449348684e-01
9.914383125500931815e-01,-9.953627275264201324e-02,-1.527204278346933286e+00,7.617421099318764099e-01
9.914383125500931815e-01,-9.953627275264201324e-02,-1.527204278346933286e+00,7.617421099318764099e-01
1.002525033697743817e+00,-9.989224600139362531e-02,-1.494632944121707663e+00,7.475528849965138445e-01
9.905185709812347472e-01,-9.972575724467394598e-02,-1.521031454449906839e+00,7.560262581840956342e-01
9.905185709812347472e-01,-9.972575724467394598e-02,-1.521031454449906839e+00,7.560262581840956342e-01
1.000692122112577076e+00,-1.004818902884428017e-01,-1.498715573958162128e+00,7.521964447440924184e-01
9.935453274856832495e-01,-9.958712447483294983e-02,-1.519362686074293700e+00,7.545494759245656713e-01
9.938028006382907398e-01,-9.987719675485309812e-02,-1.493389281814379688e+00,7.502150077669738071e-01
1.000350295510158860e+00,-9.987054070326023547e-02,-1.520934094028288719e+00,7.548268412081456935e-01
1.000350295510158860e+00,-9.987054070326023547e-02,-1.520934094028288719e+00,7.548268412081456935e-01
9.968250527471712585e-01,-1.004917361628663436e-01,-1.498481978470115994e+00,7.509583305964635525e-01
9.949389892184681283e-01,-9.944494674267539969e-02,-1.519901342077936146e+00,7.543208338548574865e-01
9.953739329132804681e-01,-9.983597455813149335e-02,-1.501266380235530828e+00,7.514564370719308828e-01
9.981406087958812900e-01,-1.001420702490409820e-01,-1.500654569306643982e+00,7.528311660205131428e-01
9.858400173739455541e-01,-9.968166789166175989e-02,-1.523723886241964420e+00,7.586857762616591172e-01
1.006899497386715803e+00,-1.005019786415650429e-01,-1.504800214224523813e+00,7.528401459658883299e-01
9.927697786428019144e-01,-9.972812857643349738e-02,-1.500544570915973042e+00,7.506948454905075785e-01
1.003865756946635823e+00,-1.005382057495846082e-01,-1.516802623042474929e+00,7.555799710724232510e-01
9.999328313672194435e-01,-1.002944867737217138e-01,-1.503074954533485830e+00,7.524207969464695722e-01
9.911380867110488602e-01,-1.000396484372874234e-01,-1.491835247079384530e+00,7.478815468020612034e-01
1.000603501899005154e+00,-9.988273131731786880e-02,-1.508407662790271608e+00,7.535697418941629255e-01
9.962970280360259334e-01,-1.000136533617134588e-01,-1.513463557127393111e+00,7.538114108527542712e-01
9.918392496062684582e-01,-9.984757579782524428e-02,-1.500407671795888742e+00,7.498662860901501581e-01
1.004259200649274986e+00,-1.001545278944371842e-01,-1.527580438555671050e+00,7.585495659635963506e-01
9.923885826478681116e-01,-1.001718460290619561e-01,-1.501028799293061544e+00,7.511609421618160587e-01
1.000199728218341244e+00,-9.991130300837468281e-02,-1.522426637026353502e+00,7.575343193317760626e-01
1.000199728218341244e+00,-9.991130300837468281e-02,-1.522426637026353502e+00,7.575343193317760626e-01
9.986439999465439588e-01,-1.006416503394906709e-01,-1.496979251739937178e+00,7.501851371655097189e-01
9.978055697263447099e-01,-1.003761158233174300e-01,-1.515487913146740917e+00,7.562106669194466058e-01
9.931420497192042784e-01,-1.001354379461855681e-01,-1.492693904777774749e+00,7.482631934842696175e-01
1.005171403021247079e+00,-1.009198490535148790e-01,-1.524954008769511482e+00,7.581625499766186937e-01
1.005171403021247079e+00,-1.009198490535148790e-01,-1.524954008769511482e+00,7.581625499766186937e-01
9.943000569631043062e-01,-1.004493391025290810e-01,-1.493495651536755675e+00,7.482309925213401769e-01
9.972626769130995550e-01,-1.004574094516305083e-01,-1.525858033226463961e+00,7.589182407346962700e-01
1.000091335433002993e+00,-1.004270413736269574e-01,-1.506961549285884105e+00,7.509732250141999410e-01
9.927317191234648064e-01,-9.965661827616828505e-02,-1.517830676576363391e+00,7.581365151162675620e-01
1.005538807937581325e+00,-9.995824424816582288e-02,-1.517280868234172519e+00,7.531133007023996795e-01
9.997918148097526547e-01,-1.003249020853887868e-01,-1.493816834269541927e+00,7.517315230418426530e-01
9.997918148097526547e-01,-1.003249020853887868e-01,-1.493816834269541927e+00,7.517315230418426530e-01
1.004949398947652117e+00,-1.001381870532808832e-01,-1.514906324438404894e+00,7.544501883985315072e-01
1.004949398947652117e+00,-1.001381870532808832e-01,-1.514906324438404894e+00,7.544501883985315072e-01
9.933433880053198495e-01,-9.942773872792520784e-02,-1.502488024729513372e+00,7.518327736220518087e-01
9.999764350659039458e-01,-9.999567210827857433e-02,-1.504630599603159036e+00,7.529958586355515182e-01
9.909677807819705642e-01,-9.911444789637605113e-02,-1.520839504028930422e+00,7.545512141451534704e-01
1.002831836078647676e+00,-1.003191725008630159e-01,-1.508908985920573542e+00,7.560818182454872582e-01
1.001109029881136259e+00,-1.003093945715621133e-01,-1.512804121880354069e+00,7.553650337711121932e-01
9.938368585138396272e-01,-9.950775477903722743e-02,-1.499591828853754416e+00,7.500095970741855744e-01
9.985149146068328374e-01,-1.001098235167043049e-01,-1.516242709577347192e+00,7.556968202128135914e-01
9.985149146068328374e-01,-1.001098235167043049e-01,-1.516242709577347192e+00,7.556968202128135914e-01
1.005863644998208128e+00,-1.006265663374966146e-01,-1.490123251611615407e+00,7.479418499956310695e-01
1.005863644998208128e+00,-1.006265663374966146e-01,-1.490123251611615407e+00,7.479418499956310695e-01
1.000007761522939909e+00,-1.000510196493928083e-01,-1.519554379068872141e+00,7.562450780592425703e-01
9.990025913574909211e-01,-9.994996972148741110e-02,-1.499790281513932344e+00,7.518348454511356582e-01
9.990025913574909211e-01,-9.994996972148741110e-02,-1.499790281513932344e+00,7.518348454511356582e-01
1.001388788445186195e+00,-1.003868386818361630e-01,-1.511958678216471341e+00,7.530246017773229994e-01
1.001388788445186195e+00,-1.003868386818361630e-01,-1.511958678216471341e+00,7.530246017773229994e-01
9.921348759227374137e-01,-9.988996940078637143e-02,-1.504089734575503989e+00,7.518532242397580889e-01
1.012644655512310976e+00,-1.010074895046263882e-01,-1.508288835038979370e+00,7.530462538321155419e-01
9.888152855671028529e-01,-9.954130677971374797e-02,-1.511075801620577863e+00,7.552134196136461863e-01
1.002551381536126662e+00,-1.007022600081127345e-01,-1.513934238424694101e+00,7.562620563289187414e-01
9.960786659081110050e-01,-1.001673088825201369e-01,-1.511913350859457772e+00,7.536603707560768362e-01
1.002199309674929539e+00,-1.006075327023546462e-01,-1.499452850555548222e+00,7.510811432943490518e-01
9.971209803668131810e-01,-1.001873467241340687e-01,-1.518431519956966236e+00,7.574687938704198764e-01
1.004276033943484192e+00,-9.997613319743395288e-02,-1.496673471322244930e+00,7.496904686216901981e-01
1.004276033943484192e+00,-9.997613319743395288e-02,-1.496673471322244930e+00,7.496904686216901981e-01
9.976725415810965281e-01,-9.945788891537966914e-02,-1.513655687469272593e+00,7.543249442733830357e-01
9.996786404943877047e-01,-9.967003065777368942e-02,-1.500043389795721271e+00,7.510105556755753975e-01
9.938960307897530821e-01,-9.939913302703749787e-02,-1.505490132160011596e+00,7.536028959672798067e-01
1.002713264662112191e+00,-9.964734828756403873e-02,-1.513223140047498472e+00,7.532025470246468402e-01
9.903751220826492174e-01,-1.003910917378937895e-01,-1.502837432015223795e+00,7.534178953803488676e-01
1.009113921740032227e+00,-1.006668267161607566e-01,-1.499752368745477238e+00,7.506327634531084758e-01
9.853763445040210067e-01,-9.921545587517138776e-02,-1.512197697869407609e+00,7.539826124826681797e-01
1.007307460655800568e+00,-1.008992546656118927e-01,-1.504392921402907035e+00,7.542356675182543269e-01
9.957342081344711104e-01,-9.982007706516549117e-02,-1.502819020516698689e+00,7.484307129235421296e-01
1.001978574875803663e+00,-1.012031670743624157e-01,-1.506831699244983946e+00,7.546594760988110107e-01
9.922901105849093462e-01,-1.000385400525777291e-01,-1.517613721565155283e+00,7.545330644336410986e-01
9.959091800656917348e-01,-1.003966635529012219e-01,-1.502826068625987110e+00,7.510545198587369464e-01
