9.981614351272583008e-01,-1.001625880599021912e-01,-1.508766174316406250e+00,7.535048127174377441e-01
9.981614351272583008e-01,-1.001625880599021912e-01,-1.508766174316406250e+00,7.535048127174377441e-01
9.981614351272583008e-01,-1.001625880599021912e-01,-1.508766174316406250e+00,7.535048127174377441e-01
9.981614351272583008e-01,-1.001625880599021912e-01,-1.508766174316406250e+00,7.535048127174377441e-01
9.949810585323564105e-01,-9.991045720170795008e-02,-1.514283677005623829e+00,7.550780209289433831e-01
9.972777220177997393e-01,-9.971406689852842231e-02,-1.517523457470146386e+00,7.560449231604066123e-01
9.972777220177997393e-01,-9.971406689852842231e-02,-1.517523457470146386e+00,7.560449231604066123e-01
9.992686086729313244e-01,-1.000842537398041326e-01,-1.506031969230960055e+00,7.530857864733573326e-01
9.992686086729313244e-01,-1.000842537398041326e-01,-1.506031969230960055e+00,7.530857864733573326e-01
9.992686086729313244e-01,-1.000842537398041326e-01,-1.506031969230960055e+00,7.530857864733573326e-01
1.001256006307209789e+00,-1.005187796482148455e-01,-1.514348482368987669e+00,7.551467458994525206e-01
9.953857320466258374e-01,-9.984058244929318315e-02,-1.519591441013286470e+00,7.550340510838763342e-01
9.981712887381186672e-01,-1.003979740408710436e-01,-1.513015267322142865e+00,7.533420368669956346e-01
9.945449177262337681e-01,-9.965589199718258295e-02,-1.509396355404440060e+00,7.522916430194741544e-01
9.948928561788616953e-01,-9.925976935654652611e-02,-1.509551617441463822e+00,7.524221165808482326e-01
9.959057775892976583e-01,-9.986111460024525710e-02,-1.515775947739303575e+00,7.541451797181693006e-01
9.959057775892976583e-01,-9.986111460024525710e-02,-1.515775947739303575e+00,7.541451797181693006e-01
9.904919584479604522e-01,-9.964905227668190146e-02,-1.509621256451890936e+00,7.524039438361748156e-01
9.998551664883797985e-01,-1.003627539427441456e-01,-1.505841148510699501e+00,7.525105739967961060e-01
9.964943303125380902e-01,-1.003311623319099316e-01,-1.508370838172977235e+00,7.528313714569478954e-01
1.001877271351090393e+00,-1.007401076223754105e-01,-1.509704038903977752e+00,7.527980024314284702e-01
1.007702159007116238e+00,-1.011676058358814412e-01,-1.516848625047346966e+00,7.543316311627791260e-01
9.952683205898833485e-01,-1.001969629448860311e-01,-1.503950094866642662e+00,7.502025870871209534e-01
1.004384890024516030e+00,-9.995741329705722100e-02,-1.502101909010591818e+00,7.518634534962144178e-01
9.873032840424534884e-01,-1.001161625898618901e-01,-1.509009041405377616e+00,7.528546110995543161e-01
1.002468049241184600e+00,-1.000388477943357224e-01,-1.494695608020539357e+00,7.513868370804099861e-01
1.001413555217186779e+00,-1.012475594233069043e-01,-1.502011282043767881e+00,7.514198122560512560e-01
1.002320435017131750e+00,-1.003238213075321739e-01,-1.501273179772194100e+00,7.520256219923430185e-01
1.002388684751994496e+00,-1.003892660058479519e-01,-1.502363668617695769e+00,7.515272605356634328e-01
9.960466352161538861e-01,-1.005614742547484425e-01,-1.510764419424679650e+00,7.549508013200804113e-01
9.960466352161538861e-01,-1.005614742547484425e-01,-1.510764419424679650e+00,7.549508013200804113e-01
9.960466352161538861e-01,-1.005614742547484425e-01,-1.510764419424679650e+00,7.549508013200804113e-01
9.974928443150450352e-01,-1.006082726606878225e-01,-1.511522951755146282e+00,7.541680483565551540e-01
9.966617887752384775e-01,-1.005750081613276115e-01,-1.516219369542818551e+00,7.550734333096427164e-01
9.873910821956548567e-01,-9.892798333004022837e-02,-1.517024759125147559e+00,7.547136936525379314e-01
1.003875761567697644e+00,-1.001684236662305771e-01,-1.510699561096409127e+00,7.540486893503498544e-01
1.003875761567697644e+00,-1.001684236662305771e-01,-1.510699561096409127e+00,7.540486893503498544e-01
1.003875761567697644e+00,-1.001684236662305771e-01,-1.510699561096409127e+00,7.540486893503498544e-01
1.003875761567697644e+00,-1.001684236662305771e-01,-1.510699561096409127e+00,7.540486893503498544e-01
9.997284554920153887e-01,-1.001234653459759649e-01,-1.506270985897774750e+00,7.535724908788287157e-01
1.003343442548092934e+00,-1.002396486281868504e-01,-1.498818943303338092e+00,7.510842455233267545e-01
1.003077594256375660e+00,-1.002690665952537113e-01,-1.498157065407637045e+00,7.514380947510068687e-01
9.991954732440488929e-01,-9.994596713171571833e-02,-1.496319804461858860e+00,7.490879077407391895e-01
1.002637312386934321e+00,-1.004963801184593081e-01,-1.498703106382726968e+00,7.490764178054005740e-01
1.002637312386934321e+00,-1.004963801184593081e-01,-1.498703106382726968e+00,7.490764178054005740e-01
9.979844161208900610e-01,-9.988644824063044880e-02,-1.502140477716746414e+00,7.499146967413317100e-01
1.003784430830076735e+00,-1.005521957689560764e-01,-1.511674163325415154e+00,7.560879825318548297e-01
1.008182062330679196e+00,-1.007512517040435873e-01,-1.511242053910536232e+00,7.538998319228650269e-01
9.944528021910797877e-01,-9.987016148134442162e-02,-1.511452568065806412e+00,7.538681546698047242e-01
9.944528021910797877e-01,-9.987016148134442162e-02,-1.511452568065806412e+00,7.538681546698047242e-01
9.944528021910797877e-01,-9.987016148134442162e-02,-1.511452568065806412e+00,7.538681546698047242e-01
9.944528021910797877e-01,-9.987016148134442162e-02,-1.511452568065806412e+00,7.538681546698047242e-01
1.003043609085600529e+00,-1.007028267174993469e-01,-1.518181904288504525e+00,7.562007795283307576e-01
1.003043609085600529e+00,-1.007028267174993469e-01,-1.518181904288504525e+00,7.562007795283307576e-01
9.962048343681432216e-01,-9.947590675585732400e-02,-1.519768099302915232e+00,7.550450107152395507e-01
1.002740431160948242e+00,-9.977140515900974338e-02,-1.530234112041337857e+00,7.575486936386606196e-01
1.002419073889116774e+00,-1.005254051512125407e-01,-1.516256436008759145e+00,7.543239252297423425e-01
9.956354169538321752e-01,-1.001021565832610205e-01,-1.518590420000865304e+00,7.558496255375916073e-01
9.956354169538321752e-01,-1.001021565832610205e-01,-1.518590420000865304e+00,7.558496255375916073e-01
9.977990719032496791e-01,-1.002295948640004319e-01,-1.512011495640587233e+00,7.538395061419855825e-01
1.003147771322207893e+00,-1.005404623057273156e-01,-1.513706539248332206e+00,7.553185599326143196e-01
9.891371737617112858e-01,-9.974612986819561544e-02,-1.507531889336441999e+00,7.545258679811703839e-01
9.917826589203908583e-01,-9.960388300007182172e-02,-1.510385685568027547e+00,7.548736956805438547e-01
1.000784447822755219e+00,-1.008624401472608401e-01,-1.503789905555161788e+00,7.551649341030122198e-01
9.943576850199256079e-01,-9.997325093882941660e-02,-1.510653224417766172e+00,7.561099153072133872e-01
9.937208151885820184e-01,-1.000559514460720029e-01,-1.512406374158065780e+00,7.576636303621950841e-01
9.935410360181595735e-01,-1.004091162553929911e-01,-1.513277591203513683e+00,7.575551879081958706e-01
9.891791058793621971e-01,-9.972387806125178333e-02,-1.503177611601290042e+00,7.535703768583766893e-01
9.891791058793621971e-01,-9.972387806125178333e-02,-1.503177611601290042e+00,7.535703768583766893e-01
9.891791058793621971e-01,-9.972387806125178333e-02,-1.503177611601290042e+00,7.535703768583766893e-01
9.940291931236696632e-01,-1.001458651224346741e-01,-1.493646766612073851e+00,7.506526415520798912e-01
1.004670572222114755e+00,-1.009321882689165062e-01,-1.497353373284861622e+00,7.508059447770097927e-01
1.003838256145520802e+00,-1.004890287494950990e-01,-1.501327386172774947e+00,7.508418841827839696e-01
1.005072715087404811e+00,-1.008935793765574906e-01,-1.494190370040143101e+00,7.499376052868754750e-01
1.005072715087404811e+00,-1.008935793765574906e-01,-1.494190370040143101e+00,7.499376052868754750e-01
1.005072715087404811e+00,-1.008935793765574906e-01,-1.494190370040143101e+00,7.499376052868754750e-01
1.010761261831024660e+00,-1.005922422557034013e-01,-1.486499716980614005e+00,7.500562143455713482e-01
1.002227579733121932e+00,-1.012053545706610852e-01,-1.489113318888367177e+00,7.496116980408670250e-01
9.960539207356382541e-01,-9.990201431995153480e-02,-1.488277098666584086e+00,7.503944434700855481e-01
9.960539207356382541e-01,-9.990201431995153480e-02,-1.488277098666584086e+00,7.503944434700855481e-01
9.960539207356382541e-01,-9.990201431995153480e-02,-1.488277098666584086e+00,7.503944434700855481e-01
9.960539207356382541e-01,-9.990201431995153480e-02,-1.488277098666584086e+00,7.503944434700855481e-01
9.960539207356382541e-01,-9.990201431995153480e-02,-1.488277098666584086e+00,7.503944434700855481e-01
1.007982598679579400e+00,-1.015901858452940287e-01,-1.487249618622110026e+00,7.518972590271408851e-01
1.000586442887732908e+00,-1.012366941343858240e-01,-1.488218184800364829e+00,7.522175978782773553e-01
1.005606077751268090e+00,-1.005118546636841470e-01,-1.497723185209721031e+00,7.528827986524720961e-01
1.005606077751268090e+00,-1.005118546636841470e-01,-1.497723185209721031e+00,7.528827986524720961e-01
1.000553992833633998e+00,-1.010559906239969358e-01,-1.514668712197780209e+00,7.577397188053200949e-01
1.007007295235954780e+00,-9.990327200268414587e-02,-1.502360986950732391e+00,7.539348471585051170e-01
9.976768039689292156e-01,-1.012515695766291607e-01,-1.501940697632982769e+00,7.520795812699707650e-01
9.970955681184681119e-01,-9.916637836904933223e-02,-1.499120770930330249e+00,7.516256972420569671e-01
9.970955681184681119e-01,-9.916637836904933223e-02,-1.499120770930330249e+00,7.516256972420569671e-01
1.009150565872807270e+00,-1.018159390176281570e-01,-1.502185302636973585e+00,7.507468154905635460e-01
9.952784477005549579e-01,-9.894748299656301593e-02,-1.497897900915928338e+00,7.492816211873579713e-01
1.005567749233166053e+00,-1.016228468043068184e-01,-1.502643378160648080e+00,7.516467219835416547e-01
1.000844483035552734e+00,-1.002301838304611586e-01,-1.505110609493585994e+00,7.518703481803102884e-01
1.000844483035552734e+00,-1.002301838304611586e-01,-1.505110609493585994e+00,7.518703481803102884e-01
9.912370582121515783e-01,-9.915205933654684667e-02,-1.509812279239957311e+00,7.514142519954329913e-01
1.003346414248761587e+00,-1.007002480060934652e-01,-1.503850246576211136e+00,7.515291411476409111e-01
9.999331864234575207e-01,-1.005707834684591712e-01,-1.499571038214208896e+00,7.520502512158958597e-01
1.000211193450316172e+00,-1.005637409134550186e-01,-1.497011568664570635e+00,7.506298801859416781e-01
9.988170414899438798e-01,-1.001978574401580918e-01,-1.491725786685287325e+00,7.490715811306947192e-01
1.003398346633103788e+00,-1.007122070645398992e-01,-1.489746371902991307e+00,7.484885375871128677e-01
1.000114342557482772e+00,-9.997495412577961371e-02,-1.498235878622370842e+00,7.522707639720140893e-01
9.943471035665154556e-01,-9.956521302438807453e-02,-1.503837573186871168e+00,7.529310052778201978e-01
9.982639551417362700e-01,-1.000120649039288601e-01,-1.501070481377488663e+00,7.527276464388020782e-01
9.936981369347600568e-01,-9.988533652700608279e-02,-1.517123802568489888e+00,7.559397092975300714e-01
9.920845699104477999e-01,-9.981794886441400227e-02,-1.515925095562740577e+00,7.570209259856449657e-01
9.932441465978573136e-01,-9.980122337066897609e-02,-1.523781883480899824e+00,7.580091905541835873e-01
9.917705645337464571e-01,-9.965934961880831833e-02,-1.519969771468699937e+00,7.568562266721788889e-01
9.897351188755095786e-01,-9.988991509535864732e-02,-1.515423328485904220e+00,7.585090882605185492e-01
9.951414088667130953e-01,-9.972036599189831874e-02,-1.512876085256666947e+00,7.573744573214601372e-01
1.007268062597432401e+00,-1.012136698234780835e-01,-1.513198373406704711e+00,7.562095746048403955e-01
9.929946748963565106e-01,-9.949262006003566083e-02,-1.509489234352467735e+00,7.540756049560142227e-01
1.007225919306655948e+00,-1.008906696711788092e-01,-1.513917852074120107e+00,7.551092349387600322e-01
1.002190639645040182e+00,-1.003053905339755109e-01,-1.500194749351973389e+00,7.516399746890567446e-01
1.002190639645040182e+00,-1.003053905339755109e-01,-1.500194749351973389e+00,7.516399746890567446e-01
9.986944136709412501e-01,-1.002546404708156286e-01,-1.502501632349307004e+00,7.517807512911506285e-01
9.993002266420192292e-01,-9.987963593752592628e-02,-1.511885336540837121e+00,7.552212743893931268e-01
9.993002266420192292e-01,-9.987963593752592628e-02,-1.511885336540837121e+00,7.552212743893931268e-01
1.006502186716355274e+00,-1.010985126866156131e-01,-1.520819536649019144e+00,7.580385837086127676e-01
1.003129522328105594e+00,-1.003835458415972548e-01,-1.518270153056404448e+00,7.556203340106147914e-01
9.939855926297187505e-01,-9.987165681666460015e-02,-1.510556998454652744e+00,7.544974323883254508e-01
9.997892054740752377e-01,-1.001871788313312833e-01,-1.522026961184750782e+00,7.570759808650395772e-01
9.997892054740752377e-01,-1.001871788313312833e-01,-1.522026961184750782e+00,7.570759808650395772e-01
9.978154908558943825e-01,-1.004824610607214092e-01,-1.509665144055197583e+00,7.539435483561610640e-01
1.002100505345751014e+00,-1.002250704252505425e-01,-1.510479836560457478e+00,7.565544787095929147e-01
9.936897767858497987e-01,-1.001354093940354795e-01,-1.514938771494998226e+00,7.540617850789539389e-01
9.994328482074308351e-01,-9.975828331707164986e-02,-1.516711116677142090e+00,7.555336101480722988e-01
9.932169883366185337e-01,-1.004160037782066556e-01,-1.506818355373042095e+00,7.549820005640026643e-01
9.995168385878198114e-01,-1.000287310523898243e-01,-1.510554237295604452e+00,7.562245697324472271e-01
9.861190922825796568e-01,-9.983035770006622178e-02,-1.508513438888096081e+00,7.542504336310137392e-01
9.957615912186961182e-01,-1.001202316912961215e-01,-1.509558216487592031e+00,7.539463145250319132e-01
1.008304453810147105e+00,-1.012954756563237968e-01,-1.503884953103036937e+00,7.533578185897333857e-01
1.008304453810147105e+00,-1.012954756563237968e-01,-1.503884953103036937e+00,7.533578185897333857e-01
9.915165828188801100e-01,-1.002239888112584631e-01,-1.506294700199696912e+00,7.538600397427002164e-01
1.009346110722421752e+00,-1.013812004309013887e-01,-1.507860969482798463e+00,7.559399848637538000e-01
1.000733990716175192e+00,-1.009825063134005135e-01,-1.492901887081782508e+00,7.515367607524365834e-01
1.002635010638531776e+00,-1.002516395266257326e-01,-1.502691099020976306e+00,7.518115804323765028e-01
9.984155197671824578e-01,-9.980531360529788787e-02,-1.501744718139684798e+00,7.492721456059630025e-01
9.984155197671824578e-01,-9.980531360529788787e-02,-1.501744718139684798e+00,7.492721456059630025e-01
1.006399979183423499e+00,-1.006456285416634511e-01,-1.502821004792384230e+00,7.497572759245429985e-01
1.000417810320817225e+00,-1.003063222185794079e-01,-1.501224997862072641e+00,7.496667433805498382e-01
9.987723113333472069e-01,-1.002065741070825300e-01,-1.497095006709606935e+00,7.489115320083775673e-01
9.987723113333472069e-01,-1.002065741070825300e-01,-1.497095006709606935e+00,7.489115320083775673e-01
9.935169109723153147e-01,-9.967891779396226282e-02,-1.500379188508326633e+00,7.500823610693214682e-01
9.935169109723153147e-01,-9.967891779396226282e-02,-1.500379188508326633e+00,7.500823610693214682e-01
9.935169109723153147e-01,-9.967891779396226282e-02,-1.500379188508326633e+00,7.500823610693214682e-01
1.000919552227176990e+00,-9.995747803285368049e-02,-1.488941845787744578e+00,7.481357009184642637e-01
1.001156588465692110e+00,-9.996889361885474834e-02,-1.498682616035947879e+00,7.510237233598712203e-01
1.004827263481180788e+00,-1.003804697432190141e-01,-1.497829333397726614e+00,7.522896300346225695e-01
9.911894094268491884e-01,-9.982285003194102391e-02,-1.495598933689561871e+00,7.523268129610086730e-01
9.911894094268491884e-01,-9.982285003194102391e-02,-1.495598933689561871e+00,7.523268129610086730e-01
1.000758973897063697e+00,-1.007309368888098938e-01,-1.498349692999190852e+00,7.520872882979551255e-01
9.947015834782515498e-01,-1.008228815217861452e-01,-1.504960299429905612e+00,7.543950149493073853e-01
9.969457718604756158e-01,-1.007459914203397561e-01,-1.507029234091294745e+00,7.548591666461695882e-01
1.004880337857860351e+00,-1.005408056621438506e-01,-1.510635852235985510e+00,7.546542586229563199e-01
1.004880337857860351e+00,-1.005408056621438506e-01,-1.510635852235985510e+00,7.546542586229563199e-01
1.004880337857860351e+00,-1.005408056621438506e-01,-1.510635852235985510e+00,7.546542586229563199e-01
1.006508225383689004e+00,-1.007446733118927823e-01,-1.502631012832235324e+00,7.508110652303752186e-01
1.001157125110578860e+00,-1.003772601414297805e-01,-1.508851246348512198e+00,7.527253768019679381e-01
9.951703792976085428e-01,-1.002188983261588090e-01,-1.484802272843945836e+00,7.470140456270346618e-01
1.002852133543058244e+00,-1.006667979719527151e-01,-1.491067934684148222e+00,7.518754978812649536e-01
9.980651672282609965e-01,-1.008292279239770967e-01,-1.491310629488846740e+00,7.511281158147719017e-01
9.946322570497974080e-01,-9.965636692383214590e-02,-1.500101532641503921e+00,7.533632455329146715e-01
9.946322570497974080e-01,-9.965636692383214590e-02,-1.500101532641503921e+00,7.533632455329146715e-01
1.000519644818840259e+00,-1.003899673875508630e-01,-1.505571556353222817e+00,7.541433265896245741e-01
9.977764356152061254e-01,-1.003564796896908862e-01,-1.496329587292741792e+00,7.523026968447459328e-01
9.894482488037699142e-01,-1.000268083628551852e-01,-1.501626371360514467e+00,7.539281487201983101e-01
1.006153056815443980e+00,-1.008554899725104259e-01,-1.511597382517726018e+00,7.567714330182925275e-01
9.979429149296737966e-01,-1.001845219743693755e-01,-1.513505063900222547e+00,7.574080703876693299e-01
1.001598225238147011e+00,-1.002185770579754331e-01,-1.516472714427195223e+00,7.576469238426855046e-01
9.983058864401140875e-01,-1.000681161764390287e-01,-1.513019471382233139e+00,7.566826881401179650e-01
9.994758635579567008e-01,-1.003464865528507499e-01,-1.511191168334209634e+00,7.579601473001646994e-01
9.956163666895756492e-01,-1.002731802863808530e-01,-1.508093373201162768e+00,7.579580418702065447e-01
1.001720276652615427e+00,-1.008731049232003685e-01,-1.511311254210756738e+00,7.568470805360721920e-01
1.001720276652615427e+00,-1.008731049232003685e-01,-1.511311254210756738e+00,7.568470805360721920e-01
9.998500240564763830e-01,-1.007672899456999727e-01,-1.515181113893760534e+00,7.562787028396332767e-01
9.921720160664703192e-01,-9.975478271987392453e-02,-1.514038387139861941e+00,7.559802724350938030e-01
9.962776518395414227e-01,-1.000734066044336040e-01,-1.513925420918396325e+00,7.555217010042564185e-01
1.000147237806439104e+00,-1.002854084534062079e-01,-1.512422001079256839e+00,7.548877296299272288e-01
1.002067639076151595e+00,-1.005841353520489506e-01,-1.515243158843934568e+00,7.560076047757604556e-01
1.002067639076151595e+00,-1.005841353520489506e-01,-1.515243158843934568e+00,7.560076047757604556e-01
1.002067639076151595e+00,-1.005841353520489506e-01,-1.515243158843934568e+00,7.560076047757604556e-01
1.002067639076151595e+00,-1.005841353520489506e-01,-1.515243158843934568e+00,7.560076047757604556e-01
1.002067639076151595e+00,-1.005841353520489506e-01,-1.515243158843934568e+00,7.560076047757604556e-01
9.893316839223300629e-01,-9.895872458296317564e-02,-1.508027415848496311e+00,7.530251165762996690e-01
1.000138774042282241e+00,-1.006441590734862557e-01,-1.505998606471102619e+00,7.531105050078603647e-01
9.944612467387873300e-01,-9.987325646809062929e-02,-1.501690659849853837e+00,7.504347602552278174e-01
9.944612467387873300e-01,-9.987325646809062929e-02,-1.501690659849853837e+00,7.504347602552278174e-01
9.938628569275169689e-01,-9.937656389990089101e-02,-1.502305083673862729e+00,7.507287708696347428e-01
9.938628569275169689e-01,-9.937656389990089101e-02,-1.502305083673862729e+00,7.507287708696347428e-01
9.962962856247929988e-01,-1.001310062174604054e-01,-1.504513932424025757e+00,7.525532936027543585e-01
9.980830243877782948e-01,-1.004183583939355778e-01,-1.505996819071391934e+00,7.526552193285231951e-01
9.980830243877782948e-01,-1.004183583939355778e-01,-1.505996819071391934e+00,7.526552193285231951e-01
1.005453463274105008e+00,-1.003552007957981274e-01,-1.506794837708689272e+00,7.530702222689655834e-01
1.000975425838853017e+00,-9.991306148776370188e-02,-1.497148039162603528e+00,7.501594408691862892e-01
9.960797514734509583e-01,-9.929428280532787143e-02,-1.498461385952078118e+00,7.491978760530305648e-01
9.960797514734509583e-01,-9.929428280532787143e-02,-1.498461385952078118e+00,7.491978760530305648e-01
9.932845777269795340e-01,-9.913066703788663003e-02,-1.507464007602401956e+00,7.513901564432343694e-01
9.944947095828330363e-01,-9.991452660888693049e-02,-1.505082086954247389e+00,7.512976802365316509e-01
9.929665762472079660e-01,-9.965177045377034137e-02,-1.508987822463940143e+00,7.529631695852244677e-01
9.929665762472079660e-01,-9.965177045377034137e-02,-1.508987822463940143e+00,7.529631695852244677e-01
9.977730293466459122e-01,-1.002408763481851678e-01,-1.510912785700110561e+00,7.529859970658090429e-01
9.977730293466459122e-01,-1.002408763481851678e-01,-1.510912785700110561e+00,7.529859970658090429e-01
1.006176097985459705e+00,-1.010034819616376506e-01,-1.507764305580494790e+00,7.531783307929824645e-01
1.002191543998095513e+00,-1.007929689973969395e-01,-1.505065397086941203e+00,7.540667545474630806e-01
1.008964637349788251e+00,-1.008328939079144448e-01,-1.505304129484133835e+00,7.556177855668091414e-01
9.894132268903492733e-01,-9.989986280976818900e-02,-1.517025498351868729e+00,7.561221821635611962e-01
9.894132268903492733e-01,-9.989986280976818900e-02,-1.517025498351868729e+00,7.561221821635611962e-01
1.002055575409715571e+00,-1.001833551467415789e-01,-1.512032754581314808e+00,7.561419138788896266e-01
1.004343781920294276e+00,-1.004263617419773880e-01,-1.514211159328478162e+00,7.551221310519471430e-01
1.004343781920294276e+00,-1.004263617419773880e-01,-1.514211159328478162e+00,7.551221310519471430e-01
1.003424777525881773e+00,-1.008620451855672950e-01,-1.501521433541614714e+00,7.513922788017947108e-01
9.957986127656046627e-01,-9.960694933964919784e-02,-1.514340268588015848e+00,7.538622513298594008e-01
9.993333805911639445e-01,-1.008242623432584473e-01,-1.500856930565991121e+00,7.546432179377035032e-01
1.005379831230872600e+00,-1.005677751026265304e-01,-1.516466470047301174e+00,7.582481516475250150e-01
1.007051588641214801e+00,-1.008588188284451070e-01,-1.522658031533493439e+00,7.581057416117872316e-01
9.915406772777118904e-01,-9.899411988957103337e-02,-1.522259921995971599e+00,7.574285743958933947e-01
9.967671826979584981e-01,-1.003952213832967066e-01,-1.519137739155584477e+00,7.552641011236754798e-01
1.002670900117798247e+00,-1.002290716896063472e-01,-1.513140039887939992e+00,7.541266722564141656e-01
9.962712145005835351e-01,-1.000484103635982669e-01,-1.512846605017617252e+00,7.525162140148359269e-01
9.994149591176513248e-01,-9.991170870512643132e-02,-1.511342524796420062e+00,7.526755600768776366e-01
1.000309284748408745e+00,-1.001731782377799362e-01,-1.518111683390864108e+00,7.536144063191106968e-01
1.000371197110421218e+00,-9.961415458549315038e-02,-1.516220476676668261e+00,7.540525607966488408e-01
9.977126796859727698e-01,-1.004343185820493062e-01,-1.518473797381382884e+00,7.560264900616656680e-01
9.987651521619174133e-01,-1.002919859309618911e-01,-1.504553447084080675e+00,7.527494044835444376e-01
9.987651521619174133e-01,-1.002919859309618911e-01,-1.504553447084080675e+00,7.527494044835444376e-01
9.987651521619174133e-01,-1.002919859309618911e-01,-1.504553447084080675e+00,7.527494044835444376e-01
1.001615153714971340e+00,-1.007896426278743762e-01,-1.497645469735184642e+00,7.528125958726298306e-01
1.001615153714971340e+00,-1.007896426278743762e-01,-1.497645469735184642e+00,7.528125958726298306e-01
9.928477234587527178e-01,-1.002205065403217049e-01,-1.504627413268571079e+00,7.533101455993300721e-01
1.008787481951708198e+00,-1.011750366956764569e-01,-1.503667639682821022e+00,7.531458921908777970e-01
1.002637465804923966e+00,-1.008438813017688285e-01,-1.497055627654808152e+00,7.493045703886480613e-01
9.966477584847668325e-01,-1.003915114513535684e-01,-1.494244275975816549e+00,7.494936883927716398e-01
9.966477584847668325e-01,-1.003915114513535684e-01,-1.494244275975816549e+00,7.494936883927716398e-01
9.983028650745356947e-01,-1.004892253018715709e-01,-1.494990724229955381e+00,7.494788133475188685e-01
9.935705020706312451e-01,-9.999912972641812614e-02,-1.510992490257535792e+00,7.547484206038784782e-01
1.000663696097024102e+00,-1.002944455741918844e-01,-1.515047079241098160e+00,7.554431525075816500e-01
1.003136232022961760e+00,-1.002319617678559122e-01,-1.504113246583568486e+00,7.513808264455563712e-01
9.930849559945487126e-01,-9.960823246799066499e-02,-1.502094163233041790e+00,7.506396371948030888e-01
9.931051236615190403e-01,-1.003112863301051788e-01,-1.505238865400621906e+00,7.523282889491921255e-01
9.969006966612832255e-01,-1.005741770997694851e-01,-1.503095449422969576e+00,7.529040656847419966e-01
9.969006966612832255e-01,-1.005741770997694851e-01,-1.503095449422969576e+00,7.529040656847419966e-01
9.909933664729142500e-01,-1.004194320456638784e-01,-1.502900359543993813e+00,7.505787178072337307e-01
9.909933664729142500e-01,-1.004194320456638784e-01,-1.502900359543993813e+00,7.505787178072337307e-01
9.979763808238102385e-01,-1.010808519636179487e-01,-1.492347568514867939e+00,7.486548123937420973e-01
9.919046632026630173e-01,-9.987357580966543802e-02,-1.499894224592902114e+00,7.501740740712952160e-01
9.936058439282923205e-01,-1.000536368419954747e-01,-1.498555379350365646e+00,7.504046692926845674e-01
9.936058439282923205e-01,-1.000536368419954747e-01,-1.498555379350365646e+00,7.504046692926845674e-01
1.002124124139333938e+00,-9.965687701089025186e-02,-1.501371462249771360e+00,7.491493822561193783e-01
9.984237677004227374e-01,-1.002555207569773982e-01,-1.504962004999419900e+00,7.506646450494914857e-01
1.002006134972196483e+00,-1.004843085106938844e-01,-1.505361890955298376e+00,7.510308806765004785e-01
1.002033854680658198e+00,-1.001586116931349191e-01,-1.504801685189366411e+00,7.522046755394311557e-01
9.955172844841723157e-01,-1.004460379204619724e-01,-1.503123532395626460e+00,7.524184804547682237e-01
1.000448177606459543e+00,-1.000701267026125468e-01,-1.517514855578438571e+00,7.580466587171449389e-01
9.920795880337118788e-01,-1.001185115597039293e-01,-1.506852427857592991e+00,7.526230722076086010e-01
9.920795880337118788e-01,-1.001185115597039293e-01,-1.506852427857592991e+00,7.526230722076086010e-01
1.001148541960194871e+00,-9.995275932599673174e-02,-1.506520782984839935e+00,7.530065034248401012e-01
1.001148541960194871e+00,-9.995275932599673174e-02,-1.506520782984839935e+00,7.530065034248401012e-01
9.987869859128634120e-01,-1.005047709962857416e-01,-1.493893209893421448e+00,7.507388142356742344e-01
1.001017910426871049e+00,-1.005783037809272196e-01,-1.504075397282589988e+00,7.535648795982908821e-01
1.001017910426871049e+00,-1.005783037809272196e-01,-1.504075397282589988e+00,7.535648795982908821e-01
1.006144812383202414e+00,-1.005348561060289830e-01,-1.497336501021462540e+00,7.519968581365250593e-01
1.003411892337234379e+00,-1.004865740423205173e-01,-1.500349373913309137e+00,7.530726491166123138e-01
1.002064477335816051e+00,-1.001618272755200739e-01,-1.501343824566020002e+00,7.542932843140592869e-01
9.942066149767629923e-01,-1.004494514097253599e-01,-1.492471421620953365e+00,7.528617649518402066e-01
9.942066149767629923e-01,-1.004494514097253599e-01,-1.492471421620953365e+00,7.528617649518402066e-01
9.931851940611045038e-01,-1.002762798017236834e-01,-1.497702565427377230e+00,7.526083517997312899e-01
1.001243544713461775e+00,-1.000840873611960335e-01,-1.502994889496154007e+00,7.532749273215030295e-01
9.944127677997274262e-01,-1.001552390497125605e-01,-1.503173359346306581e+00,7.514836279814505193e-01
1.002886005982507989e+00,-1.010609390378148786e-01,-1.513463223235310684e+00,7.557991861142330237e-01
1.002886005982507989e+00,-1.010609390378148786e-01,-1.513463223235310684e+00,7.557991861142330237e-01
1.002886005982507989e+00,-1.010609390378148786e-01,-1.513463223235310684e+00,7.557991861142330237e-01
9.989125627771524574e-01,-1.008592891264355473e-01,-1.517144483168420432e+00,7.563300173019397166e-01
9.967272314508118791e-01,-1.006308039220602246e-01,-1.508440532797612699e+00,7.547607714775786958e-01
1.004271541850906280e+00,-1.011120480611560485e-01,-1.507853519851561241e+00,7.532786846075114617e-01
9.949485759464307133e-01,-1.005226921603903367e-01,-1.499586897307635391e+00,7.499191049338080894e-01
9.927506602188018725e-01,-1.003132512392580777e-01,-1.505482903523415850e+00,7.512664956683657858e-01
1.001381953425972249e+00,-1.001561699991225241e-01,-1.506542522454473509e+00,7.522014261064667862e-01
1.003002110735426111e+00,-1.007907062925001984e-01,-1.507340480670390281e+00,7.542165906526473451e-01
9.978822332406342976e-01,-1.000751627086916562e-01,-1.507876773994769382e+00,7.535463365492739429e-01
9.971406344360848051e-01,-1.001101147162509336e-01,-1.517671769265074966e+00,7.571469013864443598e-01
9.971406344360848051e-01,-1.001101147162509336e-01,-1.517671769265074966e+00,7.571469013864443598e-01
9.977864613403421012e-01,-1.003014552938009396e-01,-1.516330494878952440e+00,7.568998760861830322e-01
9.929181691692177125e-01,-1.000691573560311687e-01,-1.508553282043076704e+00,7.536483053781576347e-01
1.004613629589851342e+00,-1.003550697754832938e-01,-1.513558467729871460e+00,7.542385368843935733e-01
1.004613629589851342e+00,-1.003550697754832938e-01,-1.513558467729871460e+00,7.542385368843935733e-01
1.005864831477859100e+00,-1.004124084887645929e-01,-1.503906341602871954e+00,7.513547387087484708e-01
1.005864831477859100e+00,-1.004124084887645929e-01,-1.503906341602871954e+00,7.513547387087484708e-01
9.983852131404911123e-01,-9.983149290249276886e-02,-1.496460098923452442e+00,7.491976193917503357e-01
1.008699481802205256e+00,-1.006259548599052894e-01,-1.503608717405712891e+00,7.520296191574101785e-01
1.008699481802205256e+00,-1.006259548599052894e-01,-1.503608717405712891e+00,7.520296191574101785e-01
1.008699481802205256e+00,-1.006259548599052894e-01,-1.503608717405712891e+00,7.520296191574101785e-01
1.001930786945226526e+00,-1.008587353549586507e-01,-1.496058605857049750e+00,7.506497750482472586e-01
9.897071832068213837e-01,-9.947949431348658555e-02,-1.503340065525589297e+00,7.522761461476558109e-01
9.969736804475390901e-01,-9.996592250370030242e-02,-1.511099627002336465e+00,7.554323611223427992e-01
9.969736804475390901e-01,-9.996592250370030242e-02,-1.511099627002336465e+00,7.554323611223427992e-01
9.873853910667703682e-01,-9.976591374755629238e-02,-1.510995501876189806e+00,7.558358325815143219e-01
9.981317265277402928e-01,-1.001111384684567202e-01,-1.518449403425679245e+00,7.583423161477601537e-01
9.954325752670616367e-01,-1.001867106454008560e-01,-1.511621284759905093e+00,7.559916349247021161e-01
1.001274748719101604e+00,-1.006924979426511157e-01,-1.500954960718128284e+00,7.533570708641327274e-01
1.001274748719101604e+00,-1.006924979426511157e-01,-1.500954960718128284e+00,7.533570708641327274e-01
9.936034780611312511e-01,-9.989042558235221303e-02,-1.493226848463561574e+00,7.503841603509630032e-01
1.005195652568013243e+00,-1.009697426175313606e-01,-1.505667220002800288e+00,7.542302425094389307e-01
9.953052210229068608e-01,-9.980361387248039284e-02,-1.498590186378264466e+00,7.503092584936492671e-01
1.000282476340218052e+00,-9.985451951744141186e-02,-1.506046872906183998e+00,7.514572134697378170e-01
1.000282476340218052e+00,-9.985451951744141186e-02,-1.506046872906183998e+00,7.514572134697378170e-01
1.000953655927477204e+00,-9.990897263834107311e-02,-1.499138006330548389e+00,7.501030560514515555e-01
1.001091286362736366e+00,-1.001843210908895110e-01,-1.496624145146575824e+00,7.506795566610047210e-01
1.006510887455512648e+00,-1.007196925648845831e-01,-1.499083873564834191e+00,7.514004374902210071e-01
1.000706792430049896e+00,-1.003166492081966898e-01,-1.497538759615549164e+00,7.498850427745473723e-01
9.995966813715324584e-01,-1.003612520011082643e-01,-1.500656448908537888e+00,7.505431638465946964e-01
9.955605615874356662e-01,-9.974012803635383395e-02,-1.508241565319536459e+00,7.528715861277307519e-01
9.960074086713763819e-01,-1.001901276813312175e-01,-1.515008579990360760e+00,7.554853882367414952e-01
9.960074086713763819e-01,-1.001901276813312175e-01,-1.515008579990360760e+00,7.554853882367414952e-01
9.960074086713763819e-01,-1.001901276813312175e-01,-1.515008579990360760e+00,7.554853882367414952e-01
9.960074086713763819e-01,-1.001901276813312175e-01,-1.515008579990360760e+00,7.554853882367414952e-01
9.960074086713763819e-01,-1.001901276813312175e-01,-1.515008579990360760e+00,7.554853882367414952e-01
9.978640386307818799e-01,-1.004147075088888674e-01,-1.516397839077067822e+00,7.559185167007114181e-01
1.001653412079551719e+00,-1.004501185149524467e-01,-1.517509079381406556e+00,7.553361400387230695e-01
1.001496300264681949e+00,-1.005248822984707718e-01,-1.514667492694954154e+00,7.549274212218410884e-01
9.951098579359709539e-01,-1.005517474771866482e-01,-1.506567745372019207e+00,7.533606266708400279e-01
1.001067573555926016e+00,-1.010447308462792126e-01,-1.508505744671870374e+00,7.543568256207866529e-01
9.964107181299548532e-01,-1.006596714350627420e-01,-1.521595226700957815e+00,7.573680479158445555e-01
9.912735542053802140e-01,-1.004896075090002533e-01,-1.515040481818242357e+00,7.562283360021923029e-01
9.912735542053802140e-01,-1.004896075090002533e-01,-1.515040481818242357e+00,7.562283360021923029e-01
1.001251551017702024e+00,-1.011287397556965145e-01,-1.524403401803658742e+00,7.592409056527652522e-01
9.918011444862357973e-01,-1.009031380834902597e-01,-1.505289736620580188e+00,7.537273813602664019e-01
9.931606503259381435e-01,-1.007378418477939824e-01,-1.507519115502383933e+00,7.542089558304181374e-01
9.990527162844166087e-01,-1.005847304169556478e-01,-1.501554301284169446e+00,7.524123623598755195e-01
9.990527162844166087e-01,-1.005847304169556478e-01,-1.501554301284169446e+00,7.524123623598755195e-01
1.000172223212054012e+00,-1.001504404051891950e-01,-1.517509338846033229e+00,7.555460401640546886e-01
9.943167938497747826e-01,-1.003766621192494768e-01,-1.510178583641596406e+00,7.535394877744797659e-01
9.943167938497747826e-01,-1.003766621192494768e-01,-1.510178583641596406e+00,7.535394877744797659e-01
9.981527835594637965e-01,-9.997301082010277840e-02,-1.499401430609978991e+00,7.504688137426176464e-01
9.981527835594637965e-01,-9.997301082010277840e-02,-1.499401430609978991e+00,7.504688137426176464e-01
9.937819497869947449e-01,-1.003614408332329233e-01,-1.509123106984778806e+00,7.514664856458515008e-01
9.937819497869947449e-01,-1.003614408332329233e-01,-1.509123106984778806e+00,7.514664856458515008e-01
9.937819497869947449e-01,-1.003614408332329233e-01,-1.509123106984778806e+00,7.514664856458515008e-01
9.923816373191840512e-01,-9.928257824017611144e-02,-1.505854794191046064e+00,7.500669922381226762e-01
9.882510376934097174e-01,-9.926810537710438476e-02,-1.504024005427526012e+00,7.510053732400647775e-01
1.000686232303712675e+00,-1.006621196219627812e-01,-1.513524780254092317e+00,7.553384794813949865e-01
9.938047794682604019e-01,-1.001265511727016805e-01,-1.521002526171626901e+00,7.568361480483208892e-01
9.959412633448800900e-01,-9.978254136946471120e-02,-1.512257072358973886e+00,7.548542683557940558e-01
9.961620334086176420e-01,-9.983560080565578865e-02,-1.504232024658189948e+00,7.534163801434313745e-01
9.945940043641742223e-01,-9.952264406482194681e-02,-1.520375635487588362e+00,7.578649661518375158e-01
9.965063144886199265e-01,-9.956370004118030026e-02,-1.517271389120453229e+00,7.558131389495758024e-01
9.965063144886199265e-01,-9.956370004118030026e-02,-1.517271389120453229e+00,7.558131389495758024e-01
9.966481936677331621e-01,-1.000086626222657926e-01,-1.510575813714187365e+00,7.542858368409850467e-01
9.964320680062843660e-01,-9.973828019216701701e-02,-1.501307758602954845e+00,7.517718829734818531e-01
9.947585080790941614e-01,-9.966702528345001977e-02,-1.497539725497258223e+00,7.503076006951160393e-01
1.001720037430686716e+00,-1.000178934898911937e-01,-1.496982692981142504e+00,7.494244709285019512e-01
1.000032223907362683e+00,-1.010602592568904945e-01,-1.492483498486134152e+00,7.498605725325560023e-01
9.946404769185521744e-01,-1.000965625113972163e-01,-1.482269525104240371e+00,7.483017517492247528e-01
9.977770594419055339e-01,-1.004644179061071896e-01,-1.488130863827868078e+00,7.491479445173342411e-01
9.977770594419055339e-01,-1.004644179061071896e-01,-1.488130863827868078e+00,7.491479445173342411e-01
9.975940139617823776e-01,-1.003890143989619455e-01,-1.496515824909071535e+00,7.501619091509226234e-01
9.945255853820986758e-01,-1.001083972670225447e-01,-1.496991061465071660e+00,7.503079967248931226e-01
9.995996520681575959e-01,-1.002921274790226080e-01,-1.500424632045303186e+00,7.531792104738790350e-01
9.995996520681575959e-01,-1.002921274790226080e-01,-1.500424632045303186e+00,7.531792104738790350e-01
1.007929169150710180e+00,-1.006414254653235085e-01,-1.499669378384391960e+00,7.530787572490008630e-01
9.964749775187462522e-01,-1.003818649243447408e-01,-1.513443737751406060e+00,7.547316548577559514e-01
9.949882979072544043e-01,-1.001615594382941343e-01,-1.510459520195352123e+00,7.549831251739769211e-01
9.949882979072544043e-01,-1.001615594382941343e-01,-1.510459520195352123e+00,7.549831251739769211e-01
9.940269986643816003e-01,-1.001691471686171758e-01,-1.513684854968903037e+00,7.553913539521559528e-01
9.964034902368483770e-01,-9.997521061577016588e-02,-1.507879416774722481e+00,7.518876091318694721e-01
1.004803636631371511e+00,-1.004781574176579068e-01,-1.515904754473325067e+00,7.555967816067604703e-01
9.962516175725241174e-01,-1.000364566550823453e-01,-1.509052218773802023e+00,7.530365639585957505e-01
9.887800048021097021e-01,-9.966684759597602139e-02,-1.508524154604542478e+00,7.548596094866881767e-01
1.000875510614536834e+00,-1.005249101111218152e-01,-1.514470932182064633e+00,7.544567405779720737e-01
9.971657704276017942e-01,-9.982139199492785775e-02,-1.518510335664380984e+00,7.551972739786473321e-01
9.971657704276017942e-01,-9.982139199492785775e-02,-1.518510335664380984e+00,7.551972739786473321e-01
1.000180256079474805e+00,-1.000499560833885276e-01,-1.516928145733676070e+00,7.549213905780490785e-01
1.000180256079474805e+00,-1.000499560833885276e-01,-1.516928145733676070e+00,7.549213905780490785e-01
1.000180256079474805e+00,-1.000499560833885276e-01,-1.516928145733676070e+00,7.549213905780490785e-01
1.000180256079474805e+00,-1.000499560833885276e-01,-1.516928145733676070e+00,7.549213905780490785e-01
9.980052016913217861e-01,-9.999057036744644911e-02,-1.511083148209115157e+00,7.534664827300026069e-01
9.980052016913217861e-01,-9.999057036744644911e-02,-1.511083148209115157e+00,7.534664827300026069e-01
9.980052016913217861e-01,-9.999057036744644911e-02,-1.511083148209115157e+00,7.534664827300026069e-01
9.980052016913217861e-01,-9.999057036744644911e-02,-1.511083148209115157e+00,7.534664827300026069e-01
9.980052016913217861e-01,-9.999057036744644911e-02,-1.511083148209115157e+00,7.534664827300026069e-01
9.980052016913217861e-01,-9.999057036744644911e-02,-1.511083148209115157e+00,7.534664827300026069e-01
9.980052016913217861e-01,-9.999057036744644911e-02,-1.511083148209115157e+00,7.534664827300026069e-01
9.980052016913217861e-01,-9.999057036744644911e-02,-1.511083148209115157e+00,7.534664827300026069e-01
9.940871907587190970e-01,-9.978741128896194412e-02,-1.523138976625059371e+00,7.585234829451277250e-01
9.958752100103339666e-01,-9.985003794048673276e-02,-1.514694612454576816e+00,7.563993925521175221e-01
9.905011567684203211e-01,-9.922737170836910814e-02,-1.522490336301457692e+00,7.562152555807885035e-01
9.905011567684203211e-01,-9.922737170836910814e-02,-1.522490336301457692e+00,7.562152555807885035e-01
9.905011567684203211e-01,-9.922737170836910814e-02,-1.522490336301457692e+00,7.562152555807885035e-01
9.905011567684203211e-01,-9.922737170836910814e-02,-1.522490336301457692e+00,7.562152555807885035e-01
1.002714561193246201e+00,-1.002090104594056397e-01,-1.518635285649723166e+00,7.547179805445761724e-01
1.002807093781696857e+00,-1.002764033285222373e-01,-1.507127035818103256e+00,7.518387727735797998e-01
9.974159877515651473e-01,-1.002226799216995312e-01,-1.497212760229007067e+00,7.498822948909179553e-01
1.002878091535560179e+00,-1.005856663995797901e-01,-1.508981743436266898e+00,7.537365636746063968e-01
1.008156050349596988e+00,-1.006212808263970970e-01,-1.506233349305892366e+00,7.528187835752999657e-01
1.008156050349596988e+00,-1.006212808263970970e-01,-1.506233349305892366e+00,7.528187835752999657e-01
1.008156050349596988e+00,-1.006212808263970970e-01,-1.506233349305892366e+00,7.528187835752999657e-01
1.007472875489044961e+00,-1.004496500683702553e-01,-1.497133167009623733e+00,7.499688122389209788e-01
1.000612675426353793e+00,-1.007589709015668938e-01,-1.491733178791117442e+00,7.477980055178757857e-01
9.937347919624986980e-01,-9.949658161648011756e-02,-1.498898363753413454e+00,7.501387819802112222e-01
1.001473662618017402e+00,-1.004124401180813281e-01,-1.494173501775521995e+00,7.496785655931181847e-01
1.001473662618017402e+00,-1.004124401180813281e-01,-1.494173501775521995e+00,7.496785655931181847e-01
9.920129730427962311e-01,-9.968820954385423927e-02,-1.503776652778935574e+00,7.516012947599760574e-01
1.007435735527519860e+00,-1.011492010872921538e-01,-1.500215577684751445e+00,7.527551231982420044e-01
9.985496922302242728e-01,-1.000114206400994910e-01,-1.509769959174434240e+00,7.524472292876638324e-01
9.985496922302242728e-01,-1.000114206400994910e-01,-1.509769959174434240e+00,7.524472292876638324e-01
9.889373855984844308e-01,-9.909014417162931299e-02,-1.522555757961619571e+00,7.563895111620030365e-01
9.933255893950020399e-01,-9.955142968332149345e-02,-1.523824936438009647e+00,7.569451404773135383e-01
9.933255893950020399e-01,-9.955142968332149345e-02,-1.523824936438009647e+00,7.569451404773135383e-01
9.931521560220626377e-01,-9.948059525977981377e-02,-1.535346047086987298e+00,7.608022516151708992e-01
9.924523602792763022e-01,-9.954652929516230597e-02,-1.530517424760809098e+00,7.582637031175263331e-01
9.924523602792763022e-01,-9.954652929516230597e-02,-1.530517424760809098e+00,7.582637031175263331e-01
9.950141295462067159e-01,-9.935946303978400451e-02,-1.526168769020783911e+00,7.558491109889959869e-01
9.950141295462067159e-01,-9.935946303978400451e-02,-1.526168769020783911e+00,7.558491109889959869e-01
9.950141295462067159e-01,-9.935946303978400451e-02,-1.526168769020783911e+00,7.558491109889959869e-01
9.977830017800211060e-01,-9.951108615865417173e-02,-1.519738384023295641e+00,7.526148673163503000e-01
9.977830017800211060e-01,-9.951108615865417173e-02,-1.519738384023295641e+00,7.526148673163503000e-01
9.935750154351402630e-01,-9.918015089967345543e-02,-1.526480596129209388e+00,7.549319531319140797e-01
9.981213655073216673e-01,-9.957107882651626551e-02,-1.527677779519532875e+00,7.571665537325744655e-01
9.959263215586527940e-01,-9.960887345402204274e-02,-1.528162333767166814e+00,7.580580725786985052e-01
9.959263215586527940e-01,-9.960887345402204274e-02,-1.528162333767166814e+00,7.580580725786985052e-01
9.903493732796215809e-01,-9.925686114568176011e-02,-1.516492391958863983e+00,7.553615465053712397e-01
9.983372710181291909e-01,-9.969460608462354934e-02,-1.519808815311897598e+00,7.566493608084576827e-01
9.927588859822477074e-01,-9.928318978391063865e-02,-1.517584040381110722e+00,7.551813676778653672e-01
1.001916333051561914e+00,-9.995767698849918059e-02,-1.520442957570098175e+00,7.575602369019248661e-01
9.964204523038006078e-01,-9.970931273413577434e-02,-1.506155443903886004e+00,7.537770509081426207e-01
9.914846140252903117e-01,-9.885993382912773575e-02,-1.511539195675136504e+00,7.553284734368664877e-01
9.914846140252903117e-01,-9.885993382912773575e-02,-1.511539195675136504e+00,7.553284734368664877e-01
9.854948770650643342e-01,-9.948719525993218737e-02,-1.515442087425965534e+00,7.567775375751598643e-01
1.001994937583286394e+00,-1.007390267193353783e-01,-1.521271293272435265e+00,7.556954542329983315e-01
9.945374634953192405e-01,-9.978407522925589190e-02,-1.508610571191360661e+00,7.538126283599105859e-01
9.945374634953192405e-01,-9.978407522925589190e-02,-1.508610571191360661e+00,7.538126283599105859e-01
9.997042228148825815e-01,-1.002281951872378979e-01,-1.517839322443800709e+00,7.565305710544180107e-01
9.997042228148825815e-01,-1.002281951872378979e-01,-1.517839322443800709e+00,7.565305710544180107e-01
9.984576910565725605e-01,-1.001723608430298562e-01,-1.509842584810282773e+00,7.526600590009361325e-01
9.984576910565725605e-01,-1.001723608430298562e-01,-1.509842584810282773e+00,7.526600590009361325e-01
9.984576910565725605e-01,-1.001723608430298562e-01,-1.509842584810282773e+00,7.526600590009361325e-01
9.984576910565725605e-01,-1.001723608430298562e-01,-1.509842584810282773e+00,7.526600590009361325e-01
9.984576910565725605e-01,-1.001723608430298562e-01,-1.509842584810282773e+00,7.526600590009361325e-01
1.002888391705318183e+00,-1.011421209126941445e-01,-1.495926142076267285e+00,7.491077176927932735e-01
9.978889735957753304e-01,-9.976913946137457023e-02,-1.506431884463426796e+00,7.507295266517065579e-01
9.969246535695871492e-01,-1.000953211552383371e-01,-1.523490233619046563e+00,7.548959059082546164e-01
9.955800914149531833e-01,-9.947257673280117396e-02,-1.515805197782997826e+00,7.522485399703076059e-01
9.955800914149531833e-01,-9.947257673280117396e-02,-1.515805197782997826e+00,7.522485399703076059e-01
9.960033037379555365e-01,-9.964588778129022939e-02,-1.522848499018639057e+00,7.547905642510920332e-01
9.989237805956732164e-01,-9.995834698255280648e-02,-1.517384566618109831e+00,7.542318552157063483e-01
9.989237805956732164e-01,-9.995834698255280648e-02,-1.517384566618109831e+00,7.542318552157063483e-01
9.926066497975112313e-01,-9.957652451365038571e-02,-1.514286310697887217e+00,7.526708966126069988e-01
9.926066497975112313e-01,-9.957652451365038571e-02,-1.514286310697887217e+00,7.526708966126069988e-01
9.926066497975112313e-01,-9.957652451365038571e-02,-1.514286310697887217e+00,7.526708966126069988e-01
9.926066497975112313e-01,-9.957652451365038571e-02,-1.514286310697887217e+00,7.526708966126069988e-01
9.926066497975112313e-01,-9.957652451365038571e-02,-1.514286310697887217e+00,7.526708966126069988e-01
1.002958618336055707e+00,-1.001525537337712296e-01,-1.510229592022658940e+00,7.519218364494643092e-01
1.002958618336055707e+00,-1.001525537337712296e-01,-1.510229592022658940e+00,7.519218364494643092e-01
9.987827511205721320e-01,-1.000724773686567926e-01,-1.497484191460334291e+00,7.468070279566449976e-01
9.987827511205721320e-01,-1.000724773686567926e-01,-1.497484191460334291e+00,7.468070279566449976e-01
1.006072642942728246e+00,-1.004528349500661277e-01,-1.495897307592316761e+00,7.475419089244685900e-01
1.002874994911316042e+00,-9.967093179756510157e-02,-1.494148954911713512e+00,7.465462162711379301e-01
1.003114276182611730e+00,-1.002707305246289676e-01,-1.502516238248263303e+00,7.499679331685817907e-01
1.010033209738149695e+00,-1.008790704424600698e-01,-1.505456412559558643e+00,7.526154722601380298e-01
1.010033209738149695e+00,-1.008790704424600698e-01,-1.505456412559558643e+00,7.526154722601380298e-01
9.865405206760865520e-01,-9.930519595623998885e-02,-1.505759786735346273e+00,7.511321387983489473e-01
9.994392212433120815e-01,-1.003243657735219257e-01,-1.508090579218998695e+00,7.532966705652347494e-01
9.957038837690666000e-01,-1.001039559611957008e-01,-1.511682214070977803e+00,7.541224910244249680e-01
1.001547368541158223e+00,-1.002013474224067585e-01,-1.517431549845827954e+00,7.561049801917150148e-01
1.000153821884993688e+00,-1.001729444049903883e-01,-1.522768326962503194e+00,7.583128191048634781e-01
1.000153821884993688e+00,-1.001729444049903883e-01,-1.522768326962503194e+00,7.583128191048634781e-01
9.977026906657751049e-01,-9.994362737295749144e-02,-1.511550648903531080e+00,7.556435493470002873e-01
9.977026906657751049e-01,-9.994362737295749144e-02,-1.511550648903531080e+00,7.556435493470002873e-01
9.977026906657751049e-01,-9.994362737295749144e-02,-1.511550648903531080e+00,7.556435493470002873e-01
9.970822755103782020e-01,-9.970006971535319562e-02,-1.521894184524344773e+00,7.577470895720985755e-01
9.986268633755037705e-01,-1.000071302691329517e-01,-1.514798289076120907e+00,7.570471258703748152e-01
9.986268633755037705e-01,-1.000071302691329517e-01,-1.514798289076120907e+00,7.570471258703748152e-01
9.986268633755037705e-01,-1.000071302691329517e-01,-1.514798289076120907e+00,7.570471258703748152e-01
9.948692898384871031e-01,-9.942253528859802680e-02,-1.527144919855658145e+00,7.572780791505688835e-01
9.948692898384871031e-01,-9.942253528859802680e-02,-1.527144919855658145e+00,7.572780791505688835e-01
9.948692898384871031e-01,-9.942253528859802680e-02,-1.527144919855658145e+00,7.572780791505688835e-01
1.008045992370808941e+00,-1.004663610691639841e-01,-1.519425709644470768e+00,7.560035593569023327e-01
1.000051698632763220e+00,-1.000575550448571105e-01,-1.514440514046800468e+00,7.537034024754233341e-01
9.987513079810756977e-01,-1.000848679406607100e-01,-1.508749545002458836e+00,7.516288273455612456e-01
9.987098528937508046e-01,-9.985296824719509801e-02,-1.504089176948099071e+00,7.502659266088348433e-01
9.997609257690976969e-01,-1.000086997581271231e-01,-1.499445816987851288e+00,7.496587116447640531e-01
1.002342327189339244e+00,-1.003037387977612493e-01,-1.495796763587316391e+00,7.483193891595620872e-01
9.970168859503152348e-01,-9.977362461812308569e-02,-1.500946943645644183e+00,7.482852128058714580e-01
9.970168859503152348e-01,-9.977362461812308569e-02,-1.500946943645644183e+00,7.482852128058714580e-01
9.933882256396455723e-01,-9.966970759700287397e-02,-1.506255683317648142e+00,7.504662202754698308e-01
9.939420604095594580e-01,-9.984493451567064137e-02,-1.511388210992144376e+00,7.515819837662454095e-01
9.868851926323365387e-01,-9.934833335888834660e-02,-1.517773651057636064e+00,7.536005335640266756e-01
9.987863891802024607e-01,-1.002038977706088685e-01,-1.514633615202705785e+00,7.534653567576365951e-01
9.996393656894305701e-01,-1.003365717811912361e-01,-1.513562298255042959e+00,7.538678400487079934e-01
9.948716647680857506e-01,-9.998056037425635811e-02,-1.519434890039792929e+00,7.551195488428917857e-01
9.946906964108888083e-01,-1.000085930396293343e-01,-1.517465532534504113e+00,7.551727784831208101e-01
9.946906964108888083e-01,-1.000085930396293343e-01,-1.517465532534504113e+00,7.551727784831208101e-01
1.005197509620857410e+00,-1.011977925644523962e-01,-1.508258558224206070e+00,7.537085796846730856e-01
1.002298664378286741e+00,-1.004843545145957667e-01,-1.498873148610927464e+00,7.497975393148605949e-01
1.005918356524813539e+00,-1.005907548314437794e-01,-1.503953172727155119e+00,7.517872926585195126e-01
9.988824238719343773e-01,-1.001090527572297134e-01,-1.493826364993554368e+00,7.495786559842545493e-01
1.004241803569457803e+00,-1.004621742289370928e-01,-1.490191725505116915e+00,7.481869921892281283e-01
1.005773866426966423e+00,-1.006321842942976691e-01,-1.496945236802286638e+00,7.497287769780649480e-01
