1.031027739198998816e+00,-1.028743174570031782e-01,-1.419560362127638919e+00,7.123165904179620256e-01
9.836608374904112218e-01,-1.030946325754837772e-01,-1.464692065234005414e+00,7.633494915559849714e-01
1.036676460308358028e+00,-1.032739732301895669e-01,-1.531153569096721512e+00,7.546000900861427052e-01
9.956580828104313330e-01,-9.973203622230696064e-02,-1.552608398070693507e+00,7.714957420754557926e-01
9.982922721979756719e-01,-1.024681692105818831e-01,-1.408579612859499619e+00,7.265834170276006532e-01
9.695845683135487780e-01,-9.535583650667840694e-02,-1.529809592413182484e+00,7.326665478860341363e-01
9.723272041741305438e-01,-9.779951824037932950e-02,-1.503604438146424194e+00,7.468629915777788009e-01
9.934078071987942904e-01,-9.920943399213204283e-02,-1.523815638107773651e+00,7.388657653922804380e-01
1.032327617099946249e+00,-1.011116084358953393e-01,-1.540260366455533880e+00,7.755949367341488099e-01
9.734725304520193134e-01,-1.020952412518349173e-01,-1.444390762676219131e+00,7.486955047787318129e-01
1.021126613890443791e+00,-1.004915002226963172e-01,-1.558027249837503181e+00,7.812966330527729708e-01
1.003434592475177967e+00,-1.020086608893810282e-01,-1.440451310362908188e+00,7.526716453641003612e-01
9.734450796180833532e-01,-1.042596925464786689e-01,-1.548608286569757908e+00,7.775958446821003012e-01
9.183700684029116879e-01,-9.568598004182855832e-02,-1.452579668318846329e+00,7.310021751044465388e-01
1.038471507055063192e+00,-1.010226520222281127e-01,-1.430453607583351161e+00,7.283264345595120703e-01
1.001167458826597967e+00,-1.017212406472979974e-01,-1.397883995413128577e+00,7.193652826719157956e-01
9.633063703670288191e-01,-9.929026832483341114e-02,-1.569754153163611221e+00,7.945653909341848786e-01
9.797663755342056469e-01,-9.529096436367499867e-02,-1.535086930426626362e+00,7.652666695550985887e-01
1.022831437527699672e+00,-1.015163105961663231e-01,-1.558234691106753722e+00,7.811185487390817084e-01
9.993329997870926684e-01,-1.000213895901887057e-01,-1.537024925818261556e+00,7.854111942848012173e-01
1.071751190106674967e+00,-9.975502208718552144e-02,-1.585243439455719106e+00,7.730617336259312244e-01
1.073727593831556693e+00,-1.048098241989358775e-01,-1.587694485596186755e+00,7.816441777585265704e-01
1.004244422518348445e+00,-9.730177353028308940e-02,-1.548898533182579529e+00,7.410218027035457844e-01
1.026374807097542474e+00,-1.031172903239741534e-01,-1.434508263254617999e+00,7.559726356018751092e-01
1.051310991496692049e+00,-1.024226204660229900e-01,-1.489663792632595962e+00,7.547326834347642954e-01
1.020894178381658968e+00,-1.016063474354501894e-01,-1.586824578112885575e+00,7.853799203427683784e-01
9.711475541019493063e-01,-9.746695348496159372e-02,-1.579917968367702930e+00,7.845066763533306009e-01
1.027505451250890545e+00,-1.014269009775171787e-01,-1.465078791158568761e+00,7.609055357029907984e-01
1.053739485403643483e+00,-1.041717310654497602e-01,-1.548475297625358849e+00,7.627451688619670822e-01
1.024739385749262599e+00,-1.070862989022044187e-01,-1.562813576512479763e+00,7.839196421808681814e-01
9.752670499763816947e-01,-9.569976730121684816e-02,-1.455509832987439411e+00,7.304678556114549970e-01
9.298976468422992525e-01,-9.590066657745459355e-02,-1.534698874283286996e+00,7.582300049970402966e-01
1.024251451268923141e+00,-9.947281316129957807e-02,-1.525786757773814672e+00,7.698858774621605283e-01
9.966111201120834151e-01,-1.011478405780900647e-01,-1.523577318738579489e+00,7.332370106128929255e-01
9.289725317581003505e-01,-9.786197611826269460e-02,-1.535899160794070406e+00,7.610184824652684865e-01
1.004183519793441448e+00,-9.918982199937059763e-02,-1.505018036918922109e+00,7.660287536415985032e-01
9.693933232153549850e-01,-9.702200684949698062e-02,-1.612912921540099909e+00,7.893560575051292716e-01
1.067816779426519869e+00,-1.040737901123459930e-01,-1.456674589347528803e+00,7.504172263766829554e-01
9.842010812922281637e-01,-9.976768095109803114e-02,-1.480756913065822911e+00,7.376928667142239604e-01
1.039691175532165834e+00,-1.039505751733603156e-01,-1.504396921303548407e+00,7.466773941953833704e-01
1.003939202375902839e+00,-1.046723075620464988e-01,-1.467632130430708504e+00,7.435441919646748055e-01
1.011520366096583246e+00,-9.838614423290224786e-02,-1.430268021651121879e+00,7.266217034530613184e-01
1.035845785934055296e+00,-1.037982883035948878e-01,-1.501706276737414081e+00,7.406790856033401704e-01
1.042924270102547846e+00,-1.071551577756306856e-01,-1.460247738749695490e+00,7.426629147915501106e-01
9.787006101868189756e-01,-9.933900447401772249e-02,-1.508909218417008757e+00,7.565125506590161253e-01
9.828313891912323630e-01,-9.730815205651005551e-02,-1.627055907371751653e+00,7.997197541817708810e-01
1.057166368782738841e+00,-1.041863948069812335e-01,-1.504958060636332418e+00,7.389663817093403697e-01
9.913596675927173196e-01,-9.917851992289168639e-02,-1.458230760815837579e+00,7.493334071599572210e-01
9.360002553335096120e-01,-9.862730198824554151e-02,-1.514349646391675464e+00,7.656357102415600746e-01
1.037991307215006431e+00,-1.051840102499369961e-01,-1.458385209220164569e+00,7.436640046736242571e-01
9.972120607115799729e-01,-9.580310127529637065e-02,-1.609096719201830172e+00,7.758175357759371504e-01
9.610528161492311039e-01,-1.023537923150911050e-01,-1.509909773739098959e+00,7.488435453119062224e-01
1.041713854608529832e+00,-1.033634537248424440e-01,-1.462448693904883301e+00,7.355898217315641752e-01
9.748242265733984002e-01,-9.442559639000724925e-02,-1.475474704321784181e+00,7.332171009793508887e-01
9.645744416737438431e-01,-1.016675813502260911e-01,-1.514303806558926713e+00,7.592028272907095365e-01
1.010696733829319349e+00,-1.041701163298559829e-01,-1.450889545674556746e+00,7.586102906118865619e-01
9.925088055657649289e-01,-9.497785363404137593e-02,-1.447875510321325443e+00,7.168012372995355985e-01
9.987196406636676960e-01,-9.764138446183157072e-02,-1.404526132597014199e+00,7.078320470446944901e-01
1.017536563125988502e+00,-9.796076289258301428e-02,-1.457300170140061857e+00,7.287685599850406426e-01
1.003141829258253903e+00,-1.016399381057239287e-01,-1.516064131845721752e+00,7.349585191868138745e-01
1.040903828734729419e+00,-1.072626152765811525e-01,-1.500745548502057991e+00,7.666417161820412440e-01
9.612941701329890121e-01,-1.008847697414294309e-01,-1.404908088759641238e+00,7.290678727555776062e-01
1.055739725447103705e+00,-1.043053289754656277e-01,-1.488649863860007194e+00,7.263735111232667574e-01
9.118034050490698705e-01,-9.615330764281357356e-02,-1.545231100329047536e+00,7.515446090101651766e-01
9.763660243737630751e-01,-1.047147436111705854e-01,-1.388156704235619765e+00,7.261895811243530563e-01
9.936678182427541861e-01,-9.815115019499964788e-02,-1.619448035246598527e+00,7.840026973217057993e-01
9.762315028469269462e-01,-1.014866554765089107e-01,-1.399124103026168076e+00,7.240905154656640530e-01
9.886455337444272073e-01,-9.809888983269075824e-02,-1.519435445632025372e+00,7.346785995293632077e-01
1.003693422592088158e+00,-1.031741910863468031e-01,-1.609054460134710318e+00,7.858021796213510157e-01
1.015978119463291529e+00,-1.007288021368677317e-01,-1.423219174667413212e+00,7.395029306531499813e-01
1.096572699357866165e+00,-1.034048034521143217e-01,-1.492019391665405426e+00,7.525258257682881924e-01
1.016680824220956403e+00,-9.789053825880114634e-02,-1.536975810902051709e+00,7.717420431796141456e-01
9.156746100572715763e-01,-9.817685273549153768e-02,-1.418785398819397914e+00,7.396699112906096607e-01
1.013705155522564905e+00,-9.983197586915544541e-02,-1.474049296307057277e+00,7.366830172618484829e-01
9.954694920693420990e-01,-1.030520444888220755e-01,-1.421154929834103520e+00,7.234814990857647565e-01
9.385695012349619670e-01,-9.874404674856199216e-02,-1.546914259411571235e+00,7.621011186862205466e-01
9.676464447407158165e-01,-9.681391149999937773e-02,-1.570684103564316203e+00,7.915142327486879292e-01
9.897020186033015365e-01,-9.688486831001789923e-02,-1.664055900940403010e+00,8.043863374151452028e-01
9.924784295264408307e-01,-9.814978444462423013e-02,-1.499560550043163465e+00,7.417999660021997732e-01
9.597132864882449432e-01,-9.848003674909314165e-02,-1.488776485434588626e+00,7.565996513606307872e-01
9.844594267821216160e-01,-1.023265094613672321e-01,-1.607563442467867976e+00,7.946540329134851310e-01
9.979880555791309504e-01,-1.042734651481530411e-01,-1.499039054138230798e+00,7.765908767772498056e-01
1.031561520466613979e+00,-1.055945317754526519e-01,-1.416126193110169851e+00,7.213343521150821225e-01
1.023892853775429046e+00,-1.033983457562546726e-01,-1.498222420921112796e+00,7.545569036568579024e-01
9.897676997047543113e-01,-1.035706896634543961e-01,-1.406610787562454057e+00,7.223612661131351143e-01
9.338971340292290257e-01,-9.705867602369853964e-02,-1.617499597511168785e+00,7.851682820781312744e-01
9.857656136874495267e-01,-9.617753740628384729e-02,-1.484660527962409216e+00,7.596063046036368727e-01
9.599105694848311110e-01,-9.964911561068946766e-02,-1.482954746705427596e+00,7.253509576919842106e-01
9.768636835809747510e-01,-9.682317456595541938e-02,-1.460689325714527254e+00,7.520179198645114971e-01
9.831981810779845121e-01,-1.040240065721220741e-01,-1.502588364938963972e+00,7.708046164207724704e-01
9.527002136859922254e-01,-1.034991162710250795e-01,-1.520108458559828568e+00,7.575196188202913961e-01
1.043313702334605964e+00,-1.067942525624070577e-01,-1.555907481613761911e+00,7.825236014208226676e-01
1.059951732422365733e+00,-1.053006551011735070e-01,-1.478781690850730302e+00,7.592615639193939225e-01
9.873771816158321002e-01,-1.033021516980675153e-01,-1.436690811139766044e+00,7.369575750112619117e-01
1.045396758864320041e+00,-1.069062191897703906e-01,-1.526646246298369203e+00,7.761572108974967854e-01
1.062033999762353131e+00,-1.045144681934773306e-01,-1.568291245487540397e+00,7.699674938623417564e-01
1.008747688285250188e+00,-9.695715457881469435e-02,-1.485487985311810588e+00,7.434530719644434349e-01
1.057860137645667109e+00,-1.036627282823661955e-01,-1.426286995098785981e+00,7.274786269169478681e-01
9.969191481575198077e-01,-1.048342974005106731e-01,-1.510789281098398273e+00,7.495531263634092056e-01
9.557733789483110476e-01,-9.982815288718231705e-02,-1.496696861282375668e+00,7.756245895362061660e-01
1.016594415446949728e+00,-1.015941891125411167e-01,-1.521652189384882226e+00,7.652743755024270511e-01
1.055451008100698473e+00,-1.048199090471624018e-01,-1.594127787580885247e+00,7.733520371019257933e-01
1.023188988712440128e+00,-1.007172465343749573e-01,-1.430245881616863723e+00,7.323824108306051794e-01
9.725592912489946507e-01,-9.421902286766986601e-02,-1.539602793912724144e+00,7.695265766183279066e-01
9.742494654108039276e-01,-1.026992882387789269e-01,-1.428309391546120466e+00,7.202851889610948355e-01
9.624298379014397664e-01,-9.354029036293026733e-02,-1.575217459167873146e+00,7.689210837291764467e-01
9.879301913914187994e-01,-9.699673708792609650e-02,-1.487383669711278555e+00,7.587833839156552518e-01
9.868905372538301357e-01,-1.012633618944529246e-01,-1.438136074334700032e+00,7.413058691811553746e-01
1.019220842570089491e+00,-9.967566764697528836e-02,-1.472861346249868308e+00,7.300239486149655566e-01
9.653340205226013104e-01,-1.023719608678165666e-01,-1.555960545878042556e+00,7.625736891010738150e-01
1.034934343468973283e+00,-9.892901893515321232e-02,-1.584229648555026237e+00,7.860741428329136582e-01
1.005801867330332611e+00,-1.035183913515521498e-01,-1.521766483524795488e+00,7.637967204349763728e-01
9.979652099742131188e-01,-9.913979864227749628e-02,-1.463352736114602592e+00,7.407228077478185124e-01
9.948931122142885553e-01,-9.860704756766601464e-02,-1.534574904483320346e+00,7.620504859141804532e-01
9.918197897978328070e-01,-1.019711004760268658e-01,-1.409237972747698020e+00,7.493847608703830820e-01
9.404764885807451735e-01,-9.241728056396386615e-02,-1.523357319231676943e+00,7.490314417268403302e-01
1.025218224312891335e+00,-1.005765381956979926e-01,-1.474109894370867924e+00,7.501544084019711178e-01
9.942251165978811533e-01,-1.015114137914664705e-01,-1.430627566012808716e+00,7.245590178125147496e-01
9.920053680534681728e-01,-9.738775226639125038e-02,-1.446418832747694783e+00,7.387087094823987510e-01
9.679362632179840942e-01,-9.919262650147564475e-02,-1.576090452670288133e+00,7.809847041403727985e-01
9.996333565335261406e-01,-1.038370743177181865e-01,-1.555945238651063267e+00,7.535772522355872471e-01
9.978662554443384902e-01,-9.795907119746645464e-02,-1.566407539118241488e+00,7.800702471350351441e-01
9.560198446615593149e-01,-9.848005387720204507e-02,-1.443442393812691904e+00,7.286481670444870939e-01
1.010996684510119037e+00,-9.597825621709246691e-02,-1.526868356662662851e+00,7.587547548941467879e-01
1.060489129509151862e+00,-1.066929265357428325e-01,-1.532302009222352490e+00,7.626200277645283077e-01
9.687965683489260238e-01,-1.015551300698165349e-01,-1.463424359714263989e+00,7.649577869017691878e-01
9.751817282854171598e-01,-1.024792143002410671e-01,-1.459588019734585629e+00,7.575173149005438589e-01
1.063505434947467743e+00,-1.042477956288053176e-01,-1.482375705417751321e+00,7.548910746438639574e-01
9.346358733354966919e-01,-9.796115115786792338e-02,-1.474656130929189679e+00,7.532636395313526689e-01
9.777739009100534506e-01,-9.875619246262379303e-02,-1.380184380649864373e+00,7.327331010406593625e-01
1.093236363368570885e+00,-1.053404575880558247e-01,-1.416055434036396887e+00,7.229943619124121756e-01
9.731817461044620643e-01,-1.044730585876702533e-01,-1.518848360733951797e+00,7.572763655851847409e-01
1.013442665749066940e+00,-1.014570233899572266e-01,-1.490503943810395304e+00,7.739429991496409311e-01
9.795405033308214326e-01,-1.001824385064482709e-01,-1.510287670675070970e+00,7.532972593199056544e-01
1.085171533613203509e+00,-1.049793889574950068e-01,-1.479195482682218454e+00,7.454312622006471489e-01
1.016898933674516448e+00,-9.445343061680631924e-02,-1.557850737422969312e+00,7.548812439685400610e-01
9.989465600485779584e-01,-9.913446715727340652e-02,-1.556624577281934263e+00,7.810593910336030010e-01
9.395771596974330508e-01,-9.269809079695184861e-02,-1.506703598620501516e+00,7.432437606737243296e-01
1.071069434020674116e+00,-1.075861978195944701e-01,-1.574029655818705242e+00,7.692325374868315135e-01
9.501259888744034710e-01,-9.662185624971086906e-02,-1.532293220799053834e+00,7.505827015815931258e-01
1.045228451625882959e+00,-1.039845860280307066e-01,-1.493947350515408168e+00,7.349444706217884704e-01
1.072351896742601340e+00,-1.005969683857247804e-01,-1.574613627488413048e+00,7.762810040357165375e-01
1.033319600972612218e+00,-9.871427546216079985e-02,-1.579148207327943920e+00,7.803356570529345060e-01
9.295223757880235471e-01,-9.716618324542511398e-02,-1.461077825621110104e+00,7.499855750060528958e-01
1.037108005332350480e+00,-1.015128888725835982e-01,-1.554734434656559916e+00,7.627314444878730004e-01
1.030851611269734569e+00,-9.807217246093019591e-02,-1.534514818030534578e+00,7.605991383806511852e-01
1.005429267719608610e+00,-1.033321926460851609e-01,-1.507658866600877445e+00,7.396305006058985221e-01
1.039210073022264424e+00,-1.030424373706537583e-01,-1.430651770075023421e+00,7.281579506247405353e-01
9.896095696053116564e-01,-1.024221559712747420e-01,-1.484509434678215056e+00,7.616692159570663812e-01
1.015935221708194947e+00,-9.848566499854748135e-02,-1.445122055686028917e+00,7.441446340585210484e-01
1.002285137740960508e+00,-9.451954451590294237e-02,-1.549655239515616456e+00,7.554668586785165951e-01
9.910552395804821391e-01,-9.922143285949232283e-02,-1.509087005264306836e+00,7.658150475308561633e-01
9.989587159069892586e-01,-1.046623090773881881e-01,-1.535148472574989986e+00,7.777491508331549896e-01
9.678959708460990186e-01,-1.013834114504095635e-01,-1.508304550811158995e+00,7.570494422921831834e-01
1.013001030452613804e+00,-1.006807813138349966e-01,-1.395261733505138046e+00,7.282243302429289855e-01
1.034717943493960401e+00,-1.040463440118353233e-01,-1.557566052095724407e+00,7.660632428388535198e-01
9.453850866051288770e-01,-9.874006809472228585e-02,-1.558376066833320417e+00,7.690015097743386763e-01
9.731546846951076857e-01,-1.005976240367504881e-01,-1.478710702886631534e+00,7.526817093631825717e-01
1.016562063801706772e+00,-9.703888742411968804e-02,-1.498559456310878613e+00,7.429000176534827915e-01
9.496313349498719525e-01,-9.732769189449125280e-02,-1.470020037175682193e+00,7.240717219089173318e-01
9.694710346955092151e-01,-9.718542447147082708e-02,-1.521370810160282527e+00,7.674234848796961383e-01
1.014738087911702502e+00,-1.063103207221696572e-01,-1.548778672819661750e+00,7.801321605608930732e-01
1.022666251026518758e+00,-9.917259133821856865e-02,-1.419573538314651051e+00,7.324132684585371589e-01
9.922420244865048922e-01,-9.623935804661656879e-02,-1.581130274615625497e+00,7.808213014419875808e-01
1.091839089501524418e+00,-1.086834137141049483e-01,-1.438524403865112822e+00,7.446197231321207699e-01
1.062404922240862026e+00,-1.078732868729759264e-01,-1.392952264101397608e+00,7.177733376433690360e-01
9.677259467270630244e-01,-9.411185587011490494e-02,-1.532946258514831683e+00,7.478074109301896533e-01
1.036748494354975403e+00,-1.006303043775666206e-01,-1.551164328295649320e+00,7.750117013497995755e-01
1.041921525766311030e+00,-1.070604376278999903e-01,-1.456413911391194249e+00,7.605019125984131545e-01
9.164711200848887351e-01,-9.288771637216551580e-02,-1.580316237953297120e+00,7.546713466583829799e-01
9.218467426552162669e-01,-9.652315026825181166e-02,-1.483927310055278337e+00,7.351222437012727706e-01
9.987422226892957999e-01,-1.053852146018013636e-01,-1.558661229049550290e+00,7.751982854447491134e-01
1.006918914125715991e+00,-9.964948117205910116e-02,-1.497265317377960869e+00,7.349069110927691773e-01
9.207893056025591161e-01,-9.509273869103812560e-02,-1.500285013657350452e+00,7.549764121704545250e-01
9.802905653608622316e-01,-9.980516911998994767e-02,-1.464216704554323512e+00,7.445439067881864936e-01
9.533008953584868328e-01,-1.009417340615221259e-01,-1.523030961368613267e+00,7.601015720478387916e-01
1.012130109873527584e+00,-1.019677854419363816e-01,-1.395543944095511524e+00,7.241671293870178827e-01
9.855941843347172382e-01,-9.667649431725358622e-02,-1.467054583572800386e+00,7.411568186714260209e-01
9.925283699469810150e-01,-1.003797005461960906e-01,-1.623133911446061894e+00,7.949854019145135009e-01
9.486467307356513112e-01,-9.449660276778101831e-02,-1.458871957313604639e+00,7.385531688867815747e-01
9.309295233601230235e-01,-9.700310976866569068e-02,-1.550656191316871046e+00,7.587498018004824596e-01
1.027068336375564162e+00,-1.035505343511474441e-01,-1.515955545112665614e+00,7.570636844676746913e-01
1.005019087943119116e+00,-9.747414200335186019e-02,-1.494205922609086690e+00,7.605933209061221945e-01
1.061208313498284372e+00,-1.083754261903999982e-01,-1.454544655681825338e+00,7.407750823140246688e-01
9.629984119880958815e-01,-1.022322862796908038e-01,-1.459813882815782948e+00,7.402639378570502471e-01
1.029477182678187885e+00,-1.039790397790812115e-01,-1.506270903706180553e+00,7.468027665600879272e-01
1.015035991047770425e+00,-1.032954895963392739e-01,-1.573040502816892117e+00,7.900545561442331444e-01
1.054374250598034468e+00,-1.025707496236575589e-01,-1.519966613007315059e+00,7.674446914313642898e-01
9.378124619717167487e-01,-9.302147701251503586e-02,-1.577188227708881563e+00,7.777838339433917891e-01
9.250482178884241735e-01,-9.630052581872297623e-02,-1.502864370733257848e+00,7.640236952197042575e-01
1.032833477669261812e+00,-1.040448289757204686e-01,-1.403805700134424184e+00,7.255013244401637973e-01
9.407905848752892153e-01,-9.789390022136054692e-02,-1.534567658717387317e+00,7.447440445932349551e-01
1.007736517212260541e+00,-1.020770805778897505e-01,-1.387092220954646571e+00,7.132436822429859546e-01
8.914242441727393551e-01,-9.508221830085482329e-02,-1.564530389329167548e+00,7.649453137979208561e-01
9.647493806640438097e-01,-9.591047929812937523e-02,-1.645373589072203657e+00,7.901436406092002818e-01
1.070606275618669612e+00,-1.073890787845149103e-01,-1.539091139100210004e+00,7.599124728658089856e-01
1.030747367591949848e+00,-9.865985449039985089e-02,-1.501602519628737697e+00,7.542726854918849755e-01
9.435675283483404563e-01,-9.871660641951834902e-02,-1.498940031491362124e+00,7.370707034046244388e-01
9.366022756969281104e-01,-9.510308761003115341e-02,-1.593908335907464613e+00,7.839753012521273323e-01
9.510418196279208924e-01,-9.933787891278257620e-02,-1.551820619409522317e+00,7.689367787814220812e-01
1.000916679632812389e+00,-9.609886926770080939e-02,-1.535959576219652956e+00,7.542246246930022213e-01
9.988304571773595208e-01,-1.000220024538807234e-01,-1.639219875771845913e+00,7.866570776209048654e-01
9.952205071947999304e-01,-1.016166788103620572e-01,-1.477071319821677831e+00,7.722276383253238174e-01
9.558650704336344450e-01,-9.827122825744168122e-02,-1.593070242892870025e+00,7.785982894455290015e-01
9.507473983374720161e-01,-1.004023724732381051e-01,-1.542599218432557873e+00,7.605712318138346806e-01
9.583534655895699084e-01,-9.277512814755596582e-02,-1.485860357825417033e+00,7.362001871427876765e-01
9.829398084251995682e-01,-9.980682067209427355e-02,-1.487728932861913878e+00,7.405778671535979685e-01
1.043123637480817267e+00,-1.058047734502547688e-01,-1.526980237003524810e+00,7.707070632237269514e-01
9.952369891491124054e-01,-1.051063162774888565e-01,-1.497593805396017386e+00,7.396319437774133698e-01
9.858132167648455679e-01,-1.030059054515377187e-01,-1.534539617752269214e+00,7.765632596636522500e-01
1.018292002189930878e+00,-1.027872333858752818e-01,-1.513688221967014691e+00,7.347061961867341617e-01
1.038373040309670037e+00,-9.948694072953329082e-02,-1.459574752796709340e+00,7.448068040295379166e-01
9.783776229831792071e-01,-9.846823100176507748e-02,-1.519314970078886162e+00,7.703661395061005557e-01
1.044381590538872917e+00,-1.033889896456345325e-01,-1.540345930277258191e+00,7.782391189419438637e-01
1.092558900665802524e+00,-1.085874685236647985e-01,-1.391364679805478843e+00,7.348138002428309390e-01
1.062777846191414577e+00,-1.004714854135240198e-01,-1.536912716173143956e+00,7.520502035107158312e-01
9.725451178257993323e-01,-9.456266760823874018e-02,-1.478083444601630436e+00,7.460937879063660461e-01
9.660144882126386889e-01,-9.677920590427137315e-02,-1.590829337163079726e+00,7.677487230253379202e-01
9.449168620005733432e-01,-9.944302113929455456e-02,-1.452899634629243542e+00,7.208514443798028637e-01
1.012826836763978777e+00,-9.972124003071682063e-02,-1.605254708056712998e+00,7.736741794259085481e-01
1.013391611371821321e+00,-9.822469765676170028e-02,-1.630875828735783406e+00,7.681368096995261352e-01
1.018582259211264329e+00,-1.050946170846134703e-01,-1.463422934381050089e+00,7.400032227878610147e-01
1.026063788803606824e+00,-9.982506059243209662e-02,-1.506074437446018210e+00,7.437378910098489948e-01
1.016770806545865824e+00,-1.017917887606749477e-01,-1.471159324485028286e+00,7.302057349561598132e-01
1.023574435301309205e+00,-1.030842840038199565e-01,-1.387404447764820636e+00,7.285124426780325013e-01
1.021769800644650061e+00,-1.003029362948410080e-01,-1.537622990107572862e+00,7.482681680025958793e-01
9.344767367872041097e-01,-9.394378837220597467e-02,-1.517568753166531614e+00,7.697021821724521207e-01
9.748733073434199259e-01,-9.760376958444728912e-02,-1.587821091726557832e+00,7.729081267698670876e-01
9.509595311735110634e-01,-1.015730540603332344e-01,-1.414508390964953177e+00,7.226435044652688156e-01
1.030943021436030893e+00,-9.733957840635756864e-02,-1.561914808510604047e+00,7.698183468067734125e-01
9.569903407878559420e-01,-1.015705844768532706e-01,-1.503794546767069695e+00,7.386625372146959911e-01
1.083202306239226642e+00,-1.069621285984087289e-01,-1.528172489945709867e+00,7.511874876783537491e-01
1.054922847106996020e+00,-1.044034358024890780e-01,-1.503268356049816346e+00,7.540324256634679534e-01
9.959959948140019170e-01,-9.600616828379787693e-02,-1.511494450660610500e+00,7.438444342689363165e-01
1.030552998059631298e+00,-1.009327425955783009e-01,-1.509603996545888949e+00,7.534322279237103404e-01
1.031433413048617354e+00,-1.037644818838028560e-01,-1.418620033300711292e+00,7.294071705013596141e-01
9.680234975507390205e-01,-9.951339540705696207e-02,-1.613161707660419886e+00,7.687085314320779572e-01
9.965374523570851295e-01,-9.808386409120159466e-02,-1.585030215429443112e+00,7.490910247068160999e-01
9.775378339907599967e-01,-1.012617834867464012e-01,-1.489667867757852093e+00,7.590306221521241348e-01
1.041169696904877595e+00,-1.039379268276466595e-01,-1.526871152499473583e+00,7.735712645981159818e-01
9.753204770411855185e-01,-9.769032231685041701e-02,-1.380767393547005728e+00,7.111669321021742984e-01
9.789043040790024186e-01,-1.049011314768838604e-01,-1.485057589358641073e+00,7.541877120567846982e-01
1.042158216112803348e+00,-1.050218814495200159e-01,-1.499803397513131742e+00,7.422157649290802572e-01
9.666718931698845552e-01,-9.742048153728594118e-02,-1.532183220900942278e+00,7.697523884333318245e-01
9.308708377995326133e-01,-9.794196669870455785e-02,-1.599610055464475211e+00,7.718305086197301268e-01
9.803882073606778880e-01,-1.024390194265589887e-01,-1.493129039698448235e+00,7.479026839949803884e-01
9.919784833336902086e-01,-1.019478624424892260e-01,-1.526585914659683185e+00,7.609523540368182681e-01
1.037271665560566714e+00,-1.006526643107646807e-01,-1.530061808731694395e+00,7.702562960513841261e-01
9.614411418609363214e-01,-1.006731100625918307e-01,-1.506020381648892847e+00,7.663006636605413924e-01
9.952286742177377521e-01,-1.002469456428733419e-01,-1.515496890556300214e+00,7.683467727177696327e-01
9.717719237870670046e-01,-1.028182913912080720e-01,-1.424441689432039970e+00,7.391176164204389387e-01
9.818411281302933391e-01,-9.785174259063789126e-02,-1.491255264826377713e+00,7.633146907241513679e-01
9.462795329864046590e-01,-1.002829804195894681e-01,-1.579885225938818083e+00,7.803220010986389177e-01
9.423007058761071475e-01,-9.428103765047304852e-02,-1.575916016943201381e+00,7.651812313206659555e-01
9.926787077403955717e-01,-9.890575028121277590e-02,-1.431099550006925014e+00,7.505420158180240442e-01
9.997494720163364601e-01,-1.002404921340598470e-01,-1.593133439780200833e+00,7.963023311400135862e-01
1.010246006725889600e+00,-1.011124879720202985e-01,-1.651023365245027463e+00,8.078153553613587334e-01
1.010100572417227838e+00,-1.018477661187795341e-01,-1.480210569866008852e+00,7.297711913851492316e-01
9.423440353508267808e-01,-1.019982878900738410e-01,-1.530807808183225260e+00,7.721659207691264903e-01
9.905050505688627327e-01,-9.712126207529983568e-02,-1.465961747112780156e+00,7.187484156151593417e-01
9.427249165566650158e-01,-1.011474463090872022e-01,-1.536316580020518963e+00,7.581388870702365779e-01
9.585821203224631493e-01,-9.784957411687913997e-02,-1.469073976970230122e+00,7.292812878602973337e-01
1.002232504627138088e+00,-9.690410458361446711e-02,-1.501398190725994120e+00,7.432072067309994923e-01
1.003563541542687565e+00,-1.025530993975703187e-01,-1.339208870219459779e+00,7.161691281199625836e-01
1.049202996771322782e+00,-1.038240405077244105e-01,-1.397085223994987135e+00,7.352177406310552721e-01
9.550780297577444733e-01,-9.771001475592058783e-02,-1.497801647085203358e+00,7.351915373031777667e-01
9.633312271776883762e-01,-9.515306092318046027e-02,-1.553304428717696251e+00,7.543013168773013977e-01
9.230543220066436128e-01,-9.570118726961271416e-02,-1.638427905568363041e+00,7.926984525043674346e-01
9.438361989921459916e-01,-9.478574386828128584e-02,-1.516240152442522637e+00,7.512821474503444952e-01
9.486286944803082877e-01,-1.007387533581018679e-01,-1.552084418584258607e+00,7.719947283656943826e-01
1.037724110642913589e+00,-1.003501624918947538e-01,-1.424752066107756843e+00,7.313404521069098996e-01
1.025951144242525537e+00,-1.026879220310423779e-01,-1.506869835711811989e+00,7.680873491855156887e-01
9.937615513916323584e-01,-9.537510510457575252e-02,-1.661633966111547567e+00,7.868584307017501001e-01
9.626006116042242766e-01,-9.263757766095086221e-02,-1.517941273047362039e+00,7.474341532623922646e-01
9.783888004854377485e-01,-9.781554001028058831e-02,-1.534162290104670756e+00,7.714265253370489184e-01
9.981530472752514482e-01,-9.508998089856933456e-02,-1.552098554561863741e+00,7.521433121026623869e-01
1.024312629155054610e+00,-1.002356765890969753e-01,-1.582985982239356160e+00,7.864291440009497647e-01
1.035509459118225895e+00,-1.005346185690093458e-01,-1.458559050704551385e+00,7.291212202054810909e-01
9.985290607232520932e-01,-9.884362477829819471e-02,-1.534268633227220846e+00,7.487381132444805854e-01
9.864416606790546993e-01,-9.899659961068324465e-02,-1.623765264722651036e+00,7.725397110269225376e-01
1.039213334146595891e+00,-1.024461365243361788e-01,-1.491307515077525903e+00,7.659571777724790698e-01
9.512619588053867759e-01,-9.761474642274495239e-02,-1.409524443741667632e+00,7.167022084441236895e-01
1.041425557106532951e+00,-1.041217899031617045e-01,-1.512531346193421999e+00,7.314959476858270415e-01
1.016026455488775015e+00,-9.843873134846532758e-02,-1.592347546973411188e+00,7.725642056224594212e-01
9.788956808508558760e-01,-9.774355345298248177e-02,-1.464680229623203100e+00,7.177574256133911756e-01
9.300121197470971879e-01,-9.903938063313277862e-02,-1.498382047630183456e+00,7.483709851573431271e-01
1.035389166358569035e+00,-1.007096248366623203e-01,-1.609587881640625495e+00,7.780876093422742779e-01
1.063139018228587807e+00,-1.033311647341363798e-01,-1.440818979179455228e+00,7.520216728292232755e-01
9.806272498010416561e-01,-9.801121486637104363e-02,-1.543136009200214209e+00,7.544964200914111574e-01
1.042420004971430503e+00,-1.027753842486386765e-01,-1.541932095965230509e+00,7.539771783065301047e-01
9.273146142107311363e-01,-9.599629263856318540e-02,-1.479911187371637959e+00,7.503607399525324961e-01
1.047857775695667293e+00,-1.079590149654357373e-01,-1.528996583395087816e+00,7.577196883572540065e-01
1.000596948723999180e+00,-9.736691337007806479e-02,-1.535109032609678126e+00,7.414436238557781111e-01
1.018413011821201142e+00,-1.001087731323341556e-01,-1.521495901656175320e+00,7.630038109787407041e-01
1.009818289436140715e+00,-9.946173440620682815e-02,-1.428791343069604869e+00,7.094945575419513428e-01
1.014207378630022083e+00,-9.696689279037050413e-02,-1.533943522594136022e+00,7.540336052515579368e-01
9.724455751557896654e-01,-1.020173046009984624e-01,-1.541725074418151653e+00,7.735377713440090286e-01
9.799815347686857692e-01,-9.496945383257225648e-02,-1.496369231899589591e+00,7.333959635582705250e-01
1.049115173848989446e+00,-1.030891490999850807e-01,-1.560342456399728572e+00,7.702301466003340646e-01
9.311395301799332280e-01,-9.423292371842037496e-02,-1.522521230386463476e+00,7.547786077210437705e-01
1.039426287323196529e+00,-1.014120661188773753e-01,-1.556326994235997851e+00,7.664968496033169876e-01
9.464004220324160332e-01,-9.718077651354788127e-02,-1.595786526999003918e+00,7.626369642162169615e-01
9.808715939563386055e-01,-1.006651295300475951e-01,-1.443352667513747800e+00,7.596953804783836972e-01
9.921908099564886729e-01,-9.730116301081899455e-02,-1.393537651110911213e+00,7.300853249996418493e-01
1.056613153869896404e+00,-1.017229310088534622e-01,-1.464721562502685703e+00,7.342805868888139242e-01
9.121673827553573588e-01,-9.556427380328495758e-02,-1.526653597989844346e+00,7.515673626585243072e-01
9.673691634267006512e-01,-1.000535617919217912e-01,-1.499551040533917856e+00,7.474251811540000290e-01
9.470407307265344965e-01,-9.658788523548966776e-02,-1.585168516074517919e+00,7.573961034108516177e-01
1.040496473782844156e+00,-1.081784116403547436e-01,-1.501258067772222704e+00,7.724213196892985023e-01
9.952199266990442439e-01,-1.057780427036054960e-01,-1.424368997952533356e+00,7.280911133312500949e-01
9.391525195294949668e-01,-9.615559404653353792e-02,-1.443188545598522721e+00,7.366951483333807893e-01
9.566272712300439851e-01,-9.889931588704120591e-02,-1.654412056073477189e+00,8.063306860144797694e-01
1.013303161717581169e+00,-9.922064339610815742e-02,-1.520699341820467065e+00,7.537680352895990143e-01
1.027327295485447989e+00,-1.044220607411086715e-01,-1.425018996001514715e+00,7.210692911934766247e-01
1.053298941986669401e+00,-1.007836803561442396e-01,-1.473737759082118348e+00,7.410088147104015865e-01
1.049087811906868284e+00,-1.069597966908480552e-01,-1.436127501830610331e+00,7.287304428994355598e-01
1.060255512295326774e+00,-1.046325064586258596e-01,-1.502981678220807416e+00,7.600105301975182970e-01
9.938091069913713715e-01,-1.047543567768086936e-01,-1.513476194096769367e+00,7.661655512081636532e-01
1.033441678324061641e+00,-9.860693007854691439e-02,-1.464799412639887777e+00,7.502636163462031993e-01
9.116574390778895420e-01,-9.545619898620964772e-02,-1.509016761985236599e+00,7.508952006485108965e-01
1.016443607887109524e+00,-9.730987306365899980e-02,-1.545447641616784606e+00,7.685954439535878091e-01
9.342478841448229598e-01,-9.688608188062965143e-02,-1.463119299471302703e+00,7.546267044203508467e-01
1.022083495975134149e+00,-9.640666716156350013e-02,-1.462890712990111419e+00,7.236921036587961042e-01
9.431692258439128285e-01,-9.335613296493519564e-02,-1.514569234351122784e+00,7.337789199464118672e-01
1.076617259370694635e+00,-1.064683364930114756e-01,-1.540152359753856226e+00,7.593597074847805439e-01
1.012509742581167993e+00,-1.024910399574684300e-01,-1.461273103585549071e+00,7.232872364446724101e-01
1.049612229195056701e+00,-9.998514266944595608e-02,-1.467146101213445686e+00,7.531938165646455685e-01
1.015572569130823055e+00,-9.860270231549560227e-02,-1.447329014688865767e+00,7.153572209274796645e-01
9.369368508579259958e-01,-9.816376218373905338e-02,-1.492399770508070267e+00,7.365450579828188848e-01
9.718195935859162971e-01,-9.538826122065337254e-02,-1.546487481698386901e+00,7.701582795948946902e-01
1.007196285493596077e+00,-1.029815097471156043e-01,-1.531159721454796951e+00,7.729630151781859970e-01
1.021182319484372547e+00,-1.008787171785865966e-01,-1.443540514340283520e+00,7.162451275592126576e-01
1.027420544656298951e+00,-1.044957595726859201e-01,-1.412424043653840888e+00,7.494767216575141111e-01
1.015548430812848180e+00,-1.034615890183803316e-01,-1.438220742909436911e+00,7.440287961549441054e-01
1.021573328548062598e+00,-9.868053941431824405e-02,-1.467543307231990335e+00,7.441549132810780787e-01
9.563863044614667741e-01,-9.761120243752038905e-02,-1.534780663468309214e+00,7.647324328942154414e-01
9.804095295601771287e-01,-9.990655372351585350e-02,-1.463687759065913419e+00,7.611160347898022760e-01
1.063287222127261344e+00,-1.048225373544619810e-01,-1.523126855311231598e+00,7.508854382062573052e-01
9.815659058025396622e-01,-1.002902780948558836e-01,-1.552390982962808863e+00,7.595785601634481576e-01
1.052912035069162311e+00,-1.033920115753690361e-01,-1.481240588377378709e+00,7.606978097726313504e-01
9.763055274010904450e-01,-9.876845841019564476e-02,-1.443943465583600760e+00,7.399520624306352712e-01
9.820849658341263000e-01,-9.791008915265961288e-02,-1.514103446113918894e+00,7.691564300481421590e-01
1.036007796222750077e+00,-1.035804636596978773e-01,-1.538167211381600064e+00,7.405451574896027012e-01
1.048589527308110059e+00,-1.017179169109364983e-01,-1.422772133147571116e+00,7.315452535243319732e-01
1.056780779112054480e+00,-1.001985349687438270e-01,-1.458273055742875801e+00,7.347967132998405315e-01
1.077404416337802040e+00,-1.033690917853606894e-01,-1.455197974536250438e+00,7.571046591322584396e-01
1.013962321909319009e+00,-9.904852704185958256e-02,-1.550028898196721405e+00,7.678105382863191775e-01
9.666618865967003815e-01,-9.807614204165474026e-02,-1.426393757395472139e+00,7.203843403074977614e-01
9.497504766344352367e-01,-9.410214074543885032e-02,-1.569805435020531492e+00,7.624348176692717916e-01
9.902049331801932031e-01,-1.005584972301454411e-01,-1.441461372160208532e+00,7.194101054111925464e-01
9.647956127267198756e-01,-9.291632038986530340e-02,-1.521844115592267732e+00,7.455134023461619242e-01
1.039810332453701136e+00,-9.960341893152972748e-02,-1.442748198312938879e+00,7.295498714483815705e-01
9.899225486624703141e-01,-9.681611770888876034e-02,-1.461409657620943214e+00,7.545803879084312937e-01
9.766682858027941894e-01,-9.643102862897601213e-02,-1.503811229304727881e+00,7.684166502295255441e-01
9.701788558080229885e-01,-1.003195095952441884e-01,-1.467951695052559069e+00,7.322266839816840012e-01
9.878672788840153762e-01,-9.551980267161509774e-02,-1.577782165367963563e+00,7.469067823033778142e-01
9.798957272546471309e-01,-9.524735344185453201e-02,-1.481320767137722649e+00,7.448436398392144220e-01
1.055221207042589260e+00,-1.059272601668188041e-01,-1.491691828067929215e+00,7.676471793212348294e-01
9.861322984755209742e-01,-9.929064907470885881e-02,-1.490197328977607150e+00,7.550429760443920779e-01
9.941937752153722219e-01,-9.971985604923259972e-02,-1.516246746540697243e+00,7.504698610478907073e-01
1.008836353940734787e+00,-1.035141643432401920e-01,-1.424570150875351660e+00,7.242050478788837342e-01
1.043805430495950315e+00,-1.057217401609936158e-01,-1.400737586285524028e+00,7.256783319083731643e-01
9.592242047584944586e-01,-9.262548657598954072e-02,-1.507542559106009650e+00,7.379761761891495686e-01
9.676821862719980905e-01,-9.824886167088793532e-02,-1.411024456950481731e+00,7.170750329181193594e-01
1.031312502786452034e+00,-1.052175696781503800e-01,-1.486458205530852617e+00,7.633498048850939632e-01
9.681229046743775601e-01,-1.011204719806752389e-01,-1.542644429621423230e+00,7.700192430243920638e-01
1.047223600272547017e+00,-1.062209686936176484e-01,-1.436051404967805034e+00,7.376259724055527212e-01
1.049778638255960850e+00,-1.014258111310640253e-01,-1.371298382733385113e+00,7.095386309416304993e-01
1.049512448724524427e+00,-1.028890675352443773e-01,-1.439140911489641184e+00,7.302115142292205929e-01
9.635468331001165732e-01,-1.005072358101356811e-01,-1.482864624884280946e+00,7.604699782556272325e-01
1.041973941322544617e+00,-1.051640203420596692e-01,-1.499725688617817854e+00,7.785340211226458029e-01
9.915112898202256275e-01,-1.015315808357869221e-01,-1.426098903609706259e+00,7.224163206444588203e-01
9.912122340494466943e-01,-1.050537888854187335e-01,-1.479954789078985034e+00,7.429580889901858942e-01
9.664376228399925717e-01,-1.036303803486539471e-01,-1.452225877231042350e+00,7.545910018917169060e-01
1.020231716561101010e+00,-1.027961988755663469e-01,-1.489151617632537672e+00,7.516788376354955892e-01
1.026980016765806747e+00,-1.001786031052200598e-01,-1.527180194923572154e+00,7.503628876994543617e-01
9.926922891109122293e-01,-9.864987234534169924e-02,-1.487071075273157073e+00,7.594039107506224129e-01
9.175228971109526954e-01,-9.751584549059902352e-02,-1.493439869669613174e+00,7.573892363445803300e-01
1.019742899003446945e+00,-1.005829977521588564e-01,-1.602664670067554420e+00,7.733657788924583887e-01
1.016031314609449066e+00,-1.036032824502682859e-01,-1.409686485041649506e+00,7.120732255885209305e-01
9.760455721368815896e-01,-9.796716585773723729e-02,-1.490199296971505216e+00,7.330411984713108842e-01
1.016204612540218655e+00,-1.014095961996261674e-01,-1.404496724365411842e+00,7.377347909155879124e-01
1.062648902178477517e+00,-1.052688596116948261e-01,-1.533628237230620472e+00,7.733272211030880472e-01
1.057207591258648050e+00,-9.959672036641573079e-02,-1.572931991210583025e+00,7.777185483281303657e-01
1.020527385233702233e+00,-1.026109983756157834e-01,-1.556209548906363205e+00,7.633918438210240964e-01
8.975536632230877165e-01,-9.124189649668940083e-02,-1.612003705246274565e+00,7.763070242721769043e-01
1.002673708217350468e+00,-9.848856905078073876e-02,-1.582782014268388382e+00,7.791190020905059965e-01
1.007261410952257075e+00,-1.016809094422155280e-01,-1.418065602298795858e+00,7.461145228270646967e-01
1.021175996620059978e+00,-1.011754849422599606e-01,-1.607080343273932677e+00,7.926623967788382075e-01
1.034089747486446775e+00,-1.074625639574767477e-01,-1.410346865990127707e+00,7.413364501853489941e-01
1.002183236584754278e+00,-9.965919544407243758e-02,-1.519908842093146362e+00,7.524058105555682108e-01
9.954885249371836498e-01,-1.025462777630441469e-01,-1.546888521272018924e+00,7.566475890944186489e-01
1.085618671513337574e+00,-1.038453301812577723e-01,-1.496464257213270477e+00,7.608417104595467384e-01
1.065001334464461991e+00,-1.077419761512970475e-01,-1.525833720752521216e+00,7.616546251399043399e-01
9.431725370016463827e-01,-9.240671772004999118e-02,-1.490832374751566825e+00,7.286475505181483348e-01
1.005824718802965645e+00,-9.766455499858200939e-02,-1.425567362841338115e+00,7.289405078741577615e-01
1.071348615755090661e+00,-1.033038179660282774e-01,-1.568455887659577108e+00,7.576547207694553920e-01
1.001983060509485268e+00,-1.026977112878198345e-01,-1.432197981170366230e+00,7.372986702164395778e-01
1.044779186441595620e+00,-1.027491338486613420e-01,-1.554845214910996809e+00,7.732908552905761734e-01
9.575730523931366145e-01,-9.743162578818173603e-02,-1.476060001354252638e+00,7.445596974490945597e-01
9.785672173724281331e-01,-9.583660414274350337e-02,-1.457358233294402616e+00,7.438883964354510159e-01
9.509914439363811312e-01,-9.744922081513837653e-02,-1.586738838476561941e+00,7.562089297947458544e-01
9.801612943959784330e-01,-1.029362207139974394e-01,-1.472462389660686988e+00,7.508982711190969050e-01
1.013345363017503109e+00,-1.014575476644480195e-01,-1.452352005827974857e+00,7.237575061805120447e-01
9.785106130984624340e-01,-9.470846775082371327e-02,-1.453412097528177016e+00,7.347630103129213497e-01
9.961112083812737605e-01,-1.010955672808985240e-01,-1.580314804429625131e+00,7.674380629603412274e-01
9.620692362956807520e-01,-9.850403747251300357e-02,-1.615004724318076512e+00,8.030978134785919931e-01
9.639612111444983977e-01,-9.852642534481205472e-02,-1.521141999821325808e+00,7.758440398209381916e-01
1.032537277853175395e+00,-1.074732892041563442e-01,-1.414143052933342970e+00,7.238903703244602417e-01
1.026539694652469414e+00,-9.995011342584946001e-02,-1.546216288606398814e+00,7.652396895789704834e-01
1.021804317854529964e+00,-1.043700238512673822e-01,-1.548325887117262045e+00,7.734419791018517509e-01
9.967705083945097577e-01,-9.489002280348604601e-02,-1.599612316631871867e+00,7.734981473988055134e-01
1.060712114253155036e+00,-1.004940534582566963e-01,-1.489824553933458029e+00,7.521070321125745695e-01
9.893505811898644087e-01,-1.049764062084311556e-01,-1.517446067342161253e+00,7.693966495994333243e-01
9.862238256635578182e-01,-9.726985216875400075e-02,-1.515490591001979803e+00,7.592093722071767692e-01
1.017976398436425178e+00,-1.018914903607570366e-01,-1.534667752874326219e+00,7.603938845804932845e-01
1.016455785783992871e+00,-9.770551420171626200e-02,-1.521803232679618700e+00,7.377693474938216145e-01
9.371305028822434213e-01,-9.886582068734119100e-02,-1.549658132842326452e+00,7.643477459213156022e-01
1.076296210624072103e+00,-1.019497895511650432e-01,-1.519391510149731284e+00,7.553730979926905897e-01
9.739434980485002225e-01,-9.741362190283056610e-02,-1.516726613330864115e+00,7.627537846848592151e-01
9.670745517799735902e-01,-1.013477965380834428e-01,-1.535239898188087260e+00,7.661648855660538882e-01
9.839817477268716361e-01,-9.471541729386211139e-02,-1.637000093021160785e+00,7.927437811569976178e-01
9.513794206124196462e-01,-9.690819010753627671e-02,-1.447164251563338055e+00,7.178503752280217531e-01
9.852684895564073342e-01,-9.956195555201451108e-02,-1.433350916693015176e+00,7.519711245375250153e-01
1.050239578362887283e+00,-1.059575268007509063e-01,-1.502181106532800570e+00,7.704665405046258186e-01
9.330198780563571104e-01,-9.688775234412949633e-02,-1.499198114797088754e+00,7.417988185230180997e-01
9.749258605401230904e-01,-1.017489471799013917e-01,-1.466173229145939283e+00,7.500784514828121585e-01
1.039850017194027698e+00,-1.023819457378981473e-01,-1.430156523138310654e+00,7.357704275342658029e-01
1.001277214739156651e+00,-1.039113515924931369e-01,-1.467142025231019220e+00,7.536020678905804848e-01
1.010380274073565454e+00,-9.787561580639957126e-02,-1.464947706456544818e+00,7.517667928223442653e-01
9.958734083443379070e-01,-9.610562154423010761e-02,-1.514942096925887993e+00,7.586969268981567094e-01
1.075751157967981042e+00,-1.082884237827262119e-01,-1.446174058850028477e+00,7.549578823017061291e-01
1.066052905381498661e+00,-1.045957891986251109e-01,-1.454499787208317851e+00,7.557280064675244713e-01
1.082596839801644784e+00,-1.067816819376020687e-01,-1.521413194155078363e+00,7.445456833632888571e-01
1.008182131912997104e+00,-1.046194401206018559e-01,-1.465373198963280554e+00,7.326366409602245167e-01
9.739791256003245135e-01,-9.507133497392654398e-02,-1.627981897287375856e+00,7.698561638510196259e-01
1.005570100435122516e+00,-9.632926214876608162e-02,-1.519201514291841582e+00,7.649594404039472550e-01
9.565596647227464500e-01,-9.853401336476760863e-02,-1.560282146511414503e+00,7.580934724477401687e-01
1.022174724517010302e+00,-1.002089472066663572e-01,-1.509570491084998967e+00,7.366511008297212948e-01
1.019406183753051698e+00,-9.780475123090942580e-02,-1.437277005615808179e+00,7.318573999424914378e-01
9.492947792616350799e-01,-9.634971534755619460e-02,-1.504565269095313296e+00,7.683884108527971879e-01
1.011974339803099809e+00,-9.991567079155666553e-02,-1.411121169399739639e+00,7.160040997481028624e-01
1.011193190533794084e+00,-9.584641322158171661e-02,-1.480467762841279233e+00,7.360813729733799438e-01
1.005301074625643665e+00,-1.062052437754062995e-01,-1.487494854166134362e+00,7.479873408023698378e-01
1.017825959408985570e+00,-9.889088521878729166e-02,-1.473925694541143416e+00,7.170206310214326528e-01
9.950582089257457019e-01,-9.995879900463167100e-02,-1.469087432424074802e+00,7.457065009309584713e-01
9.928561367612067645e-01,-9.921466006329744680e-02,-1.524631949923146435e+00,7.444469630491774570e-01
9.313381958843686137e-01,-9.414548383777315843e-02,-1.500879780905161498e+00,7.330572100611245645e-01
1.028583682197548921e+00,-9.910868920207972776e-02,-1.533726184817254978e+00,7.755441483797458346e-01
1.000440908470848544e+00,-1.044769079983817461e-01,-1.508064361516267882e+00,7.440221670768870643e-01
1.090501854727895736e+00,-1.084634286287757682e-01,-1.416561284231472984e+00,7.345109628486859998e-01
9.818978671308636885e-01,-1.032035880701331759e-01,-1.452808109309250195e+00,7.476175709918149170e-01
1.040958610191104139e+00,-1.080004492242041397e-01,-1.441835598443470534e+00,7.560171865426503768e-01
1.029050035434089017e+00,-1.047015274495732007e-01,-1.472221726639761696e+00,7.700465352770899941e-01
9.388287041458359683e-01,-9.973299379793590380e-02,-1.402955848081293366e+00,7.275842754746094654e-01
1.005530391740822482e+00,-9.946750187126787712e-02,-1.477382292520178941e+00,7.317553669337244493e-01
9.726893658122894859e-01,-9.385521666357293791e-02,-1.579735186736499486e+00,7.679776306064897140e-01
1.030647740775236798e+00,-1.035386452126636908e-01,-1.555081428154086343e+00,7.864225016958638070e-01
1.043821453298607427e+00,-9.982616069313531015e-02,-1.436482127890253979e+00,7.395694981703831994e-01
9.843229998228096855e-01,-1.035323213605987003e-01,-1.503171119914603171e+00,7.723504680974361269e-01
9.613671986246047352e-01,-9.754865767531091525e-02,-1.385763241950163982e+00,7.215096771169053902e-01
1.017527171086498594e+00,-1.073939397142435054e-01,-1.519008308328628098e+00,7.732204271071326795e-01
9.784451223393944019e-01,-9.920105347949052799e-02,-1.491768482959291875e+00,7.329457151935462322e-01
9.902902579764741864e-01,-1.014648835721650572e-01,-1.436627433334051185e+00,7.454960951160541915e-01
9.722956268717860562e-01,-9.573580683509023970e-02,-1.483321496114562876e+00,7.370640536884907057e-01
1.019950722874477078e+00,-1.017908446958166457e-01,-1.396714914711195243e+00,7.150150117006857098e-01
9.731762084515194200e-01,-9.851083169859239930e-02,-1.490503068182947866e+00,7.699276986210561446e-01
9.579298193150130869e-01,-9.678010435787916255e-02,-1.504376512611518724e+00,7.450328267912208480e-01
1.015490176393544663e+00,-1.044795008293366440e-01,-1.409416231727887103e+00,7.384450362331307360e-01
9.435341739140559181e-01,-1.002622279070336936e-01,-1.495917265969153087e+00,7.456217581610363743e-01
1.018676590270327420e+00,-1.027637638586092889e-01,-1.631632227742412455e+00,8.044327945967663096e-01
9.489523813935992758e-01,-9.691233659954201496e-02,-1.510978470033053966e+00,7.303637796177400165e-01
9.904746630681540154e-01,-1.022362488610157050e-01,-1.467931658676368656e+00,7.565298984003232530e-01
9.495121700843117685e-01,-9.595730544450849220e-02,-1.521776031620685865e+00,7.679274623012978251e-01
1.016216840595853821e+00,-9.767391696927413269e-02,-1.461405352285429116e+00,7.341941273307932558e-01
9.353336101424655213e-01,-9.828523085318509322e-02,-1.537786733554143970e+00,7.545823118621788339e-01
1.027381809969623472e+00,-1.038409101194660150e-01,-1.522491261480394709e+00,7.487692011417557136e-01
1.008302952992510049e+00,-1.025688369084220564e-01,-1.544801283864002395e+00,7.454485712429793631e-01
1.074063185069101367e+00,-1.071966724634467322e-01,-1.534222972768207072e+00,7.607113786042527526e-01
1.062252747015214105e+00,-1.020308072348850154e-01,-1.509980002606489125e+00,7.741404577235111439e-01
9.183350489564885422e-01,-9.828329697141260923e-02,-1.512688270977476490e+00,7.641432785934354488e-01
1.002985735816227963e+00,-1.055218036271475396e-01,-1.426938716719277966e+00,7.313702337080576488e-01
1.012509063186492808e+00,-9.901484026608323163e-02,-1.513357158174860384e+00,7.456316017365636206e-01
1.041229650482306202e+00,-1.018268031333240953e-01,-1.564605397570987710e+00,7.534221627204246152e-01
1.051056777401657261e+00,-1.051649902524514069e-01,-1.604335530842404101e+00,7.776090142145156703e-01
9.553687529963451608e-01,-9.329354981049634010e-02,-1.564630529730135722e+00,7.567570275446412476e-01
1.043084042012687007e+00,-1.033303767429267633e-01,-1.385627535088771900e+00,7.126247126517097907e-01
9.894120198872990990e-01,-9.808575202619118638e-02,-1.458064307232813217e+00,7.511852523447235530e-01
1.013638744313903217e+00,-1.037089356157243208e-01,-1.481882520590355856e+00,7.433756493342258409e-01
9.798132608078018446e-01,-9.477913244439431506e-02,-1.500129681295416351e+00,7.267565023946985781e-01
1.025115763241592148e+00,-1.051531491347445363e-01,-1.474948919396114499e+00,7.363913698486348469e-01
9.422712964584315509e-01,-9.263937255038887097e-02,-1.542197804895307778e+00,7.506938151815850668e-01
1.014942240248124516e+00,-1.038817596117406344e-01,-1.530366194249080936e+00,7.499776991956138561e-01
1.051257101222975665e+00,-1.030702988744500864e-01,-1.591303473811492397e+00,7.841626698729887712e-01
1.000002353069203265e+00,-1.021902955094455834e-01,-1.615162888425606402e+00,7.977601207012973150e-01
1.044625154136922029e+00,-1.069215727114608133e-01,-1.420770730120553882e+00,7.214349142981909546e-01
1.041953052206648911e+00,-1.033729905059481702e-01,-1.493799271399674611e+00,7.565549177268258152e-01
9.666828396585512850e-01,-9.666175566471492397e-02,-1.447313684099851061e+00,7.427940796421118597e-01
1.044602435201273050e+00,-1.032205731536833260e-01,-1.449182201767620359e+00,7.587303799565423557e-01
9.654064991151485309e-01,-9.497740503199567086e-02,-1.569670422301312929e+00,7.775918763797976530e-01
1.057224863644809831e+00,-1.036922442028244684e-01,-1.407081298526809077e+00,7.423082628977916153e-01
9.887663733310461112e-01,-1.002776522639495932e-01,-1.513927571192253074e+00,7.393553105403153358e-01
1.001941776365924630e+00,-1.053179337118598791e-01,-1.523753025167733366e+00,7.631748148413493027e-01
9.401311687509295023e-01,-1.007988475946545170e-01,-1.531849270614014324e+00,7.712363539008517677e-01
9.845350150340210771e-01,-9.645426910142902710e-02,-1.481602618540996952e+00,7.441049887678493624e-01
1.011147449999586723e+00,-1.007540445749375291e-01,-1.531819358019134603e+00,7.854537853871240705e-01
1.002474266998460317e+00,-1.044811211142161606e-01,-1.447652760393018045e+00,7.539592571368165519e-01
9.875571126036034597e-01,-1.031803059152551355e-01,-1.579843887174025685e+00,7.689712826180366001e-01
9.831371770456571735e-01,-9.336541420898442079e-02,-1.497240871798746431e+00,7.324730999036934698e-01
9.593647135880362109e-01,-9.822597333251525953e-02,-1.588991581892222671e+00,7.856441501246687054e-01
9.439544316052747019e-01,-9.539498164234022637e-02,-1.503201800851069692e+00,7.422945786025068049e-01
9.927033764858523845e-01,-1.010712629920840211e-01,-1.558902337139844718e+00,7.738617848462403526e-01
8.930878315569857895e-01,-9.392278232045664366e-02,-1.528725757029496535e+00,7.642512782516979186e-01
9.988025011765977457e-01,-9.823972677516949747e-02,-1.470872593047505061e+00,7.467414425738220229e-01
1.041988185006888168e+00,-1.034327475524535467e-01,-1.460737888327353406e+00,7.485726913389172399e-01
9.952477633903046295e-01,-9.861987798308663455e-02,-1.523261048482329905e+00,7.322860977800464966e-01
1.007783592787286242e+00,-9.759191223832369699e-02,-1.615897451565619480e+00,7.640552157057008964e-01
1.052413485679988492e+00,-1.026637118084532119e-01,-1.414459760747921679e+00,7.365658866189278564e-01
1.018225376147660954e+00,-9.926715147029335773e-02,-1.494568883453365693e+00,7.696787453081890273e-01
1.031724761316077599e+00,-1.010222559294528671e-01,-1.443103171978760813e+00,7.286285874915211513e-01
1.053755242992607588e+00,-1.015738273459806523e-01,-1.469421421388626303e+00,7.309714803338089872e-01
1.040934923634892817e+00,-1.030201174210766818e-01,-1.461475233580225686e+00,7.355252690581118857e-01
9.983127345060275326e-01,-9.790939535218955159e-02,-1.441503997708082130e+00,7.417943116548162408e-01
9.939668159347683218e-01,-9.619805465116701426e-02,-1.469444138379879528e+00,7.503611301992814120e-01
1.004518230548786972e+00,-9.458566185259748016e-02,-1.547471346464830644e+00,7.635697505556079401e-01
1.048504529406494967e+00,-1.033805974430005298e-01,-1.494246358065984603e+00,7.414516805407515010e-01
9.474273407908726519e-01,-9.799545060165031074e-02,-1.587764534472736910e+00,7.738212009268797820e-01
9.677153455301543694e-01,-9.474198241421104283e-02,-1.428208160747328703e+00,7.182004631562085573e-01
1.043158674326010615e+00,-1.010789228768438214e-01,-1.418496541004893086e+00,7.271432116822512670e-01
9.696358414987220620e-01,-9.526687912879625020e-02,-1.563229602764504733e+00,7.678222248253768756e-01
1.027770182565240331e+00,-1.008935862946159917e-01,-1.393506755439731570e+00,7.233281057109129941e-01
9.461578500622507271e-01,-9.494014150274034114e-02,-1.520157215360953717e+00,7.555856706582657623e-01
1.028407998729036654e+00,-1.037120678427871923e-01,-1.539381678822913324e+00,7.878409640592144436e-01
1.044725926299432395e+00,-1.017175569771410770e-01,-1.471455190478043518e+00,7.467358884622464776e-01
1.078639500989080791e+00,-1.034720137054141037e-01,-1.593055833143593114e+00,7.733754111304971257e-01
9.925597617480512724e-01,-9.900533326409917401e-02,-1.640150562447378890e+00,7.952924747039188391e-01
1.047755973260320328e+00,-1.049831166662656551e-01,-1.450074774675907285e+00,7.428111021342077569e-01
9.764665300731927289e-01,-9.701304360457491116e-02,-1.531045844287449720e+00,7.700816702991593043e-01
1.010919897429484404e+00,-1.036946134130833364e-01,-1.529938911737830143e+00,7.786012693086772352e-01
1.025075464862741592e+00,-1.065759399949028768e-01,-1.501663244111068884e+00,7.696510995357277451e-01
1.060968282921401995e+00,-1.012853638704510756e-01,-1.482568155692218559e+00,7.403361108610145846e-01
1.024830508428062670e+00,-1.031897002678253961e-01,-1.503284603565443023e+00,7.327778306609600278e-01
1.011968535313267470e+00,-1.020347737829599283e-01,-1.508856272682098876e+00,7.295448516799182270e-01
1.046711029111481395e+00,-1.008353978080695629e-01,-1.606919398895667150e+00,7.722426225799049471e-01
9.960528590479409417e-01,-9.758033950075163665e-02,-1.435637718549988895e+00,7.231344932919426816e-01
9.575892995168256983e-01,-9.767252337821695496e-02,-1.523392578657494889e+00,7.677320944317266305e-01
9.305435972515798682e-01,-9.346639663369700479e-02,-1.553931497600226752e+00,7.520011359280849295e-01
1.028961082634172186e+00,-9.763481167946322370e-02,-1.450030811162336786e+00,7.409618024630134636e-01
9.525562618403323745e-01,-1.030758672577017643e-01,-1.462120839928297444e+00,7.405453016724939941e-01
1.019032980104467301e+00,-1.061574438044328161e-01,-1.440127583437815550e+00,7.445224413041637845e-01
1.040590075243396750e+00,-1.010914451846696011e-01,-1.423097925317198253e+00,7.166387153179115677e-01
9.696465010138858309e-01,-1.010138031917475199e-01,-1.471321889991576315e+00,7.705432960638738393e-01
9.615459355641732264e-01,-9.508902594522997131e-02,-1.464644500652048986e+00,7.424165452215077954e-01
9.815245536898826728e-01,-9.997623687866777353e-02,-1.567675739053913553e+00,7.800432124845477766e-01
9.602318644604627140e-01,-9.795779205219097563e-02,-1.566818168921481069e+00,7.743456863579146754e-01
9.652034285051486195e-01,-9.905454354036316578e-02,-1.455253457882223600e+00,7.400940779846473250e-01
9.669229608436246126e-01,-1.029540695364539599e-01,-1.445241539269397135e+00,7.449196304985111761e-01
9.949289105632662666e-01,-9.537816244573577018e-02,-1.459029466806197828e+00,7.282322336466195978e-01
1.003244766375242847e+00,-9.633245219759786759e-02,-1.683404523303500211e+00,7.986613459422455819e-01
9.225149598070785384e-01,-9.921699067061676147e-02,-1.476367334793246888e+00,7.489191926188966120e-01
1.095052253486401561e+00,-1.085796548310500181e-01,-1.461837903504312086e+00,7.556358301603864902e-01
9.884631973978394992e-01,-1.040524642025363877e-01,-1.542110316245700830e+00,7.685628517022889961e-01
9.980216116144591254e-01,-9.821722325518435215e-02,-1.523727420323125470e+00,7.638022174813683396e-01
1.061125420746912962e+00,-1.012179037821097638e-01,-1.552849773431778990e+00,7.558472576553088018e-01
9.918122184080115922e-01,-1.006094890171159162e-01,-1.420373266935892609e+00,7.421681028296853722e-01
1.005033848058199730e+00,-1.032764700210975078e-01,-1.537841427123778359e+00,7.593034386988906093e-01
1.016844844230727629e+00,-1.055390780001768808e-01,-1.413344888502273911e+00,7.222834388914549653e-01
1.031554600512422981e+00,-1.014310560163030478e-01,-1.516755003038525285e+00,7.472048850184274116e-01
9.452123586384286735e-01,-9.883129796480817630e-02,-1.508636502527142209e+00,7.617845211655868143e-01
1.007546400610023873e+00,-9.836729954250474084e-02,-1.448814194552787704e+00,7.430931781203071740e-01
9.793977262186622790e-01,-9.627798367042571248e-02,-1.679410806912484677e+00,8.114196042362968875e-01
1.042368280254195589e+00,-1.051390502127785703e-01,-1.519490632587805257e+00,7.613218067081460871e-01
9.981146998242979018e-01,-1.023803979471440834e-01,-1.476822417836294088e+00,7.622457874124409782e-01
8.927689113069257054e-01,-9.470476809689121200e-02,-1.513584330637480102e+00,7.505627501640979027e-01
9.766145148610191340e-01,-1.019627389307750653e-01,-1.479104981499481664e+00,7.579179118326550002e-01
9.950342230129012311e-01,-1.041347587923828338e-01,-1.398358475332782014e+00,7.096288065351360475e-01
1.007880392768410793e+00,-1.009839995466075002e-01,-1.416649132985850157e+00,7.161472371520426483e-01
1.031414568117888120e+00,-1.050882880976179434e-01,-1.467536756570151146e+00,7.366975324351358045e-01
1.023950191651280761e+00,-1.032714717965091955e-01,-1.448824135303830030e+00,7.552680258149659931e-01
1.007201175168090490e+00,-1.043672432542153000e-01,-1.498233602936276387e+00,7.450288256623543992e-01
1.010688999437287183e+00,-1.014417648752828499e-01,-1.364562474050655005e+00,7.295014648291685555e-01
1.017559186750578659e+00,-1.009147354299168575e-01,-1.493450968583518446e+00,7.373454889269838164e-01
1.048173997824597636e+00,-1.048703909313775801e-01,-1.428790122997935841e+00,7.480797712665914201e-01
9.507540021086930970e-01,-9.574318565820626181e-02,-1.506029171627565333e+00,7.680277388408977002e-01
9.814408163926052753e-01,-1.047759338727825840e-01,-1.423953321426599805e+00,7.379870640358132672e-01
9.584063930915051044e-01,-9.860670441048487167e-02,-1.510901881651257828e+00,7.388603696952531497e-01
9.439989080325554838e-01,-9.809550448063622530e-02,-1.444531467297932581e+00,7.501594072987283202e-01
9.261361743274919567e-01,-9.740567023626879595e-02,-1.493231734482574513e+00,7.516041958311248106e-01
9.624388795989764489e-01,-9.837752958552709037e-02,-1.491546027020596910e+00,7.444706175357417299e-01
9.705501384117228847e-01,-1.040183755723968900e-01,-1.494504238207788438e+00,7.491110947964962907e-01
1.049215981313088131e+00,-1.034731128375519227e-01,-1.460037306083987296e+00,7.404207455674551852e-01
9.652975393017696470e-01,-9.396124983898677951e-02,-1.473359182449699212e+00,7.476499880588168834e-01
1.002103210100334429e+00,-9.624379441215034914e-02,-1.499556765775039269e+00,7.418575010895359645e-01
9.899339693646248550e-01,-9.848779286733187754e-02,-1.625498086754345595e+00,7.876330752108758881e-01
9.394978130637090530e-01,-9.430825434770249982e-02,-1.623771910492815884e+00,7.908789663290243244e-01
9.709148545529878715e-01,-9.871837066089818313e-02,-1.540666685667629654e+00,7.745872220258204210e-01
1.009123213786043083e+00,-1.052216353243276142e-01,-1.537529460877031129e+00,7.665921696769658622e-01
1.026749357360755122e+00,-1.019189601503794201e-01,-1.454963095709994159e+00,7.593059036156885044e-01
1.003337766016224597e+00,-9.804124527421380353e-02,-1.510173693069259970e+00,7.407570488225141414e-01
9.901498420811647438e-01,-9.785216910508581778e-02,-1.465379089174850158e+00,7.546796130357279475e-01
1.077464907959735818e+00,-1.005064176919590324e-01,-1.533884191820060972e+00,7.612453527524919439e-01
9.549423575265083564e-01,-9.548446427878251597e-02,-1.454581960091026582e+00,7.301177795141802207e-01
1.004030136442369381e+00,-9.425816755707576433e-02,-1.563323527093051224e+00,7.586376014465927575e-01
1.008276830384435829e+00,-1.006563545578033347e-01,-1.486949031057166026e+00,7.548678802100237117e-01
1.047951311655931361e+00,-1.020885998236592956e-01,-1.584235984063360636e+00,7.819015864797079773e-01
1.016636270124396058e+00,-1.028051434926668534e-01,-1.385453267051583559e+00,7.420365763379246360e-01
9.888249016356187582e-01,-9.909382471069780318e-02,-1.379902972539952977e+00,7.108144661374483642e-01
1.052600640493006834e+00,-1.071626004565343765e-01,-1.495566041194054563e+00,7.517595920782554897e-01
1.055370034608835716e+00,-1.061289061605761447e-01,-1.427421905055937135e+00,7.213918495375208906e-01
9.779363433174960152e-01,-1.035332436068883699e-01,-1.497685483613966584e+00,7.526538786713458107e-01
1.034258395712181144e+00,-1.048680241884783898e-01,-1.494205582349179773e+00,7.620937928990180188e-01
1.000089725218588077e+00,-9.794632599262660666e-02,-1.483374918015928356e+00,7.493767230863260798e-01
9.862223025567448120e-01,-9.438450267564499341e-02,-1.539254415963711820e+00,7.674076003835121895e-01
9.484489488346430353e-01,-9.898266906179854774e-02,-1.515032226512808000e+00,7.658460053253075550e-01
1.027914188447655697e+00,-1.058685557478463712e-01,-1.504478034200038783e+00,7.510553040631978705e-01
9.968704411689085498e-01,-1.026943449346883058e-01,-1.418464322473713235e+00,7.245402832528086146e-01
1.025402669910852493e+00,-1.035179674545399359e-01,-1.458348675061730715e+00,7.616311343816285495e-01
9.603421230190489766e-01,-1.002959340546073080e-01,-1.470755961828133840e+00,7.297524629034493060e-01
9.464509872000385071e-01,-9.819880467169161964e-02,-1.475430251299358675e+00,7.269671053308010000e-01
1.030228027471467023e+00,-9.822214969611078872e-02,-1.463806364805366300e+00,7.379307103929179101e-01
1.008794102969573059e+00,-1.028510825901465670e-01,-1.509365283281349779e+00,7.390193109113286640e-01
1.061715092708253927e+00,-9.832476371397046166e-02,-1.484058227771619887e+00,7.367329014240512342e-01
1.027752011480886241e+00,-9.816104023252739119e-02,-1.466039618522949173e+00,7.299907778822707360e-01
1.079469020116837985e+00,-1.030535228238545487e-01,-1.578398607864179848e+00,7.573916524367120262e-01
1.003443414711558512e+00,-9.640963674295918717e-02,-1.447747315168124160e+00,7.325745915734731550e-01
1.006131099571785814e+00,-1.044121377945521484e-01,-1.417267301831291793e+00,7.378357390485839051e-01
1.077369564671228019e+00,-1.006262360109107523e-01,-1.481094587327105971e+00,7.398512740779824570e-01
1.033445081196255444e+00,-1.056539104308948929e-01,-1.443393265894440392e+00,7.350177553294966470e-01
9.906106571090165236e-01,-1.020772633219716452e-01,-1.564840780513418350e+00,7.835514947641810668e-01
1.017049134398892551e+00,-1.064655352293584212e-01,-1.495864153931975027e+00,7.399915503788271343e-01
1.006621673768992364e+00,-1.027543865099074943e-01,-1.563728226920373165e+00,7.858751652728640513e-01
1.028381312786869506e+00,-9.979351008628224717e-02,-1.529862960186127996e+00,7.411752116928997935e-01
1.016176235994043386e+00,-9.764736612254441839e-02,-1.616389512073176604e+00,7.880487857467962654e-01
1.029998680958870816e+00,-1.073721546369015845e-01,-1.403256411789794766e+00,7.374895573399026238e-01
1.010523558120848264e+00,-1.001888032823900349e-01,-1.415678780104497880e+00,7.146080232203306792e-01
9.906989213403958328e-01,-1.023255812786138808e-01,-1.556225141536202505e+00,7.853744027208171552e-01
9.739147292865288907e-01,-9.715130395001418673e-02,-1.481667996211223803e+00,7.638031161095055754e-01
1.023772135257863702e+00,-1.003705207636550328e-01,-1.532794424821144474e+00,7.739072503179509344e-01
1.066121719038588767e+00,-1.049670639458266663e-01,-1.378904725363158779e+00,7.129313058039881135e-01
9.889371005764658884e-01,-1.033608739696277867e-01,-1.572204915106507173e+00,7.817837000356269161e-01
9.853106441968345619e-01,-9.641120888097404196e-02,-1.479537329902659071e+00,7.211578424654654373e-01
9.838926667997687225e-01,-1.002389301090305801e-01,-1.559137332126604658e+00,7.760361155923318766e-01
9.442899553185819528e-01,-9.457418272210769972e-02,-1.582903058715428912e+00,7.485292726936428886e-01
9.752668409829317042e-01,-9.482556185184476405e-02,-1.574829666491438740e+00,7.502177148096815795e-01
9.141208643544170842e-01,-9.503941063307146109e-02,-1.555705290652490191e+00,7.776124745574933828e-01
9.215272365614316508e-01,-9.506220946226044688e-02,-1.571500149597273355e+00,7.634596778157188846e-01
1.036758565328001369e+00,-1.040090364402214002e-01,-1.476821642460953266e+00,7.505176375330969707e-01
9.744135287237875032e-01,-1.022297950875860201e-01,-1.507618574347011853e+00,7.435268436056898800e-01
1.070745663446163398e+00,-1.027561270860138792e-01,-1.511187091995927156e+00,7.371256190421641152e-01
1.034965365133709625e+00,-1.024751234526123933e-01,-1.391780377738890406e+00,7.225432816055921137e-01
9.875576637965600701e-01,-1.046203191638975377e-01,-1.486561598104887860e+00,7.569744369115927185e-01
9.332834367788476193e-01,-9.581617738299483267e-02,-1.482678180749271712e+00,7.338795288616212220e-01
1.018775587125944515e+00,-1.058671131255533582e-01,-1.535195054844051166e+00,7.532686907187188252e-01
1.021317199778255747e+00,-1.003063058048164202e-01,-1.503676029748446830e+00,7.600657352240985931e-01
9.559923444879089294e-01,-1.012891668630697406e-01,-1.505560176276205642e+00,7.579793983235239008e-01
9.075800370638026360e-01,-9.294747360465868691e-02,-1.531453903391867044e+00,7.582798278415452398e-01
1.023517340483589777e+00,-1.022816692954662543e-01,-1.436543016321237598e+00,7.297856493156124058e-01
1.008512299108333954e+00,-9.858595017522409076e-02,-1.527521088456390563e+00,7.519317929761731856e-01
9.070544841868560804e-01,-9.357945711853303539e-02,-1.596272547979371126e+00,7.739051398832675899e-01
9.660398959422189513e-01,-9.985848214301157322e-02,-1.570587033119298592e+00,7.611750470219555975e-01
9.422505069801103694e-01,-9.872997462062758911e-02,-1.579479075545232369e+00,7.676184870482258837e-01
1.062241394784235293e+00,-1.016654702058771703e-01,-1.426639684664275931e+00,7.301389431563587440e-01
1.021526286763921210e+00,-1.055218890793659936e-01,-1.496092683345545016e+00,7.704728246981564777e-01
1.031442181593790419e+00,-1.004567591636487262e-01,-1.518739177970362730e+00,7.400574770780996570e-01
9.466221250756186034e-01,-9.569906101065335513e-02,-1.591054205671578403e+00,7.895796153731891032e-01
9.232502245249670780e-01,-9.725217124846093075e-02,-1.426637624382782743e+00,7.363355125413021396e-01
1.003731868768128033e+00,-9.819983603017855278e-02,-1.466768896502108177e+00,7.611590637205092325e-01
1.005900025764109307e+00,-1.038739388806766278e-01,-1.462338481514523725e+00,7.637626939126777037e-01
9.834197716273748169e-01,-1.014226751602766707e-01,-1.536515665054575930e+00,7.516843237723858095e-01
9.561354996322071198e-01,-9.494179144204910326e-02,-1.525803889116914336e+00,7.440340528592430669e-01
9.794390597106159557e-01,-9.747485517523882259e-02,-1.504847485137775109e+00,7.522723413063844289e-01
9.353110736629207667e-01,-9.547188979926880814e-02,-1.453585858592085778e+00,7.246520660513501300e-01
1.045058397887556279e+00,-1.036384807320794021e-01,-1.447664065392348709e+00,7.438408120240199706e-01
9.358666340750853019e-01,-9.841534654922055869e-02,-1.586804217099179404e+00,7.724602004829627111e-01
9.874676895312162195e-01,-1.008948472676709784e-01,-1.409584923421732139e+00,7.422441441295982711e-01
9.151957158701179429e-01,-9.477849676209390561e-02,-1.599296183376700542e+00,7.758976104562300691e-01
1.045974417480177276e+00,-1.034944369025196098e-01,-1.576153911850430189e+00,7.726802925074234274e-01
1.022423250062547861e+00,-9.870664584945278153e-02,-1.543092084959010180e+00,7.600474210745197245e-01
1.028418682304696796e+00,-1.014341112136899342e-01,-1.639894171066633266e+00,7.934060941294022173e-01
9.635275211218292668e-01,-9.363784147758416609e-02,-1.513478041622811965e+00,7.467145775620563919e-01
9.816648702162356077e-01,-1.008264061896538694e-01,-1.514240567722897390e+00,7.642228506541480781e-01
9.902432079642206064e-01,-1.013319973427400517e-01,-1.460771094553300120e+00,7.268829538119727651e-01
9.772279837755202259e-01,-9.931618792822081987e-02,-1.488020400049958392e+00,7.538075930590469875e-01
1.024781759196708997e+00,-9.552438536655909196e-02,-1.540551515678636685e+00,7.420529511620557184e-01
1.026506253488234544e+00,-1.072883301033320802e-01,-1.508822841179685348e+00,7.641916280696493535e-01
9.677352007372562737e-01,-1.007441625446705707e-01,-1.453530462023544967e+00,7.516913430160269138e-01
9.586767174770254307e-01,-9.973877470992617567e-02,-1.627009437174158579e+00,7.864242428225597381e-01
1.009946172690216804e+00,-1.033719829322558847e-01,-1.549025700538706918e+00,7.478370660771200829e-01
1.026329142828206642e+00,-9.984908908943815331e-02,-1.495704567218042458e+00,7.469780530743457270e-01
1.001210726895335412e+00,-9.831032491078636748e-02,-1.449036364632233953e+00,7.180979463198752244e-01
1.040751077804611402e+00,-1.046383998784847502e-01,-1.448344732999244711e+00,7.601036070404924017e-01
1.006901027275256100e+00,-1.015144424401123874e-01,-1.576932609703377564e+00,7.842970019527094605e-01
1.001162076031641091e+00,-1.021652584147765414e-01,-1.394755736975844984e+00,7.174596524394594166e-01
9.509946185411430886e-01,-9.892699901832203990e-02,-1.403643426414564743e+00,7.333217136044029028e-01
1.020071809028701981e+00,-9.901211128585965526e-02,-1.472075237279018900e+00,7.556365425847261230e-01
1.021444193368136411e+00,-1.056414104372487561e-01,-1.503329230501977198e+00,7.576565513515335359e-01
1.000304441179063586e+00,-1.054868135167820187e-01,-1.583811076930585759e+00,7.924125134025034045e-01
9.956001793364708252e-01,-1.016689475575365403e-01,-1.481410596662396273e+00,7.408963470676057650e-01
9.851673146347360577e-01,-1.023252685162871628e-01,-1.561256346976468867e+00,7.797343378523486912e-01
1.063784016085242756e+00,-1.028265401394163614e-01,-1.408533050445319068e+00,7.128802114576817672e-01
1.021369002187949349e+00,-1.048522238002416868e-01,-1.440092588167835697e+00,7.319404265351550087e-01
9.919107093807290054e-01,-1.034337919792760047e-01,-1.432081197353080038e+00,7.375868644770403604e-01
1.001139554896114170e+00,-1.012665807515043676e-01,-1.480812980154614156e+00,7.645135770681583676e-01
1.029265611236576117e+00,-1.037429972412710899e-01,-1.510398516849524864e+00,7.625094612797409521e-01
9.982819097514261664e-01,-9.642765382456543188e-02,-1.450573337534375451e+00,7.317705607899281928e-01
1.010912800694652391e+00,-1.013256890466162213e-01,-1.529480772432556090e+00,7.827882391793303807e-01
9.790093840179796558e-01,-1.050489263678895807e-01,-1.431410084241241165e+00,7.402184507940066105e-01
1.000102064185905082e+00,-9.835817910117776453e-02,-1.510289423475842163e+00,7.443081586858485421e-01
1.083103874139322631e+00,-1.054111977956844748e-01,-1.458810975908972019e+00,7.279682505596499764e-01
1.003998605245772113e+00,-1.004900135223308622e-01,-1.487628864656739935e+00,7.437681232058607206e-01
9.676949841157896914e-01,-9.809273407060335737e-02,-1.522639317061230235e+00,7.705578968206937551e-01
9.401652542413452274e-01,-9.573029356786806610e-02,-1.438248937705506769e+00,7.300753735547059753e-01
9.657041988358587847e-01,-9.771781073261176509e-02,-1.488309604087439286e+00,7.689119835376564405e-01
1.032675548463993120e+00,-1.067505194221596704e-01,-1.511097856850163845e+00,7.653124937291833074e-01
9.960350617053810307e-01,-1.012625687612675740e-01,-1.463169163464630662e+00,7.301637440984726224e-01
1.096170980771474346e+00,-1.083969790354307600e-01,-1.478614226834525702e+00,7.463317113045663254e-01
1.057357217156517759e+00,-1.028277046736202904e-01,-1.460675972602328621e+00,7.325092700097747267e-01
9.803137168820664771e-01,-1.012121163822753966e-01,-1.424459237989438964e+00,7.435091268486474503e-01
1.024503469718067050e+00,-9.937951477659674737e-02,-1.551184756818417609e+00,7.507812445615696939e-01
9.556763870897539981e-01,-1.002838433979393457e-01,-1.512256463762381875e+00,7.777787524387361762e-01
9.694914722475005409e-01,-1.043480826055003668e-01,-1.505179937355218156e+00,7.570923890329552819e-01
1.014677844161347986e+00,-1.002239842715271778e-01,-1.580113689338893179e+00,7.859984202278248455e-01
1.026919529674407139e+00,-1.058643824896512431e-01,-1.564178806312386039e+00,7.689320682790278250e-01
1.011748173072982482e+00,-1.010238303800429227e-01,-1.631416396148849923e+00,7.738148148884942401e-01
1.007042738870442378e+00,-1.064937427401773662e-01,-1.486126298274671687e+00,7.557581259389617445e-01
1.005142221219579524e+00,-1.044172728109269699e-01,-1.460665018444109009e+00,7.548047403196043170e-01
1.032792285352605255e+00,-1.030992590542078036e-01,-1.522361611621674493e+00,7.454792967775106804e-01
1.060210374459283900e+00,-1.017487203684970254e-01,-1.468413781494050996e+00,7.441877075240076467e-01
9.996531552331995307e-01,-1.020627269677506499e-01,-1.398411258240999100e+00,7.349126673190480297e-01
1.038863608847108821e+00,-1.038419189286129418e-01,-1.612853224779495109e+00,7.962815514784982174e-01
9.677413660393737738e-01,-9.721124556798105276e-02,-1.486705290168779170e+00,7.501097496066702064e-01
9.393668382168938180e-01,-9.572475491847379225e-02,-1.499179944083530502e+00,7.525814756734843236e-01
1.016357299932562519e+00,-1.028091240424507252e-01,-1.476915578620549230e+00,7.301593529153016515e-01
1.020621519384608211e+00,-9.708392293105853887e-02,-1.545876300104527923e+00,7.590376690223679113e-01
1.040786156621543279e+00,-1.032079693509793256e-01,-1.520495074301738914e+00,7.752763598867229433e-01
1.056491734646897607e+00,-1.015705081008348720e-01,-1.521861382695685938e+00,7.342377173919443223e-01
9.789422497029195425e-01,-1.019266952244961277e-01,-1.435964621021515786e+00,7.309449716180509427e-01
9.994880371354838422e-01,-9.759243505309803113e-02,-1.600543752639588480e+00,7.841158454726455673e-01
9.906794368306284237e-01,-1.010776377960368733e-01,-1.593793631136650291e+00,7.738255867289979273e-01
9.741540947221388747e-01,-9.528358780895494762e-02,-1.499976986235815213e+00,7.541908397350490789e-01
1.021902089955963877e+00,-9.999360363512649341e-02,-1.410477408959251777e+00,7.428977659720796822e-01
9.507548068558858700e-01,-1.007655635966105134e-01,-1.483506289544280765e+00,7.412271332591913175e-01
9.531467190839045811e-01,-9.586015294409802601e-02,-1.397167490751203500e+00,7.276309386943552449e-01
