1.006316860139322866e+00,-1.008313740258163366e-01,-1.503989288058605434e+00,7.533296623784773161e-01
1.004657183774675611e+00,-1.016179675199165022e-01,-1.485885116336397305e+00,7.424034608518343958e-01
1.009328794469124935e+00,-1.020427221293932485e-01,-1.495321493940451774e+00,7.504741604366348406e-01
9.939820128332282900e-01,-9.960897520798846216e-02,-1.495766072098103194e+00,7.534994527137626186e-01
9.909907332360045062e-01,-9.913805895916155686e-02,-1.526716302121144730e+00,7.494677909778274527e-01
9.927189405803984457e-01,-9.862141928917239619e-02,-1.494437186052054889e+00,7.478812520245722295e-01
1.007999592606687367e+00,-9.971641994830311717e-02,-1.496185317962249961e+00,7.435004315407560682e-01
1.012683516076270163e+00,-9.951381499019687493e-02,-1.502258518414729238e+00,7.487586625093508585e-01
1.002279065263644631e+00,-9.968024029885667880e-02,-1.530347616945870515e+00,7.602851197418996065e-01
9.969070917676606802e-01,-9.889769589436535335e-02,-1.482878709869740685e+00,7.434310297441649729e-01
9.739378065127274331e-01,-9.757504580209662437e-02,-1.510737120545331713e+00,7.527343936083908948e-01
9.919328520594250520e-01,-1.010934409651312316e-01,-1.490811536307415475e+00,7.547160163116297671e-01
9.855115181378479861e-01,-9.938608441938015514e-02,-1.513863639130709426e+00,7.542043835166036825e-01
9.870799940702225106e-01,-9.953149902537716809e-02,-1.478592401728834549e+00,7.370187296943311317e-01
1.008352476443148626e+00,-1.013277972819425221e-01,-1.462982609597343275e+00,7.408111858532290261e-01
1.014812002761535714e+00,-1.013880412015649990e-01,-1.480525986097834146e+00,7.453857070402045704e-01
9.713017400136872981e-01,-9.888192400617761002e-02,-1.511427434171677797e+00,7.501146301162602281e-01
1.012948600924090892e+00,-1.009919396842224038e-01,-1.478034512312041526e+00,7.483107701456781502e-01
9.828746173328229974e-01,-9.883515533055099722e-02,-1.483000202443718996e+00,7.502626534473846309e-01
9.910949044015129328e-01,-9.982851529168922100e-02,-1.501379165280308348e+00,7.489517837683651313e-01
1.006472923473906267e+00,-1.015887284723457490e-01,-1.466620126303140204e+00,7.426365730122226338e-01
1.020335591311182011e+00,-1.026869580870255066e-01,-1.490344455809053947e+00,7.501517333920486585e-01
9.911419216687202827e-01,-9.902794617029928026e-02,-1.508282173613392452e+00,7.504951711441996132e-01
9.832493722023494254e-01,-1.002942725123506379e-01,-1.511958836282712770e+00,7.515370570906605430e-01
1.003249685867026786e+00,-9.964951099024808856e-02,-1.496525749902094971e+00,7.522837320600733735e-01
9.805459407011547501e-01,-9.811203639183531389e-02,-1.476595949539338148e+00,7.444151362294985086e-01
9.780032247718143390e-01,-1.000145422135609724e-01,-1.474120221927379903e+00,7.487504555191976108e-01
1.001069128741530534e+00,-1.017408698637802811e-01,-1.513300372708601182e+00,7.506845457338631178e-01
9.984594855685604564e-01,-1.018088688423633703e-01,-1.513758831917749070e+00,7.601512968056599595e-01
1.009352800686598828e+00,-1.004761102882318624e-01,-1.529996684366499160e+00,7.618714008727069942e-01
1.026162235646367327e+00,-1.019611812371113702e-01,-1.507615831689492758e+00,7.586605411727810333e-01
9.980358303356515748e-01,-9.909736460554564863e-02,-1.487149127549836303e+00,7.476913027123884836e-01
1.014320098577988771e+00,-9.985937124164820378e-02,-1.531831939565116762e+00,7.540914441037482874e-01
9.922485994016044808e-01,-1.000609223105314860e-01,-1.489292060322647160e+00,7.461839872781623750e-01
1.007196193240179172e+00,-9.932833998909799955e-02,-1.500864252162098067e+00,7.458357620637067198e-01
9.885612387159800063e-01,-1.005110169836332112e-01,-1.482049017383584744e+00,7.440442643293163627e-01
1.009019129873106602e+00,-1.005295220167474191e-01,-1.489404070773052036e+00,7.517011496940007031e-01
9.903889414761378740e-01,-9.908137422828582064e-02,-1.520954395501427081e+00,7.472808448451425667e-01
9.742750018092606323e-01,-9.869595260145676285e-02,-1.508776401522984534e+00,7.532818985877780538e-01
9.993654030854266512e-01,-1.002748146442410532e-01,-1.495986952877225828e+00,7.446222093519022645e-01
1.005293364840938564e+00,-1.021494378817403570e-01,-1.492658142798060306e+00,7.449647533935634947e-01
1.003687518913771282e+00,-1.014938073503532240e-01,-1.464061182891095214e+00,7.388016038205630354e-01
1.014009603415135574e+00,-9.987571570358584616e-02,-1.510975603497356046e+00,7.474516490234912602e-01
9.718073724339484354e-01,-9.892918128258602894e-02,-1.481989263563603831e+00,7.479562239843468019e-01
1.004570500477956596e+00,-9.965179266848626927e-02,-1.517740869910479962e+00,7.610172641725290177e-01
9.881539030983546024e-01,-1.001733794521897231e-01,-1.469743394390688573e+00,7.483977345923699120e-01
9.802287097139681382e-01,-9.991228742049521050e-02,-1.476514121808777613e+00,7.495373561618936531e-01
9.780718498343765610e-01,-1.005086334438934081e-01,-1.476813902915633303e+00,7.487057048971559325e-01
1.005204020249285568e+00,-9.934686748090029718e-02,-1.487316739156970380e+00,7.475290063452727507e-01
1.003178099616246710e+00,-9.866785646265248400e-02,-1.513074799916676039e+00,7.520952124117548099e-01
9.790470124767377547e-01,-9.892349115777961110e-02,-1.502282204611482097e+00,7.537095744566011390e-01
1.003165712308724311e+00,-1.012256770725682153e-01,-1.490935381455443354e+00,7.425574067706964820e-01
9.879539992499566381e-01,-1.002217183523995137e-01,-1.510117930308136014e+00,7.534298298108587089e-01
1.002018577867708871e+00,-1.002504096556625784e-01,-1.479895520202455517e+00,7.486142086315332733e-01
9.807062422936589918e-01,-9.901618889504980314e-02,-1.520461664411137059e+00,7.478719002768194901e-01
9.927831305981353882e-01,-1.000816200339653267e-01,-1.490182599398747865e+00,7.396599234787043509e-01
9.798365848309222859e-01,-9.906232534099017328e-02,-1.495948965567012845e+00,7.556583361688182787e-01
1.008988088070503331e+00,-9.893492256861120826e-02,-1.499351415734358151e+00,7.429601968431647219e-01
9.827465421092084208e-01,-9.888014175847721632e-02,-1.483231552971582712e+00,7.437200229789929784e-01
9.800273208190929397e-01,-9.840765841691380411e-02,-1.483766121436846719e+00,7.514034331300458724e-01
9.965345110758823122e-01,-9.975409279857479217e-02,-1.478549328253268680e+00,7.457432119417598537e-01
9.918385819181667618e-01,-9.905337467365905868e-02,-1.539893233004422823e+00,7.626166488636650920e-01
9.951625811393260967e-01,-9.999569578128528202e-02,-1.506353878570893645e+00,7.603760250615315686e-01
9.972465172940796485e-01,-9.793353459349161960e-02,-1.498814711030059810e+00,7.518322447676313303e-01
9.675269036707755399e-01,-9.754105625463826978e-02,-1.515607415215655340e+00,7.544016488925714414e-01
9.973572525534787347e-01,-9.879952304753883419e-02,-1.473730783068707417e+00,7.427547344926698214e-01
9.907715342192551233e-01,-1.002817852319911607e-01,-1.476966865832541220e+00,7.436417356129693124e-01
1.014903495574608794e+00,-1.002613045560068611e-01,-1.505223979013931013e+00,7.508247090808167767e-01
9.957582095678572109e-01,-1.010676290818300904e-01,-1.494669860300386954e+00,7.509056706573633555e-01
9.940530372795666203e-01,-1.000867052842289717e-01,-1.471952757660232258e+00,7.468886726976498025e-01
1.020341273821479433e+00,-1.022853908310471238e-01,-1.477135035121114770e+00,7.489553931233489115e-01
9.937880678473804963e-01,-9.922346026163467170e-02,-1.546393657445608527e+00,7.665473131438517163e-01
9.979662517808404187e-01,-1.007322096424470709e-01,-1.472528642451808256e+00,7.489279495403849962e-01
1.011306255631300388e+00,-9.966320670600282983e-02,-1.523896772968603708e+00,7.509874506874931743e-01
1.001928646537883605e+00,-9.991734971337681848e-02,-1.470600908271087803e+00,7.409310375468288745e-01
1.014916164531249221e+00,-1.008389358951995995e-01,-1.481095042953058938e+00,7.388843077845789198e-01
9.977402508052937158e-01,-1.001397554478547780e-01,-1.490472331235082493e+00,7.405167786350769221e-01
9.931396867111834670e-01,-1.008284418509863278e-01,-1.510737084988732049e+00,7.466283996526351663e-01
9.954941022235194170e-01,-9.856858869508673682e-02,-1.552441452476003070e+00,7.610308273318877603e-01
9.897779576818662717e-01,-9.951900564995178056e-02,-1.470715546871083301e+00,7.496144964424487078e-01
9.919014097801559515e-01,-1.013487729096909651e-01,-1.477251717553943910e+00,7.503134606500052595e-01
9.984492976427694622e-01,-1.005421629751840351e-01,-1.554548588878058579e+00,7.657741968918807540e-01
9.965069399933885741e-01,-1.010796762988340342e-01,-1.520078370317143435e+00,7.525374892542416871e-01
9.909647110634980383e-01,-9.926676623859487236e-02,-1.500039175055862373e+00,7.444837771446130015e-01
9.807084963159018454e-01,-9.886354840165152702e-02,-1.468850463109867555e+00,7.400580399643421625e-01
1.001557198645512736e+00,-9.946330301900384308e-02,-1.482517789930502650e+00,7.481735429970509665e-01
1.010008043201211292e+00,-1.021845505730702569e-01,-1.499277696777639557e+00,7.487218065454044336e-01
1.009039525215349009e+00,-9.982386105727807102e-02,-1.491512739601186910e+00,7.489692389021084251e-01
9.887970607331568740e-01,-9.864645625582374455e-02,-1.480833207766786064e+00,7.504622430532346122e-01
9.931916177497920328e-01,-9.987824405481908474e-02,-1.485559756385794961e+00,7.486002898822978757e-01
1.006395996144256344e+00,-1.013587974964225147e-01,-1.496759794038354352e+00,7.553361560633697902e-01
9.918844567958831071e-01,-9.972624401385379866e-02,-1.498075971536692030e+00,7.492255296552113863e-01
1.014701537354545602e+00,-1.019085548296622679e-01,-1.486910630886839169e+00,7.492361228968069664e-01
9.888656624690879138e-01,-9.824827485731499332e-02,-1.505991335161743994e+00,7.459123466703385663e-01
9.895324999912393782e-01,-1.006987707218066630e-01,-1.514714506190104171e+00,7.580511894132073714e-01
9.800199855291349404e-01,-9.781421916780042025e-02,-1.515035556696825436e+00,7.458280423010550386e-01
9.786248566678442673e-01,-1.000510034080304284e-01,-1.517111559250220898e+00,7.538290133171868801e-01
9.867950413040982305e-01,-9.831973707392258066e-02,-1.520358519345643478e+00,7.508816354553232708e-01
1.007684329484068275e+00,-1.006439799894548320e-01,-1.518745365702102612e+00,7.600675269735914785e-01
9.712282250001460504e-01,-9.866066288018054964e-02,-1.506070748094392897e+00,7.474970931298050569e-01
9.939618890542424312e-01,-1.000351787670923365e-01,-1.523799538498385564e+00,7.601803208650736998e-01
9.960193299433214298e-01,-9.976782988629941118e-02,-1.458142378677649287e+00,7.452288862457578933e-01
9.956246417215129929e-01,-9.926908875011702937e-02,-1.473567720539383341e+00,7.433383950840252163e-01
9.990120122545352865e-01,-1.001871175327746083e-01,-1.524140720996937537e+00,7.518722187176321015e-01
9.942533042033467883e-01,-1.011378576850472666e-01,-1.479113964714267704e+00,7.440169079890602832e-01
9.956835564007238126e-01,-9.859141324248642257e-02,-1.504788155812520456e+00,7.457241741396376522e-01
1.022993122474828542e+00,-1.020445787094547557e-01,-1.480883900994492297e+00,7.497547990221473668e-01
9.943025905094167172e-01,-1.005217255791400199e-01,-1.510891647275846239e+00,7.543006015459765567e-01
1.002573325567833740e+00,-1.004682423743725184e-01,-1.496123140607507507e+00,7.516573044331792408e-01
9.913035403762570086e-01,-9.853107536355350249e-02,-1.528428314751074879e+00,7.616680901252183000e-01
9.930721857052939860e-01,-1.009888238842568259e-01,-1.468389965315014978e+00,7.407111791561430403e-01
1.011761285745421901e+00,-1.008790711420460007e-01,-1.515535912890375370e+00,7.519128986211613963e-01
9.857984282434684165e-01,-1.002219864420331036e-01,-1.495915092216919318e+00,7.433379762675245139e-01
1.000766307300698710e+00,-1.021001547227016470e-01,-1.478788329423238013e+00,7.452901614036154809e-01
9.920316727158545733e-01,-9.927184314049254665e-02,-1.497990665495838591e+00,7.492728090323415024e-01
9.852282426035577911e-01,-1.000462675238023430e-01,-1.478248002197835032e+00,7.460957911917313057e-01
9.931771144034405863e-01,-9.858739638769738189e-02,-1.466142159957888547e+00,7.418728386573428812e-01
9.824564216660481852e-01,-9.807717129810447632e-02,-1.540328999534427368e+00,7.525135014719711579e-01
1.019243167642536196e+00,-1.015526501095535827e-01,-1.475921643931189076e+00,7.493400975466069092e-01
9.805406696432399372e-01,-9.879475190850273147e-02,-1.511999684558338108e+00,7.540301837709608712e-01
1.014298493360822340e+00,-1.019410436460056191e-01,-1.476109126720925202e+00,7.390980276570833229e-01
9.808403970401504690e-01,-9.906722703764475613e-02,-1.507818353834140090e+00,7.487315081117932314e-01
9.894240949361182702e-01,-9.856484011679454704e-02,-1.470800060619723348e+00,7.410454986938161959e-01
9.978425071784431388e-01,-9.961341748101744387e-02,-1.532069274667893000e+00,7.529554043744444147e-01
9.790318903919614790e-01,-1.004051949575195807e-01,-1.483588707000860651e+00,7.483054555810177977e-01
9.698576721187360805e-01,-9.862856845741165002e-02,-1.512688406383505990e+00,7.515221280036444851e-01
9.972425035922967140e-01,-9.867780464171348187e-02,-1.523296100969779632e+00,7.544630567563661572e-01
1.001125504305660163e+00,-1.010850447388347284e-01,-1.457471332594103330e+00,7.403954362129221423e-01
9.828774634961232604e-01,-9.767440547597742995e-02,-1.489513845087264921e+00,7.476324414679157426e-01
1.003489857900070392e+00,-9.937629402037710669e-02,-1.500504212356157607e+00,7.423254887789576539e-01
1.002243640239230738e+00,-9.973359805143876267e-02,-1.490560016122093101e+00,7.434782328486431169e-01
9.771945752617068326e-01,-9.893754657136517860e-02,-1.517061488458778751e+00,7.526221045273649990e-01
1.014632163847174473e+00,-1.000548579759247547e-01,-1.506462662826798971e+00,7.447584784586122053e-01
9.881284931433548246e-01,-9.886585958586992240e-02,-1.476794194460609999e+00,7.384601427810471019e-01
1.009283418584015601e+00,-1.001137679320249219e-01,-1.492950378498226982e+00,7.510491358958254482e-01
1.013185883104067653e+00,-1.005163159906162645e-01,-1.484812471166283787e+00,7.386654945186776899e-01
9.912690725395213454e-01,-9.888847517453740188e-02,-1.535339756628092189e+00,7.608405613818753910e-01
1.004549246244665683e+00,-9.882240615739465439e-02,-1.522309952579593562e+00,7.509077593579748244e-01
1.000011720414018423e+00,-9.888469290538549894e-02,-1.511661406022925869e+00,7.550741987474298700e-01
9.734762497994592367e-01,-9.898172954302771054e-02,-1.495071393780289970e+00,7.469308300656692934e-01
1.001936223068103260e+00,-9.924987276443958395e-02,-1.507694814256099969e+00,7.518453673195165665e-01
9.786882555785809679e-01,-9.919645423979053800e-02,-1.529192086719380006e+00,7.580592360170056443e-01
1.003510963597680883e+00,-9.992825336265512282e-02,-1.516615755918841124e+00,7.527187394371041007e-01
1.012502001348314806e+00,-1.008164560769184981e-01,-1.516437821348914916e+00,7.582318938562169208e-01
9.881623573785907055e-01,-9.993973524094050542e-02,-1.495797316634943419e+00,7.504652777835649768e-01
9.862958128306691385e-01,-9.996879344415890434e-02,-1.525384261286653720e+00,7.569628626221114320e-01
1.007172172418199896e+00,-1.001769108753847448e-01,-1.492206507578256902e+00,7.512779378511442729e-01
9.967376297923659090e-01,-9.978171346050458690e-02,-1.512487499195838137e+00,7.537218439425207306e-01
9.748917315783963700e-01,-9.873457603200944122e-02,-1.507014399136752614e+00,7.474628808624257381e-01
9.889041085186439650e-01,-9.949313942163116875e-02,-1.492361357778942743e+00,7.489898569701824993e-01
9.768319601499461102e-01,-9.663948552946576009e-02,-1.513175651874711258e+00,7.497667308295876687e-01
9.788197001108048800e-01,-9.915029386763932195e-02,-1.495268249732986554e+00,7.534540548871204724e-01
9.906150406632322492e-01,-9.872438174991368665e-02,-1.489269068548158437e+00,7.476701784792273431e-01
1.014884264619485776e+00,-1.020366355746227527e-01,-1.481705330758813277e+00,7.415117043236980621e-01
9.991148169926366007e-01,-9.931875599179998404e-02,-1.502503683832765669e+00,7.516013437673930708e-01
9.956918966372260149e-01,-9.925874392098674170e-02,-1.535239851357803165e+00,7.600177273213420959e-01
9.869011862568481952e-01,-1.005090570541632838e-01,-1.486959995355100705e+00,7.476452560908442013e-01
1.007556677146106638e+00,-1.024180386424461686e-01,-1.486763734250186486e+00,7.486264467916222687e-01
1.005414081070201249e+00,-1.010307047239672879e-01,-1.508488150140804507e+00,7.526261319414970785e-01
1.014770024656034497e+00,-1.013824752800884937e-01,-1.505660120119960421e+00,7.507280935073157302e-01
9.935374866163090291e-01,-9.766176128654148469e-02,-1.538652904856364412e+00,7.566901368778515824e-01
9.975121027159996601e-01,-9.862048250415109130e-02,-1.503544538751780957e+00,7.514739503735211601e-01
9.922524529126435233e-01,-9.944735021983810985e-02,-1.494345436448607289e+00,7.530452553277028338e-01
1.004023051974442193e+00,-1.010351861056864170e-01,-1.530258742992381737e+00,7.542630924841791096e-01
1.004936904371741546e+00,-9.972511342493697861e-02,-1.512032822053870129e+00,7.519855265847513737e-01
9.998732021316374396e-01,-1.014857987349569862e-01,-1.521078965188008336e+00,7.592536498066980721e-01
1.000109637298664644e+00,-1.000683877073661882e-01,-1.517557858976158469e+00,7.549549050819125418e-01
1.004108895780398747e+00,-9.972403601315130151e-02,-1.495629200022994931e+00,7.490784749562328093e-01
9.946484569497739958e-01,-1.015751929740179998e-01,-1.480205187473303097e+00,7.462494423956496092e-01
1.020639334802889042e+00,-1.008382389006563934e-01,-1.496566588960800415e+00,7.548139210332839300e-01
1.009975691298141243e+00,-9.931053927550766158e-02,-1.503839105818541855e+00,7.506011906809052503e-01
9.856454051093628266e-01,-9.894696145864037562e-02,-1.492668480512562956e+00,7.519198456981629475e-01
9.897891425805599441e-01,-9.932438362483797523e-02,-1.498716102618877555e+00,7.441624987951284131e-01
1.009302069960672288e+00,-9.920706018744136767e-02,-1.502391243991252345e+00,7.519613903414371636e-01
1.004162760901059270e+00,-9.892257718701137625e-02,-1.512150042619435864e+00,7.511414904579926111e-01
1.007288946369697902e+00,-1.011966657481264964e-01,-1.506783717438361148e+00,7.536870207875626670e-01
1.017637063988004575e+00,-1.008690149665844166e-01,-1.496789375811141021e+00,7.462408798524212683e-01
9.814659725327846695e-01,-9.810671682024757478e-02,-1.520728737856570367e+00,7.571038672887950849e-01
9.871163020736128946e-01,-9.989441444885192867e-02,-1.481315395234762411e+00,7.467961188402095773e-01
9.848347708347916507e-01,-9.924609359467807812e-02,-1.499254644758778676e+00,7.581718652977857964e-01
9.771687712802914483e-01,-9.731342131469809809e-02,-1.512859585789078531e+00,7.535234588327908156e-01
9.778950673700131935e-01,-9.789553134820140612e-02,-1.497762762679717197e+00,7.493587821062123178e-01
9.942771055862700269e-01,-9.854032291756389950e-02,-1.516085529988682401e+00,7.500413191617710806e-01
1.000787063580142355e+00,-1.008832662092568611e-01,-1.446494881271536581e+00,7.362720886723426172e-01
9.951851511609096645e-01,-9.879372342921588501e-02,-1.511217037896144255e+00,7.461926271978858161e-01
9.711541944245857261e-01,-9.789446662414236222e-02,-1.500420697607538933e+00,7.450111332082511861e-01
1.014282811402799078e+00,-1.006308777190434850e-01,-1.516240597788817146e+00,7.560919205535476806e-01
1.000284995625293938e+00,-9.834332994100253300e-02,-1.536058869643523561e+00,7.558247932251640488e-01
1.006254184459305812e+00,-1.013067814692707042e-01,-1.470060875356381302e+00,7.438999932349257271e-01
9.834839618310855514e-01,-9.946885652604134376e-02,-1.512514845383872375e+00,7.527631817954226756e-01
9.883116063663754947e-01,-9.995832464560842900e-02,-1.502961450967659207e+00,7.534199319607546297e-01
1.010183221229948192e+00,-9.889353356732197287e-02,-1.525018720565458619e+00,7.576471793464552018e-01
9.809944136110615442e-01,-9.881512743894230177e-02,-1.506036781109907796e+00,7.473476908235939797e-01
9.847711000929586511e-01,-9.857700923621980083e-02,-1.474187260382229692e+00,7.405575291918266023e-01
1.006142639616499412e+00,-1.013840163719743753e-01,-1.479876081867309567e+00,7.433890747382443376e-01
1.014374387509040965e+00,-1.011912389365479392e-01,-1.504689807701047322e+00,7.564315948128113032e-01
1.012427692631118203e+00,-1.011315041235024553e-01,-1.473447113345762949e+00,7.426531165213912100e-01
9.945785996389091554e-01,-9.998367027073994107e-02,-1.460946588889257658e+00,7.396695234435776145e-01
9.968847646236590476e-01,-9.976277924614902759e-02,-1.475810381576967201e+00,7.412564845216308429e-01
1.016217887442979029e+00,-1.017334053816449091e-01,-1.525952517976504774e+00,7.620350357225665894e-01
9.977606520320281280e-01,-9.847435905268477063e-02,-1.494265868052843560e+00,7.425247308988129902e-01
9.824663032016539566e-01,-9.775377635845948487e-02,-1.525762051691413435e+00,7.532705980329071904e-01
1.020215843839764380e+00,-1.022803380650225413e-01,-1.485106757518814602e+00,7.450115317830727779e-01
9.920856138553043602e-01,-1.011125329166411013e-01,-1.482411444389845956e+00,7.528489446176067634e-01
9.984059939269327444e-01,-9.999657066138217809e-02,-1.527181674745365259e+00,7.634128981121590662e-01
1.005033465736768550e+00,-9.992444265440217355e-02,-1.492970786924270543e+00,7.406034446600751053e-01
9.888247961588091384e-01,-9.974422355171849719e-02,-1.474137915831585488e+00,7.376605579333672669e-01
9.839000948927355550e-01,-1.002130001739190007e-01,-1.510330414545754341e+00,7.517550635686978122e-01
1.016203842518256684e+00,-1.007596924424157686e-01,-1.489795816083008928e+00,7.456478644811883605e-01
9.910224269578741252e-01,-1.006966040928052447e-01,-1.489584542388225463e+00,7.441121267451000776e-01
9.852409234014483097e-01,-1.004197360524673038e-01,-1.507381743190351786e+00,7.569065570562369949e-01
1.001779373360120129e+00,-9.884108116602027816e-02,-1.497269789291071573e+00,7.453787886360423443e-01
9.679652515504792998e-01,-9.878967973876137676e-02,-1.502141695543534494e+00,7.544113707688618886e-01
1.008842238923730150e+00,-1.017037633366296573e-01,-1.495734423107357491e+00,7.469436173472299156e-01
1.008184777030560975e+00,-1.020966774875255306e-01,-1.496280253316190079e+00,7.490303492676259056e-01
1.000195074354035318e+00,-1.006637743092981957e-01,-1.513799928447588927e+00,7.518406550618894624e-01
1.007803472430782055e+00,-1.011595230618686364e-01,-1.503098634215555895e+00,7.515020949927998517e-01
9.617496390225387382e-01,-9.819689925546037923e-02,-1.532306155742183540e+00,7.543700264817779777e-01
9.754888510010887304e-01,-9.824036240215877624e-02,-1.471276193758800588e+00,7.462129705565889726e-01
9.946007865688222260e-01,-1.003313338574709918e-01,-1.533275283361843044e+00,7.575248382247381507e-01
9.922547039643754285e-01,-9.979254924199211507e-02,-1.503324467690400512e+00,7.567256012001845056e-01
1.010089396060369182e+00,-1.014349539761472407e-01,-1.496806681100014469e+00,7.529637297224602843e-01
1.005096329270339206e+00,-1.021489818972970282e-01,-1.489534883075427363e+00,7.480017502401895557e-01
9.655283498323213864e-01,-9.827724323899904302e-02,-1.501132378674132406e+00,7.503681223192717464e-01
1.010362494464243754e+00,-1.001231734554893366e-01,-1.489535011516967211e+00,7.441357572550686417e-01
1.002697752518934671e+00,-1.009627371808451135e-01,-1.489687844512793458e+00,7.497109924652237689e-01
9.893136850060830767e-01,-9.931561057160553929e-02,-1.538417280560494982e+00,7.581211221085023544e-01
1.006349762500758915e+00,-9.925495098857745058e-02,-1.500228109047829328e+00,7.500430588920460329e-01
9.972761062916009056e-01,-1.013414430650851905e-01,-1.475195312048881213e+00,7.482500481579791307e-01
1.008440608984596087e+00,-9.927790820921000847e-02,-1.512163424474499918e+00,7.548331551602959211e-01
1.013223390433855231e+00,-1.018160002739434272e-01,-1.470367469415075012e+00,7.465469483128214234e-01
9.886307012907421532e-01,-9.939318815486941627e-02,-1.458228885654813567e+00,7.403596873818323321e-01
9.795188485503361076e-01,-9.842895601341547507e-02,-1.520094643986714900e+00,7.498871407947833578e-01
9.994090649553375449e-01,-1.000878371174089565e-01,-1.477769434733001708e+00,7.496021999085661358e-01
1.007087177962382007e+00,-9.990435501258192186e-02,-1.515540297123072921e+00,7.556195090207663556e-01
1.016801158707706820e+00,-1.013853234596797936e-01,-1.496638803896302328e+00,7.544707309525253702e-01
9.849917818914978307e-01,-1.005152605604899829e-01,-1.509006535843247843e+00,7.477482193338369498e-01
1.006352847750166202e+00,-1.015603797637595757e-01,-1.497901216703395155e+00,7.522222055750944492e-01
1.022827636169216348e+00,-1.006138557450463461e-01,-1.517847913147393868e+00,7.560505850718588494e-01
9.887840144554094213e-01,-9.942307579271186802e-02,-1.505861304818904456e+00,7.572042479076928068e-01
9.954713613864465405e-01,-9.927983603065970719e-02,-1.521976940100008280e+00,7.580124314762455295e-01
1.020666555291252386e+00,-1.011281775109710845e-01,-1.533828782667901791e+00,7.621677618370227281e-01
1.008635357121479226e+00,-1.006266523629179982e-01,-1.504919401065692552e+00,7.611495310272826664e-01
1.029339977945031848e+00,-1.016729091112770905e-01,-1.482227745783840644e+00,7.453985287931655934e-01
9.936027399195453969e-01,-9.959262022050856256e-02,-1.491464116239252125e+00,7.472311756623937207e-01
9.907308510934391688e-01,-1.002434299826875791e-01,-1.498391164596675429e+00,7.472698233296483084e-01
1.012445352262807630e+00,-1.000238029656153049e-01,-1.531872672764306165e+00,7.619315879803929548e-01
9.862144430022461439e-01,-9.966887807484131612e-02,-1.528972431497601203e+00,7.605141158634461940e-01
9.990043553210431471e-01,-9.926641046124075329e-02,-1.519258895486582883e+00,7.519079358631035603e-01
9.908859641252092398e-01,-9.986809247013507529e-02,-1.505333304966657515e+00,7.569967744571685087e-01
1.004214474578442706e+00,-1.007950865598974677e-01,-1.500289149449247850e+00,7.579268383838382306e-01
9.801022946098237876e-01,-9.878452009162454195e-02,-1.500362863274522285e+00,7.547162002125225033e-01
9.926468290467368449e-01,-9.913527995270017545e-02,-1.486084330631928463e+00,7.409633061585931824e-01
1.001477943930078718e+00,-9.930919339466721951e-02,-1.506515981393573567e+00,7.488799296750274781e-01
1.005165431936263065e+00,-1.004881952797601341e-01,-1.538799172907723944e+00,7.621928339175148004e-01
9.850473697912341953e-01,-9.781016672665490685e-02,-1.500723782865057698e+00,7.505231018259763687e-01
1.002743508383490578e+00,-9.930402086791452476e-02,-1.500813663796458641e+00,7.434695103971399321e-01
9.986563585802324949e-01,-1.001397468381042127e-01,-1.508021022163214653e+00,7.517791004598883831e-01
1.001260661177767686e+00,-9.883496049196037470e-02,-1.490108740100731355e+00,7.444697369939879961e-01
1.007585069338789774e+00,-1.000547337722977742e-01,-1.497953710150472295e+00,7.479528734015268299e-01
9.804113946572668992e-01,-9.770911250343067289e-02,-1.522212200993908526e+00,7.551102120354352687e-01
9.789213706831860762e-01,-9.748129440939930224e-02,-1.521259478711729951e+00,7.575416488393977854e-01
1.024506642725144134e+00,-1.013285400840859135e-01,-1.513336301315600041e+00,7.508833562078975898e-01
9.748612647935921416e-01,-9.717238750422461935e-02,-1.524165684754534844e+00,7.489451768490149597e-01
9.806544921960566041e-01,-1.000521292954038577e-01,-1.509221318881911689e+00,7.582445879071475492e-01
9.988961458652605430e-01,-9.964521062086371950e-02,-1.497152587135821111e+00,7.452919738492844726e-01
1.006165963137320984e+00,-1.007356301963900358e-01,-1.504347675493009406e+00,7.577474297480769616e-01
1.008323321388209681e+00,-9.973057730940212973e-02,-1.493128487451445663e+00,7.518294117357535722e-01
9.791879249938186813e-01,-9.738885403747506164e-02,-1.532609765748174979e+00,7.583467838859243582e-01
9.810890250041693905e-01,-1.007224874512845786e-01,-1.510519461663037744e+00,7.568604720156935084e-01
1.018259121548937385e+00,-1.004490709717508479e-01,-1.504992200950339365e+00,7.462011279571151290e-01
1.005935581390285272e+00,-9.830645720934391707e-02,-1.517210276055050100e+00,7.522624032599276589e-01
9.843006325995694583e-01,-9.833063760187518709e-02,-1.506406052553984409e+00,7.422977284947601673e-01
9.965858670542806497e-01,-1.016894612654433427e-01,-1.484176147132836299e+00,7.501288726185484368e-01
9.929680185329838871e-01,-9.862825554418462592e-02,-1.519270516267219984e+00,7.506702800608946458e-01
9.844176334066204737e-01,-9.934100905897381983e-02,-1.518611668249140845e+00,7.542151985443505957e-01
9.718716976030141730e-01,-9.823556158902453650e-02,-1.523181253973965754e+00,7.563946492564784796e-01
9.931556051739689472e-01,-1.016037773903956110e-01,-1.478199082517198004e+00,7.515673001990303970e-01
9.915301830583632681e-01,-9.923539487756448396e-02,-1.482514916736557664e+00,7.461288106206024340e-01
1.008929035381364470e+00,-1.020864900892269611e-01,-1.494513549632348726e+00,7.490110187685290466e-01
9.729863393253014303e-01,-9.862595594270937016e-02,-1.504078378876570143e+00,7.509376838732949588e-01
1.009507327015069178e+00,-1.004212743751781711e-01,-1.499252188273126674e+00,7.490164215558704486e-01
9.934986097352651591e-01,-1.010466183617658859e-01,-1.470520622992936621e+00,7.468644515910646264e-01
1.002078881172739022e+00,-1.000962414503698966e-01,-1.504882039930654614e+00,7.526799794711422908e-01
9.750552764437899755e-01,-9.820585369569408141e-02,-1.501948985759843369e+00,7.491328514534354444e-01
1.015384699949665626e+00,-1.013983550398526862e-01,-1.502198737288677810e+00,7.529283973477344238e-01
9.979645466843014567e-01,-9.948945685441196174e-02,-1.533568922484215502e+00,7.653915483360375083e-01
1.005502164751427285e+00,-1.016408486073936274e-01,-1.491376583455059412e+00,7.530574139572945302e-01
9.674796232242566241e-01,-9.817498583566096337e-02,-1.506291774023256869e+00,7.503132610280887071e-01
9.918934931683136558e-01,-9.908589333461259585e-02,-1.504583479127681311e+00,7.536823207630256594e-01
9.959000244462478113e-01,-9.769905015918166347e-02,-1.514948534824993587e+00,7.490684940075894582e-01
1.001733080823403288e+00,-1.004815604723212352e-01,-1.507658894710548481e+00,7.558153436253213231e-01
9.772720620731868424e-01,-9.897239110084539437e-02,-1.493064616208265027e+00,7.527319659420487197e-01
9.762214981537110647e-01,-9.819440212887842190e-02,-1.529759865292394494e+00,7.567055413796031083e-01
9.951833566574307399e-01,-1.008254871445370959e-01,-1.478115475318521277e+00,7.529381384536758537e-01
9.935660904800397430e-01,-1.005297444219866165e-01,-1.483896741105717787e+00,7.515629673813802869e-01
9.656977327923449428e-01,-9.855983470564619320e-02,-1.503982691814404138e+00,7.504133035154767484e-01
9.984899617649857229e-01,-1.003138933725875592e-01,-1.510014636539339428e+00,7.568951752886010631e-01
1.008329080111798337e+00,-1.000064668552028968e-01,-1.545019529850931495e+00,7.590908268749916310e-01
9.875675965943403467e-01,-9.815846237607836478e-02,-1.494235959620896947e+00,7.505320907596333413e-01
1.008218832156034805e+00,-1.001927417933952957e-01,-1.484351037180722033e+00,7.530654155149698603e-01
9.997441869037293483e-01,-1.003534280180347904e-01,-1.498616253730132186e+00,7.519705489396999454e-01
1.006018503771572536e+00,-1.009248080332020153e-01,-1.498238392079595638e+00,7.470352482724819110e-01
9.914351114138241217e-01,-9.901942905982412391e-02,-1.515312756164833408e+00,7.585655613327002555e-01
9.935811358709830676e-01,-1.005037031377621765e-01,-1.471039532862275179e+00,7.434378487294630578e-01
9.953350920364650856e-01,-9.986556186197435847e-02,-1.502962024900040383e+00,7.466979528978995306e-01
9.912693401275339822e-01,-1.011809672240440855e-01,-1.515159380154431634e+00,7.510517077544650588e-01
1.003151333908609555e+00,-1.005134824275217276e-01,-1.485056949555585870e+00,7.559290416504779175e-01
9.929730370637863679e-01,-9.814129617513657478e-02,-1.533255409743095488e+00,7.578252682285094854e-01
1.003796143074576985e+00,-1.000483402566550994e-01,-1.524170931954782038e+00,7.522657351003375625e-01
9.727811018899226170e-01,-9.866093483821451737e-02,-1.497529251712155229e+00,7.462573659628330969e-01
9.989120219559343150e-01,-9.853899107012228931e-02,-1.502494187211758758e+00,7.466807315233976450e-01
9.745657557346513178e-01,-9.782629101761018686e-02,-1.526914012446991098e+00,7.574217998396992613e-01
9.838151826890781937e-01,-9.779353636486856627e-02,-1.477579190522408270e+00,7.446310406143880067e-01
9.757178947942730662e-01,-9.786774285350559321e-02,-1.531426513299160685e+00,7.527031759322456717e-01
9.682153145087297741e-01,-9.889216842709250277e-02,-1.515593617212830369e+00,7.516949771280223569e-01
9.911458330528334359e-01,-1.000961188868457752e-01,-1.540086614254683184e+00,7.623068187455156464e-01
9.804045036408647329e-01,-9.824414259925644266e-02,-1.493808810327396319e+00,7.475378285551245172e-01
9.983325451009069651e-01,-9.939024769953304361e-02,-1.499028011201327670e+00,7.474818947271560932e-01
9.958478380814796971e-01,-9.957899204312929686e-02,-1.504634850432977178e+00,7.428659129607958489e-01
9.976540028884730571e-01,-1.006317332154204325e-01,-1.531595412201732342e+00,7.577763730862971947e-01
1.016653159477322044e+00,-1.022811282250393750e-01,-1.501777282682203118e+00,7.516522215220703407e-01
9.882221911525321811e-01,-9.876579379743470610e-02,-1.503527022679902458e+00,7.494484516518551409e-01
9.857927411524756156e-01,-9.854321656565022403e-02,-1.548159659329853666e+00,7.619630352866137990e-01
9.897490348425073137e-01,-9.891920952900205843e-02,-1.500879902743598837e+00,7.531335681707779228e-01
1.011631844880604536e+00,-1.020156248490793754e-01,-1.483515937479567892e+00,7.427007338335314124e-01
1.007531623536702892e+00,-9.920537627477435394e-02,-1.528732748868667723e+00,7.570531254352776962e-01
9.849014773689943603e-01,-9.953648224010261392e-02,-1.530137112745928452e+00,7.590745089893143893e-01
1.018759066589723705e+00,-1.021729453245105307e-01,-1.477978239300752561e+00,7.493112681130660313e-01
1.020764652380561799e+00,-1.016231589506856881e-01,-1.525182928856870568e+00,7.540080546509713155e-01
9.977617133573712938e-01,-1.007366568984773697e-01,-1.520032804895811829e+00,7.556921136110901216e-01
1.006237305151171046e+00,-9.873840784212492561e-02,-1.493636275348724229e+00,7.445244178039960303e-01
9.714253204726116531e-01,-9.876273374265895355e-02,-1.480892608814886158e+00,7.471178110982531484e-01
9.759439893048293957e-01,-9.937175634836058202e-02,-1.506169805303315457e+00,7.533621200360843817e-01
1.000819864486420796e+00,-9.951867142615847261e-02,-1.486951640580582046e+00,7.481129665396257789e-01
1.007051375307110419e+00,-9.908713607872325635e-02,-1.477099244666410627e+00,7.415933369095112360e-01
9.830105753186531015e-01,-9.891013825988378971e-02,-1.487931546471262578e+00,7.516346843418599821e-01
1.001434667033266335e+00,-1.003079912111911332e-01,-1.506283971935547639e+00,7.540095207861967630e-01
9.768834033530120475e-01,-9.914133309069689259e-02,-1.518053470683200734e+00,7.546189557812921223e-01
1.008050707948678459e+00,-1.016611198433764046e-01,-1.474918147291359283e+00,7.405132582083832071e-01
9.782260731247420793e-01,-9.694151002769722802e-02,-1.520081390102415497e+00,7.518477046593501356e-01
9.840348274245740434e-01,-9.951269033931538222e-02,-1.504479943758700644e+00,7.522590774434273486e-01
9.814649384448895786e-01,-9.821261167293562910e-02,-1.488231365846693466e+00,7.521709992915327492e-01
9.929803571063311463e-01,-9.959183902864510163e-02,-1.485633914990508231e+00,7.429437009658844682e-01
9.855195580541589173e-01,-9.965266347007251113e-02,-1.540406973937071378e+00,7.656880707499558181e-01
9.923973290802063918e-01,-1.002424339586509699e-01,-1.491749301708799713e+00,7.562486291315734244e-01
9.846448143205477344e-01,-1.003244221550518012e-01,-1.486680727870683727e+00,7.562900723544896397e-01
1.009564928555822139e+00,-9.897023278379736555e-02,-1.521134872156727491e+00,7.558922085345785025e-01
1.005032888669544766e+00,-1.013978912295801921e-01,-1.488892719145376686e+00,7.541017451498612800e-01
1.017297497728407496e+00,-1.006556596535428255e-01,-1.526771988657150914e+00,7.569185507497920851e-01
1.000233791464306465e+00,-1.015854425173868536e-01,-1.474269432301687166e+00,7.448184490977785011e-01
9.839222104137659297e-01,-9.868766485091567953e-02,-1.544695820436262190e+00,7.623637358353286819e-01
9.788653497613236665e-01,-9.838670022424607364e-02,-1.496245991550284815e+00,7.452667881348319368e-01
1.009894397605500815e+00,-1.015754290728124315e-01,-1.458602535703306335e+00,7.370349846576954578e-01
9.791140899103979445e-01,-9.923324610427440573e-02,-1.502461586016921258e+00,7.456649205489671584e-01
1.001036897739840059e+00,-1.002721754455396519e-01,-1.514447525298417530e+00,7.588678632665067925e-01
9.948953521249356280e-01,-1.005519581784507510e-01,-1.540046493610561784e+00,7.633863219172434267e-01
1.007162343778164271e+00,-9.970325475905346402e-02,-1.516783893621135526e+00,7.557390609231157130e-01
9.745431748905617475e-01,-9.886624784893227602e-02,-1.497707087713407770e+00,7.500388252668356293e-01
9.889680480944247343e-01,-9.885077475477145603e-02,-1.529748392394336465e+00,7.563051266984358589e-01
9.949993540309556295e-01,-1.005339010379742437e-01,-1.488727382900254970e+00,7.485031150140689649e-01
9.890543604494854701e-01,-9.959764895574374499e-02,-1.487028044042142394e+00,7.490452707892349959e-01
1.003895867589023272e+00,-1.015240462628998475e-01,-1.495754181570857044e+00,7.466261245366757615e-01
9.850872714768920124e-01,-9.998313604449589331e-02,-1.514954420527085066e+00,7.483991168294971130e-01
1.004910567306342983e+00,-1.013078995664538073e-01,-1.492852998019707833e+00,7.493745420830117965e-01
1.003643582784200516e+00,-9.814957597684248469e-02,-1.491002173726790225e+00,7.436749363723414996e-01
1.000894845958753887e+00,-1.006084434589055998e-01,-1.493464445215853642e+00,7.446661386307356079e-01
9.723302077475577399e-01,-9.882400457797708981e-02,-1.479251511671112684e+00,7.464118507070371944e-01
1.001065515015923113e+00,-1.010382200123539076e-01,-1.530792517715333867e+00,7.639589362794882987e-01
9.985536018116261125e-01,-1.004508809192001251e-01,-1.481694530621635808e+00,7.491048146409889918e-01
1.003836214233707835e+00,-1.010150144096472608e-01,-1.497366095196713598e+00,7.530881420384479830e-01
9.926712972746044583e-01,-9.909373369345707283e-02,-1.495235328787102524e+00,7.560693220506408130e-01
1.020085071160633516e+00,-1.002155675367821380e-01,-1.512251539532478928e+00,7.475537816910997613e-01
9.989696989314841291e-01,-9.995389414692151808e-02,-1.489119096783042773e+00,7.470390840001314148e-01
9.983373493771130480e-01,-1.004315993432687570e-01,-1.482895476109185706e+00,7.414617111487370460e-01
9.933651457588993372e-01,-9.993537161214452458e-02,-1.499946155995159014e+00,7.468689521450290192e-01
9.759696450773595044e-01,-9.796734246965645154e-02,-1.500461027968941430e+00,7.465591449916109124e-01
9.759816622538615150e-01,-9.942533414344278953e-02,-1.494765615293236261e+00,7.537703972142051345e-01
1.009403041227882936e+00,-1.010143861466183679e-01,-1.519611967354576931e+00,7.494074837319459892e-01
9.970936719746346100e-01,-1.015224135734235367e-01,-1.481885047121999310e+00,7.491645227896828185e-01
9.801413011020858601e-01,-1.003265166250409957e-01,-1.489916506232730420e+00,7.445373300715750764e-01
9.788177050916392341e-01,-1.002797966287273246e-01,-1.464667398892558925e+00,7.410599228702851038e-01
9.847909080550250049e-01,-9.956533977503191635e-02,-1.499815687927904984e+00,7.521888162511227716e-01
9.811368352358965650e-01,-9.882210891605912317e-02,-1.479039482922287929e+00,7.516158175590915702e-01
9.988960391324983590e-01,-1.003353722096657907e-01,-1.483203403121394537e+00,7.482441159445397671e-01
9.715175426948966519e-01,-9.931396630892785904e-02,-1.476027482003463565e+00,7.503094826791819605e-01
9.923625709394119365e-01,-9.877066346294953447e-02,-1.541911386217261537e+00,7.622834804067101233e-01
9.861962088651778924e-01,-9.859561465546905212e-02,-1.520222195997237735e+00,7.508223065953052444e-01
1.006716799092947312e+00,-1.021649865050882067e-01,-1.504472577273692435e+00,7.574730955901846086e-01
9.670922529670615830e-01,-9.954269814865643329e-02,-1.486099541701550120e+00,7.449733838308502110e-01
1.002416897909963911e+00,-1.005090441887977748e-01,-1.469937726378826248e+00,7.476967998535651860e-01
9.942666882052008104e-01,-9.838718896963460914e-02,-1.511596562693975354e+00,7.500362160575778647e-01
9.951442897310820435e-01,-1.005337784694793762e-01,-1.492708617930657233e+00,7.481169959434671446e-01
9.845230892381262588e-01,-9.864448460356366188e-02,-1.479837412462333912e+00,7.440832523007767652e-01
1.002383565503333296e+00,-1.004411874986256281e-01,-1.508306529967482046e+00,7.610764894050854323e-01
9.948823004881388599e-01,-9.848472462093298130e-02,-1.495964675252986709e+00,7.488029228494035294e-01
1.011203091550682887e+00,-1.022641467400928206e-01,-1.479424621597795753e+00,7.461839859419914234e-01
9.822962449214346359e-01,-9.831534603910191406e-02,-1.547481050200052888e+00,7.579612301626449389e-01
1.007260076231818235e+00,-9.959801048479238750e-02,-1.486138115535934556e+00,7.446905133862127268e-01
9.989614591399114119e-01,-1.002194515838810418e-01,-1.502216408469389197e+00,7.587937978912404624e-01
9.854770301971297330e-01,-9.982993441055532102e-02,-1.507639933999435966e+00,7.472148923602544013e-01
9.781038309996512581e-01,-9.917599174132660234e-02,-1.512879653064465924e+00,7.513203767866390992e-01
9.719138202245675151e-01,-9.968003275806869290e-02,-1.513503300156792575e+00,7.521159616669504944e-01
1.006361578545513336e+00,-1.008393269395456010e-01,-1.467387558249458213e+00,7.436682484744751021e-01
9.977805655369921256e-01,-1.002257146559018680e-01,-1.470360105538132567e+00,7.447212958660768267e-01
9.699744510422111388e-01,-9.768482324175407905e-02,-1.498475185050146097e+00,7.496444349066248014e-01
9.864062664304786843e-01,-1.007090937285709115e-01,-1.508860097004820933e+00,7.513223770613960406e-01
9.886112475202554206e-01,-9.868842821115214603e-02,-1.548529353539759956e+00,7.608065325931989697e-01
9.831034196687492566e-01,-9.677731530696205564e-02,-1.516732010279989940e+00,7.496078177292216926e-01
9.823747776141730226e-01,-1.000204463781919628e-01,-1.529969603540535461e+00,7.569448720901084116e-01
9.961271134129070504e-01,-1.009449072745943338e-01,-1.470063387637301267e+00,7.382889206683566075e-01
9.971533518748816327e-01,-9.888771027634098154e-02,-1.498782624959307697e+00,7.452056253821179865e-01
1.023295804839043921e+00,-1.008052771806613040e-01,-1.496465265973607073e+00,7.457352614060985818e-01
9.843439489958545341e-01,-9.864751865447117518e-02,-1.528481614113264664e+00,7.607955824745052942e-01
9.708447090502257959e-01,-9.929001219814598267e-02,-1.508742445679704502e+00,7.536747790803828284e-01
9.814444514000948416e-01,-1.003855819159091278e-01,-1.499907788165698586e+00,7.465422716591211261e-01
9.885801458074534587e-01,-9.850319049142068628e-02,-1.531408278065497397e+00,7.547253654807304368e-01
1.000663935371318702e+00,-1.009688066884985164e-01,-1.463793985041657475e+00,7.375710770322823073e-01
9.581600304499414689e-01,-9.737042709272583640e-02,-1.522110498364625419e+00,7.551249482321469308e-01
1.006062974862223180e+00,-1.007440545887716282e-01,-1.486869929957038261e+00,7.566835535655487277e-01
1.002836990293324293e+00,-1.003556911679759217e-01,-1.482589972054433103e+00,7.450248588562314866e-01
9.867972569231395763e-01,-9.929575101559937056e-02,-1.496118308919310413e+00,7.481629724569781592e-01
9.863304750321131298e-01,-9.914741755872175100e-02,-1.459925604895426110e+00,7.397488567128113202e-01
9.871035055541784731e-01,-9.917568300959195282e-02,-1.494347377363055784e+00,7.441485889525101260e-01
9.984529167224782675e-01,-1.016103034158606783e-01,-1.512035255856150950e+00,7.597497095906118325e-01
9.814234036802604866e-01,-1.005225924854566549e-01,-1.515091456197806385e+00,7.559474968488197888e-01
1.016001526374619157e+00,-1.009785728357739526e-01,-1.531132455700306094e+00,7.611995806869420456e-01
9.857483112163514249e-01,-9.871051099215624736e-02,-1.503393030050013346e+00,7.491699943963845421e-01
9.861355290280868768e-01,-9.970974514173996939e-02,-1.520627006000035086e+00,7.512498868797962137e-01
9.987342511496735131e-01,-1.002307992848739393e-01,-1.473131704171662282e+00,7.471642928007039552e-01
9.871555061966293954e-01,-1.004073455655650621e-01,-1.490468834124196507e+00,7.460448751047221716e-01
9.929512942067411085e-01,-1.000723137101849347e-01,-1.476256248514101532e+00,7.516937460778061464e-01
9.676938105627426179e-01,-9.834925394564086876e-02,-1.500849029528140477e+00,7.463745968525683505e-01
1.015819941140660543e+00,-1.020267172412490791e-01,-1.502048080314851042e+00,7.501838728600543904e-01
1.001843051015373520e+00,-9.916057892847560118e-02,-1.477949356033484651e+00,7.457969072454180282e-01
9.982735127800309582e-01,-9.925786916203090116e-02,-1.486647970131492080e+00,7.447420649308512663e-01
9.946431983961049328e-01,-1.005007546663018031e-01,-1.485583088732713275e+00,7.489486600673300742e-01
9.830122165507603205e-01,-1.009140657487644505e-01,-1.495219244237206979e+00,7.514029023877836222e-01
1.008651039041169595e+00,-1.009155134314924374e-01,-1.494073281402889863e+00,7.472039236645434679e-01
1.011423929678292088e+00,-9.999532821960549489e-02,-1.496117636777770654e+00,7.467117962318549074e-01
9.850982173087724503e-01,-1.003977828686420659e-01,-1.510006120846010935e+00,7.541392515828591048e-01
9.996329378477277761e-01,-1.001734665284723103e-01,-1.514456699739068712e+00,7.504476175400188742e-01
9.807375324151735851e-01,-9.849600669744416892e-02,-1.480141707941710738e+00,7.420562965776629216e-01
1.025527959110711818e+00,-1.025681471150308999e-01,-1.490107906693347362e+00,7.511652731619825607e-01
1.011217408863451128e+00,-9.988898340624702277e-02,-1.498577045485649073e+00,7.528539615326009793e-01
9.886923942046512703e-01,-9.930474554257717745e-02,-1.479672409534273925e+00,7.493017047880322634e-01
9.964486495303496172e-01,-1.000944019020669762e-01,-1.471063581338085013e+00,7.404995155529531248e-01
1.004640893224941989e+00,-1.018864001397183500e-01,-1.493364248642697678e+00,7.546334632973805689e-01
9.935858517453504124e-01,-9.929587353581847964e-02,-1.490974762053314695e+00,7.480487861211049250e-01
9.858796476942879305e-01,-1.007610958104941529e-01,-1.470042907818790434e+00,7.465596303208582585e-01
9.972773286622061972e-01,-1.000459850937312767e-01,-1.510242396975048473e+00,7.469664815031044069e-01
1.000988965627616967e+00,-1.001308189153112677e-01,-1.495508262841686697e+00,7.517871934395876643e-01
9.915531075936510064e-01,-1.015519221795787991e-01,-1.479413250007145963e+00,7.462289943875185516e-01
1.000724545029819001e+00,-1.006371327377133251e-01,-1.477110607851844337e+00,7.464179629848939346e-01
9.879270013595401467e-01,-9.959120961519614401e-02,-1.480495013303143370e+00,7.472830766452503992e-01
9.996573666683690185e-01,-9.964388853907751864e-02,-1.498217878340486697e+00,7.518768479402290206e-01
1.017819736357103988e+00,-1.027953886833525288e-01,-1.497203442497145209e+00,7.512365490410219948e-01
1.001815031045078630e+00,-1.003926279390510157e-01,-1.478315023640739190e+00,7.480365649248487125e-01
9.782747114999225113e-01,-9.903457272714077941e-02,-1.511562994603051990e+00,7.579720428918332864e-01
1.008682374622292155e+00,-9.895834045436537052e-02,-1.502635601126910858e+00,7.478510622044794998e-01
9.903198405156312667e-01,-9.816864700483643458e-02,-1.479720796938841065e+00,7.446671619760486527e-01
1.001540373258543948e+00,-1.020431684596517230e-01,-1.466480351739392285e+00,7.409879560759173867e-01
1.011705651630036451e+00,-1.004513989657822987e-01,-1.482137970447091835e+00,7.486676999669555910e-01
1.009019704313887322e+00,-1.014663884475841965e-01,-1.528563250873834045e+00,7.623247576438001438e-01
9.909864555263210306e-01,-9.869137704010343126e-02,-1.497786326452810624e+00,7.523142272885142701e-01
1.002573428167758740e+00,-9.873532805540115309e-02,-1.499666540406466186e+00,7.513542496564901141e-01
9.690724022131279591e-01,-9.705656193398463916e-02,-1.509716712538854866e+00,7.520310923473185749e-01
9.971110169803397705e-01,-1.008081699290739736e-01,-1.533197327064829585e+00,7.600838848656519264e-01
1.013504012881920380e+00,-9.965400914450135705e-02,-1.501828696403206598e+00,7.452317905412453314e-01
9.877533193940873923e-01,-9.966248454008327928e-02,-1.512826917264490811e+00,7.558145954302554204e-01
1.013729185058757087e+00,-1.028893864887370641e-01,-1.497780293263002216e+00,7.556485143654746439e-01
9.779282670415593293e-01,-9.989838100948733590e-02,-1.470184364096033702e+00,7.412332957940596101e-01
1.002666714327332009e+00,-9.901766190640641507e-02,-1.496846674359229246e+00,7.464127612128480527e-01
9.804722734730080269e-01,-9.947261749937280628e-02,-1.530613721759217061e+00,7.554592192954037166e-01
9.941934520659320151e-01,-9.990202234676269499e-02,-1.521417162520471100e+00,7.520783267446931042e-01
9.932662371282250380e-01,-1.009241421565663932e-01,-1.498583046204220670e+00,7.530458201680882979e-01
9.961610929020795480e-01,-9.946869929204946170e-02,-1.521366367920676810e+00,7.577947267480308335e-01
9.995656285738420133e-01,-1.008974265450937602e-01,-1.539354702471308345e+00,7.626227353124791497e-01
1.002233696974132560e+00,-1.024627314874319572e-01,-1.464991720301592082e+00,7.455825934983092429e-01
9.843776009852854836e-01,-1.001867792099636612e-01,-1.481304687529781061e+00,7.501585532596213302e-01
9.919953088517234896e-01,-9.880687916117258940e-02,-1.517249397583879666e+00,7.542038766114982362e-01
9.811158522799803272e-01,-9.932349279973883005e-02,-1.507521799746770697e+00,7.531849031166077957e-01
1.014941492324896943e+00,-1.012533218966915755e-01,-1.543809028367533420e+00,7.635064053361135805e-01
9.886994610655840399e-01,-9.970116410984482258e-02,-1.490403562175113050e+00,7.511514886961356829e-01
9.827621812832360026e-01,-9.921092047160588734e-02,-1.480584066609328175e+00,7.475157122935883747e-01
9.974237196149146056e-01,-9.926820484812055867e-02,-1.523014726779241323e+00,7.576276993066830556e-01
1.013464093894581586e+00,-1.010576563562200630e-01,-1.523080358735924955e+00,7.625567578370150423e-01
9.782066093107495419e-01,-9.790276530669761446e-02,-1.515021164805748333e+00,7.534116407577345909e-01
9.995328807756540535e-01,-9.867690308973618707e-02,-1.501471770424596119e+00,7.500168535217269783e-01
9.974573361550905792e-01,-1.001950920483608148e-01,-1.512046002202279915e+00,7.583512546962348777e-01
9.856769450030690161e-01,-9.913645104743717962e-02,-1.535935643483828494e+00,7.580908521637679254e-01
1.008361760320863221e+00,-1.012770016207622387e-01,-1.522544544441978065e+00,7.551952902659002653e-01
9.790463604934938058e-01,-9.788676524547867963e-02,-1.526451050425434497e+00,7.530728728470026390e-01
9.938914111823333730e-01,-1.007261007548294202e-01,-1.494489197865872976e+00,7.493678219568727927e-01
9.943517329713748021e-01,-1.004750612244513369e-01,-1.465225354244938272e+00,7.465570014217164374e-01
9.973867943421123039e-01,-9.855407644268088241e-02,-1.521976704224121679e+00,7.604418021159429220e-01
1.010562310565121136e+00,-1.004694658644305766e-01,-1.536901158898423603e+00,7.558546716094723950e-01
9.990706622462386388e-01,-1.001674861190276627e-01,-1.503979283491978070e+00,7.485073338243933838e-01
1.005845930219203765e+00,-1.010275550973954856e-01,-1.514883586637296053e+00,7.640568242242761210e-01
1.030895295624794317e+00,-1.030251344998110441e-01,-1.488631980495537466e+00,7.483668310813034186e-01
1.002314133282103281e+00,-1.017627594188250661e-01,-1.451280831289367468e+00,7.410616807961446506e-01
9.766514552700219509e-01,-9.899642282505737023e-02,-1.508961030861495800e+00,7.491156710971972332e-01
1.002408348657534143e+00,-9.820511762244153731e-02,-1.506339542863161407e+00,7.471536261107308841e-01
1.011858734932825632e+00,-1.000829358505083422e-01,-1.501132428254644546e+00,7.420741201629657002e-01
9.844758287091867066e-01,-9.857967762120055377e-02,-1.488822707681695778e+00,7.460098632482798919e-01
1.020031500250791145e+00,-1.027313997383565991e-01,-1.481494766991929390e+00,7.516978150072406439e-01
9.768895309204007615e-01,-9.927441691719331163e-02,-1.518046798430150890e+00,7.474788068632786109e-01
9.959530599990525923e-01,-1.012374759001956337e-01,-1.507198252606731126e+00,7.565961154416736001e-01
9.886507309015126754e-01,-9.822741433982819237e-02,-1.508820589516025379e+00,7.469946326139378368e-01
9.819302400670270048e-01,-9.850491796072324835e-02,-1.498803860822067735e+00,7.545539995991016324e-01
9.870578952074637868e-01,-9.873281551711568516e-02,-1.502364727104955167e+00,7.535216365441032016e-01
9.901372998248377799e-01,-1.015434592607573350e-01,-1.492334842893314084e+00,7.509246075692325162e-01
1.002264325320320282e+00,-9.892043711557318986e-02,-1.505743757500272562e+00,7.545458372287469073e-01
9.893315317851227864e-01,-9.838152245660722328e-02,-1.498168789000668522e+00,7.511783316037916602e-01
9.885589314239129344e-01,-1.012614533336167189e-01,-1.469390425992679550e+00,7.458086765818330299e-01
9.911625127350397468e-01,-1.017408544124932812e-01,-1.501887018211291780e+00,7.566831346850306783e-01
9.917195213452363323e-01,-9.824309913985025677e-02,-1.480745876359833568e+00,7.448961580446274988e-01
9.878931593436637293e-01,-9.824315365553605572e-02,-1.498331700776734943e+00,7.454261270054007849e-01
1.002167938391316460e+00,-1.001895962609339608e-01,-1.480196684751262648e+00,7.428953952385342063e-01
9.875275329791463053e-01,-9.910544242791771707e-02,-1.497676022495266546e+00,7.493715376450910126e-01
1.010053890325527837e+00,-1.009015423722175869e-01,-1.517833354949604141e+00,7.508477100989918718e-01
1.006474444243569577e+00,-1.005756145136549734e-01,-1.512789935053711510e+00,7.554353590120781448e-01
9.902427525025311317e-01,-9.995802073554771461e-02,-1.517888912104987442e+00,7.577629016032515485e-01
9.813646138251966855e-01,-9.753267129983748951e-02,-1.520370597691881320e+00,7.528537768041878575e-01
1.012477884874042111e+00,-9.933673225670056062e-02,-1.485824856882170142e+00,7.441070786481039923e-01
9.840798977231220990e-01,-1.007328652277390130e-01,-1.537951306559855569e+00,7.643909381290266980e-01
1.010748197169375029e+00,-9.925868961005991642e-02,-1.515997713352748910e+00,7.546787717376199911e-01
1.002155521717528863e+00,-9.971194315996673163e-02,-1.537909994099236455e+00,7.591037269307264745e-01
9.856373724132428960e-01,-1.005779685424623149e-01,-1.515292188505733106e+00,7.580669686601489987e-01
9.888968296203330954e-01,-1.010137930358122743e-01,-1.499202660051665914e+00,7.492742644036005650e-01
9.599115651473251187e-01,-9.794689889198841815e-02,-1.534714981586100757e+00,7.585098245039094689e-01
9.849512228393159097e-01,-9.943062389111734234e-02,-1.526092691483362129e+00,7.561692317957702247e-01
9.875253644773464012e-01,-9.887269641316760727e-02,-1.474293399512901948e+00,7.348119645552652068e-01
9.909713647377176304e-01,-9.795016223145973366e-02,-1.539312760519043088e+00,7.614321432877305673e-01
1.001059979694920665e+00,-1.005865282442311714e-01,-1.494860834537714123e+00,7.478230960834634233e-01
1.009164129646170638e+00,-1.013399323515168649e-01,-1.493026307632990601e+00,7.471220405039400436e-01
1.009464482502472782e+00,-1.002738006421117767e-01,-1.514032596926064622e+00,7.540340964651628397e-01
9.721374039835104508e-01,-9.840954180549667252e-02,-1.500357339652897748e+00,7.505613421163723764e-01
1.011074802248480342e+00,-1.006840263202273961e-01,-1.516650806091503378e+00,7.549465389926288683e-01
1.016674334727513340e+00,-1.008857373441822552e-01,-1.499560725824431007e+00,7.472627346932706471e-01
1.010533272214694467e+00,-1.020836528882918953e-01,-1.464760877222246016e+00,7.416698148099420962e-01
9.844398704187664606e-01,-9.790932508076206908e-02,-1.511765864365953060e+00,7.464988271752421856e-01
9.914716523524712555e-01,-9.906375805992137518e-02,-1.473408093723379775e+00,7.426255098363567786e-01
9.844189406921473040e-01,-9.784836891034177919e-02,-1.524369898416721769e+00,7.513572452886010389e-01
1.000159422877052284e+00,-9.987120394245463384e-02,-1.521748740620184392e+00,7.540278913611075939e-01
9.870125252793755521e-01,-9.963166191975254826e-02,-1.527697785483857817e+00,7.562463322173261782e-01
1.013461948666900536e+00,-9.984922774358867548e-02,-1.519607481105980762e+00,7.507314343526408917e-01
9.789174219557063017e-01,-9.883848491401278635e-02,-1.541587031231517413e+00,7.660472222250216401e-01
1.006396534160232559e+00,-1.000612298114255394e-01,-1.515944728483204607e+00,7.499727320637519234e-01
9.872469956259830592e-01,-9.928668344379069921e-02,-1.495686290852993094e+00,7.491579762176463486e-01
9.856010347272798899e-01,-1.008998356716658412e-01,-1.504879035232191908e+00,7.479991669014894873e-01
9.917375661701377521e-01,-1.009058050226216974e-01,-1.460044776972297287e+00,7.387877191782993291e-01
1.019483219883043690e+00,-1.011521200909953760e-01,-1.519551166547337129e+00,7.580973348177627580e-01
9.900017521354929073e-01,-9.979530881933047770e-02,-1.481702464268038089e+00,7.510849342592020861e-01
1.014438453154334452e+00,-1.019535440820168448e-01,-1.503363872101253662e+00,7.511073727523873700e-01
9.892694939161235101e-01,-9.853170387361845362e-02,-1.519275373375225335e+00,7.493952190105059863e-01
1.000800383784258729e+00,-9.944778612824688169e-02,-1.531903540569294897e+00,7.510899694052429743e-01
1.016100131850727673e+00,-1.016356388792752363e-01,-1.498498399324496466e+00,7.524841642170488898e-01
9.925154370656733560e-01,-1.002040081927899479e-01,-1.484794041969438982e+00,7.422984269983815553e-01
9.908308820422645491e-01,-1.000467929662468419e-01,-1.502366052738375757e+00,7.485200109355917286e-01
9.751084689624748281e-01,-9.830754159683793847e-02,-1.498747264092439524e+00,7.520835330513054862e-01
1.020729591884643517e+00,-1.006575502779920445e-01,-1.504035478905288992e+00,7.503257723125296152e-01
9.804665177281001176e-01,-9.856852401462187774e-02,-1.510939028214042912e+00,7.481889428523440522e-01
1.001048132231232124e+00,-1.008171424288636930e-01,-1.529254160240839600e+00,7.608208822173300190e-01
9.986558819741002679e-01,-9.960349717163750893e-02,-1.503170202085877483e+00,7.575847485881026522e-01
1.022389006049706506e+00,-1.020515186098066573e-01,-1.490534512362057251e+00,7.521652191243479724e-01
1.006093643820397565e+00,-9.962114055601226092e-02,-1.504021148378850148e+00,7.488124567306878587e-01
9.999507508157795543e-01,-9.924601146148312458e-02,-1.504369922040863061e+00,7.432432440774482396e-01
1.007572503425604227e+00,-1.001179310376917597e-01,-1.476775847804851827e+00,7.419358528389348173e-01
9.841759517217149034e-01,-9.884262133153635943e-02,-1.481925398173091990e+00,7.494397232309722989e-01
9.796451404956136866e-01,-9.955097458066705651e-02,-1.513836316586566477e+00,7.490295925160201929e-01
9.831800080919604889e-01,-9.900066552319683466e-02,-1.482239852731128682e+00,7.449791283538578224e-01
1.002886980870285827e+00,-1.001806436418951896e-01,-1.486998172612618685e+00,7.447705034593280482e-01
9.783622633181228156e-01,-9.973995375585845147e-02,-1.518044932882797182e+00,7.624032305709224078e-01
1.010336779742087021e+00,-9.969669836967559595e-02,-1.520910582603610450e+00,7.547433009538579984e-01
9.871799092937263431e-01,-1.002706293993284314e-01,-1.482047693534478183e+00,7.499863284227742399e-01
9.912709049636759806e-01,-1.008016783942742856e-01,-1.496646768201076005e+00,7.551218779126037672e-01
9.851314633162031598e-01,-9.897213588580248966e-02,-1.473611081121674049e+00,7.425135957104577189e-01
1.011033618704005210e+00,-1.007623082747151483e-01,-1.502030069176788052e+00,7.549501938914400245e-01
9.990884545259484106e-01,-9.947641345752063213e-02,-1.527419477081181309e+00,7.494211230829499470e-01
1.011159674946892517e+00,-1.013799204081485966e-01,-1.498661015416106856e+00,7.479110161795459177e-01
9.987284345029402433e-01,-1.004085743200058140e-01,-1.458312950933512431e+00,7.394671954783446077e-01
1.009136159048750647e+00,-9.969544193892705686e-02,-1.504857060960365756e+00,7.496305749855750600e-01
1.008399372472274180e+00,-9.988186981212776594e-02,-1.512037782353824689e+00,7.528447425519737557e-01
1.019113195965899887e+00,-1.014450713394980247e-01,-1.529456926743473222e+00,7.528479097624730665e-01
9.760887703045095787e-01,-9.856604668380201939e-02,-1.532658555612916418e+00,7.595957643852495611e-01
9.916767698455033475e-01,-9.915850238113747828e-02,-1.563597185117611810e+00,7.667898043357718185e-01
1.020172330295076257e+00,-1.011121949335373610e-01,-1.496421086717056426e+00,7.475178367413791714e-01
9.824669828840513208e-01,-9.740068049075195633e-02,-1.520636908525283770e+00,7.569176929722355451e-01
1.007200551158635049e+00,-9.966628818951486779e-02,-1.510630110792724246e+00,7.509326420143367375e-01
1.002823604714168093e+00,-1.007337656300836687e-01,-1.499827849775204669e+00,7.482123625044720949e-01
9.834169415753978294e-01,-9.851179201256622664e-02,-1.514114812896825368e+00,7.581516176526152950e-01
1.002838737212810249e+00,-9.976177366012357883e-02,-1.518757289679218303e+00,7.581203958835662782e-01
9.800533001579644354e-01,-9.962211605314248708e-02,-1.490132391409275225e+00,7.505589068866506119e-01
9.948653557474192999e-01,-9.932287332308706307e-02,-1.536324464135119694e+00,7.552596492293347508e-01
9.772676870817330608e-01,-9.839777804942476114e-02,-1.515282342026325724e+00,7.491517792680864041e-01
9.782357509830647002e-01,-9.857177066302591495e-02,-1.485928269609716246e+00,7.436139447675856884e-01
1.019562876841964449e+00,-1.003792707102133669e-01,-1.490608861791877571e+00,7.443455859036609557e-01
9.748061951286295379e-01,-9.842335695837726994e-02,-1.538723819872817478e+00,7.547647895912188432e-01
9.897330930179776276e-01,-9.917695831355567704e-02,-1.504711197327389005e+00,7.469163056610184093e-01
1.025851181796644029e+00,-1.026888247781585495e-01,-1.467210933952862284e+00,7.419418944478408662e-01
9.843221540701305727e-01,-9.912408234658838524e-02,-1.506273757732702112e+00,7.515235163097802040e-01
1.010968799611343893e+00,-1.021585195678123142e-01,-1.469522276993307175e+00,7.469492846625467308e-01
9.787814736832741724e-01,-9.856724204789503452e-02,-1.512535759756645337e+00,7.554710864764515588e-01
9.936403526803294639e-01,-9.921896068656294032e-02,-1.486269276278536555e+00,7.454785634950428230e-01
9.851487876427799106e-01,-1.001862454505720590e-01,-1.516394277284933034e+00,7.518349660507858134e-01
1.007896343249793603e+00,-1.002568834268184050e-01,-1.530816501876107738e+00,7.596623558903344842e-01
9.966863207444106587e-01,-9.944429698376990034e-02,-1.532314849420126190e+00,7.556605411064429845e-01
9.911129071386756140e-01,-1.009789667922231932e-01,-1.513008566728883286e+00,7.611127365493544072e-01
9.661563224466652722e-01,-9.740381586147055237e-02,-1.507783306785976496e+00,7.476893339456242016e-01
9.965049203725659943e-01,-1.014459019591582023e-01,-1.457512685384207307e+00,7.389499869725842940e-01
1.012433539218889234e+00,-1.000915088544920423e-01,-1.520697989235094472e+00,7.558932258624766476e-01
1.007952649454636251e+00,-1.002915159273761042e-01,-1.512279458285067157e+00,7.555349518563045930e-01
9.914600220463216651e-01,-9.966595726898189178e-02,-1.511807235210883116e+00,7.502423771530010166e-01
9.958706439484126260e-01,-9.926543415036484519e-02,-1.496590775272681473e+00,7.532586557892440027e-01
9.884178839679792494e-01,-1.001842317440448937e-01,-1.533913710166547428e+00,7.642363310481522509e-01
9.939648374129880226e-01,-1.001411528980240273e-01,-1.493443004094727744e+00,7.546222460697962209e-01
9.915604472800173541e-01,-1.006540949147792380e-01,-1.532536314132074029e+00,7.613118840051439351e-01
9.725689149286277368e-01,-9.736295296192841453e-02,-1.516716163541694806e+00,7.517370034258334943e-01
9.767642538639789151e-01,-9.910794128883673726e-02,-1.549006858690975541e+00,7.655263989232138355e-01
1.024984264102957399e+00,-1.021315867534604155e-01,-1.513314615471818003e+00,7.523898135057786041e-01
1.008826758298913440e+00,-1.002425040480792173e-01,-1.511987960557602761e+00,7.560319920932909721e-01
1.008447993797550346e+00,-1.015929410032940516e-01,-1.473803616921798065e+00,7.391875016850800728e-01
9.700247395121361915e-01,-9.716388718158522342e-02,-1.489766747655547618e+00,7.453760410000869197e-01
9.995892658812417508e-01,-9.964902417450605121e-02,-1.495278574033667152e+00,7.455241348192223061e-01
9.876518891408647693e-01,-9.905160508885968440e-02,-1.547538199771796963e+00,7.576348881397927393e-01
9.978955074956107341e-01,-9.860671629660880400e-02,-1.545760609471275027e+00,7.558564232496495228e-01
1.002075960105155206e+00,-9.969719165714337195e-02,-1.491131564510928209e+00,7.445843060288005466e-01
1.000127197246583721e+00,-9.893978050112832434e-02,-1.481304133052272709e+00,7.421579807336345924e-01
9.994214471700065827e-01,-1.009352238273280022e-01,-1.487676746705001385e+00,7.437365743643584715e-01
9.851049861391759643e-01,-9.761164859923163184e-02,-1.542418412870815381e+00,7.543501366626365057e-01
1.003871848511203257e+00,-9.967476695862217961e-02,-1.502941489880927683e+00,7.441583765520564109e-01
9.879508240036081190e-01,-9.974098240721995801e-02,-1.483564548430924779e+00,7.542584358178069381e-01
9.955883221931122185e-01,-9.819991781235375139e-02,-1.530400828676867997e+00,7.560624244599321031e-01
9.857963695612534938e-01,-9.823521006766969266e-02,-1.535697959008462954e+00,7.613007688081401270e-01
1.002570286480660711e+00,-9.890156767640313762e-02,-1.513321889331816772e+00,7.585582032547183440e-01
9.724122849947423042e-01,-9.779032617442909303e-02,-1.502442884131134582e+00,7.469182099312552392e-01
9.857874798316355047e-01,-1.002570704100022164e-01,-1.520594424416938040e+00,7.552444369309637695e-01
1.014458150730715547e+00,-1.028217140228535609e-01,-1.497990246509933954e+00,7.537579443641768684e-01
1.001314511086574210e+00,-9.989523511230422037e-02,-1.483515722682255733e+00,7.407763842961884171e-01
1.004659587191173653e+00,-9.911220188777097873e-02,-1.513278758386340739e+00,7.523289165621518393e-01
9.861719065439545906e-01,-9.906158657569212600e-02,-1.502072359739378138e+00,7.417229939678117168e-01
1.004446222346800699e+00,-1.003960794776056487e-01,-1.514306529906383592e+00,7.492737347339635257e-01
9.906431826438648613e-01,-9.805387745849003522e-02,-1.506522640566143156e+00,7.497533807405363238e-01
1.004689221038361335e+00,-1.008180031551891703e-01,-1.519949433986602427e+00,7.568104622832209083e-01
1.005330902244890412e+00,-1.014063570239549517e-01,-1.524183081649739924e+00,7.564375862006211815e-01
9.721167900058412803e-01,-9.880116123120742666e-02,-1.499574292301165235e+00,7.544300331522383329e-01
9.873524006582494739e-01,-9.876559809689344771e-02,-1.526514571129650166e+00,7.612946527444038880e-01
9.960897041945746544e-01,-1.002332502564201727e-01,-1.462736519545980940e+00,7.434601708751313875e-01
1.006862582539109763e+00,-9.962951194214242356e-02,-1.509891929622418916e+00,7.596306479979056947e-01
9.894016345137868207e-01,-1.008566067161891094e-01,-1.504323924027274106e+00,7.483881849904221450e-01
1.006334534710723094e+00,-1.015532029468483866e-01,-1.510841444338682393e+00,7.518800973416505107e-01
9.993078837105063839e-01,-9.958357623130174863e-02,-1.493967218226131211e+00,7.532817096503445775e-01
9.906202490192497212e-01,-9.930658311761951518e-02,-1.501287331063526409e+00,7.503839738600419640e-01
1.008599360571833969e+00,-1.008950704731223780e-01,-1.479707613150353485e+00,7.513608732137845303e-01
1.002910087858716714e+00,-9.964963765062635759e-02,-1.483418417013102841e+00,7.470732875943703055e-01
1.002687122693069366e+00,-9.976566607370211670e-02,-1.507935854613420501e+00,7.490239746979819868e-01
9.887324806162601787e-01,-1.003524840719788869e-01,-1.502218997677452261e+00,7.573428112463034267e-01
9.921588547293469507e-01,-1.013273623855665412e-01,-1.490819421953297974e+00,7.507903909052878744e-01
9.902574448431592513e-01,-9.839679678255749962e-02,-1.505208759764623760e+00,7.507022378745596969e-01
9.872355225463071982e-01,-9.970777928951261859e-02,-1.467722003452142765e+00,7.458066246419383649e-01
9.976625105517821224e-01,-9.828043092404137315e-02,-1.512449164855922845e+00,7.572556953664504320e-01
1.018501196685449361e+00,-1.009028581931034063e-01,-1.508816975872276922e+00,7.592846123094229016e-01
1.007172551166620522e+00,-1.016273560918823232e-01,-1.514788971715184118e+00,7.594809966969290338e-01
9.769315536765119656e-01,-9.760197714779962619e-02,-1.508205711190192977e+00,7.486217843753872891e-01
9.967407373903948153e-01,-1.020084992295605675e-01,-1.490871121650140685e+00,7.514030641039284308e-01
9.890134405781938476e-01,-9.905506635982938568e-02,-1.492645609368607351e+00,7.525510084269559918e-01
9.743081181536529245e-01,-9.662670005169822496e-02,-1.522455228701659280e+00,7.552967329955250220e-01
9.910859786640662250e-01,-9.979429524553715125e-02,-1.493862258947271648e+00,7.442116043160944550e-01
1.001367873794082763e+00,-9.967375655294362369e-02,-1.507862530695958547e+00,7.492859008955519151e-01
1.000676187718192001e+00,-9.891154294010126580e-02,-1.505117414772270346e+00,7.528979997560419912e-01
9.933747501703821259e-01,-9.906224138252855971e-02,-1.512062137099262848e+00,7.537267473217785785e-01
9.866864553436940355e-01,-9.791977499642699756e-02,-1.513325015400681872e+00,7.500643462171630027e-01
1.003958415074117427e+00,-1.012218100512182611e-01,-1.488991672727993931e+00,7.469547506396253533e-01
1.003868884828425623e+00,-9.899781921451891731e-02,-1.527071849777987156e+00,7.493147786554714695e-01
9.942914343462659899e-01,-9.921364915794388117e-02,-1.511509778145938787e+00,7.512454608199491402e-01
9.951285245871994700e-01,-9.956904010192220433e-02,-1.496914494216515124e+00,7.508794570722715500e-01
1.009088125776985922e+00,-1.009919651548719793e-01,-1.483965885076885760e+00,7.404661985909072319e-01
9.848109993859974765e-01,-9.906327402609249599e-02,-1.456079869799498550e+00,7.417851457682095306e-01
1.002774332471981333e+00,-1.003779337829150825e-01,-1.504429454115813414e+00,7.455847802873776242e-01
9.818441748333470720e-01,-9.940444158198463720e-02,-1.491734120090711047e+00,7.520122767661471253e-01
9.930740533420291394e-01,-9.917451364034654548e-02,-1.499086756821224942e+00,7.441607962654908093e-01
9.965227178504896255e-01,-1.005461563902614319e-01,-1.496335157933481819e+00,7.511164513506192186e-01
9.885140347731721233e-01,-9.953352512358022708e-02,-1.502203099498474526e+00,7.538167247477374211e-01
1.016517046743979913e+00,-1.008997099605080799e-01,-1.503597989339999552e+00,7.490840669613451075e-01
9.905803149169969402e-01,-1.001376762750961491e-01,-1.541140120691661952e+00,7.581319095559060361e-01
9.883577758226322896e-01,-9.944277037677709541e-02,-1.530530932246135567e+00,7.538641450903794672e-01
9.787016070510774490e-01,-1.005308817894022683e-01,-1.479448898670962187e+00,7.467423581320299375e-01
9.922783131322721051e-01,-1.006805598532418550e-01,-1.488603488498061234e+00,7.509382888681093160e-01
9.931157476328844602e-01,-9.913986455796892916e-02,-1.492739213859046288e+00,7.489002430949256439e-01
1.007913679193287892e+00,-1.002291448327910645e-01,-1.492068127131064292e+00,7.505417421341337159e-01
1.008952986652894568e+00,-1.010780679759629153e-01,-1.502525259749168507e+00,7.501158379988011049e-01
9.821718305545337202e-01,-9.840755127413748637e-02,-1.524521614546355819e+00,7.579012328425825951e-01
9.955658970918416228e-01,-1.005504707969589323e-01,-1.513019379213047522e+00,7.472401018203971290e-01
9.972030672823540831e-01,-1.001021750569172086e-01,-1.488850994517584736e+00,7.494729651215161770e-01
1.019541148087276028e+00,-1.007701579184197144e-01,-1.519493928620120116e+00,7.505031231255360202e-01
9.906711636545540989e-01,-1.011090807822161014e-01,-1.512746082257895530e+00,7.542801813553146051e-01
9.932686004017164949e-01,-9.800363283010986304e-02,-1.501466895418799741e+00,7.434975675338261203e-01
1.010579608602179214e+00,-1.017391597250410923e-01,-1.512652273590534557e+00,7.565493661031912342e-01
9.843743723638267440e-01,-9.853040287620755400e-02,-1.499938839683987668e+00,7.437449262273155837e-01
1.010735985652077451e+00,-1.005576953906107962e-01,-1.532077617552801474e+00,7.514552670285625791e-01
9.899410928570331336e-01,-9.775815936610460222e-02,-1.536887068821789715e+00,7.584890947193998478e-01
9.909870406273286747e-01,-9.892975896710747008e-02,-1.542865003723258743e+00,7.622651886034864654e-01
9.809182554839613877e-01,-1.000971592007936922e-01,-1.472525708417560475e+00,7.409884704198262950e-01
1.009248065247341009e+00,-9.980411620619231150e-02,-1.523924624590308863e+00,7.575972225672761295e-01
1.008261570473625968e+00,-1.019514424147204834e-01,-1.490213769148161838e+00,7.476228417448890218e-01
9.713855726037943228e-01,-9.845111061604021330e-02,-1.503281076580765596e+00,7.481206079980244894e-01
9.924523011391753746e-01,-9.928820430301181499e-02,-1.495740968408810101e+00,7.569322082540520524e-01
9.878019319841377932e-01,-1.012051760481728346e-01,-1.513528065325586480e+00,7.515754877165922165e-01
1.021112594410582330e+00,-1.012092270222450657e-01,-1.477073077909328180e+00,7.447324951668363724e-01
9.860912569609714406e-01,-1.006864978216785861e-01,-1.511723297071487337e+00,7.509350803945186170e-01
9.857973497043891475e-01,-9.852332083672842022e-02,-1.502704463439664906e+00,7.506960644904075997e-01
9.998126137806210290e-01,-9.968914146559408607e-02,-1.486198489918163501e+00,7.497166311471886724e-01
9.861431196040555403e-01,-1.006980571688726595e-01,-1.472104972499546527e+00,7.402437060216123799e-01
9.853111370514116008e-01,-9.841471786322822379e-02,-1.497901388753985152e+00,7.481168003560927371e-01
9.920450573386691007e-01,-9.985511735609078898e-02,-1.508583597014755862e+00,7.581346823333308116e-01
1.004413416778743962e+00,-9.851770308031652934e-02,-1.528919256718877406e+00,7.570338423041149678e-01
9.768757231215233761e-01,-1.003276193236181529e-01,-1.483130233683731536e+00,7.428732781095240822e-01
9.864029847447247645e-01,-9.874992924891834445e-02,-1.530405867006175313e+00,7.577976489653264203e-01
9.806130695683632492e-01,-9.839265349397877114e-02,-1.505028490436780553e+00,7.560799734002181527e-01
9.895253487816575433e-01,-1.013371361364504286e-01,-1.477103330990993113e+00,7.517383881529088319e-01
9.786540443958117175e-01,-9.951276079617389636e-02,-1.547638443249272244e+00,7.652425807323455231e-01
1.013934747114638713e+00,-1.012893812710684432e-01,-1.525799405939276099e+00,7.627675799771941323e-01
9.758979179329096976e-01,-9.909075708532295856e-02,-1.511569630467687553e+00,7.569527871716065226e-01
9.946522266180676253e-01,-9.904250276452421231e-02,-1.531321705190291427e+00,7.497061818542755107e-01
9.856829942193361394e-01,-9.851951911947584573e-02,-1.487719121359191154e+00,7.402753130981926111e-01
9.920182796631871192e-01,-1.003795045341219494e-01,-1.535426787385744563e+00,7.562008508112647576e-01
1.004462844708247982e+00,-1.027842482199645691e-01,-1.498971164593269068e+00,7.519233558826345920e-01
9.903790469829147902e-01,-9.901912863512231378e-02,-1.464448707286825302e+00,7.393471902172222832e-01
9.961239482190875627e-01,-1.007139658898959511e-01,-1.476102327683246562e+00,7.457120195938362617e-01
9.826115273754222335e-01,-9.966882835380304340e-02,-1.475406321495505768e+00,7.490981154652631702e-01
9.977845319812633784e-01,-1.004394290895840591e-01,-1.531565293212488355e+00,7.554114775589033659e-01
9.949806211325912253e-01,-1.019084758677877289e-01,-1.473369259042373702e+00,7.480683075359180201e-01
1.004432987024501900e+00,-1.005013597229314909e-01,-1.472306025526994411e+00,7.375884946233463024e-01
1.004395039349261110e+00,-1.023242402737413737e-01,-1.487329649530897413e+00,7.530755531562239868e-01
9.824458306220761328e-01,-9.744584082947779780e-02,-1.516722213357432958e+00,7.574272289023267213e-01
9.745446596901680136e-01,-9.678725792792348959e-02,-1.508242745130086604e+00,7.488359564220414821e-01
1.003949644453747236e+00,-9.942861925452844973e-02,-1.500490641678809522e+00,7.459254606892086192e-01
1.004712533408006703e+00,-1.010077299729755240e-01,-1.496140364140710499e+00,7.477160172922814318e-01
1.002162342246280202e+00,-1.009014780444279502e-01,-1.471562146806487226e+00,7.496634249375946357e-01
9.684549507247087741e-01,-9.855879632448145966e-02,-1.529811364364174864e+00,7.562959002623246274e-01
9.957725378695164720e-01,-1.001426119736362197e-01,-1.491859071460136077e+00,7.476346113878576949e-01
1.016827791646368606e+00,-1.006501486396227107e-01,-1.531016114739990552e+00,7.546843275658505767e-01
9.886899746524094867e-01,-1.007257486319507594e-01,-1.512764748609915166e+00,7.509583869946510060e-01
9.860963609740284186e-01,-1.004074340599050569e-01,-1.485817630009946821e+00,7.459258194769412542e-01
9.891246627758668586e-01,-9.988233623829782803e-02,-1.488213911639702625e+00,7.474287388819393918e-01
9.796859321051474279e-01,-9.820685579738838711e-02,-1.489882131310888758e+00,7.507321687614825212e-01
9.879990286762007079e-01,-9.845530242574823676e-02,-1.483161353220979306e+00,7.453826325468805303e-01
1.001818512750942691e+00,-9.990778148989828966e-02,-1.497569742802071335e+00,7.496628565194692895e-01
1.004039684823170075e+00,-1.020930881979850574e-01,-1.488078548958281511e+00,7.531068391272380813e-01
1.019949082003353658e+00,-1.002733144379188979e-01,-1.497626302805014742e+00,7.514865306334196360e-01
9.829742062303604699e-01,-9.840475905063750250e-02,-1.536029259036152617e+00,7.573503856054757399e-01
9.848224784824050060e-01,-1.011438598672025485e-01,-1.503002021044040237e+00,7.480428109147102544e-01
9.804005314392710835e-01,-1.005229654561161090e-01,-1.466232717858627854e+00,7.403571896166463162e-01
1.000052179323119850e+00,-9.973751725956490899e-02,-1.511324585891546723e+00,7.509390173197802998e-01
9.973959202501796462e-01,-9.986498718494611626e-02,-1.494533840575183126e+00,7.417543536916733071e-01
1.009699620883756532e+00,-1.023807897764532626e-01,-1.463637508523957687e+00,7.398730108093237723e-01
1.001870883673129153e+00,-1.004581075112252753e-01,-1.472156258286967390e+00,7.462803259402898126e-01
9.868665922492879661e-01,-9.931156866117657467e-02,-1.486042845956293768e+00,7.434002281889083852e-01
9.879382802437709499e-01,-9.817200799264261257e-02,-1.484299368319060619e+00,7.447220246516108588e-01
9.911711835638375989e-01,-9.987031120420605812e-02,-1.492961950891573686e+00,7.451882192614178724e-01
9.756653176020811946e-01,-9.812944103102096138e-02,-1.521819356986966465e+00,7.554130097606054361e-01
9.898018745773980998e-01,-9.947171736162670197e-02,-1.536795763909472701e+00,7.562434495368229870e-01
1.012293173706987792e+00,-9.928278642502863516e-02,-1.498029137707617364e+00,7.489414507403444610e-01
9.911141695265026641e-01,-9.828405378047389007e-02,-1.500185561915021504e+00,7.453818674129293331e-01
9.875430642161897588e-01,-1.004451257607518189e-01,-1.456564071126821958e+00,7.424093383950668423e-01
1.002845747188449321e+00,-1.007161216601488579e-01,-1.489220963444167767e+00,7.517856441539729762e-01
9.772436431077028418e-01,-9.906108717885217518e-02,-1.473361978228415969e+00,7.420526155466713458e-01
9.946788639883880068e-01,-1.008096606866433764e-01,-1.469296026662841426e+00,7.463854716669162670e-01
9.997924176707353450e-01,-9.952038647046183850e-02,-1.482374116993958602e+00,7.468178142290609056e-01
9.806994579692115410e-01,-9.937494697988372150e-02,-1.523450028730666928e+00,7.608518036981056776e-01
9.942543950268447617e-01,-1.005335531992706671e-01,-1.505489062788575971e+00,7.508768282775662994e-01
9.846248629752054615e-01,-9.961301194883691312e-02,-1.498627258396316497e+00,7.538918181276519359e-01
9.988482554380945233e-01,-1.001212952518137494e-01,-1.507469173827405751e+00,7.537505837006823750e-01
1.023051838802019997e+00,-1.013297126976790696e-01,-1.461244493994263483e+00,7.402699312363443251e-01
9.867946368432741755e-01,-9.868234368170884785e-02,-1.522195230873286453e+00,7.543140999645383538e-01
9.886931407471347688e-01,-9.951580218746947093e-02,-1.474204619476634948e+00,7.473169626700720825e-01
9.865457937307018366e-01,-9.800466754721492979e-02,-1.519274166935117298e+00,7.557589953784378256e-01
9.670659912536985203e-01,-9.847717691965819642e-02,-1.512561929475364497e+00,7.494057476004172269e-01
9.766581619002574488e-01,-9.962013782560313890e-02,-1.505447696278622072e+00,7.521876461092993349e-01
9.904128815746237047e-01,-1.003796461974402754e-01,-1.498623595800568475e+00,7.478972470289027008e-01
9.778114531832777789e-01,-9.998989427707219435e-02,-1.502068227504554709e+00,7.508623177030496754e-01
9.927708447420866555e-01,-9.917017479581330397e-02,-1.469570366284592922e+00,7.439203206328232065e-01
1.011691280426052053e+00,-9.982615929423536982e-02,-1.530618404382593889e+00,7.611999600062763216e-01
9.886603582949414770e-01,-9.971823275312029222e-02,-1.483065821571165399e+00,7.509449415717196485e-01
1.021370323773215683e+00,-1.015593141740569610e-01,-1.489388104268686286e+00,7.504385734588957524e-01
9.880516848280691544e-01,-9.809685838583977191e-02,-1.510774422644241888e+00,7.533197535740935313e-01
1.006801367783686230e+00,-1.018816468105021161e-01,-1.512191213332234385e+00,7.499502119013545798e-01
1.014495005026141650e+00,-1.003381364962431938e-01,-1.500220716234806906e+00,7.544706300498968954e-01
9.975296705086995619e-01,-9.998856254373188202e-02,-1.500488330442136364e+00,7.575894210089407776e-01
9.992932044838566119e-01,-1.015321724488494198e-01,-1.508821145723724166e+00,7.579295445988487590e-01
1.009349447173263581e+00,-1.017419996482916561e-01,-1.516555774680188096e+00,7.575565167702058567e-01
9.908765749879594464e-01,-9.939187196261513313e-02,-1.534253845107172998e+00,7.556181527719642022e-01
9.927771534912750440e-01,-1.000511398645721334e-01,-1.516594321262195066e+00,7.529360481701757868e-01
9.594622524645965989e-01,-9.802385020238323088e-02,-1.504105694835454754e+00,7.522599132494725005e-01
1.003275575944369669e+00,-9.942431880023297475e-02,-1.523953241178338747e+00,7.537147086005118179e-01
9.711620593215650743e-01,-9.838309148687165995e-02,-1.532538751130022803e+00,7.586522226497691701e-01
9.926181431776839315e-01,-9.781830651411979605e-02,-1.529889021061695997e+00,7.521084755235049046e-01
9.936508618448663954e-01,-1.002406730410439900e-01,-1.490032349931054156e+00,7.443201784382706965e-01
9.914821664399587897e-01,-1.002722362006919221e-01,-1.544087099712371902e+00,7.598157599915503768e-01
1.017201958435017817e+00,-1.007985436529650614e-01,-1.507589046337059813e+00,7.492086268577639041e-01
9.871929722969168264e-01,-9.854050004395911722e-02,-1.500545971131406420e+00,7.490647999485725572e-01
9.793566589202784556e-01,-9.857751090662209004e-02,-1.506618285017871317e+00,7.539117210903635291e-01
9.878323740147559873e-01,-9.975403089643629373e-02,-1.464374820278418365e+00,7.392744882473529788e-01
1.010683027508571197e+00,-1.015113310011249714e-01,-1.486153113378093416e+00,7.443113450178652224e-01
1.006827793599167853e+00,-1.009805387351569300e-01,-1.516484609401790529e+00,7.532777507351051671e-01
9.838503244649116075e-01,-9.923217239049418603e-02,-1.519852830451500658e+00,7.548369511719154046e-01
9.973773937154585267e-01,-1.005694107766775258e-01,-1.483757473433479745e+00,7.435747461947773695e-01
1.011419323518750302e+00,-1.008492398984075084e-01,-1.511780404479180051e+00,7.522218691905915300e-01
1.017725104359957333e+00,-1.006467844524572136e-01,-1.520257038457581089e+00,7.535432841089326761e-01
9.925790498365177905e-01,-9.958015319264268417e-02,-1.516155659182375270e+00,7.505516489500612121e-01
9.755124000867472223e-01,-9.871183186685918154e-02,-1.510888230567666524e+00,7.601284491896835860e-01
9.957401392468041568e-01,-9.832766743020068811e-02,-1.520398444145112160e+00,7.507322026768342704e-01
9.869971200898204344e-01,-1.004843003550785208e-01,-1.450284928938954332e+00,7.427877366757508204e-01
1.006749073380743598e+00,-1.006889196568778871e-01,-1.548352366518822798e+00,7.639151964455609400e-01
1.000689400219540781e+00,-9.977653156142304858e-02,-1.483829100582209959e+00,7.486329467333012744e-01
9.891567686624850309e-01,-9.823655866728658870e-02,-1.484776226493586426e+00,7.439312224645107108e-01
9.731881280234140341e-01,-9.787749992280406208e-02,-1.491616173500414533e+00,7.476635882410245237e-01
1.021406285164092376e+00,-1.017654028523714421e-01,-1.483257248968231856e+00,7.415494252855866497e-01
1.009353775216706106e+00,-1.005175889345180373e-01,-1.526814420824649465e+00,7.578671775969727520e-01
9.751910101791291252e-01,-9.740621132240960545e-02,-1.527157806276074226e+00,7.557888696907222315e-01
1.020254238949062531e+00,-1.013838367382697281e-01,-1.497865167132814035e+00,7.440635691835502108e-01
1.008080747626126428e+00,-1.020978398606644799e-01,-1.478535897378612241e+00,7.488838225780687363e-01
1.007642386101314180e+00,-1.011273198917679167e-01,-1.495348620510399851e+00,7.489783874714227574e-01
9.880789491879808928e-01,-9.982349567168706528e-02,-1.513297086032053818e+00,7.491953278824764473e-01
9.953692694568906374e-01,-1.000417711722341729e-01,-1.480338336596019655e+00,7.467243965638806769e-01
9.903488948756450361e-01,-9.914736303623432334e-02,-1.499557747831309129e+00,7.588041836597732015e-01
1.015928484214002392e+00,-1.010045697847740120e-01,-1.496938294284454019e+00,7.448574313321980611e-01
1.015724552885592491e+00,-1.009655630601178217e-01,-1.452368270493449520e+00,7.352475315940345535e-01
9.832282804111369678e-01,-1.006540497926860095e-01,-1.515596278411604159e+00,7.572110227807024030e-01
9.951063378894625666e-01,-9.915385451308339482e-02,-1.494925557301852725e+00,7.504549026826276004e-01
1.003748401287616998e+00,-9.983411841981772172e-02,-1.508979654538494808e+00,7.509518430228375729e-01
9.975685400593908847e-01,-1.001345257797811861e-01,-1.461402794699232732e+00,7.370358874637530366e-01
9.891148507799533141e-01,-9.943646532291451623e-02,-1.506247221403900882e+00,7.548791332771724871e-01
9.950018109071185890e-01,-1.010762558398204530e-01,-1.455632167057518300e+00,7.366352282246003691e-01
1.001965976088007970e+00,-1.008586975260560292e-01,-1.509165930411465517e+00,7.511576605741576707e-01
9.900649520511501933e-01,-9.994572931152410911e-02,-1.481182444922976016e+00,7.509151745198138217e-01
9.872657609208366214e-01,-1.010662359201718041e-01,-1.521923794218629888e+00,7.548775926793135360e-01
9.973767851615835678e-01,-1.007391550138243275e-01,-1.518248589370834623e+00,7.589174172943428109e-01
1.009139934506294356e+00,-9.921558530469638815e-02,-1.516246085506416597e+00,7.526905735861304514e-01
9.684586719411970579e-01,-9.727676417993141866e-02,-1.498299402848501494e+00,7.429732181242164613e-01
9.868321671134642203e-01,-1.001761748299158233e-01,-1.482304832345364476e+00,7.468745100313496366e-01
9.997665731305244163e-01,-1.020392354049029365e-01,-1.467687428852729070e+00,7.431177999127359657e-01
9.698621040020363182e-01,-9.831748038333963657e-02,-1.519818552844583337e+00,7.539964426397789410e-01
1.003948183652381143e+00,-1.004970134536415094e-01,-1.485567985626260024e+00,7.503689256344708847e-01
1.000135985270399264e+00,-1.002210805648401787e-01,-1.518359218147239398e+00,7.512132610050130666e-01
9.977023698111532335e-01,-1.013748466255194186e-01,-1.495809604017697358e+00,7.481034295903933318e-01
9.785181916394861679e-01,-9.880019093660100116e-02,-1.484181377979000516e+00,7.460558286124223670e-01
1.013668154833267776e+00,-1.015461631533768477e-01,-1.485445368532000376e+00,7.475612006025162959e-01
9.919474339447010847e-01,-9.985740892776796829e-02,-1.521976640347005638e+00,7.518443648715300576e-01
1.000329892552092259e+00,-9.913696011989980850e-02,-1.503513042426765534e+00,7.492112086636615320e-01
9.882183686778258647e-01,-1.002789544276457834e-01,-1.496566953488171814e+00,7.422123811104432978e-01
1.004360857247510896e+00,-1.003768116431247720e-01,-1.487955236120165337e+00,7.461106190581546782e-01
9.896826990101031951e-01,-9.906490338085936764e-02,-1.499234411318115523e+00,7.453173897672408232e-01
9.972562161616654874e-01,-9.978767131725983786e-02,-1.535240804750134469e+00,7.529805551406717479e-01
9.878676410499637184e-01,-9.969700818525223385e-02,-1.505949714994895716e+00,7.507577888289720391e-01
9.909841577605211782e-01,-9.945025997831416498e-02,-1.503420719086941304e+00,7.526860803580909254e-01
1.001674600916046876e+00,-9.958855057687646117e-02,-1.502962200683193750e+00,7.478342312182996166e-01
9.884063494272284922e-01,-9.985021256555146052e-02,-1.516018263443820624e+00,7.621767027643626680e-01
9.963671304236770832e-01,-1.019536513422238666e-01,-1.507242693426906310e+00,7.543381015890391339e-01
9.818688620346631701e-01,-9.720352524620083645e-02,-1.499072486604211774e+00,7.497218004061988461e-01
9.968036140829635849e-01,-9.966430479595997372e-02,-1.483849438288359801e+00,7.437290662155270349e-01
9.921091947258847688e-01,-9.848644061467308475e-02,-1.516488283555139427e+00,7.543062188164944004e-01
9.947001203500784872e-01,-9.965322490214266471e-02,-1.499903382579274247e+00,7.501060579201498379e-01
1.006467354863020303e+00,-1.016207634722184616e-01,-1.506190520199719884e+00,7.514721838943155818e-01
1.004707119658489578e+00,-1.006473331839303209e-01,-1.526429654982699224e+00,7.580055541321333301e-01
9.934551025765998578e-01,-9.949154384644416649e-02,-1.551017059656554897e+00,7.689365126356757507e-01
9.803721662565589856e-01,-1.000574797430840157e-01,-1.507252408015043121e+00,7.527707168345256772e-01
9.993788157002974071e-01,-1.023924311811207077e-01,-1.520619236067528801e+00,7.577278562661506900e-01
9.704108738739244400e-01,-9.931559178386389908e-02,-1.497186504755823933e+00,7.524640238131605763e-01
9.992483178552763468e-01,-9.981213152288809232e-02,-1.470652292534120997e+00,7.402663093460037924e-01
1.013206413366068759e+00,-1.003593693472376869e-01,-1.482815517191024668e+00,7.475392324718431736e-01
9.910256985790446560e-01,-9.893088076021168409e-02,-1.501534716298839722e+00,7.511866356024045066e-01
1.004113573372065416e+00,-9.995220992028608364e-02,-1.490562578687985917e+00,7.494422019907560628e-01
9.987369579619281845e-01,-9.957626765034668925e-02,-1.529701978486852854e+00,7.536737534754420764e-01
9.866762689999402092e-01,-9.745490539774250005e-02,-1.504805374129105644e+00,7.469494705725534534e-01
9.770506655240102090e-01,-9.744532875162882635e-02,-1.504447710637850433e+00,7.508168556591111598e-01
9.888077518602025329e-01,-1.003535103266841311e-01,-1.511725264218054754e+00,7.539617621900371880e-01
1.003774066494118156e+00,-1.014577619930904923e-01,-1.485050958604983595e+00,7.394428582739065448e-01
1.007063484676813392e+00,-1.006832649658038342e-01,-1.471314368244277970e+00,7.434843812014073627e-01
1.009129525094735635e+00,-1.001301750693641968e-01,-1.507452442028088813e+00,7.496154692753108639e-01
1.008366512174097451e+00,-9.956946058542849587e-02,-1.492912276421369144e+00,7.457885659042138293e-01
9.745059092553549629e-01,-9.883959197477577840e-02,-1.476426227725002205e+00,7.421851742209605307e-01
1.009628681414377782e+00,-9.924695503594513357e-02,-1.504664348159919784e+00,7.505284649535833852e-01
9.785096069452879908e-01,-9.843332011347970256e-02,-1.498998355966126628e+00,7.429437585400532340e-01
1.001165894022284286e+00,-1.002416787132595632e-01,-1.533162384559292768e+00,7.521527611200030661e-01
1.002614167069064477e+00,-9.874449169423472894e-02,-1.497559450714877727e+00,7.513355143368888323e-01
9.899401689724867115e-01,-9.716046892210436492e-02,-1.510911414562147614e+00,7.492689619952098701e-01
1.004185877581177611e+00,-1.006219210908050610e-01,-1.498250161801812697e+00,7.518783463778870857e-01
9.900998160287833860e-01,-1.006775163958949365e-01,-1.469512347989973877e+00,7.411412703204164343e-01
9.809775926950514702e-01,-9.916809278472936418e-02,-1.481593792609731564e+00,7.437090238405447140e-01
1.016489552024336440e+00,-1.019706530465813998e-01,-1.517397614323634514e+00,7.556475615268372081e-01
1.014707190107529966e+00,-9.981970128732337022e-02,-1.494144439838021254e+00,7.490143588776114747e-01
1.004788899423337156e+00,-1.002525434271167443e-01,-1.507831786211777159e+00,7.501384577976371038e-01
9.865861065422012466e-01,-9.817043381073362052e-02,-1.487251132315392521e+00,7.478127471419223626e-01
9.918590232948187868e-01,-1.015014962496513379e-01,-1.510117285048126146e+00,7.540916751690034392e-01
9.770708628927785577e-01,-9.856685075200444235e-02,-1.506787350977619511e+00,7.506746290785165643e-01
9.877210461361241034e-01,-9.792482365929670862e-02,-1.502541442993967635e+00,7.510163753990022339e-01
9.716011955585683868e-01,-9.956180330318108174e-02,-1.510694389035446727e+00,7.546093364508418277e-01
9.949658608863192200e-01,-9.851125228915028065e-02,-1.480137532347093110e+00,7.431815037957076875e-01
9.793917301778506390e-01,-1.001324207659697735e-01,-1.511230168310569555e+00,7.511239979417222434e-01
9.880665265514024798e-01,-9.902020322479415659e-02,-1.493546525678737247e+00,7.401186262456407317e-01
9.768888936901701792e-01,-9.940593237719057285e-02,-1.489562257227217801e+00,7.480873192251235038e-01
1.012122125216849078e+00,-1.002116717672660862e-01,-1.500917393015931856e+00,7.568314659651579346e-01
1.004019558101021170e+00,-1.013275082137371774e-01,-1.493258092121681146e+00,7.510885612444762049e-01
9.990008090779062266e-01,-9.866325500353032019e-02,-1.492352732361415635e+00,7.488649132524940466e-01
1.002689290904641650e+00,-9.929835188366765986e-02,-1.492056008181975812e+00,7.430835020353540044e-01
9.824780707905177435e-01,-9.995134671420835559e-02,-1.522540052640187991e+00,7.609967557359065271e-01
9.872312973568277972e-01,-9.930760623314630053e-02,-1.523654210277808341e+00,7.478642108768872587e-01
9.982462779013377974e-01,-9.807528196772268003e-02,-1.505489193362850475e+00,7.458371627696069872e-01
1.008066959060975210e+00,-1.014266247221843747e-01,-1.518782709276531362e+00,7.551353039983104143e-01
1.004178313777328135e+00,-1.006597330462604689e-01,-1.463421543911325173e+00,7.421415887096174391e-01
9.848408808771508260e-01,-1.004272662913276715e-01,-1.516884193645270162e+00,7.486059763141708068e-01
9.758770620008309082e-01,-9.754394508001970610e-02,-1.514103056933922886e+00,7.535268202568931040e-01
9.864229770773933481e-01,-9.854153468770772417e-02,-1.503221667525488581e+00,7.530243737464955567e-01
9.863293106318630210e-01,-1.006825114179973057e-01,-1.478814857742704048e+00,7.521229770636301826e-01
9.844622553855867375e-01,-9.903439582395894003e-02,-1.500200283969052695e+00,7.451583279625287881e-01
9.820428614765884801e-01,-9.793431084414000454e-02,-1.511484472068808094e+00,7.475799949211630047e-01
1.003934542968655697e+00,-1.015229397175851922e-01,-1.460890129180503649e+00,7.411814938808461983e-01
9.964083780748369534e-01,-1.010207524768615833e-01,-1.497486661957191156e+00,7.461876829851982196e-01
1.010538765572127851e+00,-1.011789802798136323e-01,-1.506997805049268946e+00,7.545144436941496613e-01
1.003906357081268963e+00,-9.930672042317507942e-02,-1.510683025535065838e+00,7.553043488216054646e-01
1.011238345252566839e+00,-1.014730072917621601e-01,-1.519660926367439213e+00,7.582356617365966223e-01
9.845071695512322973e-01,-9.777535391263134090e-02,-1.505466287590831787e+00,7.509728692838899544e-01
