9.981614947319030762e-01,-1.001626029610633850e-01,-1.508766293525695801e+00,7.535048723220825195e-01
9.981614947319030762e-01,-1.001626029610633850e-01,-1.508766293525695801e+00,7.535048723220825195e-01
9.981614947319030762e-01,-1.001626029610633850e-01,-1.508766293525695801e+00,7.535048723220825195e-01
9.981614947319030762e-01,-1.001626029610633850e-01,-1.508766293525695801e+00,7.535048723220825195e-01
1.000214892736669414e+00,-1.001000374823812628e-01,-1.513227289717089308e+00,7.531438122320557316e-01
9.983438795875980709e-01,-9.979592163682350636e-02,-1.509007780029002044e+00,7.541014813521829119e-01
1.001886414685517535e+00,-1.006235482204329845e-01,-1.504552253259579864e+00,7.526296788005094607e-01
9.973165072509231344e-01,-1.003169071192444306e-01,-1.506272014180031871e+00,7.528663685188726751e-01
9.973165072509231344e-01,-1.003169071192444306e-01,-1.506272014180031871e+00,7.528663685188726751e-01
9.973165072509231344e-01,-1.003169071192444306e-01,-1.506272014180031871e+00,7.528663685188726751e-01
9.937662583521339466e-01,-9.948784770356641771e-02,-1.515631418001613273e+00,7.547682036221114998e-01
9.937662583521339466e-01,-9.948784770356641771e-02,-1.515631418001613273e+00,7.547682036221114998e-01
9.995903006376991584e-01,-1.005185403692376439e-01,-1.500766611433114850e+00,7.516531232588705702e-01
1.000830326137176041e+00,-1.004303729527026151e-01,-1.513690079732932903e+00,7.545556630738424753e-01
1.001004500776818684e+00,-1.005489373443501505e-01,-1.505738832151680029e+00,7.530261811124725480e-01
1.001004500776818684e+00,-1.005489373443501505e-01,-1.505738832151680029e+00,7.530261811124725480e-01
1.001004500776818684e+00,-1.005489373443501505e-01,-1.505738832151680029e+00,7.530261811124725480e-01
1.004408099523973918e+00,-1.003850874529242931e-01,-1.509198148669609330e+00,7.535870522264838112e-01
9.952952367902950792e-01,-9.995039303986848200e-02,-1.504821233324714180e+00,7.527212568963320694e-01
1.000474398794375830e+00,-9.972813202903765828e-02,-1.513042023716529405e+00,7.544224870807380023e-01
9.940722170099580701e-01,-1.004496424462699156e-01,-1.505768263735737689e+00,7.528113104601189542e-01
9.940722170099580701e-01,-1.004496424462699156e-01,-1.505768263735737689e+00,7.528113104601189542e-01
1.004050007351222185e+00,-1.007524973722506989e-01,-1.502619794442394685e+00,7.518069323715232954e-01
1.004050007351222185e+00,-1.007524973722506989e-01,-1.502619794442394685e+00,7.518069323715232954e-01
1.004050007351222185e+00,-1.007524973722506989e-01,-1.502619794442394685e+00,7.518069323715232954e-01
9.942638688568194993e-01,-9.973344625304304822e-02,-1.498740601333258260e+00,7.504293917693602989e-01
9.972746919426696000e-01,-1.007492027581327332e-01,-1.517178890632546517e+00,7.563561537963182646e-01
9.965610979805717973e-01,-9.987586728365439870e-02,-1.499762706938394308e+00,7.501924100007174578e-01
9.960356977106081811e-01,-1.001696875149449689e-01,-1.512646173838972485e+00,7.556092538473070386e-01
1.000066095141124878e+00,-9.988423448405783778e-02,-1.513648687608251109e+00,7.530040227621962456e-01
1.000066095141124878e+00,-9.988423448405783778e-02,-1.513648687608251109e+00,7.530040227621962456e-01
1.000066095141124878e+00,-9.988423448405783778e-02,-1.513648687608251109e+00,7.530040227621962456e-01
9.973196853884662705e-01,-1.002454928496631509e-01,-1.506441314275936749e+00,7.549856752388995895e-01
9.983767912017668111e-01,-9.938459983712570611e-02,-1.515809156200106145e+00,7.538431985985222239e-01
9.983767912017668111e-01,-9.938459983712570611e-02,-1.515809156200106145e+00,7.538431985985222239e-01
9.936721182654972839e-01,-9.988063347890648036e-02,-1.498612117407214450e+00,7.516339735162133051e-01
9.936721182654972839e-01,-9.988063347890648036e-02,-1.498612117407214450e+00,7.516339735162133051e-01
9.936721182654972839e-01,-9.988063347890648036e-02,-1.498612117407214450e+00,7.516339735162133051e-01
9.930988297858663882e-01,-9.971623285632484623e-02,-1.515334044039761574e+00,7.537168852533850938e-01
1.000290551206282741e+00,-1.002243456726791548e-01,-1.501131735322287497e+00,7.517672406824215114e-01
9.947748776853427843e-01,-1.000328242361065434e-01,-1.504028453207524096e+00,7.525122923705934719e-01
9.977910801945620856e-01,-9.991815466380851718e-02,-1.507267726495194582e+00,7.522624174173588862e-01
9.996605565836108598e-01,-1.001682613530374688e-01,-1.503519392217074424e+00,7.544683926396242857e-01
9.950535264885717046e-01,-9.964342300574466349e-02,-1.508851663549606315e+00,7.530089409367710651e-01
9.950535264885717046e-01,-9.964342300574466349e-02,-1.508851663549606315e+00,7.530089409367710651e-01
1.000968144073200339e+00,-1.001833230295306604e-01,-1.509012915863324089e+00,7.545046849459823290e-01
1.000968144073200339e+00,-1.001833230295306604e-01,-1.509012915863324089e+00,7.545046849459823290e-01
9.890514904310541144e-01,-9.995247981105886970e-02,-1.506501018405338232e+00,7.539915354437393136e-01
1.006864287385172529e+00,-1.003879100551781783e-01,-1.512759037921015404e+00,7.541932510334721229e-01
1.006864287385172529e+00,-1.003879100551781783e-01,-1.512759037921015404e+00,7.541932510334721229e-01
9.887667795497588896e-01,-9.983836029686067592e-02,-1.494883174012166638e+00,7.514564708395126136e-01
9.887667795497588896e-01,-9.983836029686067592e-02,-1.494883174012166638e+00,7.514564708395126136e-01
9.983225031171759634e-01,-1.001633699383620985e-01,-1.523676909251323819e+00,7.563914562579135970e-01
9.983225031171759634e-01,-1.001633699383620985e-01,-1.523676909251323819e+00,7.563914562579135970e-01
9.980837708488352611e-01,-1.001374805284864222e-01,-1.505379248575699602e+00,7.545132230827406028e-01
9.909089415718829175e-01,-9.935480787308091644e-02,-1.523955931984310119e+00,7.576753467301381439e-01
9.998449293993639797e-01,-1.007253261979066672e-01,-1.491337877579453464e+00,7.487899050801859469e-01
9.977060056827108392e-01,-9.997595784196409985e-02,-1.525120600870551124e+00,7.570049907406332101e-01
9.977060056827108392e-01,-9.997595784196409985e-02,-1.525120600870551124e+00,7.570049907406332101e-01
9.988311159946328122e-01,-1.004995548613861617e-01,-1.494954055311321861e+00,7.507983001523230726e-01
9.927321002232717406e-01,-9.967190900254518926e-02,-1.519317453342783342e+00,7.546222143748452238e-01
1.009156652311426372e+00,-1.011037917959353993e-01,-1.500348837951456682e+00,7.511776032285936155e-01
9.964085553245777271e-01,-1.002854304654955536e-01,-1.517045224181698737e+00,7.560964076852563220e-01
9.980976224001851804e-01,-1.004171496264735924e-01,-1.497347981373705395e+00,7.478405386662186904e-01
1.000124771198688478e+00,-1.003412591364250955e-01,-1.522363049785976141e+00,7.585142538349946006e-01
9.991485452859010241e-01,-9.989697628197644064e-02,-1.504952889861111753e+00,7.497303515646903671e-01
1.000057450893013788e+00,-1.006444792421165857e-01,-1.514039229787594643e+00,7.554196550531396825e-01
1.005474563380016173e+00,-1.006633459197749103e-01,-1.497601373279218162e+00,7.509078396378217057e-01
1.005474563380016173e+00,-1.006633459197749103e-01,-1.497601373279218162e+00,7.509078396378217057e-01
1.005474563380016173e+00,-1.006633459197749103e-01,-1.497601373279218162e+00,7.509078396378217057e-01
9.992844105082165918e-01,-1.003526646224356528e-01,-1.503255644565836713e+00,7.519659479761869880e-01
9.935201027377443816e-01,-9.993168232606519652e-02,-1.508632417826760497e+00,7.542382044483998405e-01
9.976353779028517277e-01,-1.002480374702450910e-01,-1.508060661681215109e+00,7.540826223213403789e-01
9.961537590827008737e-01,-9.999933134020022596e-02,-1.498227256813331687e+00,7.495087365423531711e-01
9.961537590827008737e-01,-9.999933134020022596e-02,-1.498227256813331687e+00,7.495087365423531711e-01
9.982771694614349656e-01,-1.004465446604934503e-01,-1.499149730417471682e+00,7.510232563252564608e-01
9.926529992344502729e-01,-1.000173773764528734e-01,-1.499937380028809386e+00,7.485211328472464176e-01
1.001546888178289851e+00,-1.002280097460390151e-01,-1.509318558959546142e+00,7.547307146056285720e-01
1.000389382917001413e+00,-1.004660552456157346e-01,-1.502339884394797709e+00,7.495734372887461472e-01
1.000389382917001413e+00,-1.004660552456157346e-01,-1.502339884394797709e+00,7.495734372887461472e-01
1.000389382917001413e+00,-1.004660552456157346e-01,-1.502339884394797709e+00,7.495734372887461472e-01
1.000389382917001413e+00,-1.004660552456157346e-01,-1.502339884394797709e+00,7.495734372887461472e-01
1.000389382917001413e+00,-1.004660552456157346e-01,-1.502339884394797709e+00,7.495734372887461472e-01
9.921252762437533512e-01,-9.941647334337078146e-02,-1.503335204153578353e+00,7.501865749685739937e-01
1.002861144822351003e+00,-1.008833003710820631e-01,-1.506701223169232495e+00,7.520163843061030695e-01
9.901602625693652904e-01,-9.918826739757674593e-02,-1.511385373352259087e+00,7.554300265926837676e-01
9.901602625693652904e-01,-9.918826739757674593e-02,-1.511385373352259087e+00,7.554300265926837676e-01
9.991598258411223954e-01,-1.004673297679089389e-01,-1.523183990884239059e+00,7.551910497930566235e-01
9.991598258411223954e-01,-1.004673297679089389e-01,-1.523183990884239059e+00,7.551910497930566235e-01
9.989777643315076450e-01,-9.997082733618035955e-02,-1.498813977044949342e+00,7.518260713826317998e-01
1.000024664857275924e+00,-9.975704953582695267e-02,-1.508764078448427748e+00,7.531148743846373117e-01
9.909497797088897553e-01,-9.912647450784307923e-02,-1.517250019395810279e+00,7.555175013335478917e-01
9.956485416118658893e-01,-9.990785782044829533e-02,-1.500957957493063155e+00,7.533194106283558344e-01
1.004604599654564945e+00,-1.002518662725934290e-01,-1.507123745488285538e+00,7.537841040244240842e-01
9.886653588955780503e-01,-9.959201234429668204e-02,-1.509517249964242191e+00,7.528261498363958415e-01
9.886653588955780503e-01,-9.959201234429668204e-02,-1.509517249964242191e+00,7.528261498363958415e-01
9.886653588955780503e-01,-9.959201234429668204e-02,-1.509517249964242191e+00,7.528261498363958415e-01
1.008872154192014703e+00,-1.006807004760144064e-01,-1.512905847715563690e+00,7.573274483120427947e-01
1.008872154192014703e+00,-1.006807004760144064e-01,-1.512905847715563690e+00,7.573274483120427947e-01
9.921785806813976372e-01,-9.935321769850863349e-02,-1.500890588428078543e+00,7.477358046883850751e-01
1.001592317838820190e+00,-1.004811742038869277e-01,-1.506952593879461455e+00,7.563575010274500299e-01
9.988487146403913775e-01,-9.998815518929994595e-02,-1.500165889524508911e+00,7.491004780281050879e-01
9.964645676473121716e-01,-1.002807486335542952e-01,-1.504847874822871301e+00,7.539293183947098909e-01
9.984108681082560777e-01,-9.937561671683961539e-02,-1.514420981121461063e+00,7.523469161219124013e-01
1.001135530798659357e+00,-1.000918373860620603e-01,-1.508636732867247865e+00,7.550918395036267938e-01
9.973581244110522048e-01,-1.001349765322645802e-01,-1.503935729653933295e+00,7.507153039234004677e-01
9.992856277802316667e-01,-1.001137603548965388e-01,-1.527090420524005676e+00,7.596023056095710935e-01
1.000619906067728104e+00,-1.002458322375120725e-01,-1.501391215706471938e+00,7.492801518157703455e-01
9.969245868962941515e-01,-9.992249786864984551e-02,-1.524487419418854239e+00,7.582914083355534185e-01
1.001669799757166412e+00,-1.006488211015421907e-01,-1.501865132090789423e+00,7.514818005677400548e-01
1.000706985699708174e+00,-1.001132369392509908e-01,-1.513730998507333725e+00,7.511129905930032935e-01
1.000706985699708174e+00,-1.001132369392509908e-01,-1.513730998507333725e+00,7.511129905930032935e-01
9.893041356799471275e-01,-9.978538305808645759e-02,-1.505778632724547261e+00,7.527893038933464176e-01
1.008747121210986863e+00,-1.010001133684705482e-01,-1.509326659170156848e+00,7.542944183886276521e-01
9.830692255550426140e-01,-9.906035165983533008e-02,-1.510796752294892853e+00,7.540685312478387914e-01
1.008009987070714653e+00,-1.010636564986623770e-01,-1.494142012191796320e+00,7.494459715657711962e-01
1.008009987070714653e+00,-1.010636564986623770e-01,-1.494142012191796320e+00,7.494459715657711962e-01
9.920067432150837528e-01,-9.986139039844069143e-02,-1.516324584961455058e+00,7.557053964756025310e-01
9.999735859597145282e-01,-1.006510870931810187e-01,-1.513580840598014454e+00,7.536082856491873594e-01
9.999735859597145282e-01,-1.006510870931810187e-01,-1.513580840598014454e+00,7.536082856491873594e-01
9.885186314310951960e-01,-9.981611934535247754e-02,-1.516467750248672308e+00,7.544284588210246056e-01
9.885186314310951960e-01,-9.981611934535247754e-02,-1.516467750248672308e+00,7.544284588210246056e-01
9.885186314310951960e-01,-9.981611934535247754e-02,-1.516467750248672308e+00,7.544284588210246056e-01
1.001087737493134178e+00,-1.007744347716382216e-01,-1.518924301840698599e+00,7.564548824373167335e-01
1.001212005010620576e+00,-1.000378619232227401e-01,-1.496619956293013365e+00,7.514912501671808798e-01
9.979167464600379178e-01,-1.006030826311074128e-01,-1.503875580632417552e+00,7.522696269502023858e-01
9.955789722538881392e-01,-9.979360591459116026e-02,-1.512780634404918390e+00,7.518468675180407512e-01
9.955789722538881392e-01,-9.979360591459116026e-02,-1.512780634404918390e+00,7.518468675180407512e-01
9.978851100700086851e-01,-9.994152355751143024e-02,-1.511180433006328316e+00,7.530137848826399249e-01
9.978851100700086851e-01,-9.994152355751143024e-02,-1.511180433006328316e+00,7.530137848826399249e-01
9.964754299958383799e-01,-1.000123703985150436e-01,-1.511262393699117634e+00,7.526503473074483974e-01
1.007258782368825267e+00,-1.006281578551123101e-01,-1.508398157927991701e+00,7.532895336738685277e-01
9.924890182776269221e-01,-9.981230389281632587e-02,-1.508805710259816246e+00,7.539531056412360766e-01
9.953520222065793677e-01,-9.956711290233649647e-02,-1.500516614556670403e+00,7.501831585597570351e-01
1.003067349554787713e+00,-1.010090526237343578e-01,-1.496341212897288386e+00,7.510904269953118106e-01
1.000241942309021415e+00,-9.977272560455797967e-02,-1.519225804034268767e+00,7.550755760725954557e-01
9.878263086495990830e-01,-9.976102168360009848e-02,-1.501370559428385487e+00,7.498554960273262626e-01
1.005790848520632608e+00,-1.006586739573399752e-01,-1.497367451192661569e+00,7.510162876633674767e-01
1.005790848520632608e+00,-1.006586739573399752e-01,-1.497367451192661569e+00,7.510162876633674767e-01
9.943029349106302650e-01,-1.003017353695921932e-01,-1.510788231481646982e+00,7.571228111361528734e-01
9.943029349106302650e-01,-1.003017353695921932e-01,-1.510788231481646982e+00,7.571228111361528734e-01
9.948857484123556638e-01,-1.001395478248150867e-01,-1.503894442498020290e+00,7.514630142558894610e-01
9.994036772194370144e-01,-1.004610230193559023e-01,-1.507878413288684438e+00,7.534819696367762720e-01
9.991434415497483235e-01,-1.003174904124159023e-01,-1.502404762318609199e+00,7.515084176808375371e-01
9.991434415497483235e-01,-1.003174904124159023e-01,-1.502404762318609199e+00,7.515084176808375371e-01
1.002698693120628093e+00,-1.002551462263195775e-01,-1.513014411683725635e+00,7.547385151642063139e-01
9.946183302880177157e-01,-9.951290293132698805e-02,-1.518713743965681928e+00,7.568094198591884814e-01
9.946183302880177157e-01,-9.951290293132698805e-02,-1.518713743965681928e+00,7.568094198591884814e-01
1.001839573530796113e+00,-1.010689419645532661e-01,-1.487632537812476841e+00,7.467501208677052027e-01
9.940578232414738480e-01,-9.948440870292273031e-02,-1.525141753798844535e+00,7.586872731953544502e-01
9.963862075734682966e-01,-9.984081465756594609e-02,-1.492963062768192684e+00,7.473741226362320411e-01
1.006465136298491769e+00,-1.005542830261477727e-01,-1.515657689352319704e+00,7.561396607953995153e-01
9.961901090187288421e-01,-1.004052829114195078e-01,-1.507968201645083495e+00,7.513354400326294202e-01
9.981268920084476193e-01,-1.005382736811597094e-01,-1.506046789172299061e+00,7.548500816401499947e-01
1.000801322172047758e+00,-9.989734275698526622e-02,-1.515112762196100915e+00,7.526268537803645353e-01
9.975718849740092820e-01,-1.000406661198449260e-01,-1.505703095912787282e+00,7.542155428359080815e-01
9.975718849740092820e-01,-1.000406661198449260e-01,-1.505703095912787282e+00,7.542155428359080815e-01
9.961825304240623513e-01,-9.959130523321771400e-02,-1.518477573559332550e+00,7.544362653711444988e-01
9.936265294588311203e-01,-9.972231634155895308e-02,-1.496564022249961434e+00,7.497678939241350093e-01
9.936265294588311203e-01,-9.972231634155895308e-02,-1.496564022249961434e+00,7.497678939241350093e-01
9.980177691931176875e-01,-1.002142506686175688e-01,-1.520512407853819026e+00,7.564629093443654417e-01
1.006023581432289760e+00,-1.008254383690658090e-01,-1.476563042242208024e+00,7.444159829138697893e-01
9.913559749959797163e-01,-9.945427116687473312e-02,-1.525694691522050173e+00,7.541142674137567559e-01
1.004875228436466372e+00,-1.004600277291017030e-01,-1.494477306015735918e+00,7.503249229298001310e-01
9.970440409002386817e-01,-9.985553699670558780e-02,-1.521306757288535483e+00,7.558859680686812466e-01
9.970440409002386817e-01,-9.985553699670558780e-02,-1.521306757288535483e+00,7.558859680686812466e-01
9.967370239322665970e-01,-1.002207634314826873e-01,-1.503493437691804324e+00,7.527348536170129778e-01
1.001971648578243279e+00,-1.003971598991760805e-01,-1.501199479836234030e+00,7.499076565920343995e-01
1.002691672136540646e+00,-1.003436514971092486e-01,-1.516937336491551269e+00,7.550201916270290470e-01
9.875238098649838925e-01,-9.939239006132233323e-02,-1.509948107407210527e+00,7.535519822911873611e-01
1.003783844068768971e+00,-1.002240747747267235e-01,-1.512242121320104271e+00,7.533445563836735914e-01
9.907379697853427869e-01,-9.956340006327420167e-02,-1.510521456656508166e+00,7.547092166665638757e-01
1.001222508563174296e+00,-1.002908544250455530e-01,-1.507079562053604160e+00,7.519708307591516094e-01
9.949763305840778616e-01,-9.985313304956018599e-02,-1.510146642518453541e+00,7.527290249430147462e-01
9.949763305840778616e-01,-9.985313304956018599e-02,-1.510146642518453541e+00,7.527290249430147462e-01
9.949763305840778616e-01,-9.985313304956018599e-02,-1.510146642518453541e+00,7.527290249430147462e-01
9.949763305840778616e-01,-9.985313304956018599e-02,-1.510146642518453541e+00,7.527290249430147462e-01
9.971884711499743315e-01,-9.994538107933421955e-02,-1.511732971534727410e+00,7.556117285826442487e-01
1.003089932495389025e+00,-9.997425408260378343e-02,-1.509073302291867646e+00,7.522842775252410741e-01
9.966505074156071231e-01,-1.004796174876437104e-01,-1.509797845066108923e+00,7.552688065964973108e-01
9.967404977968096214e-01,-9.980707430840661532e-02,-1.507577763316059860e+00,7.517903841746880200e-01
9.942439495623118795e-01,-1.001869142040348881e-01,-1.512691334115674691e+00,7.553679879045077650e-01
9.942439495623118795e-01,-1.001869142040348881e-01,-1.512691334115674691e+00,7.553679879045077650e-01
1.000960676093917368e+00,-1.001566402793756527e-01,-1.496487034118553883e+00,7.488843706612478002e-01
1.001702150320989970e+00,-9.991362451955379531e-02,-1.516490866758283040e+00,7.544353132862862132e-01
1.001702150320989970e+00,-9.991362451955379531e-02,-1.516490866758283040e+00,7.544353132862862132e-01
1.003996243320176562e+00,-1.000106859639515317e-01,-1.500323177532636443e+00,7.528236303553282882e-01
9.932555740251676202e-01,-1.002184078667107542e-01,-1.510067743391918293e+00,7.526674429073009209e-01
9.932555740251676202e-01,-1.002184078667107542e-01,-1.510067743391918293e+00,7.526674429073009209e-01
9.932555740251676202e-01,-1.002184078667107542e-01,-1.510067743391918293e+00,7.526674429073009209e-01
1.005151304324269024e+00,-1.000043509485188803e-01,-1.506594859284531518e+00,7.539773905434083989e-01
1.005151304324269024e+00,-1.000043509485188803e-01,-1.506594859284531518e+00,7.539773905434083989e-01
9.961727028177339571e-01,-9.923813186730996716e-02,-1.510494895353652112e+00,7.523126062240721446e-01
9.961727028177339571e-01,-9.923813186730996716e-02,-1.510494895353652112e+00,7.523126062240721446e-01
9.961727028177339571e-01,-9.923813186730996716e-02,-1.510494895353652112e+00,7.523126062240721446e-01
9.961727028177339571e-01,-9.923813186730996716e-02,-1.510494895353652112e+00,7.523126062240721446e-01
9.997647141143402028e-01,-1.003350596620039004e-01,-1.496860291905097951e+00,7.518910727529167781e-01
1.000362936692222204e+00,-1.005878582610729294e-01,-1.513805490268939957e+00,7.549682474404327825e-01
9.912171085904467605e-01,-9.955411593227295186e-02,-1.507047341733217305e+00,7.519772113333129671e-01
1.005449370076852089e+00,-1.001013311615807366e-01,-1.516228183880000913e+00,7.568868599527862617e-01
9.972837852347181675e-01,-9.994647920484604764e-02,-1.501514306751682293e+00,7.509181626915393259e-01
1.002096045726021289e+00,-1.003337670724783193e-01,-1.516847675777994064e+00,7.557376831595414846e-01
1.002096045726021289e+00,-1.003337670724783193e-01,-1.516847675777994064e+00,7.557376831595414846e-01
9.951529965258729682e-01,-1.001432750957748224e-01,-1.505371676031320938e+00,7.534368183632074167e-01
9.951529965258729682e-01,-1.001432750957748224e-01,-1.505371676031320938e+00,7.534368183632074167e-01
9.941023820364941477e-01,-1.001569382795193947e-01,-1.506513789831879002e+00,7.517158504447579714e-01
9.981389452893205672e-01,-1.003142096688726670e-01,-1.507501539282112502e+00,7.517994585730011226e-01
9.904864018306074325e-01,-9.928743361422408265e-02,-1.507467366958681998e+00,7.515153790358577446e-01
1.007856657526078115e+00,-1.011914589604148013e-01,-1.524171545389274129e+00,7.588315064216304417e-01
9.865495244702476851e-01,-9.945505487226231900e-02,-1.506177428929786455e+00,7.503506309716975187e-01
1.003565903746023835e+00,-1.005870582902513022e-01,-1.506421710153993176e+00,7.515360477260963901e-01
9.896120776570449529e-01,-1.004339228991244781e-01,-1.512108924841230939e+00,7.547953043763073744e-01
9.896120776570449529e-01,-1.004339228991244781e-01,-1.512108924841230939e+00,7.547953043763073744e-01
1.003814110458185249e+00,-1.002394017272207755e-01,-1.492940650892526921e+00,7.500634369690177827e-01
9.942007540980758451e-01,-9.934806783034515199e-02,-1.529760104057080516e+00,7.600508417243475590e-01
1.001838805779543984e+00,-1.001596176797258791e-01,-1.485536214305369196e+00,7.432183580333298067e-01
9.886963170170622872e-01,-9.932745964544142936e-02,-1.535710392077544117e+00,7.591897409818838538e-01
9.954717114229831854e-01,-1.000399121615013071e-01,-1.503040880755077024e+00,7.533272224494999003e-01
1.003265429237577111e+00,-1.010052156567908949e-01,-1.518365461283412099e+00,7.557505661333597802e-01
9.940324860373795923e-01,-1.004289372615995574e-01,-1.503359114208906000e+00,7.534901889291800714e-01
9.981424785488034468e-01,-1.006296560247348093e-01,-1.506736757227880474e+00,7.531455655777693492e-01
9.992372450264808137e-01,-1.008099154011444232e-01,-1.510725755203894627e+00,7.559719908316908654e-01
9.961494212534330872e-01,-1.002639685943714637e-01,-1.506224233960661518e+00,7.536701439574063910e-01
9.964288773836413871e-01,-1.001275877414683491e-01,-1.517580715282339288e+00,7.577661702099030006e-01
9.969679879540643830e-01,-1.004221365770126828e-01,-1.504627088614076902e+00,7.522855686995492119e-01
9.979436313770093658e-01,-1.001987385608442555e-01,-1.516947454330329847e+00,7.543947657888110392e-01
9.997010317880735686e-01,-1.003635750382766423e-01,-1.491904777842036678e+00,7.488417388608133995e-01
1.001144682563873678e+00,-1.005089084042578990e-01,-1.522073352608889207e+00,7.577374037002944096e-01
1.001144682563873678e+00,-1.005089084042578990e-01,-1.522073352608889207e+00,7.577374037002944096e-01
9.956473110337349386e-01,-9.975147257921782029e-02,-1.492411172653473006e+00,7.461503969667191427e-01
9.956473110337349386e-01,-9.975147257921782029e-02,-1.492411172653473006e+00,7.461503969667191427e-01
1.003706114277975958e+00,-1.009062583745851116e-01,-1.523045410464732630e+00,7.597315240566279160e-01
9.871422277757146979e-01,-9.962234571099520819e-02,-1.494937930045469709e+00,7.484260625430759761e-01
1.002449917273549262e+00,-1.008677922414622785e-01,-1.507384735204082560e+00,7.562505689964722499e-01
9.995759835916369074e-01,-9.981866457152989425e-02,-1.503896030372008141e+00,7.487661297998163823e-01
9.995759835916369074e-01,-9.981866457152989425e-02,-1.503896030372008141e+00,7.487661297998163823e-01
9.992225622968355925e-01,-1.000940148706037508e-01,-1.507065480741752728e+00,7.561556037501001581e-01
9.995480444113866714e-01,-1.001496425906104465e-01,-1.523094716065341636e+00,7.538670820801776085e-01
9.995480444113866714e-01,-1.001496425906104465e-01,-1.523094716065341636e+00,7.538670820801776085e-01
9.950674493438461665e-01,-1.009806156522121273e-01,-1.489106586073092986e+00,7.520828903323155679e-01
1.004887308263961554e+00,-1.000386451777036528e-01,-1.519071997282964492e+00,7.532513750266092156e-01
1.000032286565190498e+00,-1.001765527351511642e-01,-1.503531772117708831e+00,7.545071981863782362e-01
9.992648871322538096e-01,-1.002784755066088579e-01,-1.509273575428735858e+00,7.507682263543991041e-01
9.992648871322538096e-01,-1.002784755066088579e-01,-1.509273575428735858e+00,7.507682263543991041e-01
9.992648871322538096e-01,-1.002784755066088579e-01,-1.509273575428735858e+00,7.507682263543991041e-01
9.992648871322538096e-01,-1.002784755066088579e-01,-1.509273575428735858e+00,7.507682263543991041e-01
1.000843368893498564e+00,-1.003520872607415321e-01,-1.495285194196694256e+00,7.519387970871302951e-01
1.002153336345373180e+00,-1.000743338794190807e-01,-1.520497636479820835e+00,7.558401959595800745e-01
1.000896788416041350e+00,-1.003179434567917916e-01,-1.497670874396655805e+00,7.509755205488242158e-01
1.004016193836180015e+00,-1.010632539933975643e-01,-1.503744134640245811e+00,7.499296554779359969e-01
9.923626586330162036e-01,-1.005817069210891007e-01,-1.508850459276651845e+00,7.573050971020250932e-01
1.001709716495068347e+00,-1.003123840400950151e-01,-1.510126378455765250e+00,7.517338701251462529e-01
9.935571573278740853e-01,-1.003210657968352099e-01,-1.505986403994663769e+00,7.544151501977617302e-01
9.988182374895342441e-01,-9.973847293297549710e-02,-1.508412271954510997e+00,7.518024392489999208e-01
9.988182374895342441e-01,-9.973847293297549710e-02,-1.508412271954510997e+00,7.518024392489999208e-01
9.931783210315920929e-01,-1.000199712616462594e-01,-1.523500409079146856e+00,7.555735772590177479e-01
1.007143879336525050e+00,-1.005780008431662875e-01,-1.492163818927146668e+00,7.512993262213171208e-01
1.007143879336525050e+00,-1.005780008431662875e-01,-1.492163818927146668e+00,7.512993262213171208e-01
9.901963995052006640e-01,-1.000232973972913636e-01,-1.515503060607751973e+00,7.544408663075883315e-01
9.901963995052006640e-01,-1.000232973972913636e-01,-1.515503060607751973e+00,7.544408663075883315e-01
1.006130704500284301e+00,-1.008338864243162325e-01,-1.490948287932988281e+00,7.477875396618712811e-01
9.905793039164665359e-01,-9.931422971924042109e-02,-1.524703937455840430e+00,7.572936424996788984e-01
9.905793039164665359e-01,-9.931422971924042109e-02,-1.524703937455840430e+00,7.572936424996788984e-01
9.993422309971825568e-01,-1.009052670090755111e-01,-1.489546489565381604e+00,7.479117200869275228e-01
9.945105894418808656e-01,-9.921641992378261998e-02,-1.519082830961955954e+00,7.554540214355258687e-01
9.980811987482390846e-01,-9.942365948296140454e-02,-1.500711381520909438e+00,7.502414753048947116e-01
1.004285615218817318e+00,-1.007685779958446964e-01,-1.503734153187047173e+00,7.507334467131472344e-01
1.004285615218817318e+00,-1.007685779958446964e-01,-1.503734153187047173e+00,7.507334467131472344e-01
9.990512047662688522e-01,-1.004371801561090571e-01,-1.512034780052735394e+00,7.558726743082846422e-01
9.953841722021885552e-01,-9.966920092880661441e-02,-1.507161492347977028e+00,7.527233947357082622e-01
9.953841722021885552e-01,-9.966920092880661441e-02,-1.507161492347977028e+00,7.527233947357082622e-01
9.943397969371325917e-01,-9.978728598755115531e-02,-1.517700583655016144e+00,7.543354785454882139e-01
9.971077023598116096e-01,-1.003095268156347780e-01,-1.505109651886664457e+00,7.523216250245129411e-01
1.009648154501598949e+00,-1.005389354680692737e-01,-1.506171620255912336e+00,7.533886450760030051e-01
9.890991848838942557e-01,-1.000042459070331208e-01,-1.515819902876202940e+00,7.550623553183267722e-01
1.005439558763800312e+00,-1.001510514013400632e-01,-1.498845381558887135e+00,7.499090747064748319e-01
9.893538771785029828e-01,-9.928706471270698497e-02,-1.511573647729476333e+00,7.565052683516778620e-01
1.007507512787285453e+00,-1.007837218608285124e-01,-1.498736185880084060e+00,7.501912961519086043e-01
9.971187617206391796e-01,-1.000622782257179627e-01,-1.518494465399733873e+00,7.571320476351516282e-01
9.963559434359147149e-01,-9.999712369812518986e-02,-1.501727199990291917e+00,7.511082183125357137e-01
9.959188527397251356e-01,-9.992429067140827514e-02,-1.512904384477742337e+00,7.529270769909660599e-01
9.999908248977662506e-01,-1.003172349109569123e-01,-1.506724615513700405e+00,7.540374332035599814e-01
9.954687439214342515e-01,-9.976459410005235340e-02,-1.521020701032082645e+00,7.548758668284512030e-01
9.963597532555457104e-01,-1.004450011951531913e-01,-1.502536722038316563e+00,7.538332305368780073e-01
9.986581312450020231e-01,-9.982797438746343621e-02,-1.513761678094726504e+00,7.535768490743999237e-01
1.002395045309479427e+00,-1.006316473387255522e-01,-1.500484487905666686e+00,7.525312196220445005e-01
9.893317787723932000e-01,-9.925105953375625012e-02,-1.516240367430651048e+00,7.560697738050623506e-01
9.893317787723932000e-01,-9.925105953375625012e-02,-1.516240367430651048e+00,7.560697738050623506e-01
9.979062801967272245e-01,-9.981523308433516706e-02,-1.494261085446673132e+00,7.496377447509322556e-01
1.006667622259450834e+00,-1.001350833789411143e-01,-1.519206285602864970e+00,7.567342118967921305e-01
9.962583037088778015e-01,-1.000823697464220535e-01,-1.493369474326684099e+00,7.493289761748063160e-01
9.962583037088778015e-01,-1.000823697464220535e-01,-1.493369474326684099e+00,7.493289761748063160e-01
1.002381458675240200e+00,-1.005558153450656494e-01,-1.525570121077513663e+00,7.576784526325418545e-01
9.992915234296596561e-01,-1.008600546635201600e-01,-1.496361732059576122e+00,7.502187455294431206e-01
9.968729823840063453e-01,-1.004477756927099619e-01,-1.507426497578865376e+00,7.522357294258301685e-01
9.968729823840063453e-01,-1.004477756927099619e-01,-1.507426497578865376e+00,7.522357294258301685e-01
9.985111181180927886e-01,-1.004268933674002107e-01,-1.515596973082555143e+00,7.548982476419436871e-01
9.985111181180927886e-01,-1.004268933674002107e-01,-1.515596973082555143e+00,7.548982476419436871e-01
1.006286297752199799e+00,-1.004769993886920759e-01,-1.507632314787636263e+00,7.526386622955406613e-01
9.913020247740939039e-01,-9.971587724782274287e-02,-1.517247315699390420e+00,7.554068276480591093e-01
1.004303088212522566e+00,-1.007215341028008665e-01,-1.500106430559798421e+00,7.512995397379079732e-01
9.939697999047332200e-01,-1.000403036028691267e-01,-1.503135690521757439e+00,7.513505049651654222e-01
9.939697999047332200e-01,-1.000403036028691267e-01,-1.503135690521757439e+00,7.513505049651654222e-01
1.007075646571057304e+00,-1.005941851408510695e-01,-1.502273240057086845e+00,7.524478669212678605e-01
9.863567388809740821e-01,-9.936345280361547072e-02,-1.518907638713235642e+00,7.549864279717491966e-01
1.009221617857445130e+00,-1.013344674146691993e-01,-1.494409419029141928e+00,7.521964616841249063e-01
9.901737501670443420e-01,-9.978993055593948780e-02,-1.520772060834910233e+00,7.559175986246704504e-01
9.901737501670443420e-01,-9.978993055593948780e-02,-1.520772060834910233e+00,7.559175986246704504e-01
1.002141657420469123e+00,-1.008377914453469498e-01,-1.492684325262751965e+00,7.495554816590868086e-01
9.953900316870283316e-01,-9.973085891858989027e-02,-1.513408652822875178e+00,7.534463852467312428e-01
9.953900316870283316e-01,-9.973085891858989027e-02,-1.513408652822875178e+00,7.534463852467312428e-01
9.993306816063800557e-01,-1.004813399597790785e-01,-1.500550762453179976e+00,7.531383287531576709e-01
9.972301441765228924e-01,-9.961292439537151877e-02,-1.513109775508535204e+00,7.533759017012765513e-01
9.972301441765228924e-01,-9.961292439537151877e-02,-1.513109775508535204e+00,7.533759017012765513e-01
9.989433129661525745e-01,-9.952591473299898794e-02,-1.513004661709768550e+00,7.549262934055491758e-01
9.989433129661525745e-01,-9.952591473299898794e-02,-1.513004661709768550e+00,7.549262934055491758e-01
9.989433129661525745e-01,-9.952591473299898794e-02,-1.513004661709768550e+00,7.549262934055491758e-01
9.989433129661525745e-01,-9.952591473299898794e-02,-1.513004661709768550e+00,7.549262934055491758e-01
9.989433129661525745e-01,-9.952591473299898794e-02,-1.513004661709768550e+00,7.549262934055491758e-01
9.989433129661525745e-01,-9.952591473299898794e-02,-1.513004661709768550e+00,7.549262934055491758e-01
9.935205843701226947e-01,-9.972803418393670627e-02,-1.508455107163841680e+00,7.544998324829755854e-01
9.975993892813888042e-01,-1.001243167350801266e-01,-1.508409840459523199e+00,7.523744565129180106e-01
1.001932321741602960e+00,-1.011835533888468391e-01,-1.503482579588877099e+00,7.517592683712307489e-01
9.933571080520695595e-01,-1.005676392656498636e-01,-1.512334331561301370e+00,7.539361616201513128e-01
9.993215270396392791e-01,-1.008301719916906425e-01,-1.521047505210305850e+00,7.569325285989899621e-01
1.002272533631058948e+00,-1.006489873265456747e-01,-1.500345289574571250e+00,7.501140664062110330e-01
1.002272533631058948e+00,-1.006489873265456747e-01,-1.500345289574571250e+00,7.501140664062110330e-01
1.002272533631058948e+00,-1.006489873265456747e-01,-1.500345289574571250e+00,7.501140664062110330e-01
1.002798339826501905e+00,-1.008817427826648322e-01,-1.500077437269465408e+00,7.515858858213909643e-01
9.987546061494689820e-01,-1.000216876002716221e-01,-1.515360586185998448e+00,7.548651119065364901e-01
9.983811213321834854e-01,-1.003197801862379807e-01,-1.497129320323538293e+00,7.506551034327363370e-01
9.947482161835267123e-01,-9.956531467834757454e-02,-1.520430365002235495e+00,7.559416757480461602e-01
9.959327083977522754e-01,-1.002621470159582306e-01,-1.516841024318623665e+00,7.569243328208687949e-01
1.002923228102877484e+00,-1.000048157463669513e-01,-1.499707265124948785e+00,7.508732138763452024e-01
9.934959819322136676e-01,-1.002860419760672472e-01,-1.506041435828916031e+00,7.531470856759003851e-01
1.003188579181037765e+00,-1.003219868752629335e-01,-1.498495387088889297e+00,7.512411702757526566e-01
1.003188579181037765e+00,-1.003219868752629335e-01,-1.498495387088889297e+00,7.512411702757526566e-01
9.976925867211360321e-01,-1.005228553472182346e-01,-1.521776274669457862e+00,7.585111655769060102e-01
9.891022199532395476e-01,-1.000766088973601281e-01,-1.514225977422272829e+00,7.547001978481749918e-01
1.002132309817382216e+00,-1.012822344041843098e-01,-1.501861906428404891e+00,7.535996976816634607e-01
1.002132309817382216e+00,-1.012822344041843098e-01,-1.501861906428404891e+00,7.535996976816634607e-01
1.003419607261643920e+00,-1.000434092947309339e-01,-1.511127166434071079e+00,7.529942197550597571e-01
9.905745396481914211e-01,-9.959392500413503935e-02,-1.515488699441522646e+00,7.541233470659450822e-01
1.003904945826314066e+00,-1.005058456674895323e-01,-1.515884953096940935e+00,7.559335170213178356e-01
9.965461132001558475e-01,-9.981417096940597977e-02,-1.499339687553427947e+00,7.504430189106636728e-01
1.001928854484158915e+00,-1.000351195756352674e-01,-1.507906461985189850e+00,7.528855095400338593e-01
9.957664880877848956e-01,-9.981531659898475184e-02,-1.525218784150137008e+00,7.576269297912459066e-01
9.999004119647213473e-01,-1.003941496344337297e-01,-1.498850743618134862e+00,7.521575473054231686e-01
9.999004119647213473e-01,-1.003941496344337297e-01,-1.498850743618134862e+00,7.521575473054231686e-01
9.986125471836549972e-01,-1.001638567899344190e-01,-1.510802947293739429e+00,7.529300104303067176e-01
1.001176240519458860e+00,-1.005300345440958559e-01,-1.498556340763365524e+00,7.516728876408756976e-01
1.001093354010751391e+00,-1.003616042722380447e-01,-1.508997447218925370e+00,7.534925935476591841e-01
1.001093354010751391e+00,-1.003616042722380447e-01,-1.508997447218925370e+00,7.534925935476591841e-01
9.977522506751754783e-01,-1.005664250531604631e-01,-1.500565157901638136e+00,7.501953901995820351e-01
1.005501152877624094e+00,-1.011720880929234817e-01,-1.499705836726080266e+00,7.506824571890208242e-01
9.965191879132838659e-01,-1.004460596581316784e-01,-1.511393834181887996e+00,7.548135254999870369e-01
9.969477666987347497e-01,-9.981753164710950588e-02,-1.508313893892027746e+00,7.533877796705784613e-01
1.000186147410552007e+00,-1.002193660471932951e-01,-1.510224479489039817e+00,7.547374649374130051e-01
1.001948251988165062e+00,-1.005177039018609331e-01,-1.504889779427669882e+00,7.518366459991528972e-01
9.957325112580747151e-01,-1.000579360414602936e-01,-1.510852963871534671e+00,7.531475363992491401e-01
9.957325112580747151e-01,-1.000579360414602936e-01,-1.510852963871534671e+00,7.531475363992491401e-01
9.924685258969554447e-01,-1.000114860371033171e-01,-1.501930520999155361e+00,7.520238835453323389e-01
9.924685258969554447e-01,-1.000114860371033171e-01,-1.501930520999155361e+00,7.520238835453323389e-01
1.003287510852569175e+00,-1.001895345902303475e-01,-1.512336891778098158e+00,7.534341054825202111e-01
1.003287510852569175e+00,-1.001895345902303475e-01,-1.512336891778098158e+00,7.534341054825202111e-01
9.974580559244429212e-01,-9.963923558098150557e-02,-1.510558837727164150e+00,7.548626110057820027e-01
1.000424396618778244e+00,-1.008884934683900586e-01,-1.501856488907163500e+00,7.528949648404983375e-01
9.899143425867913404e-01,-9.916168775607689390e-02,-1.519737363817792897e+00,7.548177590707916274e-01
1.005793756560521057e+00,-1.010444942147704361e-01,-1.497849487849396644e+00,7.518739921325773290e-01
9.997885360122776843e-01,-9.975416702283543269e-02,-1.516877079367689785e+00,7.532066876006601186e-01
9.931046864853868561e-01,-1.004321035160546383e-01,-1.508071813284714846e+00,7.559190370216529731e-01
1.000366682772181770e+00,-1.000415896563972423e-01,-1.515296409534717004e+00,7.544852571707783007e-01
1.000366682772181770e+00,-1.000415896563972423e-01,-1.515296409534717004e+00,7.544852571707783007e-01
9.942461379402276478e-01,-1.000586573656314648e-01,-1.505595222592057469e+00,7.531696653163285626e-01
9.942461379402276478e-01,-1.000586573656314648e-01,-1.505595222592057469e+00,7.531696653163285626e-01
9.942461379402276478e-01,-1.000586573656314648e-01,-1.505595222592057469e+00,7.531696653163285626e-01
9.942461379402276478e-01,-1.000586573656314648e-01,-1.505595222592057469e+00,7.531696653163285626e-01
1.001054039661022355e+00,-1.002295216096648622e-01,-1.506803114197710736e+00,7.529415052685677345e-01
1.001054039661022355e+00,-1.002295216096648622e-01,-1.506803114197710736e+00,7.529415052685677345e-01
1.001054039661022355e+00,-1.002295216096648622e-01,-1.506803114197710736e+00,7.529415052685677345e-01
1.001054039661022355e+00,-1.002295216096648622e-01,-1.506803114197710736e+00,7.529415052685677345e-01
1.001054039661022355e+00,-1.002295216096648622e-01,-1.506803114197710736e+00,7.529415052685677345e-01
1.001054039661022355e+00,-1.002295216096648622e-01,-1.506803114197710736e+00,7.529415052685677345e-01
1.001054039661022355e+00,-1.002295216096648622e-01,-1.506803114197710736e+00,7.529415052685677345e-01
1.001054039661022355e+00,-1.002295216096648622e-01,-1.506803114197710736e+00,7.529415052685677345e-01
9.965540922971082294e-01,-9.962399459566442794e-02,-1.524891599567033795e+00,7.556502950663377405e-01
1.000801192384255689e+00,-1.007211722663486630e-01,-1.494921107320068776e+00,7.510553663541277292e-01
1.000020302225804736e+00,-1.003860146417626248e-01,-1.527651857064447505e+00,7.597123823152935884e-01
1.000020302225804736e+00,-1.003860146417626248e-01,-1.527651857064447505e+00,7.597123823152935884e-01
9.922499594979676818e-01,-1.000689665152159069e-01,-1.493075756815825716e+00,7.479076028008428967e-01
9.987474647434418928e-01,-1.001475272826298502e-01,-1.516593009969438022e+00,7.554624516837274983e-01
9.931419306329101193e-01,-1.002039369468117336e-01,-1.502025159517538899e+00,7.522783098486528486e-01
9.978697976048243046e-01,-1.000853793395625468e-01,-1.504159781068759250e+00,7.517428838286162041e-01
1.001475511496374482e+00,-1.003809302815178717e-01,-1.501698438779076383e+00,7.517605093402293104e-01
9.913216140022949041e-01,-9.943731654324287905e-02,-1.520403219470229494e+00,7.559941013852420344e-01
9.944640160951255803e-01,-1.002064332425766785e-01,-1.496621802599561679e+00,7.507919455204582482e-01
9.944640160951255803e-01,-1.002064332425766785e-01,-1.496621802599561679e+00,7.507919455204582482e-01
9.978613761666801363e-01,-1.003569047790496549e-01,-1.522652916292625891e+00,7.578257070167020437e-01
9.937239390139455120e-01,-1.002423869960385183e-01,-1.488379740193309431e+00,7.480125839396993825e-01
1.001720548266914257e+00,-1.007423373773179004e-01,-1.511588897380408136e+00,7.549862002854477172e-01
1.000466362367918638e+00,-1.006231644774267797e-01,-1.509795997120903177e+00,7.530946382090792923e-01
9.965297648882003312e-01,-1.004878875209758299e-01,-1.498879602049127735e+00,7.508907482506009812e-01
9.965297648882003312e-01,-1.004878875209758299e-01,-1.498879602049127735e+00,7.508907482506009812e-01
1.003689831663436838e+00,-1.005941819544685367e-01,-1.521127824221592428e+00,7.572420036029117174e-01
9.888049744975450084e-01,-9.967435848428420064e-02,-1.494126979715521664e+00,7.474899609177917403e-01
1.002448541912912550e+00,-1.005896154644573132e-01,-1.524085303259730129e+00,7.612542632710335155e-01
9.934036246963541261e-01,-9.963131352781499916e-02,-1.492575089906191588e+00,7.481482142824013026e-01
1.005025597769588330e+00,-1.000043652920066944e-01,-1.534277136841862177e+00,7.604811136049055564e-01
9.958592601559697055e-01,-9.970101299941915018e-02,-1.499401774683314592e+00,7.510335164033312694e-01
9.958592601559697055e-01,-9.970101299941915018e-02,-1.499401774683314592e+00,7.510335164033312694e-01
9.984423604924577145e-01,-9.981189100895238031e-02,-1.532016346041769728e+00,7.588284038593190450e-01
1.000520708391481994e+00,-1.005883859261780533e-01,-1.497926927826169097e+00,7.525066586545735570e-01
9.879625932244372466e-01,-9.916698447169007558e-02,-1.515713295783047476e+00,7.533028780845526517e-01
1.003873356066069533e+00,-1.006144052185102000e-01,-1.506150572553163203e+00,7.559034188164115431e-01
1.003873356066069533e+00,-1.006144052185102000e-01,-1.506150572553163203e+00,7.559034188164115431e-01
1.003873356066069533e+00,-1.006144052185102000e-01,-1.506150572553163203e+00,7.559034188164115431e-01
9.946402859954551756e-01,-9.966325741281219230e-02,-1.508455890350030693e+00,7.529717383581300272e-01
9.946402859954551756e-01,-9.966325741281219230e-02,-1.508455890350030693e+00,7.529717383581300272e-01
1.000749799496289949e+00,-1.004255047399649492e-01,-1.519859252433495733e+00,7.569645027283057326e-01
9.942059553595939958e-01,-9.978948557950992337e-02,-1.508710335796146218e+00,7.519595732783046493e-01
9.942059553595939958e-01,-9.978948557950992337e-02,-1.508710335796146218e+00,7.519595732783046493e-01
9.942059553595939958e-01,-9.978948557950992337e-02,-1.508710335796146218e+00,7.519595732783046493e-01
1.006353526361827067e+00,-1.007942274657503967e-01,-1.504651833951116568e+00,7.536639344324868039e-01
9.923634239728764683e-01,-9.923639401942353777e-02,-1.516470339153296543e+00,7.544001222866657530e-01
1.004424603017003648e+00,-1.011302669449843233e-01,-1.505308363965964125e+00,7.540416808555949757e-01
9.900798925731103539e-01,-9.997227257654747734e-02,-1.515752473290020941e+00,7.531780874551692317e-01
1.004812566086886960e+00,-1.002403116396355515e-01,-1.494395314466259173e+00,7.515716701467675120e-01
9.991740996329591118e-01,-1.009863806325385777e-01,-1.523978123384261529e+00,7.557200818240983331e-01
9.978146131626295379e-01,-1.011954456379919737e-01,-1.503689799634574609e+00,7.518649822984261322e-01
1.006414099152973973e+00,-1.004841755967373768e-01,-1.519058956673173588e+00,7.553216143742644828e-01
9.871239621167637868e-01,-1.000225403810422048e-01,-1.507870760170448188e+00,7.561529776224074073e-01
9.871239621167637868e-01,-1.000225403810422048e-01,-1.507870760170448188e+00,7.561529776224074073e-01
9.871239621167637868e-01,-1.000225403810422048e-01,-1.507870760170448188e+00,7.561529776224074073e-01
1.001735736479365979e+00,-9.990489715391104308e-02,-1.518695338733243361e+00,7.549392969079616877e-01
1.002706547234362144e+00,-1.010760188140857607e-01,-1.494997912328785761e+00,7.495272666604801959e-01
9.958308652592010590e-01,-9.962921185727639795e-02,-1.509937577156568178e+00,7.559356771573543243e-01
9.980640216942729959e-01,-1.004844567653332410e-01,-1.502788506594590068e+00,7.527997860429243016e-01
9.980640216942729959e-01,-1.004844567653332410e-01,-1.502788506594590068e+00,7.527997860429243016e-01
9.980640216942729959e-01,-1.004844567653332410e-01,-1.502788506594590068e+00,7.527997860429243016e-01
9.922888808046244069e-01,-9.921687704958374876e-02,-1.516371196665386778e+00,7.538365546460791267e-01
1.001336988682947071e+00,-1.011406196207038644e-01,-1.488229640777770202e+00,7.491821809357686046e-01
1.001336988682947071e+00,-1.011406196207038644e-01,-1.488229640777770202e+00,7.491821809357686046e-01
1.001336988682947071e+00,-1.011406196207038644e-01,-1.488229640777770202e+00,7.491821809357686046e-01
1.001336988682947071e+00,-1.011406196207038644e-01,-1.488229640777770202e+00,7.491821809357686046e-01
1.001336988682947071e+00,-1.011406196207038644e-01,-1.488229640777770202e+00,7.491821809357686046e-01
9.953354030344961911e-01,-9.993404282044174303e-02,-1.530708750689963260e+00,7.587266929442592067e-01
9.984851866849765445e-01,-1.005278034965239042e-01,-1.494252430097335438e+00,7.495593453951954199e-01
9.984851866849765445e-01,-1.005278034965239042e-01,-1.494252430097335438e+00,7.495593453951954199e-01
1.001869164540533763e+00,-1.006331084322814595e-01,-1.517921920999710794e+00,7.571186945418542091e-01
1.009870296373767351e+00,-1.006413055257346228e-01,-1.500766566918818379e+00,7.492372570151057953e-01
1.009870296373767351e+00,-1.006413055257346228e-01,-1.500766566918818379e+00,7.492372570151057953e-01
9.889974442157574153e-01,-9.993525760727199614e-02,-1.517360565880542023e+00,7.570298297914580532e-01
9.889974442157574153e-01,-9.993525760727199614e-02,-1.517360565880542023e+00,7.570298297914580532e-01
9.998876238952986162e-01,-1.003640936504653913e-01,-1.499080559655585843e+00,7.507253815252433737e-01
9.998876238952986162e-01,-1.003640936504653913e-01,-1.499080559655585843e+00,7.507253815252433737e-01
9.996273851722395909e-01,-1.006105221607134920e-01,-1.500357871737751259e+00,7.541082348458968410e-01
9.996273851722395909e-01,-1.006105221607134920e-01,-1.500357871737751259e+00,7.541082348458968410e-01
9.932632824197962229e-01,-9.970779717457942115e-02,-1.506097887058615026e+00,7.516710929991684553e-01
1.000222630431006676e+00,-1.001603794356568100e-01,-1.502758123786123834e+00,7.541225294748042929e-01
9.933273224853202965e-01,-9.954408774213950595e-02,-1.515485506089439660e+00,7.534516902226270352e-01
9.915675720539709470e-01,-9.967009281085639771e-02,-1.503889212607279147e+00,7.517335784897568596e-01
9.915675720539709470e-01,-9.967009281085639771e-02,-1.503889212607279147e+00,7.517335784897568596e-01
1.011564832965557104e+00,-1.010156787190560485e-01,-1.513479182827343950e+00,7.563299615851001301e-01
1.011564832965557104e+00,-1.010156787190560485e-01,-1.513479182827343950e+00,7.563299615851001301e-01
9.924564959235705475e-01,-9.957458151633846732e-02,-1.509703107344697592e+00,7.527054982692935603e-01
9.924564959235705475e-01,-9.957458151633846732e-02,-1.509703107344697592e+00,7.527054982692935603e-01
9.969020539545743187e-01,-9.983028798630924627e-02,-1.516434285210271682e+00,7.552311878454917027e-01
9.969020539545743187e-01,-9.983028798630924627e-02,-1.516434285210271682e+00,7.552311878454917027e-01
9.998086070534094594e-01,-1.003935272318302041e-01,-1.497440007850274091e+00,7.501180692482883883e-01
1.005039046181642082e+00,-1.008178891243000225e-01,-1.515506794711644734e+00,7.545954151393781117e-01
1.000018949117063904e+00,-9.987695568906440613e-02,-1.506260559353164385e+00,7.547467760787872626e-01
9.951434085730780366e-01,-9.937351443595920930e-02,-1.521785724799300077e+00,7.560016599827436012e-01
9.991620704628330074e-01,-9.989546338485966182e-02,-1.498002245886994821e+00,7.499462038564314037e-01
1.004743757323699027e+00,-1.002594380118904255e-01,-1.503340205333952184e+00,7.535354549715984618e-01
9.943765272474429651e-01,-1.005790335877213282e-01,-1.507876737250153809e+00,7.545350808518059837e-01
9.990567367216294237e-01,-1.008097134314635268e-01,-1.523612532044278156e+00,7.601783600906049099e-01
9.988022439361265992e-01,-1.005466167524445842e-01,-1.497180164224426457e+00,7.485416399067452708e-01
1.001597577086210444e+00,-1.006424581543012009e-01,-1.523505695891350653e+00,7.584191109155334898e-01
9.872340177835796649e-01,-9.978197127926478893e-02,-1.495747396712640009e+00,7.487393692190115191e-01
9.872340177835796649e-01,-9.978197127926478893e-02,-1.495747396712640009e+00,7.487393692190115191e-01
1.003864212013147128e+00,-1.007795469836060137e-01,-1.512323175113129858e+00,7.561553935641459612e-01
1.003864212013147128e+00,-1.007795469836060137e-01,-1.512323175113129858e+00,7.561553935641459612e-01
9.956112833233298209e-01,-1.001419522391257533e-01,-1.499825958600595310e+00,7.496860351192506933e-01
9.982751708472481500e-01,-1.004442193111352716e-01,-1.506061713688774395e+00,7.546145296097616084e-01
9.998036091315712914e-01,-1.003733892793656490e-01,-1.510846692979769701e+00,7.548221535636775448e-01
9.998036091315712914e-01,-1.003733892793656490e-01,-1.510846692979769701e+00,7.548221535636775448e-01
1.000718912781390024e+00,-1.002581854097103070e-01,-1.511201540746409444e+00,7.538844283812698999e-01
9.990269459142770980e-01,-1.004226696848404404e-01,-1.511669994106331849e+00,7.555244547821333700e-01
1.005316622675678673e+00,-1.003453882238512368e-01,-1.516118446242175732e+00,7.546779903319303928e-01
9.940472552512999993e-01,-1.001484971680893649e-01,-1.502769387618297925e+00,7.526520569098698044e-01
9.982486874503755381e-01,-1.000657343794431470e-01,-1.513092179850909602e+00,7.535510901236036618e-01
9.988433767613031922e-01,-1.003510857343637708e-01,-1.513778437252761844e+00,7.560558543835832479e-01
9.997608909007547062e-01,-1.000705124332681023e-01,-1.507533823487407609e+00,7.518649203748883902e-01
9.980863609397043756e-01,-1.005639353886343540e-01,-1.506443541320003021e+00,7.534147561689635841e-01
9.929583331007109104e-01,-9.979662279746999431e-02,-1.502425806030416311e+00,7.505688267723379381e-01
9.983523226625337088e-01,-1.002054390621353319e-01,-1.502754350781552839e+00,7.538588831383133959e-01
9.910111079675786305e-01,-9.931896626631224467e-02,-1.512930148245123618e+00,7.523420606378284914e-01
1.003215080706092444e+00,-1.008596977688931418e-01,-1.494924564322272609e+00,7.517310567641029007e-01
9.934072803565170418e-01,-9.969425446501439803e-02,-1.508429834054675123e+00,7.520603022253705694e-01
9.952930652599999428e-01,-1.000725331529322970e-01,-1.507946486643390482e+00,7.545660680163496226e-01
9.952930652599999428e-01,-1.000725331529322970e-01,-1.507946486643390482e+00,7.545660680163496226e-01
9.902678395158525104e-01,-9.960144786648869597e-02,-1.519976910649412760e+00,7.567641566082778937e-01
1.000211406650634016e+00,-1.004029053468112748e-01,-1.508584700566317105e+00,7.519129764789754811e-01
9.937943365601668022e-01,-9.933728136346195448e-02,-1.515600493575269825e+00,7.567823748394607586e-01
1.000392019345895722e+00,-1.006559266445109929e-01,-1.503818383064994268e+00,7.503156084171663798e-01
9.969268327016174158e-01,-1.001545500764420837e-01,-1.519283581702432384e+00,7.584146404594730440e-01
1.000485562077983559e+00,-1.004520846507912929e-01,-1.500609558213183092e+00,7.502006266798645351e-01
1.000324998879161154e+00,-1.000971136231799258e-01,-1.509879202774308204e+00,7.529131025735126270e-01
9.952355853246761530e-01,-9.968738189309236941e-02,-1.511485481414864829e+00,7.546003699876083770e-01
9.952355853246761530e-01,-9.968738189309236941e-02,-1.511485481414864829e+00,7.546003699876083770e-01
1.000081712672109324e+00,-1.005950145917436367e-01,-1.509924399274062745e+00,7.547910663416295129e-01
1.000081712672109324e+00,-1.005950145917436367e-01,-1.509924399274062745e+00,7.547910663416295129e-01
9.908233266360454428e-01,-9.999930310106372455e-02,-1.507842622031470015e+00,7.540026684358652753e-01
9.978611800323342607e-01,-1.003072563621922875e-01,-1.515759321461985776e+00,7.552327110958656498e-01
9.986516959862759002e-01,-1.003744321683508883e-01,-1.503303910772034513e+00,7.511139859932914886e-01
9.986516959862759002e-01,-1.003744321683508883e-01,-1.503303910772034513e+00,7.511139859932914886e-01
9.987580227695528334e-01,-1.004264939405295626e-01,-1.510373981517989961e+00,7.541779442825964352e-01
9.929739206062265788e-01,-9.956274138172488408e-02,-1.521224522906638343e+00,7.550581045184918683e-01
1.003185420503237113e+00,-1.006945050543838205e-01,-1.498842737048763807e+00,7.527312599876960775e-01
1.003185420503237113e+00,-1.006945050543838205e-01,-1.498842737048763807e+00,7.527312599876960775e-01
1.003647953155592409e+00,-1.010150602208610832e-01,-1.514076276214474603e+00,7.550150169535894129e-01
9.922169807833041144e-01,-9.988625183712020184e-02,-1.494876617742690650e+00,7.496902898952355621e-01
9.963661465204793899e-01,-9.987991030132853387e-02,-1.524620585348170687e+00,7.570225129481668036e-01
9.983286747527790883e-01,-1.000892509946256642e-01,-1.507328326930658324e+00,7.555278466609078869e-01
9.983286747527790883e-01,-1.000892509946256642e-01,-1.507328326930658324e+00,7.555278466609078869e-01
9.983286747527790883e-01,-1.000892509946256642e-01,-1.507328326930658324e+00,7.555278466609078869e-01
1.001924165012909151e+00,-1.006459105238540208e-01,-1.520618256176678784e+00,7.547440785531800422e-01
1.001924165012909151e+00,-1.006459105238540208e-01,-1.520618256176678784e+00,7.547440785531800422e-01
9.938361022777232323e-01,-9.955622245384998514e-02,-1.495250239794979619e+00,7.511407899778458352e-01
9.938361022777232323e-01,-9.955622245384998514e-02,-1.495250239794979619e+00,7.511407899778458352e-01
9.881297207139730920e-01,-9.947437104640567684e-02,-1.519158767102408714e+00,7.549891498765899378e-01
1.008524273537435567e+00,-1.008603582871531873e-01,-1.515063013626848587e+00,7.554532665693444171e-01
9.889067517096538085e-01,-9.961239930316981295e-02,-1.505313051843749195e+00,7.530305900043716694e-01
1.007439578606501795e+00,-1.011113410726380141e-01,-1.498373157788971843e+00,7.510838772387810058e-01
1.001848142884640858e+00,-1.006910825746426263e-01,-1.507023024630046004e+00,7.521965775888754813e-01
9.989717284806048925e-01,-1.000025171420185072e-01,-1.508040048605093331e+00,7.532773271176256280e-01
9.939274001646590806e-01,-9.997741641523950895e-02,-1.508922056872066930e+00,7.517703707633431875e-01
1.011974451268559783e+00,-1.013643182477321214e-01,-1.501441154722009230e+00,7.540193041759722936e-01
9.917731744124073101e-01,-9.979652876152134144e-02,-1.512399296868289333e+00,7.522652694259288619e-01
1.006537584719213063e+00,-1.006247325744906995e-01,-1.525546061730782776e+00,7.570176581985738062e-01
1.006537584719213063e+00,-1.006247325744906995e-01,-1.525546061730782776e+00,7.570176581985738062e-01
9.871349200936443413e-01,-9.939291286954023141e-02,-1.493319578458441432e+00,7.510937482067351345e-01
9.871349200936443413e-01,-9.939291286954023141e-02,-1.493319578458441432e+00,7.510937482067351345e-01
1.003248835444004561e+00,-1.007679380632231780e-01,-1.513586345584687631e+00,7.544573754164451973e-01
9.950096895013010867e-01,-1.003930763509261748e-01,-1.494771498269177767e+00,7.501895536450193802e-01
1.001293029436797433e+00,-1.000357357102312494e-01,-1.508700933661833998e+00,7.524137809641910923e-01
1.001293029436797433e+00,-1.000357357102312494e-01,-1.508700933661833998e+00,7.524137809641910923e-01
9.942277318516220541e-01,-1.002262362823604924e-01,-1.507509077612316784e+00,7.535107174068130798e-01
1.000617397962481281e+00,-9.983080236336699942e-02,-1.515158778769159609e+00,7.535783852559968521e-01
9.937620630382861808e-01,-1.001740979729605907e-01,-1.507855433513064281e+00,7.536522625007860965e-01
1.001149632917291976e+00,-9.998588251231678437e-02,-1.509721142164402341e+00,7.524049786317592581e-01
1.001149632917291976e+00,-9.998588251231678437e-02,-1.509721142164402341e+00,7.524049786317592581e-01
9.975710144299446691e-01,-9.996552529270115450e-02,-1.508135538981762780e+00,7.544843721999372477e-01
1.004024393895897260e+00,-1.002582287524902416e-01,-1.510884729488352507e+00,7.544047985311915783e-01
9.919447580232997330e-01,-9.956690021359572429e-02,-1.508457548978832774e+00,7.490469750428994100e-01
9.919447580232997330e-01,-9.956690021359572429e-02,-1.508457548978832774e+00,7.490469750428994100e-01
1.000526544716723754e+00,-1.004375140750675965e-01,-1.508791927717390235e+00,7.537723214774965097e-01
1.003707566882205304e+00,-1.005067628830234455e-01,-1.508949725781272511e+00,7.529212113667856920e-01
9.844531596325283296e-01,-9.919957265778955868e-02,-1.505776419271143141e+00,7.516675729321632415e-01
1.008701737908656026e+00,-1.010345011169302420e-01,-1.492167159672816990e+00,7.490873390735144355e-01
9.911883783501082013e-01,-9.965470031020381980e-02,-1.509670364401609177e+00,7.543762804730840266e-01
9.982022737232084664e-01,-1.003837905639891337e-01,-1.511367887635458818e+00,7.535738358670334147e-01
9.999631488931889356e-01,-9.943631581686390719e-02,-1.526059005115757872e+00,7.558577509524893046e-01
9.972376580348915054e-01,-1.004744625271179470e-01,-1.491895257191773405e+00,7.473767629644383348e-01
9.972376580348915054e-01,-1.004744625271179470e-01,-1.491895257191773405e+00,7.473767629644383348e-01
1.002359300962579303e+00,-9.999840223105666004e-02,-1.523721798003812467e+00,7.595196677513532668e-01
9.995372850502511897e-01,-1.005090603034161922e-01,-1.497151803086970379e+00,7.488476376179794558e-01
9.982260763251390445e-01,-1.004074715742512836e-01,-1.512257152183342557e+00,7.560059424389391491e-01
1.001664560234632795e+00,-1.000899173968019251e-01,-1.516683877206998821e+00,7.556175951663572921e-01
1.001656224093723679e+00,-1.007712231937166886e-01,-1.498632947581257202e+00,7.498121189661882680e-01
9.960467258021448167e-01,-1.005729892649844109e-01,-1.505786221645831091e+00,7.538861610441963679e-01
1.000653432232694540e+00,-1.001848509477098470e-01,-1.507473513357438177e+00,7.542388600211759053e-01
9.976845095809726560e-01,-1.005199089783502392e-01,-1.513395281141368454e+00,7.538051604596356370e-01
9.905169887034229736e-01,-9.920222255983790483e-02,-1.516542656155332569e+00,7.563785826087938702e-01
9.990700841691577683e-01,-1.010500286495415040e-01,-1.489302455046053186e+00,7.514816576593559283e-01
9.984452029253669814e-01,-1.004562419938663104e-01,-1.521656307961479548e+00,7.567699984641144129e-01
9.984452029253669814e-01,-1.004562419938663104e-01,-1.521656307961479548e+00,7.567699984641144129e-01
9.996096912404599522e-01,-1.007330492111728204e-01,-1.492793231974954393e+00,7.490212172691811388e-01
9.996096912404599522e-01,-1.007330492111728204e-01,-1.492793231974954393e+00,7.490212172691811388e-01
9.996096912404599522e-01,-1.007330492111728204e-01,-1.492793231974954393e+00,7.490212172691811388e-01
1.003015284539634289e+00,-1.010828883506251358e-01,-1.503473343098699955e+00,7.534502420391584465e-01
9.972779666192207459e-01,-1.005580909692322389e-01,-1.505519156863527774e+00,7.523890659592546992e-01
1.001255886608497070e+00,-1.007167052834789661e-01,-1.524389745411889097e+00,7.580542790706844558e-01
9.976644416502591373e-01,-9.974984931789679377e-02,-1.504299625842906218e+00,7.505107304847634664e-01
1.005174262569719978e+00,-1.009070747326760858e-01,-1.502044808379733754e+00,7.534867717550678412e-01
9.961097706557684450e-01,-1.003051020370870489e-01,-1.509956023282737592e+00,7.528434142947304508e-01
9.979233947209302791e-01,-1.004001838895185322e-01,-1.510093703196560666e+00,7.541384964402230162e-01
9.952039591128182261e-01,-9.976051178180583845e-02,-1.502662930044925016e+00,7.493863554137584204e-01
1.003920519445442139e+00,-1.010502353487820193e-01,-1.500908088434735665e+00,7.531902443946220105e-01
9.988948057689874815e-01,-9.945573191023128479e-02,-1.529543282847518837e+00,7.572953958847585820e-01
1.001628580618169950e+00,-1.004886096103619619e-01,-1.493404787748056739e+00,7.531196629459625536e-01
1.001628580618169950e+00,-1.004886096103619619e-01,-1.493404787748056739e+00,7.531196629459625536e-01
9.998577910782163736e-01,-1.004722063981715319e-01,-1.515450036411251311e+00,7.539214120412354170e-01
9.998577910782163736e-01,-1.004722063981715319e-01,-1.515450036411251311e+00,7.539214120412354170e-01
9.998577910782163736e-01,-1.004722063981715319e-01,-1.515450036411251311e+00,7.539214120412354170e-01
9.998577910782163736e-01,-1.004722063981715319e-01,-1.515450036411251311e+00,7.539214120412354170e-01
9.985935399410386104e-01,-1.008105215206466093e-01,-1.507217410702915039e+00,7.547998390701549098e-01
9.958564619065838341e-01,-1.004211039198494027e-01,-1.498500945631323189e+00,7.484947844039612219e-01
9.969992642370002489e-01,-9.980992528102836103e-02,-1.523477980687542255e+00,7.587498195162203363e-01
9.944001175352080724e-01,-9.969046817071550159e-02,-1.497378579481150718e+00,7.491524457197665798e-01
9.944001175352080724e-01,-9.969046817071550159e-02,-1.497378579481150718e+00,7.491524457197665798e-01
9.944001175352080724e-01,-9.969046817071550159e-02,-1.497378579481150718e+00,7.491524457197665798e-01
9.973940395535287884e-01,-1.002692469241467238e-01,-1.512190188398235158e+00,7.545479012022019427e-01
9.986988507259026981e-01,-1.006606013645116871e-01,-1.503293233793887573e+00,7.518694134954698738e-01
1.002806325671015131e+00,-1.007219625682167496e-01,-1.514165260849974715e+00,7.541219097483682354e-01
1.001287118222540240e+00,-1.005642725494920175e-01,-1.509479281409911389e+00,7.544435717342766745e-01
1.001120042418705669e+00,-9.995031781027106932e-02,-1.505479056377599267e+00,7.510937402105710703e-01
1.001120042418705669e+00,-9.995031781027106932e-02,-1.505479056377599267e+00,7.510937402105710703e-01
9.932438824654277187e-01,-1.003105286348675435e-01,-1.506050333485758674e+00,7.531767326357642345e-01
9.962947307888224691e-01,-1.003314988441515454e-01,-1.498611786928825351e+00,7.516795999980956378e-01
9.964057460886717177e-01,-1.000993226588136609e-01,-1.517968668415295097e+00,7.555766920384220375e-01
9.998966765517742772e-01,-1.003964685696230597e-01,-1.511248698654531930e+00,7.521017423852257577e-01
9.946869074254773846e-01,-9.965982672473766568e-02,-1.503667720786741491e+00,7.543088528860376618e-01
1.001194388074686303e+00,-9.962189399165211068e-02,-1.522827630620133155e+00,7.555768052100952925e-01
9.920412650036560809e-01,-9.892369784019752754e-02,-1.508841906505884234e+00,7.538974502878484918e-01
1.010257265503098134e+00,-1.004506613204697446e-01,-1.495530839989739347e+00,7.496787178147445996e-01
9.867453043834636395e-01,-9.886398874858337571e-02,-1.523215250728453762e+00,7.564462149630530874e-01
1.001075693927699461e+00,-1.005002921954217671e-01,-1.511265603710680638e+00,7.541772884181499048e-01
9.959134990047083802e-01,-1.002567919360576182e-01,-1.502887465890187624e+00,7.531360369368179652e-01
1.001764939891478967e+00,-1.005078245967638284e-01,-1.516766996975384307e+00,7.566973349235409652e-01
9.950298698870869707e-01,-9.998371116566368011e-02,-1.496661780749332760e+00,7.492146256874447907e-01
9.950298698870869707e-01,-9.998371116566368011e-02,-1.496661780749332760e+00,7.492146256874447907e-01
9.950298698870869707e-01,-9.998371116566368011e-02,-1.496661780749332760e+00,7.492146256874447907e-01
9.950298698870869707e-01,-9.998371116566368011e-02,-1.496661780749332760e+00,7.492146256874447907e-01
1.007985911468083140e+00,-1.006567600097801191e-01,-1.511829421215961311e+00,7.540920170276957935e-01
9.840129878775158989e-01,-9.953355565974368602e-02,-1.497573781303094709e+00,7.515989613975935235e-01
1.011721231491899076e+00,-1.009802643019606927e-01,-1.516356818043317345e+00,7.573669155107947137e-01
1.011721231491899076e+00,-1.009802643019606927e-01,-1.516356818043317345e+00,7.573669155107947137e-01
9.866314795558625006e-01,-9.985155807964515851e-02,-1.491242396539861570e+00,7.505905933079900505e-01
1.003654303816481352e+00,-1.005596020506423216e-01,-1.501810901609450521e+00,7.511777285616362265e-01
9.889273308126080853e-01,-9.905015929164767696e-02,-1.520116191797299399e+00,7.555905697177492941e-01
1.003605433756424414e+00,-1.000692330467176927e-01,-1.503744656421391879e+00,7.504488951731325130e-01
9.948383804140376041e-01,-9.971572990645044543e-02,-1.516829337436717218e+00,7.578689266886164955e-01
9.964286843002964078e-01,-9.974839166600199536e-02,-1.506217196203884390e+00,7.504226101817230710e-01
9.964286843002964078e-01,-9.974839166600199536e-02,-1.506217196203884390e+00,7.504226101817230710e-01
1.001728377896601518e+00,-9.964766811692885029e-02,-1.501868448253382171e+00,7.497873059567521370e-01
9.987084351155403050e-01,-1.007032338493125401e-01,-1.515599180645656352e+00,7.548976107980229777e-01
1.001931750985536329e+00,-1.003099454136672647e-01,-1.506232696131146520e+00,7.548233289939492163e-01
9.987973179601605800e-01,-1.003905177318981379e-01,-1.504728770647658864e+00,7.529543015098488778e-01
9.964520791649206233e-01,-9.989461299306813535e-02,-1.505295971529813537e+00,7.518984966299600003e-01
9.978191101424510601e-01,-1.002973165365053515e-01,-1.514988582604775980e+00,7.546433155027890693e-01
9.978191101424510601e-01,-1.002973165365053515e-01,-1.514988582604775980e+00,7.546433155027890693e-01
1.003710441466646452e+00,-1.005289406504461525e-01,-1.495647282779259513e+00,7.508540292481724610e-01
9.903188718220963249e-01,-9.970325755698473957e-02,-1.507262122173286922e+00,7.531253778134133769e-01
9.959546988469555329e-01,-9.990612574828271197e-02,-1.494095825522841148e+00,7.483218725842972763e-01
1.000100511617780574e+00,-1.003306904363011204e-01,-1.512116015183649909e+00,7.530943028654395466e-01
9.927578835125830947e-01,-9.970642483776051557e-02,-1.509221959364635435e+00,7.559221934413795640e-01
9.969876969647125664e-01,-1.002743753588881126e-01,-1.516294919899619620e+00,7.558192752098936706e-01
9.969876969647125664e-01,-1.002743753588881126e-01,-1.516294919899619620e+00,7.558192752098936706e-01
9.990032578403543750e-01,-1.008295156979862189e-01,-1.483830435688439309e+00,7.504435472767220228e-01
1.004247080692501681e+00,-1.006840003383458609e-01,-1.517257694895594256e+00,7.571801754169581455e-01
9.971911547094043371e-01,-1.004006245358781274e-01,-1.496261867485502384e+00,7.477901782028814059e-01
9.971911547094043371e-01,-1.004006245358781274e-01,-1.496261867485502384e+00,7.477901782028814059e-01
9.963456502140682902e-01,-9.998370999344387278e-02,-1.516466158603361869e+00,7.560467367144950712e-01
1.000351151916249792e+00,-1.003121115980594169e-01,-1.507352303685761452e+00,7.539770758444290788e-01
1.000351151916249792e+00,-1.003121115980594169e-01,-1.507352303685761452e+00,7.539770758444290788e-01
9.975730715262061121e-01,-1.003462757913772402e-01,-1.521302641895176277e+00,7.580031548487832227e-01
9.958451595078481322e-01,-1.001757902915536291e-01,-1.510634211351578937e+00,7.537617017036303269e-01
9.989568711837254478e-01,-9.990912649414585012e-02,-1.511864157805889564e+00,7.555935371095217068e-01
9.961170519137223511e-01,-9.984359873051031065e-02,-1.512334883026488663e+00,7.511469952185392263e-01
9.927230727358924423e-01,-1.001116081443877981e-01,-1.506172336646572463e+00,7.518045231703123221e-01
1.007179752450201971e+00,-1.003409139939530070e-01,-1.518370678301707466e+00,7.566243633619449405e-01
9.882169446198512119e-01,-9.952053486051948283e-02,-1.506340805884861078e+00,7.553152067556552218e-01
1.010623756823841646e+00,-1.009316854807065650e-01,-1.512519153820124584e+00,7.561232494309372276e-01
1.010623756823841646e+00,-1.009316854807065650e-01,-1.512519153820124584e+00,7.561232494309372276e-01
1.010623756823841646e+00,-1.009316854807065650e-01,-1.512519153820124584e+00,7.561232494309372276e-01
1.010623756823841646e+00,-1.009316854807065650e-01,-1.512519153820124584e+00,7.561232494309372276e-01
1.010623756823841646e+00,-1.009316854807065650e-01,-1.512519153820124584e+00,7.561232494309372276e-01
9.831345481518246610e-01,-9.869699985876320691e-02,-1.503025844089101781e+00,7.514621291805075876e-01
1.006090128750785073e+00,-1.009302798145284980e-01,-1.510630035961069373e+00,7.551667265177309796e-01
1.006090128750785073e+00,-1.009302798145284980e-01,-1.510630035961069373e+00,7.551667265177309796e-01
9.913562137486929826e-01,-9.987841130640019716e-02,-1.506187360681740639e+00,7.526078584804573035e-01
9.913562137486929826e-01,-9.987841130640019716e-02,-1.506187360681740639e+00,7.526078584804573035e-01
9.913562137486929826e-01,-9.987841130640019716e-02,-1.506187360681740639e+00,7.526078584804573035e-01
9.961832464203901338e-01,-1.000614814813311909e-01,-1.510403674124353390e+00,7.526922268186496678e-01
9.961832464203901338e-01,-1.000614814813311909e-01,-1.510403674124353390e+00,7.526922268186496678e-01
9.957315544151601472e-01,-1.000618130250667953e-01,-1.515994561659463447e+00,7.561693423164178585e-01
9.957315544151601472e-01,-1.000618130250667953e-01,-1.515994561659463447e+00,7.561693423164178585e-01
9.955468907533504552e-01,-1.001652919613990333e-01,-1.505575083471013320e+00,7.541103775184154756e-01
9.968844420436892007e-01,-1.000989937740762864e-01,-1.501711665031700615e+00,7.511827557945527367e-01
9.968844420436892007e-01,-1.000989937740762864e-01,-1.501711665031700615e+00,7.511827557945527367e-01
9.960933137412321114e-01,-1.001371518995814586e-01,-1.521238519021458346e+00,7.539736595000479102e-01
9.969048118791304924e-01,-9.988668448478475737e-02,-1.509197825809757365e+00,7.549461225499936035e-01
9.977353618637179178e-01,-1.003455327656187224e-01,-1.503186635395274084e+00,7.513598965625144510e-01
9.977353618637179178e-01,-1.003455327656187224e-01,-1.503186635395274084e+00,7.513598965625144510e-01
9.977353618637179178e-01,-1.003455327656187224e-01,-1.503186635395274084e+00,7.513598965625144510e-01
9.975344516844042442e-01,-1.000528385289108785e-01,-1.512911294641805515e+00,7.545847098279949705e-01
9.975344516844042442e-01,-1.000528385289108785e-01,-1.512911294641805515e+00,7.545847098279949705e-01
9.936327991359519274e-01,-1.000465698209805909e-01,-1.497098425589604931e+00,7.510079114700359826e-01
1.006057084625751941e+00,-1.005203986416006307e-01,-1.516627018842576335e+00,7.556804906723307846e-01
9.925499813261124959e-01,-9.995021164681863746e-02,-1.495440875731777641e+00,7.505322225051005436e-01
9.925499813261124959e-01,-9.995021164681863746e-02,-1.495440875731777641e+00,7.505322225051005436e-01
9.987441047591828491e-01,-1.001067161176072695e-01,-1.519595970324958412e+00,7.552837757820720643e-01
1.007923138583950662e+00,-1.009251204985537054e-01,-1.499100992226490403e+00,7.523802812133028040e-01
9.943379738502945431e-01,-1.000610534273996266e-01,-1.517624553516572439e+00,7.544086543614901830e-01
9.959258848092240601e-01,-9.988381107050660346e-02,-1.507194498022108586e+00,7.543810874702817637e-01
1.000363380232148103e+00,-1.003709222874182988e-01,-1.516858699136401256e+00,7.546803879976370366e-01
1.001353508385256941e+00,-1.001511724935963688e-01,-1.509098093816646502e+00,7.538782984263284748e-01
9.999098214864166057e-01,-1.001516876398088340e-01,-1.500334562169187480e+00,7.504830462101228505e-01
9.990143633031697279e-01,-1.004573992144005418e-01,-1.515170695964233261e+00,7.546488229443555351e-01
9.975985691126399990e-01,-9.998066751788389772e-02,-1.492587443206188746e+00,7.493376033744224562e-01
9.975985691126399990e-01,-9.998066751788389772e-02,-1.492587443206188746e+00,7.493376033744224562e-01
9.975985691126399990e-01,-9.998066751788389772e-02,-1.492587443206188746e+00,7.493376033744224562e-01
9.975985691126399990e-01,-9.998066751788389772e-02,-1.492587443206188746e+00,7.493376033744224562e-01
9.942524006544090076e-01,-9.955936946072430072e-02,-1.515318219910888553e+00,7.541407884019273311e-01
9.994459116531564380e-01,-1.005228293360380110e-01,-1.491708048140571563e+00,7.525991962422379222e-01
9.933404760669168887e-01,-9.923865397655104448e-02,-1.525295315621369996e+00,7.555076467124673956e-01
9.933404760669168887e-01,-9.923865397655104448e-02,-1.525295315621369996e+00,7.555076467124673956e-01
9.933404760669168887e-01,-9.923865397655104448e-02,-1.525295315621369996e+00,7.555076467124673956e-01
9.892523263640577991e-01,-1.000970534255908595e-01,-1.489398885793610017e+00,7.494462786446701719e-01
1.006035343467679199e+00,-1.006193534201821893e-01,-1.526270616863452112e+00,7.563016750343282135e-01
1.003820380605841223e+00,-1.010455332029817077e-01,-1.499193836934896495e+00,7.519959880106730221e-01
9.875801889580219095e-01,-9.968800595877692905e-02,-1.510380150314065695e+00,7.534979090897535592e-01
1.002257971539638026e+00,-1.000918118168049736e-01,-1.506980163862143618e+00,7.521965598640091288e-01
9.928481184378722402e-01,-9.950765387559369624e-02,-1.519846302178287312e+00,7.566688334632873936e-01
9.977318183304069166e-01,-9.990095135627853618e-02,-1.503397749922761539e+00,7.526739000819456793e-01
9.941715082768850520e-01,-9.932835917994246866e-02,-1.525658482616746969e+00,7.557286715416499101e-01
1.008342520646764662e+00,-1.003751563061354019e-01,-1.506108372079426827e+00,7.502960610650037943e-01
9.913081269329572232e-01,-9.954546743150474719e-02,-1.521729077567354649e+00,7.561959474088343347e-01
1.003655455322237655e+00,-1.011136930806096207e-01,-1.491393976426536927e+00,7.494731104236290742e-01
9.955538638258305539e-01,-1.003033570123576385e-01,-1.510978240404072803e+00,7.543916791107821984e-01
1.002475484972451536e+00,-1.012922084735974892e-01,-1.514212557653693558e+00,7.581714070345489942e-01
9.937498663326131965e-01,-1.004871277353890507e-01,-1.502256579747890175e+00,7.515037636620475192e-01
9.937498663326131965e-01,-1.004871277353890507e-01,-1.502256579747890175e+00,7.515037636620475192e-01
9.937498663326131965e-01,-1.004871277353890507e-01,-1.502256579747890175e+00,7.515037636620475192e-01
1.003023918397833114e+00,-1.009141575309282779e-01,-1.514289455404541629e+00,7.564875521401455138e-01
9.913662246273182710e-01,-1.000305321115184665e-01,-1.521821815443295423e+00,7.594323085276090124e-01
1.010940045500511086e+00,-1.008813489203133351e-01,-1.509735473996834276e+00,7.523416688284632059e-01
9.843468752234528774e-01,-9.914505307488619135e-02,-1.514845636702860654e+00,7.558444645397988104e-01
1.006205617063415714e+00,-1.007083352670422316e-01,-1.516986418620601684e+00,7.557133093138503899e-01
9.973145899122758395e-01,-9.967282424133061536e-02,-1.506747212223902732e+00,7.546839125486783928e-01
9.973145899122758395e-01,-9.967282424133061536e-02,-1.506747212223902732e+00,7.546839125486783928e-01
1.003802190716367226e+00,-1.005318119280942529e-01,-1.520730528358686717e+00,7.565568564617658476e-01
9.936919130324193272e-01,-9.972706566823259788e-02,-1.498413305549607832e+00,7.490054896481886937e-01
1.000160943101660704e+00,-1.002377877993812089e-01,-1.513093014587954421e+00,7.561513135725987933e-01
1.000160943101660704e+00,-1.002377877993812089e-01,-1.513093014587954421e+00,7.561513135725987933e-01
1.003698555342897869e+00,-1.005018819728250856e-01,-1.517756711499089084e+00,7.551967808148087880e-01
9.955200796268248720e-01,-9.985515451380348739e-02,-1.508534534656984283e+00,7.529024807870132729e-01
9.955200796268248720e-01,-9.985515451380348739e-02,-1.508534534656984283e+00,7.529024807870132729e-01
1.000114044049084994e+00,-1.002686057285507720e-01,-1.513346532132119338e+00,7.540121681036491275e-01
9.992222378634295632e-01,-1.002787247311127811e-01,-1.501067172916523251e+00,7.516719014949357902e-01
9.899523521485990019e-01,-9.958356764488250634e-02,-1.520204130487361471e+00,7.582482669501856565e-01
9.899523521485990019e-01,-9.958356764488250634e-02,-1.520204130487361471e+00,7.582482669501856565e-01
9.899523521485990019e-01,-9.958356764488250634e-02,-1.520204130487361471e+00,7.582482669501856565e-01
1.003540631392176197e+00,-1.006877693994281536e-01,-1.495998169451607573e+00,7.486112623390765997e-01
1.000303600406366344e+00,-1.002292086405449367e-01,-1.524606910716766572e+00,7.565819696711854059e-01
9.920117675718395089e-01,-9.938257648724573012e-02,-1.515138992660725936e+00,7.548861877834256440e-01
9.920117675718395089e-01,-9.938257648724573012e-02,-1.515138992660725936e+00,7.548861877834256440e-01
9.920117675718395089e-01,-9.938257648724573012e-02,-1.515138992660725936e+00,7.548861877834256440e-01
9.982868405820803925e-01,-1.002964828368070049e-01,-1.506782686015699868e+00,7.500943295702295899e-01
9.958241663353998296e-01,-1.001303949652211644e-01,-1.492987698520949813e+00,7.523731885758762061e-01
1.001127696636381348e+00,-1.004649332536766831e-01,-1.509109173580966079e+00,7.524399318523871116e-01
9.927513003395069813e-01,-9.930546695635950050e-02,-1.516257719757875044e+00,7.545981346354965202e-01
9.927513003395069813e-01,-9.930546695635950050e-02,-1.516257719757875044e+00,7.545981346354965202e-01
1.006338686353820400e+00,-1.010351917744635730e-01,-1.504118848095242988e+00,7.520990950294392796e-01
9.883338388276353692e-01,-9.960861081580731080e-02,-1.514249287262238397e+00,7.556635198526755470e-01
9.883338388276353692e-01,-9.960861081580731080e-02,-1.514249287262238397e+00,7.556635198526755470e-01
1.013366199649446742e+00,-1.013623346893644250e-01,-1.501390408765830298e+00,7.507207821338299780e-01
1.013366199649446742e+00,-1.013623346893644250e-01,-1.501390408765830298e+00,7.507207821338299780e-01
1.013366199649446742e+00,-1.013623346893644250e-01,-1.501390408765830298e+00,7.507207821338299780e-01
1.013366199649446742e+00,-1.013623346893644250e-01,-1.501390408765830298e+00,7.507207821338299780e-01
9.881303054062954283e-01,-9.934104199939092217e-02,-1.526440443489404331e+00,7.576938720516511738e-01
9.881303054062954283e-01,-9.934104199939092217e-02,-1.526440443489404331e+00,7.576938720516511738e-01
1.005563557381565554e+00,-1.009183335436484447e-01,-1.488686164778602938e+00,7.492882329991505941e-01
1.005563557381565554e+00,-1.009183335436484447e-01,-1.488686164778602938e+00,7.492882329991505941e-01
1.000980688800798601e+00,-1.002995932697456627e-01,-1.523363938339928669e+00,7.585603460514704910e-01
9.919825919413646220e-01,-9.990550986649762710e-02,-1.488982438076692505e+00,7.487797805897962178e-01
9.919825919413646220e-01,-9.990550986649762710e-02,-1.488982438076692505e+00,7.487797805897962178e-01
9.942777712183173966e-01,-9.998260867865385593e-02,-1.514837919340389583e+00,7.547268512847002953e-01
1.005976438984721666e+00,-1.003382531108481662e-01,-1.502006931456596694e+00,7.513839098192534038e-01
9.920701072685714772e-01,-9.925251788071409731e-02,-1.515289364816501338e+00,7.538410910893923456e-01
9.920701072685714772e-01,-9.925251788071409731e-02,-1.515289364816501338e+00,7.538410910893923456e-01
9.956688646704655588e-01,-9.972579056340523385e-02,-1.508753014740856768e+00,7.541691959059007022e-01
1.001866679403288218e+00,-1.002944231970558514e-01,-1.496438424653472099e+00,7.510346716920603960e-01
9.945556207907386703e-01,-9.950652080117951270e-02,-1.507532904719273370e+00,7.518788112231703513e-01
9.945556207907386703e-01,-9.950652080117951270e-02,-1.507532904719273370e+00,7.518788112231703513e-01
9.945556207907386703e-01,-9.950652080117951270e-02,-1.507532904719273370e+00,7.518788112231703513e-01
9.945556207907386703e-01,-9.950652080117951270e-02,-1.507532904719273370e+00,7.518788112231703513e-01
9.950076637016219694e-01,-1.002052966328218914e-01,-1.497467813126727165e+00,7.521052143735034168e-01
9.950076637016219694e-01,-1.002052966328218914e-01,-1.497467813126727165e+00,7.521052143735034168e-01
9.997577855661918811e-01,-1.005978973246399177e-01,-1.514903518434649099e+00,7.550048201779329116e-01
9.993299249372696869e-01,-1.010611176512964948e-01,-1.499369604272963397e+00,7.537618492285018679e-01
1.000743516536015454e+00,-9.973358516218379377e-02,-1.503550545814516415e+00,7.503289461372720792e-01
9.900634757811407338e-01,-1.005737928902970535e-01,-1.513173557655036472e+00,7.584998035944050532e-01
1.003341805887437266e+00,-1.007745323157604039e-01,-1.496693771456038879e+00,7.499523553516030949e-01
9.950899074018467738e-01,-1.006690004060497579e-01,-1.516236967863310303e+00,7.582524700127700745e-01
9.950899074018467738e-01,-1.006690004060497579e-01,-1.516236967863310303e+00,7.582524700127700745e-01
1.000929512576646196e+00,-1.009888841882326388e-01,-1.506389875509574816e+00,7.513594957347800030e-01
9.936302442943887314e-01,-1.004117696197419085e-01,-1.501019796926287508e+00,7.538767724399163539e-01
9.991500081093094288e-01,-1.005007111556969202e-01,-1.509969596408326842e+00,7.535129386829875209e-01
9.991500081093094288e-01,-1.005007111556969202e-01,-1.509969596408326842e+00,7.535129386829875209e-01
9.991500081093094288e-01,-1.005007111556969202e-01,-1.509969596408326842e+00,7.535129386829875209e-01
1.000273804184030446e+00,-1.008171312026949207e-01,-1.506447543625547780e+00,7.540188989287079924e-01
1.000273804184030446e+00,-1.008171312026949207e-01,-1.506447543625547780e+00,7.540188989287079924e-01
9.954396217959154969e-01,-9.967953833340843783e-02,-1.522574203642616641e+00,7.574606004797960201e-01
9.955300210856516951e-01,-9.996700447084300167e-02,-1.491872428099970893e+00,7.481392536202925436e-01
9.926652301773887244e-01,-9.995176635205921256e-02,-1.528209306475034612e+00,7.590741071869127055e-01
1.000129253544179475e+00,-9.980821536839265540e-02,-1.509098353585791363e+00,7.529098522387166481e-01
9.947524395394015118e-01,-9.972691700728285313e-02,-1.513857805783407784e+00,7.557473466826747366e-01
1.007368333980257713e+00,-1.004452938992751870e-01,-1.504195698131399528e+00,7.520654121292563721e-01
1.007368333980257713e+00,-1.004452938992751870e-01,-1.504195698131399528e+00,7.520654121292563721e-01
1.007368333980257713e+00,-1.004452938992751870e-01,-1.504195698131399528e+00,7.520654121292563721e-01
9.993378967307460226e-01,-9.998026425676799500e-02,-1.509623604350990744e+00,7.544559858933693741e-01
9.993378967307460226e-01,-9.998026425676799500e-02,-1.509623604350990744e+00,7.544559858933693741e-01
9.993378967307460226e-01,-9.998026425676799500e-02,-1.509623604350990744e+00,7.544559858933693741e-01
9.993378967307460226e-01,-9.998026425676799500e-02,-1.509623604350990744e+00,7.544559858933693741e-01
9.923546246208927446e-01,-9.988730137682773347e-02,-1.495878735896888134e+00,7.492233881865014711e-01
9.927178301601440324e-01,-9.952432830427131172e-02,-1.516394191671461167e+00,7.554586925027463318e-01
1.000911814048740522e+00,-1.005734020183647187e-01,-1.501092070132794332e+00,7.508099786769791839e-01
9.927386884906910236e-01,-9.966804265023100629e-02,-1.518559437620315755e+00,7.554421264964605864e-01
9.927386884906910236e-01,-9.966804265023100629e-02,-1.518559437620315755e+00,7.554421264964605864e-01
9.983813175008396934e-01,-9.979059136518426965e-02,-1.519077241728126415e+00,7.573650752140054232e-01
9.983813175008396934e-01,-9.979059136518426965e-02,-1.519077241728126415e+00,7.573650752140054232e-01
1.000088299284206173e+00,-1.006519647626572533e-01,-1.492980512931763037e+00,7.483800929576946981e-01
1.000088299284206173e+00,-1.006519647626572533e-01,-1.492980512931763037e+00,7.483800929576946981e-01
9.988172970030786413e-01,-1.003905895692372430e-01,-1.519147602656694351e+00,7.582410844000598837e-01
9.980474276243126441e-01,-1.003093159710693461e-01,-1.492249841073828964e+00,7.481066924690313868e-01
9.980474276243126441e-01,-1.003093159710693461e-01,-1.492249841073828964e+00,7.481066924690313868e-01
9.980474276243126441e-01,-1.003093159710693461e-01,-1.492249841073828964e+00,7.481066924690313868e-01
9.980474276243126441e-01,-1.003093159710693461e-01,-1.492249841073828964e+00,7.481066924690313868e-01
9.980474276243126441e-01,-1.003093159710693461e-01,-1.492249841073828964e+00,7.481066924690313868e-01
9.980474276243126441e-01,-1.003093159710693461e-01,-1.492249841073828964e+00,7.481066924690313868e-01
9.980474276243126441e-01,-1.003093159710693461e-01,-1.492249841073828964e+00,7.481066924690313868e-01
9.933695986170180126e-01,-9.963439710449090159e-02,-1.524089986135195529e+00,7.582127775709941453e-01
9.986446090864407044e-01,-9.933858778579818249e-02,-1.500760616369900102e+00,7.510416859645234755e-01
1.007861182609540940e+00,-1.003996254446173214e-01,-1.506836644323595431e+00,7.524920136336755716e-01
9.935941414046235431e-01,-9.999078542699581240e-02,-1.503790381955286026e+00,7.541017238947804735e-01
9.935941414046235431e-01,-9.999078542699581240e-02,-1.503790381955286026e+00,7.541017238947804735e-01
1.003772889032547244e+00,-1.004266109363496917e-01,-1.514259658267990361e+00,7.544840622999480217e-01
9.930243389491896222e-01,-9.974276042095155115e-02,-1.504692206213362971e+00,7.528908556702663679e-01
9.997553890024523104e-01,-9.975152590187925938e-02,-1.504313834417390305e+00,7.526845317141158676e-01
9.962222727520347876e-01,-9.918152053522641398e-02,-1.508199013141785949e+00,7.527588689515637421e-01
9.994314967914640357e-01,-9.963488157368693976e-02,-1.507445011288913062e+00,7.549294810160446234e-01
1.004283685530027226e+00,-1.010066537498929690e-01,-1.501944481149501520e+00,7.477844776460689236e-01
9.925875138209795390e-01,-1.003604994661159294e-01,-1.516801546305982074e+00,7.584420109296451384e-01
1.003485299974316680e+00,-9.985871877039623201e-02,-1.507339794580042192e+00,7.513779468544616869e-01
1.003485299974316680e+00,-9.985871877039623201e-02,-1.507339794580042192e+00,7.513779468544616869e-01
1.003485299974316680e+00,-9.985871877039623201e-02,-1.507339794580042192e+00,7.513779468544616869e-01
1.003485299974316680e+00,-9.985871877039623201e-02,-1.507339794580042192e+00,7.513779468544616869e-01
1.003485299974316680e+00,-9.985871877039623201e-02,-1.507339794580042192e+00,7.513779468544616869e-01
1.003485299974316680e+00,-9.985871877039623201e-02,-1.507339794580042192e+00,7.513779468544616869e-01
9.941396740463250836e-01,-1.002521726145219477e-01,-1.508072845280138852e+00,7.543930169951036380e-01
9.941396740463250836e-01,-1.002521726145219477e-01,-1.508072845280138852e+00,7.543930169951036380e-01
9.920266614478636669e-01,-1.001205377806684838e-01,-1.499121621897913315e+00,7.514514057732561980e-01
1.000672624197559424e+00,-1.003323227744261081e-01,-1.519448298684769716e+00,7.553462586536703327e-01
1.002675517369643110e+00,-1.007248921907136774e-01,-1.506802808190060405e+00,7.527388051245328393e-01
9.996859978548542358e-01,-1.000696716174974688e-01,-1.515570279216034155e+00,7.564646778336635569e-01
1.000108524092988338e+00,-1.004930754013501626e-01,-1.515649322623743300e+00,7.558797154284014885e-01
1.000108524092988338e+00,-1.004930754013501626e-01,-1.515649322623743300e+00,7.558797154284014885e-01
1.000108524092988338e+00,-1.004930754013501626e-01,-1.515649322623743300e+00,7.558797154284014885e-01
9.958481105723223648e-01,-9.974009490061991334e-02,-1.495640787476546940e+00,7.496862912692828784e-01
1.000826045239828987e+00,-1.009398191316830673e-01,-1.510572155239611636e+00,7.548465732843674392e-01
9.985667646041603840e-01,-9.965271641636895550e-02,-1.525342866892098304e+00,7.581194757112590388e-01
1.000657916650463664e+00,-1.008921786589803138e-01,-1.501655823535209544e+00,7.526358880367707282e-01
9.954946373502636670e-01,-9.939999531134770250e-02,-1.502948298469111155e+00,7.494868899890031466e-01
1.001433123218242072e+00,-9.966024083089282393e-02,-1.506071414898743743e+00,7.538423067246803333e-01
1.001433123218242072e+00,-9.966024083089282393e-02,-1.506071414898743743e+00,7.538423067246803333e-01
9.970623222124318508e-01,-1.001174581180488549e-01,-1.509623187146412304e+00,7.551895298221507069e-01
1.007682560814494810e+00,-1.008507841055144710e-01,-1.505818295310648702e+00,7.521480967065804490e-01
9.901684713857556996e-01,-9.932824240571304364e-02,-1.517232593395857920e+00,7.540434054101571304e-01
1.000182985751533415e+00,-1.002728814952161818e-01,-1.504724028016826809e+00,7.533752891252653017e-01
9.923212802187124648e-01,-9.992405674163543083e-02,-1.506470920743148589e+00,7.514007094818005994e-01
1.008897076503657342e+00,-1.008648794226703616e-01,-1.494187169543389260e+00,7.508463173244724898e-01
9.929583998379265530e-01,-9.996513893024526476e-02,-1.522168155692640967e+00,7.577151739974721245e-01
1.003341447686862509e+00,-1.003563168920296872e-01,-1.491191028571553279e+00,7.482527215198386816e-01
9.902102254328910558e-01,-9.951509211138763467e-02,-1.536159393159502784e+00,7.603128931089031539e-01
9.946857345673483231e-01,-1.000059777242371523e-01,-1.493051891815115662e+00,7.490678478569271492e-01
1.002489886488170168e+00,-1.007104804221414379e-01,-1.511606567623991149e+00,7.523710098663748402e-01
9.943230200961136189e-01,-1.002062675611047199e-01,-1.509725643976738807e+00,7.534230681133432528e-01
9.943230200961136189e-01,-1.002062675611047199e-01,-1.509725643976738807e+00,7.534230681133432528e-01
1.001480534399653788e+00,-1.008221232956417052e-01,-1.502146760127170522e+00,7.543141542262250532e-01
9.940535644889770817e-01,-1.000446612023486309e-01,-1.510219530090657569e+00,7.535336992229457742e-01
1.006652786452750137e+00,-1.008314337978084424e-01,-1.504555870591146371e+00,7.531811597687804172e-01
1.006652786452750137e+00,-1.008314337978084424e-01,-1.504555870591146371e+00,7.531811597687804172e-01
9.923037658216230517e-01,-9.966347505335082513e-02,-1.501437260551423236e+00,7.512885968868574516e-01
1.005793514106703368e+00,-1.004554672347266198e-01,-1.524072582772256323e+00,7.578725708985450948e-01
9.881137431387126968e-01,-9.979407039524053336e-02,-1.496175467478435550e+00,7.489561901820563916e-01
1.010926038548975336e+00,-1.010411206993345884e-01,-1.498904546243208902e+00,7.524675852466081727e-01
9.851707941776112198e-01,-9.922627110167116238e-02,-1.508192852375182191e+00,7.525120074039748364e-01
1.013142392728511476e+00,-1.010784039168075438e-01,-1.508914520318599184e+00,7.543870036341877583e-01
9.842370078427611357e-01,-9.893408075638948640e-02,-1.519899305722671290e+00,7.545997762651236451e-01
1.011284212753473133e+00,-1.007104287651910124e-01,-1.496919834461590604e+00,7.534058051240254406e-01
9.813217128980508130e-01,-9.933428406010574863e-02,-1.523282338987218099e+00,7.592512416196642855e-01
1.006912442335060387e+00,-1.006187445160373339e-01,-1.499730055342469059e+00,7.527773796170850185e-01
1.006912442335060387e+00,-1.006187445160373339e-01,-1.499730055342469059e+00,7.527773796170850185e-01
1.006912442335060387e+00,-1.006187445160373339e-01,-1.499730055342469059e+00,7.527773796170850185e-01
9.935599814585237555e-01,-9.985835454453664828e-02,-1.503802371510901237e+00,7.521526685493874487e-01
9.984801535007419293e-01,-1.001141041969388495e-01,-1.523184800117309390e+00,7.571255871972917273e-01
1.002282938866017714e+00,-1.008437548410893725e-01,-1.503470360664306282e+00,7.510081313124932212e-01
9.956186781975000510e-01,-9.981889878241746727e-02,-1.513554111792898560e+00,7.539317416259307958e-01
9.959393163236135438e-01,-9.977371284134201046e-02,-1.499496178784952560e+00,7.508817957845468349e-01
9.994265763919946144e-01,-1.005015530837012894e-01,-1.524213580948211133e+00,7.582166184947175536e-01
9.939112797809943611e-01,-9.946292120867177011e-02,-1.502532326939624241e+00,7.507226806029417832e-01
9.968172386350762082e-01,-1.004611956280199170e-01,-1.508891833594116605e+00,7.539975828401819236e-01
9.944114922043013616e-01,-9.962378797148471743e-02,-1.508775600712561671e+00,7.530254757679818445e-01
1.000946705373826573e+00,-1.004175884404816810e-01,-1.508576655385024390e+00,7.509269587819399350e-01
9.991692827874668614e-01,-1.001655042257883765e-01,-1.509454192757496038e+00,7.510939271009552387e-01
9.996431669328339487e-01,-1.004705830676349276e-01,-1.525032647755377946e+00,7.535627536899935919e-01
9.919523422472446006e-01,-1.000753469737852286e-01,-1.497282956859137926e+00,7.478580410286324032e-01
9.919523422472446006e-01,-1.000753469737852286e-01,-1.497282956859137926e+00,7.478580410286324032e-01
1.000241454457935886e+00,-1.006731617940199858e-01,-1.517447286327748390e+00,7.566410338638099864e-01
9.967865485030477091e-01,-1.009444672679604277e-01,-1.503881442293129034e+00,7.550922253362445380e-01
9.977223067670006884e-01,-1.005062398818660913e-01,-1.504704048596981369e+00,7.554586782891036245e-01
9.914328674141612563e-01,-9.953624898156461509e-02,-1.527108331492642357e+00,7.617163423646193809e-01
9.914328674141612563e-01,-9.953624898156461509e-02,-1.527108331492642357e+00,7.617163423646193809e-01
1.002519953276909570e+00,-9.989308945539074336e-02,-1.494542845010508270e+00,7.475284161896311730e-01
9.905126309246735650e-01,-9.972714725944904768e-02,-1.520947295961512680e+00,7.560039337412320926e-01
9.905126309246735650e-01,-9.972714725944904768e-02,-1.520947295961512680e+00,7.560039337412320926e-01
1.000687008443216452e+00,-1.004822417745495078e-01,-1.498626770378752138e+00,7.521727355977864127e-01
9.935392814425952901e-01,-9.958747693572395088e-02,-1.519279153409368810e+00,7.545272626691998941e-01
9.937980736158787964e-01,-9.987753194514305266e-02,-1.493304495834440138e+00,7.501924256917257283e-01
1.000344635556467798e+00,-9.987034037080738669e-02,-1.520854493065556312e+00,7.548056062382267895e-01
1.000344635556467798e+00,-9.987034037080738669e-02,-1.520854493065556312e+00,7.548056062382267895e-01
9.968210094949639943e-01,-1.004930161943437539e-01,-1.498401448463366981e+00,7.509368899014235987e-01
9.949327822154040435e-01,-9.944529321454137483e-02,-1.519824614956799103e+00,7.543002952075087419e-01
9.953689084130892262e-01,-9.983571600311656746e-02,-1.501178593100958025e+00,7.514331465929960929e-01
9.981344056352600136e-01,-1.001418856435220134e-01,-1.500573726471281066e+00,7.528096355003421891e-01
9.858343039224470861e-01,-9.968209363708439852e-02,-1.523632339339919373e+00,7.586611702411588665e-01
1.006893701487131088e+00,-1.005029893177900591e-01,-1.504707486123564308e+00,7.528152388711514265e-01
9.927627437611404870e-01,-9.972769902562682309e-02,-1.500453841043897896e+00,7.506704307202024529e-01
1.003860718898708537e+00,-1.005398637570871639e-01,-1.516705146707698182e+00,7.555543553661788758e-01
9.999270485056658275e-01,-1.002950944294157959e-01,-1.502987868491232337e+00,7.523974415777119340e-01
9.911321773156058779e-01,-1.000400615595638809e-01,-1.491751426331241692e+00,7.478591891227786004e-01
1.000596748410794268e+00,-9.988304381205279081e-02,-1.508323232895076638e+00,7.535470449711640928e-01
9.962928688087019369e-01,-1.000172296105976688e-01,-1.513377409150354014e+00,7.537882428122372191e-01
9.918324523698780482e-01,-9.985388692636211483e-02,-1.500328469192650394e+00,7.498445748313115056e-01
1.004255223804383368e+00,-1.001519188352225920e-01,-1.527493109065768628e+00,7.585268073927861066e-01
9.923828397281203584e-01,-1.001751210708408391e-01,-1.500945075628001613e+00,7.511382118929676999e-01
1.000194328967023427e+00,-9.991014995714238289e-02,-1.522337421497168108e+00,7.575108944083560614e-01
1.000194328967023427e+00,-9.991014995714238289e-02,-1.522337421497168108e+00,7.575108944083560614e-01
9.986374864478203550e-01,-1.006446210747227038e-01,-1.496888613027578252e+00,7.501603660736709811e-01
9.977993480504098178e-01,-1.003780975510963486e-01,-1.515392639427455279e+00,7.561856236825011957e-01
9.931357137451541917e-01,-1.001369980213941135e-01,-1.492598798324450193e+00,7.482372326789481498e-01
1.005164410311424117e+00,-1.009232641165384442e-01,-1.524855643294253937e+00,7.581363274492811666e-01
1.005164410311424117e+00,-1.009232641165384442e-01,-1.524855643294253937e+00,7.581363274492811666e-01
9.942946853500255200e-01,-1.004530646694303531e-01,-1.493394934525227091e+00,7.482038239810562263e-01
9.972560597066403298e-01,-1.004598267577358067e-01,-1.525763896410405662e+00,7.588932152039779000e-01
1.000085369365378396e+00,-1.004281816750532130e-01,-1.506860303769283371e+00,7.509459667565079322e-01
9.927249655311785048e-01,-9.965645439443923670e-02,-1.517729947215807673e+00,7.581098793080182086e-01
1.005534429995359469e+00,-9.995782899253977116e-02,-1.517180211680069668e+00,7.530863180373377208e-01
9.997854723271547561e-01,-1.003232896605383145e-01,-1.493731225711705246e+00,7.517092890248714410e-01
9.997854723271547561e-01,-1.003232896605383145e-01,-1.493731225711705246e+00,7.517092890248714410e-01
1.004943425918701783e+00,-1.001382582063255894e-01,-1.514814832813847101e+00,7.544255295583818244e-01
1.004943425918701783e+00,-1.001382582063255894e-01,-1.514814832813847101e+00,7.544255295583818244e-01
9.933377873309315875e-01,-9.942915734827317831e-02,-1.502395748849857160e+00,7.518085191267738221e-01
9.999691614303873877e-01,-9.999799870108157240e-02,-1.504540803927564729e+00,7.529712713791831824e-01
9.909628967152894763e-01,-9.911735206191221725e-02,-1.520743701799566860e+00,7.545259228444642918e-01
1.002825719768357882e+00,-1.003214946614242736e-01,-1.508818843188514114e+00,7.560574033941570571e-01
1.001103367094517083e+00,-1.003129147299920559e-01,-1.512714631524430198e+00,7.553408529962247764e-01
9.938311171934153254e-01,-9.950952309983610022e-02,-1.499505408442820764e+00,7.499864909114387634e-01
9.985085266991703401e-01,-1.001134803659693984e-01,-1.516155731979089705e+00,7.556733893773579513e-01
9.985085266991703401e-01,-1.001134803659693984e-01,-1.516155731979089705e+00,7.556733893773579513e-01
1.005858547065482611e+00,-1.006292848333225493e-01,-1.490040498459028750e+00,7.479193645764545817e-01
1.005858547065482611e+00,-1.006292848333225493e-01,-1.490040498459028750e+00,7.479193645764545817e-01
1.000001603905700032e+00,-1.000530195491377977e-01,-1.519473252518970030e+00,7.562233946755094749e-01
9.989977621512974304e-01,-9.995297730232402533e-02,-1.499704135041755260e+00,7.518115289612926633e-01
9.989977621512974304e-01,-9.995297730232402533e-02,-1.499704135041755260e+00,7.518115289612926633e-01
1.001381802214574401e+00,-1.003925834073019357e-01,-1.511879623057273969e+00,7.530032492080608320e-01
1.001381802214574401e+00,-1.003925834073019357e-01,-1.511879623057273969e+00,7.530032492080608320e-01
9.921299093439805983e-01,-9.988798683854242799e-02,-1.503998587256400565e+00,7.518291690369560687e-01
1.012639437739092152e+00,-1.010080443059017119e-01,-1.508209019835737852e+00,7.530251817449270524e-01
9.888106670282488242e-01,-9.954139913025202013e-02,-1.510995930412170951e+00,7.551919999686694807e-01
1.002546938814443900e+00,-1.007032927132210653e-01,-1.513858311767549036e+00,7.562416656383039726e-01
9.960744260020197860e-01,-1.001682366164760307e-01,-1.511842756569186319e+00,7.536415739759301236e-01
1.002194503252301194e+00,-1.006078740854740722e-01,-1.499384781969879343e+00,7.510630465736656269e-01
9.971172990700200023e-01,-1.001883337571833343e-01,-1.518365436127581791e+00,7.574508416149614565e-01
1.004271049480229605e+00,-9.997855572887977271e-02,-1.496608788799921985e+00,7.496732575383674435e-01
1.004271049480229605e+00,-9.997855572887977271e-02,-1.496608788799921985e+00,7.496732575383674435e-01
9.976678778122900493e-01,-9.946066942983848580e-02,-1.513590846756377450e+00,7.543071670421714892e-01
9.996741571365299617e-01,-9.967449425093875826e-02,-1.499978639891433874e+00,7.509932109642269982e-01
9.938900637445501340e-01,-9.940425443196349020e-02,-1.505426813176340417e+00,7.535852379875779272e-01
1.002708658429444233e+00,-9.964940169241182089e-02,-1.513150511193345427e+00,7.531833246958193895e-01
9.903704774833717028e-01,-1.003906871937191164e-01,-1.502768731114883627e+00,7.533993973039124770e-01
1.009109478234874180e+00,-1.006662399084329446e-01,-1.499686786840752850e+00,7.506154970473621901e-01
9.853711446606243651e-01,-9.921815063593106276e-02,-1.512129302871222158e+00,7.539640501468367617e-01
1.007303225824563553e+00,-1.008990534372267295e-01,-1.504322516771433360e+00,7.542169184505974622e-01
9.957290250466540593e-01,-9.982067370952234231e-02,-1.502752765111153410e+00,7.484129989092652702e-01
1.001975182811325471e+00,-1.012037455411652492e-01,-1.506765638672121321e+00,7.546420424331181653e-01
9.922846028895371262e-01,-1.000380287763524834e-01,-1.517549993744785608e+00,7.545157736014767025e-01
9.959048979972305871e-01,-1.003963991119276311e-01,-1.502756736758211531e+00,7.510364190072110757e-01
