9.981614351272583008e-01,-1.001625880599021912e-01,-1.508766174316406250e+00,7.535048127174377441e-01
9.981614351272583008e-01,-1.001625880599021912e-01,-1.508766174316406250e+00,7.535048127174377441e-01
9.981614351272583008e-01,-1.001625880599021912e-01,-1.508766174316406250e+00,7.535048127174377441e-01
9.981614351272583008e-01,-1.001625880599021912e-01,-1.508766174316406250e+00,7.535048127174377441e-01
1.000214741740247604e+00,-1.001002868452310068e-01,-1.513227423098256086e+00,7.531440126583248684e-01
9.983438435885657602e-01,-9.979611149251826907e-02,-1.509007765062648332e+00,7.541012770597464998e-01
1.001886442574282388e+00,-1.006231753039729393e-01,-1.504552385857873098e+00,7.526297370789508667e-01
9.973163169936731798e-01,-1.003165268341601885e-01,-1.506271753491434495e+00,7.528663909581587710e-01
9.973163169936731798e-01,-1.003165268341601885e-01,-1.506271753491434495e+00,7.528663909581587710e-01
9.973163169936731798e-01,-1.003165268341601885e-01,-1.506271753491434495e+00,7.528663909581587710e-01
9.937666028146714403e-01,-9.948806811160869346e-02,-1.515631687167031227e+00,7.547681686807511392e-01
9.937666028146714403e-01,-9.948806811160869346e-02,-1.515631687167031227e+00,7.547681686807511392e-01
9.995902948461145021e-01,-1.005188568699014046e-01,-1.500766379473257750e+00,7.516530287792997367e-01
1.000830291651775728e+00,-1.004305795540429286e-01,-1.513689966756054162e+00,7.545556931971995063e-01
1.001004221131383209e+00,-1.005492559923333168e-01,-1.505738861855282273e+00,7.530261227775308930e-01
1.001004221131383209e+00,-1.005492559923333168e-01,-1.505738861855282273e+00,7.530261227775308930e-01
1.001004221131383209e+00,-1.005492559923333168e-01,-1.505738861855282273e+00,7.530261227775308930e-01
1.004408082959315385e+00,-1.003849773581783345e-01,-1.509198039916802125e+00,7.535869124244103379e-01
9.952952276416029420e-01,-9.995044128486137158e-02,-1.504821235246110334e+00,7.527213973582475015e-01
1.000474628461937687e+00,-9.972811144556700813e-02,-1.513042146018092504e+00,7.544221896237582881e-01
9.940721029036952983e-01,-1.004498087531629363e-01,-1.505768237049620595e+00,7.528117130939958601e-01
9.940721029036952983e-01,-1.004498087531629363e-01,-1.505768237049620595e+00,7.528117130939958601e-01
1.004049894566079404e+00,-1.007525344960102931e-01,-1.502619901856173446e+00,7.518067408021950060e-01
1.004049894566079404e+00,-1.007525344960102931e-01,-1.502619901856173446e+00,7.518067408021950060e-01
1.004049894566079404e+00,-1.007525344960102931e-01,-1.502619901856173446e+00,7.518067408021950060e-01
9.942639215373914041e-01,-9.973332250138286503e-02,-1.498740689756748790e+00,7.504296176957993003e-01
9.972749390916217926e-01,-1.007492986421379688e-01,-1.517178738205464228e+00,7.563562187036809714e-01
9.965611739282203008e-01,-9.987586870423176277e-02,-1.499762825518420328e+00,7.501923667455957512e-01
9.960357058370185035e-01,-1.001696402171071421e-01,-1.512645923988253704e+00,7.556093926801841221e-01
1.000065946382716398e+00,-9.988444167477013302e-02,-1.513648953243801110e+00,7.530038919036133871e-01
1.000065946382716398e+00,-9.988444167477013302e-02,-1.513648953243801110e+00,7.530038919036133871e-01
1.000065946382716398e+00,-9.988444167477013302e-02,-1.513648953243801110e+00,7.530038919036133871e-01
9.973197682330240399e-01,-1.002451542754126124e-01,-1.506441034782306732e+00,7.549860180158984857e-01
9.983766887311766869e-01,-9.938521242882944473e-02,-1.515809684993732809e+00,7.538429618389390630e-01
9.983766887311766869e-01,-9.938521242882944473e-02,-1.515809684993732809e+00,7.538429618389390630e-01
9.936720875809019748e-01,-9.988052505402190973e-02,-1.498611926280264184e+00,7.516341788807766600e-01
9.936720875809019748e-01,-9.988052505402190973e-02,-1.498611926280264184e+00,7.516341788807766600e-01
9.936720875809019748e-01,-9.988052505402190973e-02,-1.498611926280264184e+00,7.516341788807766600e-01
9.930990217149859856e-01,-9.971620585045370966e-02,-1.515334414360470339e+00,7.537167373944400062e-01
1.000290202033891740e+00,-1.002243652472170343e-01,-1.501131642331202887e+00,7.517672330058399188e-01
9.947751389869831096e-01,-1.000328110808647308e-01,-1.504028424670869057e+00,7.525123246765438312e-01
9.977909087532876864e-01,-9.991821270010607658e-02,-1.507267595890086742e+00,7.522624162983747587e-01
9.996607189876415278e-01,-1.001682830590622658e-01,-1.503519502297229637e+00,7.544684234850279614e-01
9.950535484783394891e-01,-9.964329259078189005e-02,-1.508851425443330729e+00,7.530088280449530602e-01
9.950535484783394891e-01,-9.964329259078189005e-02,-1.508851425443330729e+00,7.530088280449530602e-01
1.000968262299634093e+00,-1.001831907593733334e-01,-1.509012804498098825e+00,7.545046012995556550e-01
1.000968262299634093e+00,-1.001831907593733334e-01,-1.509012804498098825e+00,7.545046012995556550e-01
9.890514799948085800e-01,-9.995253873025024272e-02,-1.506501150623962282e+00,7.539915208884092612e-01
1.006864095842134654e+00,-1.003876931066888384e-01,-1.512758536397600162e+00,7.541930514867450919e-01
1.006864095842134654e+00,-1.003876931066888384e-01,-1.512758536397600162e+00,7.541930514867450919e-01
9.887665979784888703e-01,-9.983850770908131445e-02,-1.494883646637166219e+00,7.514566940800172512e-01
9.887665979784888703e-01,-9.983850770908131445e-02,-1.494883646637166219e+00,7.514566940800172512e-01
9.983225182103449002e-01,-1.001632232904468567e-01,-1.523676993194221341e+00,7.563913549841118078e-01
9.983225182103449002e-01,-1.001632232904468567e-01,-1.523676993194221341e+00,7.563913549841118078e-01
9.980835732435276997e-01,-1.001376067760911120e-01,-1.505379130987532399e+00,7.545132785599190095e-01
9.909094073312695317e-01,-9.935467445988033219e-02,-1.523956035580287249e+00,7.576753633753561257e-01
9.998447374011615318e-01,-1.007253995414220671e-01,-1.491337977840053730e+00,7.487898742750619396e-01
9.977061790080506976e-01,-9.997589496899797479e-02,-1.525120572931361496e+00,7.570048071689599034e-01
9.977061790080506976e-01,-9.997589496899797479e-02,-1.525120572931361496e+00,7.570048071689599034e-01
9.988310582421559003e-01,-1.004994540227448357e-01,-1.494953912850050859e+00,7.507984985600425487e-01
9.927320451753821606e-01,-9.967170185094843815e-02,-1.519317454579269366e+00,7.546219425149559568e-01
1.009156643384699459e+00,-1.011037435087225461e-01,-1.500348584995242485e+00,7.511776666218585863e-01
9.964085524964614304e-01,-1.002853654815315937e-01,-1.517045480934138935e+00,7.560963104615435748e-01
9.980978255772076091e-01,-1.004169118734797028e-01,-1.497347945605563391e+00,7.478404227522588155e-01
1.000124561665699963e+00,-1.003411917831764921e-01,-1.522363357763874214e+00,7.585144585462157973e-01
9.991487338072433388e-01,-9.989695468895209984e-02,-1.504952542148801697e+00,7.497303355176919704e-01
1.000057523004389326e+00,-1.006444205017391486e-01,-1.514039046481581163e+00,7.554196826153207756e-01
1.005474575465168385e+00,-1.006634617170089896e-01,-1.497601403184606994e+00,7.509079719529929697e-01
1.005474575465168385e+00,-1.006634617170089896e-01,-1.497601403184606994e+00,7.509079719529929697e-01
1.005474575465168385e+00,-1.006634617170089896e-01,-1.497601403184606994e+00,7.509079719529929697e-01
9.992844044106925505e-01,-1.003525820141232816e-01,-1.503255648489809193e+00,7.519657500321884624e-01
9.935203059696759986e-01,-9.993176211681634169e-02,-1.508632397631961775e+00,7.542381114428021727e-01
9.976351199875002074e-01,-1.002479393582834388e-01,-1.508060534122308338e+00,7.540825240605999458e-01
9.961540535718659273e-01,-9.999935167252423096e-02,-1.498227352982438143e+00,7.495088671324044993e-01
9.961540535718659273e-01,-9.999935167252423096e-02,-1.498227352982438143e+00,7.495088671324044993e-01
9.982771850686938953e-01,-1.004464843728787860e-01,-1.499149743635267429e+00,7.510231247840142288e-01
9.926529923526749011e-01,-1.000174344975707785e-01,-1.499937135934750421e+00,7.485209833817699776e-01
1.001546776025650898e+00,-1.002280433618169125e-01,-1.509318922957166409e+00,7.547308466454387688e-01
1.000389613200788341e+00,-1.004660967776355163e-01,-1.502339620855344338e+00,7.495734884792019104e-01
1.000389613200788341e+00,-1.004660967776355163e-01,-1.502339620855344338e+00,7.495734884792019104e-01
1.000389613200788341e+00,-1.004660967776355163e-01,-1.502339620855344338e+00,7.495734884792019104e-01
1.000389613200788341e+00,-1.004660967776355163e-01,-1.502339620855344338e+00,7.495734884792019104e-01
1.000389613200788341e+00,-1.004660967776355163e-01,-1.502339620855344338e+00,7.495734884792019104e-01
9.921250650402825277e-01,-9.941648665507478444e-02,-1.503335106713643565e+00,7.501866166086271770e-01
1.002861381523571405e+00,-1.008832960435365050e-01,-1.506701346134158070e+00,7.520164941189686481e-01
9.901599840282067078e-01,-9.918840887416817409e-02,-1.511385489789311753e+00,7.554301636827459587e-01
9.901599840282067078e-01,-9.918840887416817409e-02,-1.511385489789311753e+00,7.554301636827459587e-01
9.991598457153909596e-01,-1.004671407615803508e-01,-1.523183862379418940e+00,7.551910010966828013e-01
9.991598457153909596e-01,-1.004671407615803508e-01,-1.523183862379418940e+00,7.551910010966828013e-01
9.989776520248705438e-01,-9.997060041757241389e-02,-1.498813759096530029e+00,7.518262373716334546e-01
1.000024726337604308e+00,-9.975689966739824388e-02,-1.508764342826047100e+00,7.531148823033626538e-01
9.909497937082202279e-01,-9.912645888149203277e-02,-1.517249747521970615e+00,7.555175374086769979e-01
9.956482575559583159e-01,-9.990774936110478899e-02,-1.500957985019854002e+00,7.533193733295076022e-01
1.004604712628339502e+00,-1.002517131482610069e-01,-1.507123624150378483e+00,7.537840408708194051e-01
9.886652095381931460e-01,-9.959214700981568191e-02,-1.509517261992583625e+00,7.528261646003421292e-01
9.886652095381931460e-01,-9.959214700981568191e-02,-1.509517261992583625e+00,7.528261646003421292e-01
9.886652095381931460e-01,-9.959214700981568191e-02,-1.509517261992583625e+00,7.528261646003421292e-01
1.008872049616596822e+00,-1.006805167645651033e-01,-1.512905935099077448e+00,7.573273834224527601e-01
1.008872049616596822e+00,-1.006805167645651033e-01,-1.512905935099077448e+00,7.573273834224527601e-01
9.921789202594587520e-01,-9.935332497196806834e-02,-1.500890229566362644e+00,7.477358302587776562e-01
1.001592239650658245e+00,-1.004812466620249867e-01,-1.506952549245516471e+00,7.563574935731441906e-01
9.988485153957232798e-01,-9.998822152430252019e-02,-1.500166030565862174e+00,7.491005170443121308e-01
9.964646572217621401e-01,-1.002807932519770712e-01,-1.504847863185510670e+00,7.539292530357333266e-01
9.984108877107336077e-01,-9.937550814697915236e-02,-1.514420960227239155e+00,7.523468591557045393e-01
1.001135421327278507e+00,-1.000919540621542092e-01,-1.508636615485640098e+00,7.550920427424463455e-01
9.973581240121356384e-01,-1.001350089131087390e-01,-1.503935895963765867e+00,7.507154926590245969e-01
9.992855727685594491e-01,-1.001137863203445527e-01,-1.527090309549470337e+00,7.596021604679149553e-01
1.000620112850188814e+00,-1.002458594472943471e-01,-1.501391560144950343e+00,7.492800472030994863e-01
9.969246697317716288e-01,-9.992246995008259580e-02,-1.524487283012382788e+00,7.582914818318057248e-01
1.001669679465951646e+00,-1.006487904672383055e-01,-1.501865252718483257e+00,7.514818916191124964e-01
1.000707221294672378e+00,-1.001131562618807619e-01,-1.513730980746701871e+00,7.511128515552352169e-01
1.000707221294672378e+00,-1.001131562618807619e-01,-1.513730980746701871e+00,7.511128515552352169e-01
9.893041962093951369e-01,-9.978535010727289378e-02,-1.505778741062508308e+00,7.527893164183933061e-01
1.008747025703546463e+00,-1.010000584576915411e-01,-1.509326637795275428e+00,7.542944582082555804e-01
9.830690994670822080e-01,-9.906038202188258146e-02,-1.510796751727872644e+00,7.540685361999913683e-01
1.008009959708457304e+00,-1.010636489791639087e-01,-1.494141990227451977e+00,7.494460468072443593e-01
1.008009959708457304e+00,-1.010636489791639087e-01,-1.494141990227451977e+00,7.494460468072443593e-01
9.920069159270702430e-01,-9.986130952921801196e-02,-1.516324584214223892e+00,7.557053404435112309e-01
9.999732283989011261e-01,-1.006511208989487038e-01,-1.513580744353645535e+00,7.536081766794791026e-01
9.999732283989011261e-01,-1.006511208989487038e-01,-1.513580744353645535e+00,7.536081766794791026e-01
9.885188542338005924e-01,-9.981630684169671974e-02,-1.516467780812195798e+00,7.544283207028600335e-01
9.885188542338005924e-01,-9.981630684169671974e-02,-1.516467780812195798e+00,7.544283207028600335e-01
9.885188542338005924e-01,-9.981630684169671974e-02,-1.516467780812195798e+00,7.544283207028600335e-01
1.001087724843290117e+00,-1.007745311815302636e-01,-1.518924200079582176e+00,7.564545619400373511e-01
1.001212224624011826e+00,-1.000378563700566603e-01,-1.496620052727585470e+00,7.514912865260142683e-01
9.979164004544541777e-01,-1.006030696760999571e-01,-1.503875471441529887e+00,7.522698291602015752e-01
9.955789650690448633e-01,-9.979366711862723560e-02,-1.512780625879125873e+00,7.518472153347365294e-01
9.955789650690448633e-01,-9.979366711862723560e-02,-1.512780625879125873e+00,7.518472153347365294e-01
9.978851045846739432e-01,-9.994163118363166842e-02,-1.511180446406352740e+00,7.530140736100227050e-01
9.978851045846739432e-01,-9.994163118363166842e-02,-1.511180446406352740e+00,7.530140736100227050e-01
9.964752953530592317e-01,-1.000124166219170663e-01,-1.511262402832520557e+00,7.526505365553000093e-01
1.007259022040964513e+00,-1.006283041000753248e-01,-1.508398179168684905e+00,7.532895494026650152e-01
9.924885849756082123e-01,-9.981244784424228578e-02,-1.508805731651597259e+00,7.539529958024485667e-01
9.953523068860462564e-01,-9.956702372882085539e-02,-1.500516485663643929e+00,7.501830734066834427e-01
1.003067250512357234e+00,-1.010090137217695277e-01,-1.496341449796569911e+00,7.510905610381640729e-01
1.000242061359054802e+00,-9.977270593750874050e-02,-1.519225451177643293e+00,7.550753425434598709e-01
9.878262486235308559e-01,-9.976103682566339614e-02,-1.501370805490949811e+00,7.498556266633229495e-01
1.005790843213025143e+00,-1.006586112284184042e-01,-1.497367438121859795e+00,7.510163786746929526e-01
1.005790843213025143e+00,-1.006586112284184042e-01,-1.497367438121859795e+00,7.510163786746929526e-01
9.943031013789525030e-01,-1.003018621238363633e-01,-1.510788243661095542e+00,7.571227188532616559e-01
9.943031013789525030e-01,-1.003018621238363633e-01,-1.510788243661095542e+00,7.571227188532616559e-01
9.948856454740088173e-01,-1.001394341686916017e-01,-1.503894538699916961e+00,7.514631849480699621e-01
9.994037335137211375e-01,-1.004608934537593173e-01,-1.507878306972935123e+00,7.534816789008411675e-01
9.991434261240972337e-01,-1.003174437134184832e-01,-1.502404875402279627e+00,7.515088911008955819e-01
9.991434261240972337e-01,-1.003174437134184832e-01,-1.502404875402279627e+00,7.515088911008955819e-01
1.002698694814315949e+00,-1.002552202968874651e-01,-1.513014436613678848e+00,7.547382394899302405e-01
9.946183384889338841e-01,-9.951275629396673372e-02,-1.518713718701383941e+00,7.568097503716779695e-01
9.946183384889338841e-01,-9.951275629396673372e-02,-1.518713718701383941e+00,7.568097503716779695e-01
1.001839513098205403e+00,-1.010691484828506598e-01,-1.487632450269978701e+00,7.467499154940032691e-01
9.940578030497795314e-01,-9.948425897605506218e-02,-1.525141975265800642e+00,7.586873740464135096e-01
9.963858943653401967e-01,-9.984096053496697987e-02,-1.492963037538974636e+00,7.473739811945652178e-01
1.006465261979619497e+00,-1.005538740190753261e-01,-1.515657663318516590e+00,7.561398201099227556e-01
9.961897600881712833e-01,-1.004058634606596195e-01,-1.507968381777770484e+00,7.513352297974236205e-01
9.981270085914075718e-01,-1.005389786625463661e-01,-1.506046654030098297e+00,7.548502021048623112e-01
1.000801059765393131e+00,-9.989794196853278574e-02,-1.515112925290241552e+00,7.526268742123399802e-01
9.975719879961678638e-01,-1.000413724646878333e-01,-1.505703231883399607e+00,7.542154519450336991e-01
9.975719879961678638e-01,-1.000413724646878333e-01,-1.505703231883399607e+00,7.542154519450336991e-01
9.961823185026194016e-01,-9.959194196666523724e-02,-1.518477477596552827e+00,7.544361470639960876e-01
9.936264631065214736e-01,-9.972246627704288435e-02,-1.496564291457443963e+00,7.497679970004339500e-01
9.936264631065214736e-01,-9.972246627704288435e-02,-1.496564291457443963e+00,7.497679970004339500e-01
9.980176651836722979e-01,-1.002141056014671655e-01,-1.520512408397556081e+00,7.564628379144074932e-01
1.006023572006218725e+00,-1.008254510536792797e-01,-1.476563148591174546e+00,7.444160565631694482e-01
9.913559206380958555e-01,-9.945423107530053375e-02,-1.525694682906695521e+00,7.541142794228509194e-01
1.004875360006579399e+00,-1.004599466469165980e-01,-1.494477423460479626e+00,7.503249138962816422e-01
9.970440078084850111e-01,-9.985562256910726631e-02,-1.521306403401944785e+00,7.558859778511384242e-01
9.970440078084850111e-01,-9.985562256910726631e-02,-1.521306403401944785e+00,7.558859778511384242e-01
9.967369563107292274e-01,-1.002208337759841611e-01,-1.503493593008159657e+00,7.527347866331890458e-01
1.001971522244801793e+00,-1.003971116650486245e-01,-1.501199483654423794e+00,7.499076860429376712e-01
1.002691905897886038e+00,-1.003436056795698472e-01,-1.516937196778419317e+00,7.550203456503982169e-01
9.875236364999074867e-01,-9.939239767643658074e-02,-1.509948225227587759e+00,7.535520281712417834e-01
1.003783823335665737e+00,-1.002240609625920514e-01,-1.512241757884818405e+00,7.533447870424729853e-01
9.907380993712733286e-01,-9.956331407860706528e-02,-1.510521616140241052e+00,7.547091404511601098e-01
1.001222183669043364e+00,-1.002907009877887501e-01,-1.507079317560357179e+00,7.519708846124137924e-01
9.949765776111819671e-01,-9.985322064184531943e-02,-1.510146654011905509e+00,7.527291437325882573e-01
9.949765776111819671e-01,-9.985322064184531943e-02,-1.510146654011905509e+00,7.527291437325882573e-01
9.949765776111819671e-01,-9.985322064184531943e-02,-1.510146654011905509e+00,7.527291437325882573e-01
9.949765776111819671e-01,-9.985322064184531943e-02,-1.510146654011905509e+00,7.527291437325882573e-01
9.971884958151213674e-01,-9.994536553990661376e-02,-1.511732850729150979e+00,7.556116655293702022e-01
1.003089833899372341e+00,-9.997433275825136356e-02,-1.509073193845562821e+00,7.522843626406737760e-01
9.966504365919400810e-01,-1.004796873989249745e-01,-1.509797980866599776e+00,7.552687668246772512e-01
9.967406085758060419e-01,-9.980719285211096803e-02,-1.507577765609732667e+00,7.517906540136072291e-01
9.942438763581843419e-01,-1.001868047848082366e-01,-1.512691471310355418e+00,7.553677609443782970e-01
9.942438763581843419e-01,-1.001868047848082366e-01,-1.512691471310355418e+00,7.553677609443782970e-01
1.000960767047190503e+00,-1.001567791730991475e-01,-1.496486786656211709e+00,7.488844707877377882e-01
1.001702159416907101e+00,-9.991367742861013979e-02,-1.516490895099670722e+00,7.544352342511481124e-01
1.001702159416907101e+00,-9.991367742861013979e-02,-1.516490895099670722e+00,7.544352342511481124e-01
1.003996264909475578e+00,-1.000105631051192573e-01,-1.500322931266422799e+00,7.528236258086891119e-01
9.932557685771729039e-01,-1.002185246048910711e-01,-1.510067996509039778e+00,7.526672980357282938e-01
9.932557685771729039e-01,-1.002185246048910711e-01,-1.510067996509039778e+00,7.526672980357282938e-01
9.932557685771729039e-01,-1.002185246048910711e-01,-1.510067996509039778e+00,7.526672980357282938e-01
1.005151207377935174e+00,-1.000042285156114708e-01,-1.506594604900755030e+00,7.539773268483948021e-01
1.005151207377935174e+00,-1.000042285156114708e-01,-1.506594604900755030e+00,7.539773268483948021e-01
9.961729330667513649e-01,-9.923805136875367416e-02,-1.510494780562091188e+00,7.523126572863158001e-01
9.961729330667513649e-01,-9.923805136875367416e-02,-1.510494780562091188e+00,7.523126572863158001e-01
9.961729330667513649e-01,-9.923805136875367416e-02,-1.510494780562091188e+00,7.523126572863158001e-01
9.961729330667513649e-01,-9.923805136875367416e-02,-1.510494780562091188e+00,7.523126572863158001e-01
9.997646934830616283e-01,-1.003349100617960954e-01,-1.496860387289710603e+00,7.518909561032509625e-01
1.000363163854215864e+00,-1.005877311243656286e-01,-1.513805227476484827e+00,7.549681578459592757e-01
9.912169932098243708e-01,-9.955400915055184763e-02,-1.507047333623667829e+00,7.519773562433803571e-01
1.005449496339668292e+00,-1.001011821785293548e-01,-1.516228287826698606e+00,7.568868816366144392e-01
9.972837920115548149e-01,-9.994638826430103651e-02,-1.501514193528002750e+00,7.509180351742315018e-01
1.002096021005305371e+00,-1.003337981718226135e-01,-1.516847672837510430e+00,7.557375360354100513e-01
1.002096021005305371e+00,-1.003337981718226135e-01,-1.516847672837510430e+00,7.557375360354100513e-01
9.951529996533318156e-01,-1.001432102410670377e-01,-1.505372025897469657e+00,7.534368697622795263e-01
9.951529996533318156e-01,-1.001432102410670377e-01,-1.505372025897469657e+00,7.534368697622795263e-01
9.941022565463651928e-01,-1.001568745944399763e-01,-1.506513744757607798e+00,7.517160172402849172e-01
9.981391719983808697e-01,-1.003143022597212664e-01,-1.507501666149357211e+00,7.517993349711286077e-01
9.904863660687519555e-01,-9.928726350256789068e-02,-1.507467214159691649e+00,7.515154092131927088e-01
1.007856748048148843e+00,-1.011914664308636164e-01,-1.524171549884768107e+00,7.588316076489437512e-01
9.865492870574970041e-01,-9.945500627460861220e-02,-1.506177313584709632e+00,7.503505257615444846e-01
1.003565995187620352e+00,-1.005869369243291150e-01,-1.506421586214128139e+00,7.515362543903010284e-01
9.896118573845100741e-01,-1.004338407937262895e-01,-1.512109058629754532e+00,7.547951696816069811e-01
9.896118573845100741e-01,-1.004338407937262895e-01,-1.512109058629754532e+00,7.547951696816069811e-01
1.003814533685079002e+00,-1.002396050014112000e-01,-1.492940629326607871e+00,7.500636009730605736e-01
9.942003529574970910e-01,-9.934812725617599150e-02,-1.529760253312388407e+00,7.600508787212920669e-01
1.001839252187910034e+00,-1.001596632772791262e-01,-1.485536209657448703e+00,7.432182290836479854e-01
9.886961219354061248e-01,-9.932755490359787554e-02,-1.535710500908174847e+00,7.591898557555943894e-01
9.954714754081476213e-01,-1.000399165651048722e-01,-1.503040871874605777e+00,7.533271491941496700e-01
1.003265318365176961e+00,-1.010051092376647031e-01,-1.518365594188188172e+00,7.557503321453925560e-01
9.940326005848564295e-01,-1.004288615649424621e-01,-1.503358982899563046e+00,7.534900678870477542e-01
9.981422536095664322e-01,-1.006295145208245811e-01,-1.506736846330149815e+00,7.531458297669754165e-01
9.992373564904262206e-01,-1.008096994535163937e-01,-1.510725636496277557e+00,7.559719328487890522e-01
9.961492080842507812e-01,-1.002638187880309228e-01,-1.506224461609348753e+00,7.536703296722858658e-01
9.964289296761622561e-01,-1.001274398846963981e-01,-1.517580464385900330e+00,7.577662239357292329e-01
9.969682162192872177e-01,-1.004219864428465975e-01,-1.504627089640704796e+00,7.522855969471837767e-01
9.979436524859982560e-01,-1.001986270728397327e-01,-1.516947438556538685e+00,7.543946230043322432e-01
9.997009254982459625e-01,-1.003635104640945991e-01,-1.491904791765619631e+00,7.488418210373024575e-01
1.001144545548627862e+00,-1.005089711455971063e-01,-1.522073105770688217e+00,7.577375002006799809e-01
1.001144545548627862e+00,-1.005089711455971063e-01,-1.522073105770688217e+00,7.577375002006799809e-01
9.956476646405407749e-01,-9.975147817460384980e-02,-1.492411418610409823e+00,7.461502046023518187e-01
9.956476646405407749e-01,-9.975147817460384980e-02,-1.492411418610409823e+00,7.461502046023518187e-01
1.003706023721829377e+00,-1.009062448207372481e-01,-1.523045273084563611e+00,7.597315673544352554e-01
9.871422158969475058e-01,-9.962242088192070633e-02,-1.494938076630675905e+00,7.484258843279820717e-01
1.002449790920860284e+00,-1.008680149070304705e-01,-1.507384730996211841e+00,7.562508502894174089e-01
9.995757978616235384e-01,-9.981888960214325979e-02,-1.503895955966163989e+00,7.487659276779824458e-01
9.995757978616235384e-01,-9.981888960214325979e-02,-1.503895955966163989e+00,7.487659276779824458e-01
9.992226693217095557e-01,-1.000941471825153861e-01,-1.507065580328075693e+00,7.561558372860653909e-01
9.995480747793323850e-01,-1.001495160797519074e-01,-1.523094615573152399e+00,7.538667365477056403e-01
9.995480747793323850e-01,-1.001495160797519074e-01,-1.523094615573152399e+00,7.538667365477056403e-01
9.950673328887879032e-01,-1.009804874035056671e-01,-1.489106812693367310e+00,7.520831999682006108e-01
1.004887323790855103e+00,-1.000386247134422701e-01,-1.519071370405393306e+00,7.532513484708773799e-01
1.000032203114652019e+00,-1.001766311525119496e-01,-1.503532160720745248e+00,7.545070942309106687e-01
9.992649990627917589e-01,-1.002785937423558843e-01,-1.509273455163947286e+00,7.507684327246161304e-01
9.992649990627917589e-01,-1.002785937423558843e-01,-1.509273455163947286e+00,7.507684327246161304e-01
9.992649990627917589e-01,-1.002785937423558843e-01,-1.509273455163947286e+00,7.507684327246161304e-01
9.992649990627917589e-01,-1.002785937423558843e-01,-1.509273455163947286e+00,7.507684327246161304e-01
1.000843131294483213e+00,-1.003522793168411115e-01,-1.495285338865548930e+00,7.519385346180770258e-01
1.002153315703384395e+00,-1.000746362537820316e-01,-1.520497286698965667e+00,7.558402490800466555e-01
1.000897131771993021e+00,-1.003181395871171888e-01,-1.497670926026443583e+00,7.509755254804876268e-01
1.004015839828051870e+00,-1.010633134639318947e-01,-1.503744140868310097e+00,7.499296615448816095e-01
9.923624385164779849e-01,-1.005818219431523497e-01,-1.508850225051507898e+00,7.573051124080012464e-01
1.001709928976934671e+00,-1.003124668160454425e-01,-1.510126395972080315e+00,7.517337314805515591e-01
9.935572305743669563e-01,-1.003211374465852734e-01,-1.505986169163539223e+00,7.544153726509883473e-01
9.988182501691805770e-01,-9.973836815546056889e-02,-1.508412283461467052e+00,7.518023959201484141e-01
9.988182501691805770e-01,-9.973836815546056889e-02,-1.508412283461467052e+00,7.518023959201484141e-01
9.931781064132717551e-01,-1.000202457416563273e-01,-1.523500527321102638e+00,7.555736280147010708e-01
1.007143906276194656e+00,-1.005778357084979452e-01,-1.492163568843209109e+00,7.512991926664003284e-01
1.007143906276194656e+00,-1.005778357084979452e-01,-1.492163568843209109e+00,7.512991926664003284e-01
9.901966050192219093e-01,-1.000233394021125544e-01,-1.515503193204803534e+00,7.544410534525135548e-01
9.901966050192219093e-01,-1.000233394021125544e-01,-1.515503193204803534e+00,7.544410534525135548e-01
1.006130600227779004e+00,-1.008338548934591405e-01,-1.490948173121093401e+00,7.477873727552065697e-01
9.905793219664293936e-01,-9.931418119174635628e-02,-1.524704045918986894e+00,7.572935327811872730e-01
9.905793219664293936e-01,-9.931418119174635628e-02,-1.524704045918986894e+00,7.572935327811872730e-01
9.993422330299492895e-01,-1.009052541946977577e-01,-1.489546373890771713e+00,7.479115870114865228e-01
9.945105857470136757e-01,-9.921641646174617080e-02,-1.519082806559189702e+00,7.554539127880551819e-01
9.980811971441135855e-01,-9.942365833557198496e-02,-1.500711380357532265e+00,7.502414198167344228e-01
1.004285495495437885e+00,-1.007685587882479195e-01,-1.503734157948278582e+00,7.507334571989081606e-01
1.004285495495437885e+00,-1.007685587882479195e-01,-1.503734157948278582e+00,7.507334571989081606e-01
9.990511809126141340e-01,-1.004371686399949809e-01,-1.512034532718527835e+00,7.558726160633320035e-01
9.953842020346237440e-01,-9.966930700768962537e-02,-1.507161739841363257e+00,7.527235032135229931e-01
9.953842020346237440e-01,-9.966930700768962537e-02,-1.507161739841363257e+00,7.527235032135229931e-01
9.943397464954601972e-01,-9.978751751185967189e-02,-1.517700475516047698e+00,7.543353042615068560e-01
9.971079204957372655e-01,-1.003097066515404173e-01,-1.505109572085746361e+00,7.523215077995614175e-01
1.009648281637685274e+00,-1.005391201182917332e-01,-1.506171639359356274e+00,7.533883564021711665e-01
9.890991123517937078e-01,-1.000042869994686445e-01,-1.515819763718294411e+00,7.550625458788774447e-01
1.005439671085959441e+00,-1.001509294750721202e-01,-1.498845075465326193e+00,7.499089778536612849e-01
9.893536594589561473e-01,-9.928680751866478249e-02,-1.511573759304093878e+00,7.565052701224325160e-01
1.007507847251298827e+00,-1.007836514280066043e-01,-1.498736053148145952e+00,7.501911599580892709e-01
9.971186201918937897e-01,-1.000621383131275743e-01,-1.518494454022930151e+00,7.571318694032939112e-01
9.963559900564481486e-01,-9.999726645000767133e-02,-1.501727084096976306e+00,7.511081689754118829e-01
9.959188448688076623e-01,-9.992407335908223831e-02,-1.512904603650229829e+00,7.529274679732212983e-01
9.999911630132627405e-01,-1.003174441679635515e-01,-1.506724297622494380e+00,7.540370328093586316e-01
9.954685837317395203e-01,-9.976438792448166781e-02,-1.521020682432794757e+00,7.548759917014237208e-01
9.963598277711693818e-01,-1.004453034726585925e-01,-1.502536494125056077e+00,7.538329904755235455e-01
9.986577865084531602e-01,-9.982765677107523217e-02,-1.513761661751062970e+00,7.535768288425035433e-01
1.002395216598327421e+00,-1.006319478429927583e-01,-1.500484488627596757e+00,7.525312174514420249e-01
9.893315248333234280e-01,-9.925119744151958412e-02,-1.516240283019841373e+00,7.560698402015322284e-01
9.893315248333234280e-01,-9.925119744151958412e-02,-1.516240283019841373e+00,7.560698402015322284e-01
9.979064323180252272e-01,-9.981532019155645030e-02,-1.494261068314994390e+00,7.496376652691280063e-01
1.006667622965859099e+00,-1.001351518845461780e-01,-1.519206520164216201e+00,7.567343133240292952e-01
9.962583363183615814e-01,-1.000823881245208602e-01,-1.493369359595193568e+00,7.493287652422727652e-01
9.962583363183615814e-01,-1.000823881245208602e-01,-1.493369359595193568e+00,7.493287652422727652e-01
1.002381454974940356e+00,-1.005557595153817041e-01,-1.525570096783343432e+00,7.576788451790699153e-01
9.992917003117205432e-01,-1.008600000259291113e-01,-1.496361723557221968e+00,7.502183954055509085e-01
9.968730454190226631e-01,-1.004477771045949736e-01,-1.507426694865117156e+00,7.522359883566337446e-01
9.968730454190226631e-01,-1.004477771045949736e-01,-1.507426694865117156e+00,7.522359883566337446e-01
9.985111837831639470e-01,-1.004268396387800050e-01,-1.515596728109793512e+00,7.548979301761192806e-01
9.985111837831639470e-01,-1.004268396387800050e-01,-1.515596728109793512e+00,7.548979301761192806e-01
1.006286424446684036e+00,-1.004766695291373080e-01,-1.507632319019954092e+00,7.526386768372113067e-01
9.913023151823069368e-01,-9.971557410356646223e-02,-1.517247421831203535e+00,7.554070370938137380e-01
1.004303037484934213e+00,-1.007210689506365664e-01,-1.500106303619406223e+00,7.512995288698004481e-01
9.939698522910070944e-01,-1.000402579320518320e-01,-1.503135787399483947e+00,7.513503825123898361e-01
9.939698522910070944e-01,-1.000402579320518320e-01,-1.503135787399483947e+00,7.513503825123898361e-01
1.007075545616000767e+00,-1.005941303039569884e-01,-1.502272979961974730e+00,7.524478399481870916e-01
9.863572141808292226e-01,-9.936342131249481513e-02,-1.518907757181890972e+00,7.549865021410373522e-01
1.009221437509894237e+00,-1.013344284568250125e-01,-1.494409412804957871e+00,7.521965871829462413e-01
9.901739812946094288e-01,-9.978990882507941806e-02,-1.520772407155901895e+00,7.559175359118918136e-01
9.901739812946094288e-01,-9.978990882507941806e-02,-1.520772407155901895e+00,7.559175359118918136e-01
1.002141666973976220e+00,-1.008379218801779414e-01,-1.492683859380353084e+00,7.495555919600431771e-01
9.953899665379875028e-01,-9.973083716910335905e-02,-1.513408927455466957e+00,7.534460947367970229e-01
9.953899665379875028e-01,-9.973083716910335905e-02,-1.513408927455466957e+00,7.534460947367970229e-01
9.993307235115497233e-01,-1.004813149953670270e-01,-1.500550831994163392e+00,7.531388331689503612e-01
9.972302030322290900e-01,-9.961290893479589348e-02,-1.513109670287400288e+00,7.533757990819465178e-01
9.972302030322290900e-01,-9.961290893479589348e-02,-1.513109670287400288e+00,7.533757990819465178e-01
9.989434426440705339e-01,-9.952601321694640180e-02,-1.513004681619505076e+00,7.549261745067005203e-01
9.989434426440705339e-01,-9.952601321694640180e-02,-1.513004681619505076e+00,7.549261745067005203e-01
9.989434426440705339e-01,-9.952601321694640180e-02,-1.513004681619505076e+00,7.549261745067005203e-01
9.989434426440705339e-01,-9.952601321694640180e-02,-1.513004681619505076e+00,7.549261745067005203e-01
9.989434426440705339e-01,-9.952601321694640180e-02,-1.513004681619505076e+00,7.549261745067005203e-01
9.989434426440705339e-01,-9.952601321694640180e-02,-1.513004681619505076e+00,7.549261745067005203e-01
9.935206038145858454e-01,-9.972823872224230446e-02,-1.508454998696271643e+00,7.544998979434662800e-01
9.975992582823316468e-01,-1.001243476276708066e-01,-1.508409877256815523e+00,7.523741643262926715e-01
1.001932420951671565e+00,-1.011835437776948815e-01,-1.503482574041764552e+00,7.517592635649854582e-01
9.933570918051471965e-01,-1.005677552860909235e-01,-1.512334340313249870e+00,7.539361348390394291e-01
9.993215184100042725e-01,-1.008303576849943900e-01,-1.521047523896361886e+00,7.569324528321732526e-01
1.002272654771911409e+00,-1.006489390691351488e-01,-1.500345365717952850e+00,7.501141054744946413e-01
1.002272654771911409e+00,-1.006489390691351488e-01,-1.500345365717952850e+00,7.501141054744946413e-01
1.002272654771911409e+00,-1.006489390691351488e-01,-1.500345365717952850e+00,7.501141054744946413e-01
1.002798228781806911e+00,-1.008816938969220034e-01,-1.500077538170039748e+00,7.515857773639100792e-01
9.987546660124004827e-01,-1.000217668843832869e-01,-1.515360572247359094e+00,7.548652331426943807e-01
9.983811802150531767e-01,-1.003198074106594895e-01,-1.497129227772503679e+00,7.506546801158925364e-01
9.947481351047564591e-01,-9.956535870755360562e-02,-1.520430594624162524e+00,7.559417864344923910e-01
9.959326478187500165e-01,-1.002621186006855958e-01,-1.516840671942793373e+00,7.569243186402407897e-01
1.002923336807585608e+00,-1.000048362056612655e-01,-1.499707197877880649e+00,7.508733405306273756e-01
9.934960057029805780e-01,-1.002860219091701727e-01,-1.506041586232700125e+00,7.531469304279656551e-01
1.003188600741155234e+00,-1.003218878769150252e-01,-1.498495274243559772e+00,7.512414173401096296e-01
1.003188600741155234e+00,-1.003218878769150252e-01,-1.498495274243559772e+00,7.512414173401096296e-01
9.976925914485295088e-01,-1.005228596263350316e-01,-1.521776299199989912e+00,7.585109828421036093e-01
9.891022696976617956e-01,-1.000766811332225309e-01,-1.514225967846617671e+00,7.547002358397719712e-01
1.002132308788193260e+00,-1.012822267549215588e-01,-1.501861803313058408e+00,7.535997282035876710e-01
1.002132308788193260e+00,-1.012822267549215588e-01,-1.501861803313058408e+00,7.535997282035876710e-01
1.003419721883859195e+00,-1.000433644472027844e-01,-1.511127048906750092e+00,7.529942537905536248e-01
9.905745621725383643e-01,-9.959402469787048684e-02,-1.515488714489522382e+00,7.541235151893633804e-01
1.003905084400593895e+00,-1.005058009143354053e-01,-1.515884821779060809e+00,7.559334056966051651e-01
9.965459819656125040e-01,-9.981428198532697749e-02,-1.499339674600360661e+00,7.504430345332894214e-01
1.001928842837038758e+00,-1.000353223258015206e-01,-1.507906582166935516e+00,7.528854040696149053e-01
9.957664397645609178e-01,-9.981524898744935370e-02,-1.525218885557438009e+00,7.576268697547778874e-01
9.999005879103664007e-01,-1.003940490574940503e-01,-1.498850625057201125e+00,7.521575946074907648e-01
9.999005879103664007e-01,-1.003940490574940503e-01,-1.498850625057201125e+00,7.521575946074907648e-01
9.986123932147681348e-01,-1.001636487393009478e-01,-1.510803053961994546e+00,7.529300411008545968e-01
1.001176243811373601e+00,-1.005297618696098100e-01,-1.498556213601279774e+00,7.516729376466891877e-01
1.001093495072826745e+00,-1.003613943792933116e-01,-1.508997691212867087e+00,7.534926666178314303e-01
1.001093495072826745e+00,-1.003613943792933116e-01,-1.508997691212867087e+00,7.534926666178314303e-01
9.977523900162441617e-01,-1.005662816158245793e-01,-1.500565004176214634e+00,7.501954692892025545e-01
1.005501050296478072e+00,-1.011718873438589988e-01,-1.499705857084791649e+00,7.506824066664785633e-01
9.965192735369082788e-01,-1.004459607715424696e-01,-1.511393941411032005e+00,7.548135900151853317e-01
9.969476557406528050e-01,-9.981732460292529197e-02,-1.508313979764780877e+00,7.533878892797949423e-01
1.000186116063165542e+00,-1.002194268439309671e-01,-1.510224242209293743e+00,7.547373863319251086e-01
1.001948497361317969e+00,-1.005176124764073087e-01,-1.504890133331824753e+00,7.518367128220132534e-01
9.957323873353615129e-01,-1.000581072657365234e-01,-1.510852595983828373e+00,7.531476495338319532e-01
9.957323873353615129e-01,-1.000581072657365234e-01,-1.510852595983828373e+00,7.531476495338319532e-01
9.924685916997071367e-01,-1.000113358930031227e-01,-1.501931000775509339e+00,7.520236688146324511e-01
9.924685916997071367e-01,-1.000113358930031227e-01,-1.501931000775509339e+00,7.520236688146324511e-01
1.003287753446577835e+00,-1.001896266098677712e-01,-1.512336393642524035e+00,7.534343545199617687e-01
1.003287753446577835e+00,-1.001896266098677712e-01,-1.512336393642524035e+00,7.534343545199617687e-01
9.974581940420642612e-01,-9.963919978342526684e-02,-1.510559234324518663e+00,7.548623775672951286e-01
1.000424513630146617e+00,-1.008884282546998606e-01,-1.501856096460868928e+00,7.528949105841286071e-01
9.899143274920702007e-01,-9.916170618167315098e-02,-1.519737526324230092e+00,7.548177250996753740e-01
1.005793768935547394e+00,-1.010444625249676404e-01,-1.497849373282575502e+00,7.518739961515447101e-01
9.997884115217682277e-01,-9.975420853684963118e-02,-1.516877071546869793e+00,7.532067649282958577e-01
9.931046754675303401e-01,-1.004322526816452399e-01,-1.508071827409114052e+00,7.559190704399905147e-01
1.000366559680053058e+00,-1.000416011253243004e-01,-1.515296423004125037e+00,7.544851325200814252e-01
1.000366559680053058e+00,-1.000416011253243004e-01,-1.515296423004125037e+00,7.544851325200814252e-01
9.942460458851999361e-01,-1.000586654817972598e-01,-1.505595316156526087e+00,7.531696545850089519e-01
9.942460458851999361e-01,-1.000586654817972598e-01,-1.505595316156526087e+00,7.531696545850089519e-01
9.942460458851999361e-01,-1.000586654817972598e-01,-1.505595316156526087e+00,7.531696545850089519e-01
9.942460458851999361e-01,-1.000586654817972598e-01,-1.505595316156526087e+00,7.531696545850089519e-01
1.001054040754394858e+00,-1.002295713410485817e-01,-1.506803099183456895e+00,7.529415361642627369e-01
1.001054040754394858e+00,-1.002295713410485817e-01,-1.506803099183456895e+00,7.529415361642627369e-01
1.001054040754394858e+00,-1.002295713410485817e-01,-1.506803099183456895e+00,7.529415361642627369e-01
1.001054040754394858e+00,-1.002295713410485817e-01,-1.506803099183456895e+00,7.529415361642627369e-01
1.001054040754394858e+00,-1.002295713410485817e-01,-1.506803099183456895e+00,7.529415361642627369e-01
1.001054040754394858e+00,-1.002295713410485817e-01,-1.506803099183456895e+00,7.529415361642627369e-01
1.001054040754394858e+00,-1.002295713410485817e-01,-1.506803099183456895e+00,7.529415361642627369e-01
1.001054040754394858e+00,-1.002295713410485817e-01,-1.506803099183456895e+00,7.529415361642627369e-01
9.965539678627884923e-01,-9.962414544663844573e-02,-1.524891371409922147e+00,7.556503321568801557e-01
1.000801405117579090e+00,-1.007213430932605985e-01,-1.494921253579932996e+00,7.510551629383762640e-01
1.000020191441336914e+00,-1.003861514449773673e-01,-1.527651720280480241e+00,7.597125457537131643e-01
1.000020191441336914e+00,-1.003861514449773673e-01,-1.527651720280480241e+00,7.597125457537131643e-01
9.922501933038612165e-01,-1.000689913244075385e-01,-1.493075783528330147e+00,7.479074772871203702e-01
9.987471946214006024e-01,-1.001475776088182612e-01,-1.516593141386270993e+00,7.554625649837171109e-01
9.931421509540290238e-01,-1.002037627373362216e-01,-1.502025256985413337e+00,7.522780880600801190e-01
9.978695432970283719e-01,-1.000854602926042614e-01,-1.504159643052807249e+00,7.517431350205947549e-01
1.001475491594961742e+00,-1.003810841443890933e-01,-1.501698707259060184e+00,7.517603756414230620e-01
9.913218130032280806e-01,-9.943729751818532192e-02,-1.520403073796729787e+00,7.559942817411360316e-01
9.944640179281235559e-01,-1.002064713833405174e-01,-1.496622052040343487e+00,7.507917977006287602e-01
9.944640179281235559e-01,-1.002064713833405174e-01,-1.496622052040343487e+00,7.507917977006287602e-01
9.978613651517728167e-01,-1.003569734187651635e-01,-1.522652770445027226e+00,7.578257385990923023e-01
9.937239378799050948e-01,-1.002424232157943240e-01,-1.488379749871303170e+00,7.480125406474023020e-01
1.001720417441781530e+00,-1.007424136886479055e-01,-1.511588876301105167e+00,7.549863264672389551e-01
1.000466472095568271e+00,-1.006234125296065901e-01,-1.509796156150907231e+00,7.530944212866670373e-01
9.965296819002963380e-01,-1.004879896535346567e-01,-1.498879358563979247e+00,7.508906382564378701e-01
9.965296819002963380e-01,-1.004879896535346567e-01,-1.498879358563979247e+00,7.508906382564378701e-01
1.003689706694382844e+00,-1.005942855268520536e-01,-1.521127824513251570e+00,7.572421562384356042e-01
9.888050930767947611e-01,-9.967420848919562870e-02,-1.494126884728341320e+00,7.474899221983661857e-01
1.002448540447651304e+00,-1.005895539822662249e-01,-1.524085401165636844e+00,7.612543799669938549e-01
9.934036220184913057e-01,-9.963133113602047619e-02,-1.492574972410846135e+00,7.481479876804431051e-01
1.005025480883482869e+00,-1.000044297097265333e-01,-1.534277255183779998e+00,7.604811338514703145e-01
9.958593077474748867e-01,-9.970101853147524118e-02,-1.499401617573852930e+00,7.510337842014123133e-01
9.958593077474748867e-01,-9.970101853147524118e-02,-1.499401617573852930e+00,7.510337842014123133e-01
9.984425451609574287e-01,-9.981185659720413772e-02,-1.532016637433666562e+00,7.588282078767634165e-01
1.000520656961831456e+00,-1.005884687698045815e-01,-1.497926802416133851e+00,7.525069768252539149e-01
9.879625383502902425e-01,-9.916709253491104437e-02,-1.515713320193633029e+00,7.533026565359507432e-01
1.003873329563733430e+00,-1.006146385905627161e-01,-1.506150550782256348e+00,7.559037564653930952e-01
1.003873329563733430e+00,-1.006146385905627161e-01,-1.506150550782256348e+00,7.559037564653930952e-01
1.003873329563733430e+00,-1.006146385905627161e-01,-1.506150550782256348e+00,7.559037564653930952e-01
9.946405233650545963e-01,-9.966337755590784497e-02,-1.508455792194219214e+00,7.529713654814064183e-01
9.946405233650545963e-01,-9.966337755590784497e-02,-1.508455792194219214e+00,7.529713654814064183e-01
1.000749808074003600e+00,-1.004255236147691271e-01,-1.519859117029903395e+00,7.569648491632291476e-01
9.942059492249916142e-01,-9.978960479128300143e-02,-1.508710511604547388e+00,7.519592357281985606e-01
9.942059492249916142e-01,-9.978960479128300143e-02,-1.508710511604547388e+00,7.519592357281985606e-01
9.942059492249916142e-01,-9.978960479128300143e-02,-1.508710511604547388e+00,7.519592357281985606e-01
1.006353782353337722e+00,-1.007941584485387981e-01,-1.504651815624318045e+00,7.536640472791357181e-01
9.923636219484622822e-01,-9.923659838388225463e-02,-1.516470338658842065e+00,7.543999367883188478e-01
1.004424544803133923e+00,-1.011305597130653516e-01,-1.505308639814242344e+00,7.540415989451536571e-01
9.900803004632164894e-01,-9.997229733234327953e-02,-1.515752336560691083e+00,7.531781759233632245e-01
1.004812454021074331e+00,-1.002401851784475439e-01,-1.494395566166429656e+00,7.515714853189728872e-01
9.991743116690322557e-01,-1.009867202995409358e-01,-1.523977289291142956e+00,7.557201742920123255e-01
9.978144251795140196e-01,-1.011955807120511475e-01,-1.503690333349465114e+00,7.518646069456261793e-01
1.006414310746979401e+00,-1.004842356533840325e-01,-1.519058297298963911e+00,7.553218334796969469e-01
9.871238591794646577e-01,-1.000224497335533702e-01,-1.507871052471315698e+00,7.561526967404859079e-01
9.871238591794646577e-01,-1.000224497335533702e-01,-1.507871052471315698e+00,7.561526967404859079e-01
9.871238591794646577e-01,-1.000224497335533702e-01,-1.507871052471315698e+00,7.561526967404859079e-01
1.001735837591816169e+00,-9.990504533990551828e-02,-1.518695621247152516e+00,7.549393029767700325e-01
1.002706328918691270e+00,-1.010758625803776928e-01,-1.494997877137675735e+00,7.495273107170049576e-01
9.958308215087708914e-01,-9.962946804300670811e-02,-1.509937488719263143e+00,7.559356842589994852e-01
9.980638276797572095e-01,-1.004841923895522238e-01,-1.502788492543105425e+00,7.527998422339613471e-01
9.980638276797572095e-01,-1.004841923895522238e-01,-1.502788492543105425e+00,7.527998422339613471e-01
9.980638276797572095e-01,-1.004841923895522238e-01,-1.502788492543105425e+00,7.527998422339613471e-01
9.922890233410609495e-01,-9.921701461710388803e-02,-1.516371203877005636e+00,7.538364739426318684e-01
1.001336896033735435e+00,-1.011405710131160623e-01,-1.488229640711335788e+00,7.491821279124700750e-01
1.001336896033735435e+00,-1.011405710131160623e-01,-1.488229640711335788e+00,7.491821279124700750e-01
1.001336896033735435e+00,-1.011405710131160623e-01,-1.488229640711335788e+00,7.491821279124700750e-01
1.001336896033735435e+00,-1.011405710131160623e-01,-1.488229640711335788e+00,7.491821279124700750e-01
1.001336896033735435e+00,-1.011405710131160623e-01,-1.488229640711335788e+00,7.491821279124700750e-01
9.953354580498937620e-01,-9.993402823717198458e-02,-1.530708748252847418e+00,7.587267584497637829e-01
9.984851834193716469e-01,-1.005279013772847202e-01,-1.494252431101922074e+00,7.495594027665286596e-01
9.984851834193716469e-01,-1.005279013772847202e-01,-1.494252431101922074e+00,7.495594027665286596e-01
1.001869164555357461e+00,-1.006332971033339074e-01,-1.517922067539903219e+00,7.571185522267620538e-01
1.009870056175198094e+00,-1.006414345300541413e-01,-1.500766427538711811e+00,7.492372273830602003e-01
1.009870056175198094e+00,-1.006414345300541413e-01,-1.500766427538711811e+00,7.492372273830602003e-01
9.889975296614895717e-01,-9.993521480616998631e-02,-1.517360587522305737e+00,7.570298567178562754e-01
9.889975296614895717e-01,-9.993521480616998631e-02,-1.517360587522305737e+00,7.570298567178562754e-01
9.998876236560263475e-01,-1.003640305887512213e-01,-1.499080563137917377e+00,7.507252613436531385e-01
9.998876236560263475e-01,-1.003640305887512213e-01,-1.499080563137917377e+00,7.507252613436531385e-01
9.996272567154601552e-01,-1.006105552572014450e-01,-1.500357979194370861e+00,7.541082690055671556e-01
9.996272567154601552e-01,-1.006105552572014450e-01,-1.500357979194370861e+00,7.541082690055671556e-01
9.932633204931944348e-01,-9.970786790045750581e-02,-1.506097889877417995e+00,7.516711691664539341e-01
1.000222626947239402e+00,-1.001603924471159840e-01,-1.502758245873820897e+00,7.541223953184083006e-01
9.933272037302056656e-01,-9.954408000843685544e-02,-1.515485476213232374e+00,7.534518186639620474e-01
9.915677855165199173e-01,-9.967011942929733526e-02,-1.503889215607379537e+00,7.517334030956390745e-01
9.915677855165199173e-01,-9.967011942929733526e-02,-1.503889215607379537e+00,7.517334030956390745e-01
1.011564514412103044e+00,-1.010157015811626036e-01,-1.513479062776449169e+00,7.563303403996648466e-01
1.011564514412103044e+00,-1.010157015811626036e-01,-1.513479062776449169e+00,7.563303403996648466e-01
9.924564671059665777e-01,-9.957459240225760566e-02,-1.509703143773845957e+00,7.527051908943492853e-01
9.924564671059665777e-01,-9.957459240225760566e-02,-1.509703143773845957e+00,7.527051908943492853e-01
9.969021573296726890e-01,-9.983036035131505337e-02,-1.516434176540449208e+00,7.552315667770537200e-01
9.969021573296726890e-01,-9.983036035131505337e-02,-1.516434176540449208e+00,7.552315667770537200e-01
9.998086070675346049e-01,-1.003935297088378170e-01,-1.497440235636253947e+00,7.501177094892432784e-01
1.005038809377297282e+00,-1.008179818144896989e-01,-1.515506741623774412e+00,7.545956062169681955e-01
1.000019031611134146e+00,-9.987720415350968828e-02,-1.506260463893919654e+00,7.547464919864416144e-01
9.951434261572631446e-01,-9.937398077028229693e-02,-1.521785950749642957e+00,7.560019604187138142e-01
9.991620226884685430e-01,-9.989569688233028433e-02,-1.498002133975199657e+00,7.499459243500733452e-01
1.004743734860198634e+00,-1.002594124116954893e-01,-1.503340291231074932e+00,7.535355242794603559e-01
9.943767673374356297e-01,-1.005790563169592089e-01,-1.507876754683270759e+00,7.545351388967959094e-01
9.990565835047855447e-01,-1.008096579991438757e-01,-1.523612650483984643e+00,7.601784382645800919e-01
9.988024019194793324e-01,-1.005467180008678546e-01,-1.497180268972294170e+00,7.485416512508751286e-01
1.001597787326072853e+00,-1.006427608186158951e-01,-1.523505716627635787e+00,7.584192102410860503e-01
9.872335891491943460e-01,-9.978218621361385765e-02,-1.495747278174523576e+00,7.487391414158799385e-01
9.872335891491943460e-01,-9.978218621361385765e-02,-1.495747278174523576e+00,7.487391414158799385e-01
1.003864260419724541e+00,-1.007799550916417403e-01,-1.512323042606727119e+00,7.561551542695027495e-01
1.003864260419724541e+00,-1.007799550916417403e-01,-1.512323042606727119e+00,7.561551542695027495e-01
9.956109544755017415e-01,-1.001423920742171847e-01,-1.499826067333378976e+00,7.496861029245012187e-01
9.982753094614584821e-01,-1.004446998214297004e-01,-1.506061708772632901e+00,7.546145175298868413e-01
9.998035034003820432e-01,-1.003739296625257571e-01,-1.510846743099825362e+00,7.548220722213430101e-01
9.998035034003820432e-01,-1.003739296625257571e-01,-1.510846743099825362e+00,7.548220722213430101e-01
1.000719084245792256e+00,-1.002583514356543554e-01,-1.511201334144904207e+00,7.538843709522722314e-01
9.990269552911431594e-01,-1.004227312142185330e-01,-1.511670010743012549e+00,7.555244228213157109e-01
1.005316625591649693e+00,-1.003454722763344742e-01,-1.516118681063890028e+00,7.546781405468110382e-01
9.940473763039874289e-01,-1.001485007145657274e-01,-1.502769128803249865e+00,7.526519979646014713e-01
9.982486345837719988e-01,-1.000656962424045920e-01,-1.513092312727280397e+00,7.535509974953469303e-01
9.988433114935962864e-01,-1.003512291878425888e-01,-1.513778442668247237e+00,7.560559002920429483e-01
9.997609638753887085e-01,-1.000701917875980035e-01,-1.507533691397616504e+00,7.518648451968227286e-01
9.980864937860398634e-01,-1.005642200157143146e-01,-1.506443687722902824e+00,7.534148551304854502e-01
9.929584552318697632e-01,-9.979648436568250292e-02,-1.502425528732224125e+00,7.505688946443331844e-01
9.983520673323784678e-01,-1.002054378625918535e-01,-1.502754619438313455e+00,7.538587351034842232e-01
9.910115166710399270e-01,-9.931921093717023530e-02,-1.512930133137829536e+00,7.523421717113945029e-01
1.003215078444724906e+00,-1.008598725942833202e-01,-1.494924716279968147e+00,7.517309995014238577e-01
9.934073712241083820e-01,-9.969406994145181555e-02,-1.508429858082011688e+00,7.520603969079696638e-01
9.952929774701192445e-01,-1.000727647418125227e-01,-1.507946278441262056e+00,7.545658370800160109e-01
9.952929774701192445e-01,-1.000727647418125227e-01,-1.507946278441262056e+00,7.545658370800160109e-01
9.902678421227796290e-01,-9.960142824321160937e-02,-1.519977239785640366e+00,7.567643363783700394e-01
1.000211190254729265e+00,-1.004027996801937217e-01,-1.508584805184886468e+00,7.519130170433511173e-01
9.937943133447785238e-01,-9.933748697356462043e-02,-1.515600603915884914e+00,7.567826764867712219e-01
1.000391951091747833e+00,-1.006556186474432124e-01,-1.503818274904915819e+00,7.503152042119930476e-01
9.969268416075836026e-01,-1.001544876306425802e-01,-1.519284067150599160e+00,7.584150880144525653e-01
1.000485671352505879e+00,-1.004522150756881615e-01,-1.500609341535398267e+00,7.502001078189481920e-01
1.000324868552518787e+00,-1.000972337613085239e-01,-1.509879401778074115e+00,7.529134647623784149e-01
9.952357606492552300e-01,-9.968730288713571752e-02,-1.511485742275756827e+00,7.546000992445495159e-01
9.952357606492552300e-01,-9.968730288713571752e-02,-1.511485742275756827e+00,7.546000992445495159e-01
1.000081505732854259e+00,-1.005949146546225720e-01,-1.509924365439423877e+00,7.547909176913707441e-01
1.000081505732854259e+00,-1.005949146546225720e-01,-1.509924365439423877e+00,7.547909176913707441e-01
9.908235892499194231e-01,-9.999921541269715664e-02,-1.507842613589186032e+00,7.540027573113576853e-01
9.978611716224525807e-01,-1.003071868979458492e-01,-1.515759347871189711e+00,7.552326462751935976e-01
9.986518095508969406e-01,-1.003744532832963055e-01,-1.503304023532691325e+00,7.511140433683499706e-01
9.986518095508969406e-01,-1.003744532832963055e-01,-1.503304023532691325e+00,7.511140433683499706e-01
9.987580367952707538e-01,-1.004264884522456380e-01,-1.510373852203617639e+00,7.541778635505885786e-01
9.929740343654164247e-01,-9.956272013266902199e-02,-1.521224645233219874e+00,7.550579866301281307e-01
1.003185416620087533e+00,-1.006944914372060185e-01,-1.498842641398831166e+00,7.527314090216596920e-01
1.003185416620087533e+00,-1.006944914372060185e-01,-1.498842641398831166e+00,7.527314090216596920e-01
1.003647717016891150e+00,-1.010151096653974512e-01,-1.514076286009504724e+00,7.550147796889189467e-01
9.922171393148954133e-01,-9.988629785687301588e-02,-1.494876608881699598e+00,7.496905144397471021e-01
9.963662573015324986e-01,-9.988011531026247392e-02,-1.524620254470990810e+00,7.570223113104653789e-01
9.983287375639481320e-01,-1.000890131571918612e-01,-1.507328312885072297e+00,7.555279719579426345e-01
9.983287375639481320e-01,-1.000890131571918612e-01,-1.507328312885072297e+00,7.555279719579426345e-01
9.983287375639481320e-01,-1.000890131571918612e-01,-1.507328312885072297e+00,7.555279719579426345e-01
1.001924227616102003e+00,-1.006463519036991661e-01,-1.520618272506954360e+00,7.547440629789831101e-01
1.001924227616102003e+00,-1.006463519036991661e-01,-1.520618272506954360e+00,7.547440629789831101e-01
9.938359497833529899e-01,-9.955586476140963759e-02,-1.495250126880188990e+00,7.511407320731752213e-01
9.938359497833529899e-01,-9.955586476140963759e-02,-1.495250126880188990e+00,7.511407320731752213e-01
9.881296586084168387e-01,-9.947450831590259890e-02,-1.519159119166245908e+00,7.549893072250911663e-01
1.008524262980001751e+00,-1.008603799832438891e-01,-1.515062866845133360e+00,7.554530503882649350e-01
9.889067034244005683e-01,-9.961236333176669289e-02,-1.505313062123066814e+00,7.530306768030147202e-01
1.007439806222980794e+00,-1.011113806600562465e-01,-1.498373131359899801e+00,7.510838847778372740e-01
1.001848161857544328e+00,-1.006909821110138492e-01,-1.507023147263963914e+00,7.521965020306750072e-01
9.989718437258751083e-01,-1.000025515289314909e-01,-1.508040041038330337e+00,7.532774222660412189e-01
9.939272475871682166e-01,-9.997733577015513462e-02,-1.508922166060636005e+00,7.517703187570489165e-01
1.011974689543715167e+00,-1.013643749218152007e-01,-1.501441047001514928e+00,7.540195531706506138e-01
9.917728836042751794e-01,-9.979658898766871622e-02,-1.512399465518079467e+00,7.522650236834290682e-01
1.006538015821913490e+00,-1.006247717347423104e-01,-1.525546142780682013e+00,7.570178609093141109e-01
1.006538015821913490e+00,-1.006247717347423104e-01,-1.525546142780682013e+00,7.570178609093141109e-01
9.871348287214313233e-01,-9.939301288613415497e-02,-1.493319471851498603e+00,7.510936626942484873e-01
9.871348287214313233e-01,-9.939301288613415497e-02,-1.493319471851498603e+00,7.510936626942484873e-01
1.003248953882780015e+00,-1.007679017217745499e-01,-1.513586356517483411e+00,7.544572556275626063e-01
9.950095785548607186e-01,-1.003930616832165168e-01,-1.494771482764131632e+00,7.501895914281553335e-01
1.001293015444607137e+00,-1.000357902509647484e-01,-1.508700800361944427e+00,7.524138274053673303e-01
1.001293015444607137e+00,-1.000357902509647484e-01,-1.508700800361944427e+00,7.524138274053673303e-01
9.942274913704739481e-01,-1.002261320065179762e-01,-1.507508863199508387e+00,7.535105764567293640e-01
1.000617575483119026e+00,-9.983089031871270058e-02,-1.515158749868600108e+00,7.535784747242567638e-01
9.937618641152348165e-01,-1.001739454148722896e-01,-1.507855453339680185e+00,7.536523494583748928e-01
1.001149695313576116e+00,-9.998603338416794939e-02,-1.509721162453749876e+00,7.524048834654932794e-01
1.001149695313576116e+00,-9.998603338416794939e-02,-1.509721162453749876e+00,7.524048834654932794e-01
9.975711301256646735e-01,-9.996553709131640597e-02,-1.508135638760403685e+00,7.544844557737206969e-01
1.004024402885643541e+00,-1.002582574521267006e-01,-1.510884503944376789e+00,7.544044906303605247e-01
9.919448012841646234e-01,-9.956671996356199206e-02,-1.508457536972843238e+00,7.490470730180341929e-01
9.919448012841646234e-01,-9.956671996356199206e-02,-1.508457536972843238e+00,7.490470730180341929e-01
1.000526432145513400e+00,-1.004377245639035687e-01,-1.508791939752561539e+00,7.537724930221477715e-01
1.003707471047870614e+00,-1.005065856573045396e-01,-1.508949960763581677e+00,7.529211084449309865e-01
9.844529773277641560e-01,-9.919955798014577775e-02,-1.505775921837786191e+00,7.516675578407018277e-01
1.008702031486677253e+00,-1.010344045127022222e-01,-1.492167652976573278e+00,7.490874963717242263e-01
9.911881809513215513e-01,-9.965484045935013580e-02,-1.509669984908459384e+00,7.543762350704875663e-01
9.982026633795708648e-01,-1.003837567756061255e-01,-1.511368145694389264e+00,7.535737622362050914e-01
9.999629095429768411e-01,-9.943636171818838465e-02,-1.526058984880446667e+00,7.558577602256680850e-01
9.972379643508444413e-01,-1.004742970565525861e-01,-1.491895264142156119e+00,7.473766660286594865e-01
9.972379643508444413e-01,-1.004742970565525861e-01,-1.491895264142156119e+00,7.473766660286594865e-01
1.002358967870093487e+00,-9.999838060698823528e-02,-1.523722026392668294e+00,7.595196069198462130e-01
9.995374988516074755e-01,-1.005091396421654432e-01,-1.497151805392304080e+00,7.488475319811642716e-01
9.982260868596392056e-01,-1.004074608876351776e-01,-1.512257122187770753e+00,7.560058769632368447e-01
1.001664462630009078e+00,-1.000897050478043310e-01,-1.516683989021936352e+00,7.556173807560324640e-01
1.001656199549648463e+00,-1.007714344872153583e-01,-1.498632926269802601e+00,7.498123432772482166e-01
9.960466984235893939e-01,-1.005728218554054476e-01,-1.505786371665444712e+00,7.538858448651493127e-01
1.000653305178254016e+00,-1.001847650872190465e-01,-1.507473823188590467e+00,7.542389266560644012e-01
9.976846821711110591e-01,-1.005199482280088180e-01,-1.513395131005029315e+00,7.538050616028487694e-01
9.905167511534185287e-01,-9.920218461946364585e-02,-1.516542837712011815e+00,7.563786296357720706e-01
9.990704409501049987e-01,-1.010499104137944915e-01,-1.489302455462820030e+00,7.514814746979318061e-01
9.984448680208378724e-01,-1.004562077733496400e-01,-1.521656294620594263e+00,7.567699177873650207e-01
9.984448680208378724e-01,-1.004562077733496400e-01,-1.521656294620594263e+00,7.567699177873650207e-01
9.996097255752188770e-01,-1.007329946108346808e-01,-1.492793440559851748e+00,7.490214647874027243e-01
9.996097255752188770e-01,-1.007329946108346808e-01,-1.492793440559851748e+00,7.490214647874027243e-01
9.996097255752188770e-01,-1.007329946108346808e-01,-1.492793440559851748e+00,7.490214647874027243e-01
1.003015192311691006e+00,-1.010828125661132754e-01,-1.503473228000578699e+00,7.534502307550988709e-01
9.972780128261693466e-01,-1.005579889650407149e-01,-1.505519173514615172e+00,7.523890580038972153e-01
1.001255909119029397e+00,-1.007165537287355167e-01,-1.524389639348450620e+00,7.580544003130511577e-01
9.976644949754615022e-01,-9.974986055833939824e-02,-1.504299657205504293e+00,7.505108763699255281e-01
1.005174262941783248e+00,-1.009070493951141206e-01,-1.502044933269470084e+00,7.534868215895178523e-01
9.961098199357324434e-01,-1.003051958349297085e-01,-1.509955886864779995e+00,7.528433946785935138e-01
9.979233833282163957e-01,-1.004003516443077310e-01,-1.510093740239605520e+00,7.541384799632639968e-01
9.952040758007071330e-01,-9.976049550849605541e-02,-1.502662818243064802e+00,7.493864411379657087e-01
1.003920523769262330e+00,-1.010503185369979046e-01,-1.500908199030067669e+00,7.531900735050010010e-01
9.988949180225391578e-01,-9.945580460802969092e-02,-1.529543137834695532e+00,7.572956892422115782e-01
1.001628482226889050e+00,-1.004885997755955718e-01,-1.493404825265727043e+00,7.531195110956794281e-01
1.001628482226889050e+00,-1.004885997755955718e-01,-1.493404825265727043e+00,7.531195110956794281e-01
9.998578928556308698e-01,-1.004722640805665035e-01,-1.515449884618089271e+00,7.539214103617504215e-01
9.998578928556308698e-01,-1.004722640805665035e-01,-1.515449884618089271e+00,7.539214103617504215e-01
9.998578928556308698e-01,-1.004722640805665035e-01,-1.515449884618089271e+00,7.539214103617504215e-01
9.998578928556308698e-01,-1.004722640805665035e-01,-1.515449884618089271e+00,7.539214103617504215e-01
9.985937240662280390e-01,-1.008105995033901914e-01,-1.507217549335247320e+00,7.547997296714173965e-01
9.958564095147994788e-01,-1.004212075723266706e-01,-1.498500784884736259e+00,7.484949026522228488e-01
9.969992708885061505e-01,-9.981010132334669493e-02,-1.523477995169608246e+00,7.587498916241811608e-01
9.943998565444741589e-01,-9.969070917216253658e-02,-1.497378481632365421e+00,7.491523923453594636e-01
9.943998565444741589e-01,-9.969070917216253658e-02,-1.497378481632365421e+00,7.491523923453594636e-01
9.943998565444741589e-01,-9.969070917216253658e-02,-1.497378481632365421e+00,7.491523923453594636e-01
9.973941938235820759e-01,-1.002692745856689494e-01,-1.512190429087223453e+00,7.545478267920118221e-01
9.986988162436843952e-01,-1.006604820360128549e-01,-1.503292989983338712e+00,7.518692416777860155e-01
1.002806440740886318e+00,-1.007218150665891432e-01,-1.514165500153737076e+00,7.541219947413903002e-01
1.001287123329961837e+00,-1.005640980568944381e-01,-1.509479264384015362e+00,7.544434719335942896e-01
1.001120288484374399e+00,-9.995019496509818802e-02,-1.505478923468011487e+00,7.510936896482923730e-01
1.001120288484374399e+00,-9.995019496509818802e-02,-1.505478923468011487e+00,7.510936896482923730e-01
9.932438871533950664e-01,-1.003106267192775819e-01,-1.506050458313057616e+00,7.531768505772132860e-01
9.962949957857956118e-01,-1.003316195087878421e-01,-1.498611785244683636e+00,7.516796966665849622e-01
9.964057334606361005e-01,-1.000993200660116184e-01,-1.517968670660597486e+00,7.555766398635583858e-01
9.998965931521287542e-01,-1.003965819028880407e-01,-1.511248662833382328e+00,7.521020238132126723e-01
9.946870098343285616e-01,-9.966002909244078833e-02,-1.503667551399033409e+00,7.543084567858543421e-01
1.001194375735283248e+00,-9.962206001790660514e-02,-1.522827763900581610e+00,7.555770028541303196e-01
9.920410171948619293e-01,-9.892398493838672202e-02,-1.508842175007424125e+00,7.538970810688943036e-01
1.010257229580123761e+00,-1.004509219417790283e-01,-1.495530670830826248e+00,7.496789439820855661e-01
9.867454204011106844e-01,-9.886359674870290326e-02,-1.523215409459348191e+00,7.564459891092571997e-01
1.001075744637748066e+00,-1.005006880199336150e-01,-1.511265570086365750e+00,7.541774689461834269e-01
9.959132346567893812e-01,-1.002573167450207525e-01,-1.502887613668107525e+00,7.531357308533076500e-01
1.001765437183197216e+00,-1.005083962698789246e-01,-1.516766896747690607e+00,7.566971483535521736e-01
9.950295267207370786e-01,-9.998378015866089819e-02,-1.496661569325371310e+00,7.492146295853402416e-01
9.950295267207370786e-01,-9.998378015866089819e-02,-1.496661569325371310e+00,7.492146295853402416e-01
9.950295267207370786e-01,-9.998378015866089819e-02,-1.496661569325371310e+00,7.492146295853402416e-01
9.950295267207370786e-01,-9.998378015866089819e-02,-1.496661569325371310e+00,7.492146295853402416e-01
1.007986246709498879e+00,-1.006566319119479164e-01,-1.511829403525178694e+00,7.540920388076055580e-01
9.840130870228575022e-01,-9.953377992221966453e-02,-1.497573784500014771e+00,7.515989003977499028e-01
1.011721253165638101e+00,-1.009800372082641090e-01,-1.516356554385430933e+00,7.573668674210223273e-01
1.011721253165638101e+00,-1.009800372082641090e-01,-1.516356554385430933e+00,7.573668674210223273e-01
9.866316874084347655e-01,-9.985150221721941777e-02,-1.491242529407307060e+00,7.505906207331115576e-01
1.003654207073175764e+00,-1.005595007524709150e-01,-1.501810882962332228e+00,7.511777935586387844e-01
9.889271961002125133e-01,-9.905004792533597668e-02,-1.520116292264342972e+00,7.555904654412858301e-01
1.003605540870006640e+00,-1.000691601701053507e-01,-1.503744748825665445e+00,7.504487286594858642e-01
9.948383666868084729e-01,-9.971579869517757655e-02,-1.516829324694982661e+00,7.578690360395461401e-01
9.964285725043927622e-01,-9.974849284985355669e-02,-1.506217085767963759e+00,7.504225690746774147e-01
9.964285725043927622e-01,-9.974849284985355669e-02,-1.506217085767963759e+00,7.504225690746774147e-01
1.001728635247105981e+00,-9.964757162694305725e-02,-1.501868546862747511e+00,7.497873137997299597e-01
9.987083388732863609e-01,-1.007032622509257819e-01,-1.515599053843604160e+00,7.548975371589677907e-01
1.001931763905790973e+00,-1.003098611724359823e-01,-1.506232824626343003e+00,7.548231026325826765e-01
9.987974669803096894e-01,-1.003907588249252358e-01,-1.504728864136923416e+00,7.529543892031824726e-01
9.964518444237850936e-01,-9.989444023265292572e-02,-1.505295841882493324e+00,7.518983617212106063e-01
9.978191893930351553e-01,-1.002974358401689248e-01,-1.514988705348813136e+00,7.546434335699667706e-01
9.978191893930351553e-01,-1.002974358401689248e-01,-1.514988705348813136e+00,7.546434335699667706e-01
1.003710456682157970e+00,-1.005287981630592908e-01,-1.495646925897710089e+00,7.508541852659688098e-01
9.903186540608727162e-01,-9.970320427291583243e-02,-1.507262529132070483e+00,7.531254344912799992e-01
9.959547975485220084e-01,-9.990608478933676873e-02,-1.494095447218058981e+00,7.483216081295090971e-01
1.000100500272253612e+00,-1.003306413767114103e-01,-1.512116366707630499e+00,7.530946560937403778e-01
9.927578350036863064e-01,-9.970643178170163212e-02,-1.509221857907440789e+00,7.559219672678296753e-01
9.969876140967164346e-01,-1.002743376918182189e-01,-1.516294909470785823e+00,7.558192127268412719e-01
9.969876140967164346e-01,-1.002743376918182189e-01,-1.516294909470785823e+00,7.558192127268412719e-01
9.990033130677831164e-01,-1.008295274748706172e-01,-1.483830423422300315e+00,7.504436024056634347e-01
1.004247077475868721e+00,-1.006839502660980823e-01,-1.517257810331785528e+00,7.571800444406406871e-01
9.971911052965328759e-01,-1.004006030657883797e-01,-1.496261865666318913e+00,7.477901204062441520e-01
9.971911052965328759e-01,-1.004006030657883797e-01,-1.496261865666318913e+00,7.477901204062441520e-01
9.963455848544708893e-01,-9.998377747583586661e-02,-1.516466164118499105e+00,7.560466627656200478e-01
1.000351278536693922e+00,-1.003120713053195501e-01,-1.507352427541962525e+00,7.539769944458658557e-01
1.000351278536693922e+00,-1.003120713053195501e-01,-1.507352427541962525e+00,7.539769944458658557e-01
9.975729437790168408e-01,-1.003463322493934745e-01,-1.521302389040786851e+00,7.580031724211327981e-01
9.958455090400401000e-01,-1.001757280543703749e-01,-1.510634469658008294e+00,7.537617946760107879e-01
9.989565236425459460e-01,-9.990928199878355842e-02,-1.511864026134262184e+00,7.555931776475683925e-01
9.961172817517160993e-01,-9.984335243915104519e-02,-1.512335211896435716e+00,7.511471671891153390e-01
9.927229338092622424e-01,-1.001116467855823061e-01,-1.506172304080705571e+00,7.518045253181749876e-01
1.007179732159166452e+00,-1.003410340128723099e-01,-1.518370686357104482e+00,7.566242292041519546e-01
9.882171656434977081e-01,-9.952063414198945857e-02,-1.506340918235658188e+00,7.553152955269947233e-01
1.010623543059233853e+00,-1.009316279820925699e-01,-1.512519170188739714e+00,7.561231543435232849e-01
1.010623543059233853e+00,-1.009316279820925699e-01,-1.512519170188739714e+00,7.561231543435232849e-01
1.010623543059233853e+00,-1.009316279820925699e-01,-1.512519170188739714e+00,7.561231543435232849e-01
1.010623543059233853e+00,-1.009316279820925699e-01,-1.512519170188739714e+00,7.561231543435232849e-01
1.010623543059233853e+00,-1.009316279820925699e-01,-1.512519170188739714e+00,7.561231543435232849e-01
9.831347715395558629e-01,-9.869714432055391728e-02,-1.503025969310233911e+00,7.514621026598555797e-01
1.006089887905023961e+00,-1.009302056067457598e-01,-1.510630027160536848e+00,7.551667673177311357e-01
1.006089887905023961e+00,-1.009302056067457598e-01,-1.510630027160536848e+00,7.551667673177311357e-01
9.913563803516137751e-01,-9.987842540786574796e-02,-1.506187462949632128e+00,7.526079628956101608e-01
9.913563803516137751e-01,-9.987842540786574796e-02,-1.506187462949632128e+00,7.526079628956101608e-01
9.913563803516137751e-01,-9.987842540786574796e-02,-1.506187462949632128e+00,7.526079628956101608e-01
9.961831208011178163e-01,-1.000614218245323567e-01,-1.510403802634295856e+00,7.526920692748810815e-01
9.961831208011178163e-01,-1.000614218245323567e-01,-1.510403802634295856e+00,7.526920692748810815e-01
9.957314744684124808e-01,-1.000619140325879480e-01,-1.515994224918366218e+00,7.561692749842792161e-01
9.957314744684124808e-01,-1.000619140325879480e-01,-1.515994224918366218e+00,7.561692749842792161e-01
9.955468209501026067e-01,-1.001652201272471010e-01,-1.505575210666587838e+00,7.541104066629136238e-01
9.968843698890070826e-01,-1.000989612026214476e-01,-1.501711425368253749e+00,7.511826890829853554e-01
9.968843698890070826e-01,-1.000989612026214476e-01,-1.501711425368253749e+00,7.511826890829853554e-01
9.960931792393155071e-01,-1.001370668251269080e-01,-1.521238650438368811e+00,7.539736197288486874e-01
9.969047450722577919e-01,-9.988661797593530178e-02,-1.509197698610185823e+00,7.549461874419707286e-01
9.977353599054570310e-01,-1.003456275320368518e-01,-1.503186763621628730e+00,7.513598259310103611e-01
9.977353599054570310e-01,-1.003456275320368518e-01,-1.503186763621628730e+00,7.513598259310103611e-01
9.977353599054570310e-01,-1.003456275320368518e-01,-1.503186763621628730e+00,7.513598259310103611e-01
9.975345756626862181e-01,-1.000526834252075392e-01,-1.512911033035777786e+00,7.545845091944144434e-01
9.975345756626862181e-01,-1.000526834252075392e-01,-1.512911033035777786e+00,7.545845091944144434e-01
9.936327473458796966e-01,-1.000467296061320760e-01,-1.497098431555278886e+00,7.510079089151077136e-01
1.006057275132130835e+00,-1.005202779943490249e-01,-1.516626902927685094e+00,7.556803563600934526e-01
9.925498501872016544e-01,-9.994999720700185886e-02,-1.495440725268234017e+00,7.505323427924347479e-01
9.925498501872016544e-01,-9.994999720700185886e-02,-1.495440725268234017e+00,7.505323427924347479e-01
9.987439230382803013e-01,-1.001065870287702469e-01,-1.519596204088641711e+00,7.552836465585813785e-01
1.007923096211295944e+00,-1.009252998762486253e-01,-1.499100622152640394e+00,7.523804927477035775e-01
9.943379618594495595e-01,-1.000611271980816341e-01,-1.517624842064831059e+00,7.544084955865133502e-01
9.959255977066499010e-01,-9.988365321257196283e-02,-1.507194108122593246e+00,7.543812163634634471e-01
1.000363544437666841e+00,-1.003712105727333354e-01,-1.516858978037942896e+00,7.546801480448592780e-01
1.001353437252546108e+00,-1.001508905570976243e-01,-1.509097946044314353e+00,7.538783569810623142e-01
9.999098001073636333e-01,-1.001515852885444396e-01,-1.500334674505006127e+00,7.504830455259111632e-01
9.990143014714222280e-01,-1.004573654204296007e-01,-1.515170792267644284e+00,7.546486076169883761e-01
9.975985912756530904e-01,-9.998048650727005271e-02,-1.492587284830749095e+00,7.493377277190246266e-01
9.975985912756530904e-01,-9.998048650727005271e-02,-1.492587284830749095e+00,7.493377277190246266e-01
9.975985912756530904e-01,-9.998048650727005271e-02,-1.492587284830749095e+00,7.493377277190246266e-01
9.975985912756530904e-01,-9.998048650727005271e-02,-1.492587284830749095e+00,7.493377277190246266e-01
9.942524208437749644e-01,-9.955932064948727622e-02,-1.515318099448038858e+00,7.541405841604031934e-01
9.994460278732885117e-01,-1.005229057243573476e-01,-1.491707814041466573e+00,7.525990995063830402e-01
9.933403938106832864e-01,-9.923891553787524134e-02,-1.525295565411708187e+00,7.555077200833016926e-01
9.933403938106832864e-01,-9.923891553787524134e-02,-1.525295565411708187e+00,7.555077200833016926e-01
9.933403938106832864e-01,-9.923891553787524134e-02,-1.525295565411708187e+00,7.555077200833016926e-01
9.892522095595110976e-01,-1.000970591575708613e-01,-1.489398731627437966e+00,7.494464421178590463e-01
1.006035548053171746e+00,-1.006193461856684235e-01,-1.526270644546394717e+00,7.563014073331046916e-01
1.003820175233070655e+00,-1.010454300472098110e-01,-1.499193926618466399e+00,7.519962274388057866e-01
9.875803549296388040e-01,-9.968789691207931292e-02,-1.510380131918426905e+00,7.534978913623388008e-01
1.002257770173106577e+00,-1.000918881515732578e-01,-1.506980068483419810e+00,7.521964563217383715e-01
9.928478541272838243e-01,-9.950783995508587221e-02,-1.519846317736651686e+00,7.566688545453454928e-01
9.977322242895709792e-01,-9.990137513723142126e-02,-1.503398010333591772e+00,7.526739649997857828e-01
9.941714237737192539e-01,-9.932859000389640536e-02,-1.525658240924879339e+00,7.557286703228590641e-01
1.008342610875158307e+00,-1.003754322601186771e-01,-1.506108630836849205e+00,7.502963397111301891e-01
9.913081615599962371e-01,-9.954535804456395021e-02,-1.521728876287746779e+00,7.561959038005861000e-01
1.003655570704567568e+00,-1.011135521553611499e-01,-1.491394334958642043e+00,7.494731216466870016e-01
9.955536607768649127e-01,-1.003030957155290476e-01,-1.510977981054329344e+00,7.543916348683954443e-01
1.002475572853912311e+00,-1.012920800057197923e-01,-1.514212665815013903e+00,7.581714879726895173e-01
9.937496612147145303e-01,-1.004870272584113267e-01,-1.502256565420734047e+00,7.515037835041854519e-01
9.937496612147145303e-01,-1.004870272584113267e-01,-1.502256565420734047e+00,7.515037835041854519e-01
9.937496612147145303e-01,-1.004870272584113267e-01,-1.502256565420734047e+00,7.515037835041854519e-01
1.003023917613727223e+00,-1.009140194269663310e-01,-1.514289473950899412e+00,7.564875903194040463e-01
9.913663471161050511e-01,-1.000304392921853996e-01,-1.521821827728449206e+00,7.594323179935716928e-01
1.010940054212102535e+00,-1.008812317301311379e-01,-1.509735363296728528e+00,7.523414970528440326e-01
9.843468868379766645e-01,-9.914495552319267657e-02,-1.514845983120709949e+00,7.558443022618073215e-01
1.006205624066651039e+00,-1.007083136644330301e-01,-1.516986040196590890e+00,7.557133384404982612e-01
9.973147126262098539e-01,-9.967298383773405546e-02,-1.506747404960178338e+00,7.546839959008070364e-01
9.973147126262098539e-01,-9.967298383773405546e-02,-1.506747404960178338e+00,7.546839959008070364e-01
1.003801841066828793e+00,-1.005318890068340604e-01,-1.520730409964925256e+00,7.565568319493557459e-01
9.936923558154571179e-01,-9.972701578907902653e-02,-1.498413305014407726e+00,7.490056802799855973e-01
1.000160753590400242e+00,-1.002375964237679912e-01,-1.513092918866154601e+00,7.561513807355471073e-01
1.000160753590400242e+00,-1.002375964237679912e-01,-1.513092918866154601e+00,7.561513807355471073e-01
1.003698905435435718e+00,-1.005018217315437196e-01,-1.517756621725103061e+00,7.551968908338071440e-01
9.955197455488444813e-01,-9.985520786616937372e-02,-1.508534565958231433e+00,7.529024978128316947e-01
9.955197455488444813e-01,-9.985520786616937372e-02,-1.508534565958231433e+00,7.529024978128316947e-01
1.000114245255816936e+00,-1.002686728564192997e-01,-1.513346401502331462e+00,7.540120543065854664e-01
9.992223072364063707e-01,-1.002787165801776043e-01,-1.501067045160796809e+00,7.516717824098225753e-01
9.899524167348882076e-01,-9.958357434047093726e-02,-1.520204238897888027e+00,7.582483944861199143e-01
9.899524167348882076e-01,-9.958357434047093726e-02,-1.520204238897888027e+00,7.582483944861199143e-01
9.899524167348882076e-01,-9.958357434047093726e-02,-1.520204238897888027e+00,7.582483944861199143e-01
1.003540624324369190e+00,-1.006878074619609043e-01,-1.495998186948054309e+00,7.486113741871924798e-01
1.000303696842645973e+00,-1.002292640368534493e-01,-1.524606920612689764e+00,7.565818278711146094e-01
9.920117077545427264e-01,-9.938259277173139283e-02,-1.515139193740720369e+00,7.548862521927636182e-01
9.920117077545427264e-01,-9.938259277173139283e-02,-1.515139193740720369e+00,7.548862521927636182e-01
9.920117077545427264e-01,-9.938259277173139283e-02,-1.515139193740720369e+00,7.548862521927636182e-01
9.982868325720076763e-01,-1.002964179521841082e-01,-1.506782561212266058e+00,7.500943229044434446e-01
9.958242078028478605e-01,-1.001304363879657600e-01,-1.492987718854205115e+00,7.523731092343329818e-01
1.001127691331257674e+00,-1.004648728543033054e-01,-1.509109169018727270e+00,7.524400718984670666e-01
9.927509861859664664e-01,-9.930562004219727068e-02,-1.516257743227980015e+00,7.545979966184579446e-01
9.927509861859664664e-01,-9.930562004219727068e-02,-1.516257743227980015e+00,7.545979966184579446e-01
1.006338871020806547e+00,-1.010351437380869327e-01,-1.504118956291410347e+00,7.520990651884670308e-01
9.883336746072153289e-01,-9.960853628019902817e-02,-1.514249045736844712e+00,7.556637045617266013e-01
9.883336746072153289e-01,-9.960853628019902817e-02,-1.514249045736844712e+00,7.556637045617266013e-01
1.013366194636447615e+00,-1.013623582977708076e-01,-1.501390442856582741e+00,7.507208999970479413e-01
1.013366194636447615e+00,-1.013623582977708076e-01,-1.501390442856582741e+00,7.507208999970479413e-01
1.013366194636447615e+00,-1.013623582977708076e-01,-1.501390442856582741e+00,7.507208999970479413e-01
1.013366194636447615e+00,-1.013623582977708076e-01,-1.501390442856582741e+00,7.507208999970479413e-01
9.881302973155857705e-01,-9.934120338145017992e-02,-1.526440325018265431e+00,7.576938682639623446e-01
9.881302973155857705e-01,-9.934120338145017992e-02,-1.526440325018265431e+00,7.576938682639623446e-01
1.005563697516741906e+00,-1.009181514676015801e-01,-1.488686157718091208e+00,7.492882432340752796e-01
1.005563697516741906e+00,-1.009181514676015801e-01,-1.488686157718091208e+00,7.492882432340752796e-01
1.000980660183739435e+00,-1.002997659270168929e-01,-1.523364188592823742e+00,7.585605092763066937e-01
9.919830258441392212e-01,-9.990542099255741992e-02,-1.488982206984517775e+00,7.487796448394415938e-01
9.919830258441392212e-01,-9.990542099255741992e-02,-1.488982206984517775e+00,7.487796448394415938e-01
9.942775477598833067e-01,-9.998258679381512304e-02,-1.514838157826014386e+00,7.547270243141901425e-01
1.005976663680883343e+00,-1.003382117203894114e-01,-1.502006695592790653e+00,7.513835949968329375e-01
9.920698321512263496e-01,-9.925250840854263346e-02,-1.515289603744358837e+00,7.538411132741169585e-01
9.920698321512263496e-01,-9.925250840854263346e-02,-1.515289603744358837e+00,7.538411132741169585e-01
9.956689785234861256e-01,-9.972579693861870209e-02,-1.508753007519536782e+00,7.541693471030163076e-01
1.001866689680122491e+00,-1.002944204204728185e-01,-1.496438459340620364e+00,7.510345860979279475e-01
9.945557753309919313e-01,-9.950656140187670584e-02,-1.507532763147376720e+00,7.518788279754903270e-01
9.945557753309919313e-01,-9.950656140187670584e-02,-1.507532763147376720e+00,7.518788279754903270e-01
9.945557753309919313e-01,-9.950656140187670584e-02,-1.507532763147376720e+00,7.518788279754903270e-01
9.945557753309919313e-01,-9.950656140187670584e-02,-1.507532763147376720e+00,7.518788279754903270e-01
9.950076396427658398e-01,-1.002051979126289821e-01,-1.497468077087914295e+00,7.521051562279307268e-01
9.950076396427658398e-01,-1.002051979126289821e-01,-1.497468077087914295e+00,7.521051562279307268e-01
9.997578070871939726e-01,-1.005978329981896957e-01,-1.514903274188474036e+00,7.550047827376787923e-01
9.993298743071596935e-01,-1.010611513701407532e-01,-1.499369820054816005e+00,7.537619407893076939e-01
1.000743516689605928e+00,-9.973358897688106017e-02,-1.503550524995110660e+00,7.503289204278019708e-01
9.900634700814465727e-01,-1.005738761977222340e-01,-1.513173441918338469e+00,7.584999070401287069e-01
1.003341582703432877e+00,-1.007744282112812417e-01,-1.496693667685283557e+00,7.499523007996937718e-01
9.950900079365664341e-01,-1.006690999309053786e-01,-1.516237080859601294e+00,7.582525030287762258e-01
9.950900079365664341e-01,-1.006690999309053786e-01,-1.516237080859601294e+00,7.582525030287762258e-01
1.000929420018083382e+00,-1.009888674442945139e-01,-1.506389783040418928e+00,7.513595123358377537e-01
9.936302119228578311e-01,-1.004117814910003154e-01,-1.501020025885423159e+00,7.538770126630881530e-01
9.991498517054021589e-01,-1.005007110960922795e-01,-1.509969353160296901e+00,7.535128246742033298e-01
9.991498517054021589e-01,-1.005007110960922795e-01,-1.509969353160296901e+00,7.535128246742033298e-01
9.991498517054021589e-01,-1.005007110960922795e-01,-1.509969353160296901e+00,7.535128246742033298e-01
1.000273786716765034e+00,-1.008171588493159826e-01,-1.506447561107093325e+00,7.540190697386135454e-01
1.000273786716765034e+00,-1.008171588493159826e-01,-1.506447561107093325e+00,7.540190697386135454e-01
9.954396588811804669e-01,-9.967941862865528635e-02,-1.522574214369900369e+00,7.574603196934902583e-01
9.955301617134978409e-01,-9.996728451333238008e-02,-1.491872168395393272e+00,7.481396317111808081e-01
9.926651446538814483e-01,-9.995149564018027122e-02,-1.528209458984092661e+00,7.590736321721975877e-01
1.000129372164252128e+00,-9.980819908153988618e-02,-1.509098227919642543e+00,7.529102805592461367e-01
9.947525100808777276e-01,-9.972676071071051584e-02,-1.513858285922337288e+00,7.557470251008702178e-01
1.007368451552592692e+00,-1.004452989582194089e-01,-1.504195302041150484e+00,7.520658702033690135e-01
1.007368451552592692e+00,-1.004452989582194089e-01,-1.504195302041150484e+00,7.520658702033690135e-01
1.007368451552592692e+00,-1.004452989582194089e-01,-1.504195302041150484e+00,7.520658702033690135e-01
9.993379285400685319e-01,-9.998036718902246489e-02,-1.509623565648483989e+00,7.544556476734094463e-01
9.993379285400685319e-01,-9.998036718902246489e-02,-1.509623565648483989e+00,7.544556476734094463e-01
9.993379285400685319e-01,-9.998036718902246489e-02,-1.509623565648483989e+00,7.544556476734094463e-01
9.993379285400685319e-01,-9.998036718902246489e-02,-1.509623565648483989e+00,7.544556476734094463e-01
9.923545286239646712e-01,-9.988750742760120482e-02,-1.495878377282205518e+00,7.492237911491740343e-01
9.927179965114301119e-01,-9.952424838189324885e-02,-1.516394677955295922e+00,7.554584694621655494e-01
1.000911694332132340e+00,-1.005735504637325362e-01,-1.501091815539625784e+00,7.508102453320169012e-01
9.927388793758077368e-01,-9.966795928754736134e-02,-1.518559326805967835e+00,7.554419057258233705e-01
9.927388793758077368e-01,-9.966795928754736134e-02,-1.518559326805967835e+00,7.554419057258233705e-01
9.983811736897330036e-01,-9.979081518310893573e-02,-1.519077355918518668e+00,7.573651810479505864e-01
9.983811736897330036e-01,-9.979081518310893573e-02,-1.519077355918518668e+00,7.573651810479505864e-01
1.000088355856775024e+00,-1.006515781172607066e-01,-1.492980481963735340e+00,7.483800913094865725e-01
1.000088355856775024e+00,-1.006515781172607066e-01,-1.492980481963735340e+00,7.483800913094865725e-01
9.988173331061087623e-01,-1.003909024936223138e-01,-1.519147286163325949e+00,7.582411526542077729e-01
9.980475802826733744e-01,-1.003091197923151739e-01,-1.492249838998454203e+00,7.481064851081975497e-01
9.980475802826733744e-01,-1.003091197923151739e-01,-1.492249838998454203e+00,7.481064851081975497e-01
9.980475802826733744e-01,-1.003091197923151739e-01,-1.492249838998454203e+00,7.481064851081975497e-01
9.980475802826733744e-01,-1.003091197923151739e-01,-1.492249838998454203e+00,7.481064851081975497e-01
9.980475802826733744e-01,-1.003091197923151739e-01,-1.492249838998454203e+00,7.481064851081975497e-01
9.980475802826733744e-01,-1.003091197923151739e-01,-1.492249838998454203e+00,7.481064851081975497e-01
9.980475802826733744e-01,-1.003091197923151739e-01,-1.492249838998454203e+00,7.481064851081975497e-01
9.933693666138156964e-01,-9.963444345703631466e-02,-1.524089879201746545e+00,7.582129326138898895e-01
9.986446642815834940e-01,-9.933852207416084268e-02,-1.500760745581438904e+00,7.510415476271099511e-01
1.007861186262809072e+00,-1.003996851982737054e-01,-1.506836638145511831e+00,7.524920518160385097e-01
9.935940814780516162e-01,-9.999077198739017569e-02,-1.503790371474453380e+00,7.541016231691396454e-01
9.935940814780516162e-01,-9.999077198739017569e-02,-1.503790371474453380e+00,7.541016231691396454e-01
1.003772895378423957e+00,-1.004265633349007009e-01,-1.514259659141687475e+00,7.544840611556630217e-01
9.930243028180647524e-01,-9.974265249370367625e-02,-1.504692065877176077e+00,7.528908848922389874e-01
9.997551499415711085e-01,-9.975168736341137599e-02,-1.504314068833610740e+00,7.526845611743324671e-01
9.962224200174168987e-01,-9.918139621483858248e-02,-1.508199209781855288e+00,7.527590474724419334e-01
9.994312956912909662e-01,-9.963472214119627191e-02,-1.507444759966549253e+00,7.549294850775424282e-01
1.004283783189598989e+00,-1.010067947595813531e-01,-1.501944630993094831e+00,7.477845864680073840e-01
9.925874764997795197e-01,-1.003605232285009752e-01,-1.516801567157984199e+00,7.584418342974891258e-01
1.003485167177651682e+00,-9.985883271460882504e-02,-1.507339773462458066e+00,7.513780795229146880e-01
1.003485167177651682e+00,-9.985883271460882504e-02,-1.507339773462458066e+00,7.513780795229146880e-01
1.003485167177651682e+00,-9.985883271460882504e-02,-1.507339773462458066e+00,7.513780795229146880e-01
1.003485167177651682e+00,-9.985883271460882504e-02,-1.507339773462458066e+00,7.513780795229146880e-01
1.003485167177651682e+00,-9.985883271460882504e-02,-1.507339773462458066e+00,7.513780795229146880e-01
1.003485167177651682e+00,-9.985883271460882504e-02,-1.507339773462458066e+00,7.513780795229146880e-01
9.941396439320872025e-01,-1.002518624120823099e-01,-1.508072833471899798e+00,7.543928845554456197e-01
9.941396439320872025e-01,-1.002518624120823099e-01,-1.508072833471899798e+00,7.543928845554456197e-01
9.920266535465228630e-01,-1.001201667318206562e-01,-1.499121704939756494e+00,7.514516206902205342e-01
1.000672960996243477e+00,-1.003318775277296376e-01,-1.519448499026225363e+00,7.553462183051287138e-01
1.002675362507094103e+00,-1.007245178487092135e-01,-1.506802665069762126e+00,7.527388393438076974e-01
9.996859049135179420e-01,-1.000700254004008721e-01,-1.515570560288061808e+00,7.564646907436570755e-01
1.000108416954085699e+00,-1.004926733084165053e-01,-1.515649056770729475e+00,7.558798147036626114e-01
1.000108416954085699e+00,-1.004926733084165053e-01,-1.515649056770729475e+00,7.558798147036626114e-01
1.000108416954085699e+00,-1.004926733084165053e-01,-1.515649056770729475e+00,7.558798147036626114e-01
9.958478944030784152e-01,-9.974040616104197510e-02,-1.495640469165081754e+00,7.496860379256385931e-01
1.000826056799094310e+00,-1.009397358216191504e-01,-1.510572363571504484e+00,7.548468361175678654e-01
9.985667860665279338e-01,-9.965259819397090379e-02,-1.525342652000900578e+00,7.581192754489658459e-01
1.000657798775448803e+00,-1.008921178249897327e-01,-1.501656171021596098e+00,7.526359897465866311e-01
9.954946569934089995e-01,-9.939978309894409447e-02,-1.502948282766702004e+00,7.494867823926852912e-01
1.001433162028316337e+00,-9.965984150381258788e-02,-1.506071523441285365e+00,7.538421995926266606e-01
1.001433162028316337e+00,-9.965984150381258788e-02,-1.506071523441285365e+00,7.538421995926266606e-01
9.970622442900302085e-01,-1.001174391737059272e-01,-1.509623071135129280e+00,7.551895691972274616e-01
1.007682445615635469e+00,-1.008509045770565465e-01,-1.505818434650708637e+00,7.521479765042488053e-01
9.901687639029228549e-01,-9.932828597670838311e-02,-1.517232312810097072e+00,7.540434062048857466e-01
1.000182883082532781e+00,-1.002728386543777495e-01,-1.504724376302210676e+00,7.533753845409705274e-01
9.923214271839758682e-01,-9.992415615473233814e-02,-1.506470801986287800e+00,7.514004363671095144e-01
1.008897198385532157e+00,-1.008648586703198846e-01,-1.494187257109209188e+00,7.508462858640855275e-01
9.929585402695740859e-01,-9.996509731378556973e-02,-1.522168145116852278e+00,7.577151213367684379e-01
1.003341237718679668e+00,-1.003564201620438245e-01,-1.491190919931023817e+00,7.482527360223937274e-01
9.902101992062264380e-01,-9.951508312598743300e-02,-1.536159640129252990e+00,7.603129092428250191e-01
9.946857841304730385e-01,-1.000060650276570484e-01,-1.493051415121846803e+00,7.490680341634292638e-01
1.002489787722032011e+00,-1.007105083568516218e-01,-1.511606983495920042e+00,7.523710711827905628e-01
9.943231854442876605e-01,-1.002062617794541727e-01,-1.509725511525594310e+00,7.534230970778439396e-01
9.943231854442876605e-01,-1.002062617794541727e-01,-1.509725511525594310e+00,7.534230970778439396e-01
1.001480870728485684e+00,-1.008221792954472340e-01,-1.502146872978398440e+00,7.543141720219367352e-01
9.940534551705273447e-01,-1.000447573520912431e-01,-1.510219509797759541e+00,7.535338490280445445e-01
1.006652902161819130e+00,-1.008314214484711119e-01,-1.504555891489675723e+00,7.531811822398091216e-01
1.006652902161819130e+00,-1.008314214484711119e-01,-1.504555891489675723e+00,7.531811822398091216e-01
9.923035803550963596e-01,-9.966353418612550197e-02,-1.501437132858832957e+00,7.512884337784365707e-01
1.005793771622983224e+00,-1.004555125404654747e-01,-1.524072706924230136e+00,7.578724271153781666e-01
9.881136200467393049e-01,-9.979403076187705335e-02,-1.496175551599681297e+00,7.489561222563548837e-01
1.010926360065742324e+00,-1.010411339439833689e-01,-1.498904522853003796e+00,7.524676411347326344e-01
9.851702866454579155e-01,-9.922625466569036379e-02,-1.508192869663711022e+00,7.525120781210441478e-01
1.013142829466489703e+00,-1.010784738802428806e-01,-1.508914533230921062e+00,7.543868740996353406e-01
9.842367224066723708e-01,-9.893416759042282516e-02,-1.519899291756324988e+00,7.545998200000317846e-01
1.011284553912260353e+00,-1.007104510275258352e-01,-1.496919936916387028e+00,7.534058590513278419e-01
9.813212564251920789e-01,-9.933415374448405222e-02,-1.523282326465896563e+00,7.592512000156221852e-01
1.006912885166526994e+00,-1.006187503895783764e-01,-1.499730143246902347e+00,7.527772598167160600e-01
1.006912885166526994e+00,-1.006187503895783764e-01,-1.499730143246902347e+00,7.527772598167160600e-01
1.006912885166526994e+00,-1.006187503895783764e-01,-1.499730143246902347e+00,7.527772598167160600e-01
9.935595902580576233e-01,-9.985839558047193698e-02,-1.503802252195363343e+00,7.521524527718810305e-01
9.984805861157550755e-01,-1.001142173489063675e-01,-1.523184914206769491e+00,7.571256633876661812e-01
1.002282585635311030e+00,-1.008438046631218304e-01,-1.503470366589690910e+00,7.510081134941192227e-01
9.956188918820142453e-01,-9.981876269011227820e-02,-1.513553985138926805e+00,7.539317145741143422e-01
9.959390804456436097e-01,-9.977390204138569807e-02,-1.499496304041164407e+00,7.508818531145914354e-01
9.994267737522867234e-01,-1.005015155129068694e-01,-1.524213570457599642e+00,7.582166714030947885e-01
9.939109954229113919e-01,-9.946292992585106796e-02,-1.502532340786217668e+00,7.507226940884926814e-01
9.968173511064021275e-01,-1.004612075973776442e-01,-1.508891824017326577e+00,7.539975614147956806e-01
9.944113268582227549e-01,-9.962378985896513939e-02,-1.508775600897584335e+00,7.530255424336039782e-01
1.000946810845137813e+00,-1.004175278891475120e-01,-1.508576782471595434e+00,7.509269814872738813e-01
9.991692672477044956e-01,-1.001655970699567300e-01,-1.509454187462616837e+00,7.510939764039304967e-01
9.996431557263070200e-01,-1.004707157475741991e-01,-1.525032682479429802e+00,7.535627218188933885e-01
9.919522873256002571e-01,-1.000754215342287978e-01,-1.497282953881544421e+00,7.478579484914901210e-01
9.919522873256002571e-01,-1.000754215342287978e-01,-1.497282953881544421e+00,7.478579484914901210e-01
1.000241086197778406e+00,-1.006732065595917353e-01,-1.517447173577180841e+00,7.566410401210559300e-01
9.967868014344264394e-01,-1.009445303954880635e-01,-1.503881563595255599e+00,7.550922380618361185e-01
9.977220180484653866e-01,-1.005062697686283923e-01,-1.504704047891659791e+00,7.554587280428390894e-01
9.914330928532857357e-01,-9.953640581939059151e-02,-1.527108555764431497e+00,7.617165640814802519e-01
9.914330928532857357e-01,-9.953640581939059151e-02,-1.527108555764431497e+00,7.617165640814802519e-01
1.002519819924633016e+00,-9.989304086829202400e-02,-1.494542815847694106e+00,7.475284889414463008e-01
9.905128944951709924e-01,-9.972718130782627644e-02,-1.520947286060467141e+00,7.560039880957011293e-01
9.905128944951709924e-01,-9.972718130782627644e-02,-1.520947286060467141e+00,7.560039880957011293e-01
1.000686661929130583e+00,-1.004822893316054538e-01,-1.498626785050885646e+00,7.521728123729151116e-01
9.935398834361585108e-01,-9.958746282804960270e-02,-1.519279178071566871e+00,7.545272221020303816e-01
9.937976210483659978e-01,-9.987766087557764516e-02,-1.493304507412099191e+00,7.501924807353733682e-01
1.000345084904088022e+00,-9.987027560104760893e-02,-1.520854615247472230e+00,7.548057227758623311e-01
1.000345084904088022e+00,-9.987027560104760893e-02,-1.520854615247472230e+00,7.548057227758623311e-01
9.968207339333778894e-01,-1.004930398049232176e-01,-1.498401437941284664e+00,7.509368642590087406e-01
9.949328885583945681e-01,-9.944514283202260385e-02,-1.519824276769629501e+00,7.543001400895251729e-01
9.953688706321263124e-01,-9.983585520976442917e-02,-1.501178985846517433e+00,7.514332786210095039e-01
9.981342653612388371e-01,-1.001417703631719558e-01,-1.500573445939614503e+00,7.528096504722838755e-01
9.858344901025221096e-01,-9.968216034523688651e-02,-1.523632601912271900e+00,7.586612433453243654e-01
1.006893713122939626e+00,-1.005029618251476603e-01,-1.504706981240955699e+00,7.528151279872647983e-01
9.927626948120678030e-01,-9.972765838022613905e-02,-1.500454205577290701e+00,7.506707878296348113e-01
1.003860739626223797e+00,-1.005397780679597175e-01,-1.516705114656542230e+00,7.555541761463043793e-01
9.999270412480339987e-01,-1.002951665001236697e-01,-1.502987978610833109e+00,7.523973829480843367e-01
9.911320174022423268e-01,-1.000401495583713163e-01,-1.491751302338446550e+00,7.478590597061935963e-01
1.000597131027017639e+00,-9.988288187616703451e-02,-1.508323346336374993e+00,7.535472293649624342e-01
9.962929231100078331e-01,-1.000169968842621326e-01,-1.513377060224763371e+00,7.537880028772321328e-01
9.918324554410694605e-01,-9.985378989993452803e-02,-1.500328683581555023e+00,7.498448738094515287e-01
1.004255452964995188e+00,-1.001519705919224762e-01,-1.527493001204859979e+00,7.585265752240023529e-01
9.923824060531069025e-01,-1.001750184415766409e-01,-1.500945073593682677e+00,7.511384638017543081e-01
1.000194544321010959e+00,-9.991021154364158885e-02,-1.522337667168305542e+00,7.575107315933018448e-01
1.000194544321010959e+00,-9.991021154364158885e-02,-1.522337667168305542e+00,7.575107315933018448e-01
9.986373608872213259e-01,-1.006443310385212314e-01,-1.496888550959740494e+00,7.501605516415567054e-01
9.977993915375861222e-01,-1.003779513731885564e-01,-1.515392785676182408e+00,7.561853868412720114e-01
9.931355632269727174e-01,-1.001368394286459712e-01,-1.492598438894161994e+00,7.482373915600182279e-01
1.005164640383800823e+00,-1.009230017170239385e-01,-1.524855770814749878e+00,7.581363122820721223e-01
1.005164640383800823e+00,-1.009230017170239385e-01,-1.524855770814749878e+00,7.581363122820721223e-01
9.942942754202840350e-01,-1.004525861723448849e-01,-1.493394895830947089e+00,7.482040630372808199e-01
9.972563252142887524e-01,-1.004595045052238261e-01,-1.525764007009561496e+00,7.588929854085145754e-01
1.000085183676731271e+00,-1.004279615203306775e-01,-1.506860234387924713e+00,7.509463158137253957e-01
9.927251421448632929e-01,-9.965656258680360979e-02,-1.517729761526229293e+00,7.581097411587319757e-01
1.005534092367177390e+00,-9.995792191121392889e-02,-1.517180115515736505e+00,7.530862937240753174e-01
9.997856280949493080e-01,-1.003234449654073351e-01,-1.493731251313141772e+00,7.517090656452892761e-01
9.997856280949493080e-01,-1.003234449654073351e-01,-1.493731251313141772e+00,7.517090656452892761e-01
1.004943428540374883e+00,-1.001381735279935764e-01,-1.514814582102275597e+00,7.544255385214303500e-01
1.004943428540374883e+00,-1.001381735279935764e-01,-1.514814582102275597e+00,7.544255385214303500e-01
9.933377466076102058e-01,-9.942895976384280576e-02,-1.502395874276811316e+00,7.518085108516623372e-01
9.999693309702115673e-01,-9.999781396145214496e-02,-1.504540766184630840e+00,7.529714140612164819e-01
9.909626256023209567e-01,-9.911712162104228951e-02,-1.520743775136563114e+00,7.545259790075616868e-01
1.002826185448194130e+00,-1.003213665934720028e-01,-1.508818944400499351e+00,7.560574515361417891e-01
1.001103071321679083e+00,-1.003127313811376792e-01,-1.512714386411814882e+00,7.553407751699433570e-01
9.938310238216818693e-01,-9.950936309116720224e-02,-1.499505633110421954e+00,7.499863403696638287e-01
9.985087636296123836e-01,-1.001133569893217640e-01,-1.516155831339722093e+00,7.556734755979601648e-01
9.985087636296123836e-01,-1.001133569893217640e-01,-1.516155831339722093e+00,7.556734755979601648e-01
1.005858429836766987e+00,-1.006291456353670122e-01,-1.490040480505613107e+00,7.479193764838792946e-01
1.005858429836766987e+00,-1.006291456353670122e-01,-1.490040480505613107e+00,7.479193764838792946e-01
1.000001646782084030e+00,-1.000529330069188649e-01,-1.519473269661824721e+00,7.562234334532980107e-01
9.989977760481824065e-01,-9.995290657147888613e-02,-1.499704132834831283e+00,7.518113246232214220e-01
9.989977760481824065e-01,-9.995290657147888613e-02,-1.499704132834831283e+00,7.518113246232214220e-01
1.001381807169210436e+00,-1.003923838608853369e-01,-1.511879611833750303e+00,7.530033086823204602e-01
1.001381807169210436e+00,-1.003923838608853369e-01,-1.511879611833750303e+00,7.530033086823204602e-01
9.921297353055580359e-01,-9.988818837178052579e-02,-1.503998824881492835e+00,7.518291335929919716e-01
1.012639526368715348e+00,-1.010079705116261883e-01,-1.508208874827750678e+00,7.530251467399262655e-01
9.888105017029698018e-01,-9.954127418043563769e-02,-1.510996056956712241e+00,7.551919587157360780e-01
1.002547053405459909e+00,-1.007032165409685737e-01,-1.513857967098102497e+00,7.562418801020247550e-01
9.960742520415178936e-01,-1.001682209092551595e-01,-1.511843019291637003e+00,7.536414158895110571e-01
1.002194618249529157e+00,-1.006079431324879980e-01,-1.499384659520984098e+00,7.510631579624843512e-01
9.971172551195107703e-01,-1.001883311544471827e-01,-1.518365456186562712e+00,7.574507483621365500e-01
1.004270944008568867e+00,-9.997851921110074980e-02,-1.496608640918314803e+00,7.496734074130050329e-01
1.004270944008568867e+00,-9.997851921110074980e-02,-1.496608640918314803e+00,7.496734074130050329e-01
9.976679403961969950e-01,-9.946059657309434809e-02,-1.513590953235108394e+00,7.543070729723826418e-01
9.996740924056238820e-01,-9.967446631622857434e-02,-1.499978521244973662e+00,7.509931510180972714e-01
9.938901239765959295e-01,-9.940424658401858515e-02,-1.505426704547341066e+00,7.535851707858244319e-01
1.002708543313627798e+00,-9.964952539191794523e-02,-1.513150514917083633e+00,7.531833474418987429e-01
9.903704672799568121e-01,-1.003905874999836828e-01,-1.502768495681814143e+00,7.533996319854044943e-01
1.009109559359279373e+00,-1.006664694657881942e-01,-1.499686922102318354e+00,7.506153711747700630e-01
9.853710480185224885e-01,-9.921800859806255424e-02,-1.512129262851301670e+00,7.539641072781991804e-01
1.007303437202890173e+00,-1.008991813214756145e-01,-1.504322640347539153e+00,7.542169757348132775e-01
9.957288706729524597e-01,-9.982067960355246738e-02,-1.502752282433981845e+00,7.484129436594848528e-01
1.001974933826270897e+00,-1.012038118078708443e-01,-1.506765912179132139e+00,7.546421238518211672e-01
9.922847750530715549e-01,-1.000380362194824985e-01,-1.517549755558959435e+00,7.545156850651409952e-01
9.959047866886608924e-01,-1.003963651670824186e-01,-1.502756868736709661e+00,7.510363452489466907e-01
