1.723813527566276944e-03,-1.176267524864131695e-03,-2.654027646771590487e-03,-6.830280646728133058e-03,-5.154757233182130985e-03,-1.224510265047681554e-02,-7.498604321692634196e-03,8.368224957029322605e-03,-1.067448487292866829e-02,1.693528269908411640e-02,-6.004244081699435139e-03,1.100301303499966188e-02,1.994906538604815038e+00,-1.007724650187839938e-01,1.920599707927490504e-02,-2.694126960775047527e-02,4.583130823920098657e-02,-5.247747272813975059e-03,-9.889454769840334836e-02,-2.018336596320627674e+00
2.709359883422583944e-03,-1.232144594268725279e-03,-3.331071512264960604e-03,-4.858286945711027573e-03,-8.910281690326298659e-03,-1.540710720021883952e-02,-1.078769931322449624e-02,7.730128067957692597e-03,-1.028861738493182937e-02,1.234581480619872419e-02,-3.498627160148678854e-03,1.207228085683685614e-02,1.998402543863971870e+00,-1.018037787914314179e-01,1.548999049460201421e-02,-2.726193681341960648e-02,4.195209070094200327e-02,-7.316833595341865233e-03,-9.532676929465991322e-02,-2.015226456020561940e+00
1.725777819754888490e-03,-1.458222181805641842e-03,-2.681142288864667936e-03,-5.205890091207070886e-03,-9.331490542572044161e-03,-1.644715917951206779e-02,-8.484025615061847880e-03,7.985165198860180724e-03,-8.692749488828883236e-03,1.329317776779080813e-02,-3.947364155955894113e-03,1.044095725912629925e-02,1.998261924978274706e+00,-1.025049299863373675e-01,1.470631302283829586e-02,-2.438875726814182868e-02,3.975737361115183610e-02,-1.114711906648777930e-02,-9.243477811939335154e-02,-2.016425583980674396e+00
1.725777819754888490e-03,-1.458222181805641842e-03,-2.681142288864667936e-03,-5.205890091207070886e-03,-9.331490542572044161e-03,-1.644715917951206779e-02,-8.484025615061847880e-03,7.985165198860180724e-03,-8.692749488828883236e-03,1.329317776779080813e-02,-3.947364155955894113e-03,1.044095725912629925e-02,1.998261924978274706e+00,-1.025049299863373675e-01,1.470631302283829586e-02,-2.438875726814182868e-02,3.975737361115183610e-02,-1.114711906648777930e-02,-9.243477811939335154e-02,-2.016425583980674396e+00
1.834647976823357242e-03,-1.787396962638626704e-03,-2.438513249538914931e-03,-4.823979078173750400e-03,-1.012445239879156481e-02,-1.613533356212901518e-02,-5.213042763453718843e-03,8.763227095031182745e-03,-1.302738561899865512e-02,1.627525913872824789e-02,-4.370266137350531377e-03,1.291748962321492486e-02,1.993235037274579735e+00,-1.025638371229688206e-01,1.864641369652782904e-02,-2.582071965218658144e-02,4.199298501074980733e-02,-6.688728967798978665e-03,-9.547545392056420999e-02,-2.018939377592531947e+00
2.786338150991036263e-03,-3.570171516445067288e-03,-3.139836809703276042e-05,-6.684182668456510948e-03,-6.863187085927947677e-03,-1.312883441784275240e-02,-7.393209786149035172e-03,1.236723700484716575e-02,-1.823431228185528816e-02,1.310251237440930236e-02,-4.415654768885870531e-03,1.333279441895086383e-02,1.992987768963332407e+00,-1.023632263335551990e-01,1.842367351359110866e-02,-2.885778280786173433e-02,4.914581333201707702e-02,-1.101538680552947326e-03,-9.754589618568401677e-02,-2.015421707380930183e+00
2.786338150991036263e-03,-3.570171516445067288e-03,-3.139836809703276042e-05,-6.684182668456510948e-03,-6.863187085927947677e-03,-1.312883441784275240e-02,-7.393209786149035172e-03,1.236723700484716575e-02,-1.823431228185528816e-02,1.310251237440930236e-02,-4.415654768885870531e-03,1.333279441895086383e-02,1.992987768963332407e+00,-1.023632263335551990e-01,1.842367351359110866e-02,-2.885778280786173433e-02,4.914581333201707702e-02,-1.101538680552947326e-03,-9.754589618568401677e-02,-2.015421707380930183e+00
3.223574798061648768e-03,-1.534022725384491309e-03,-5.064626279488545178e-03,-5.715944542204105978e-03,-5.787638061705958382e-03,-1.216740242013268983e-02,-3.887881080157246441e-03,6.779999908827051905e-03,-1.747469091486859166e-02,1.338831084095141663e-02,-3.281820814325621220e-03,1.862785617931244850e-02,1.990398743241286850e+00,-1.027988378751581583e-01,1.843127231575841796e-02,-3.154173873935829653e-02,4.565712098196702401e-02,4.116009757206654809e-04,-9.850573993196019840e-02,-2.017862237030928707e+00
3.223574798061648768e-03,-1.534022725384491309e-03,-5.064626279488545178e-03,-5.715944542204105978e-03,-5.787638061705958382e-03,-1.216740242013268983e-02,-3.887881080157246441e-03,6.779999908827051905e-03,-1.747469091486859166e-02,1.338831084095141663e-02,-3.281820814325621220e-03,1.862785617931244850e-02,1.990398743241286850e+00,-1.027988378751581583e-01,1.843127231575841796e-02,-3.154173873935829653e-02,4.565712098196702401e-02,4.116009757206654809e-04,-9.850573993196019840e-02,-2.017862237030928707e+00
3.223574798061648768e-03,-1.534022725384491309e-03,-5.064626279488545178e-03,-5.715944542204105978e-03,-5.787638061705958382e-03,-1.216740242013268983e-02,-3.887881080157246441e-03,6.779999908827051905e-03,-1.747469091486859166e-02,1.338831084095141663e-02,-3.281820814325621220e-03,1.862785617931244850e-02,1.990398743241286850e+00,-1.027988378751581583e-01,1.843127231575841796e-02,-3.154173873935829653e-02,4.565712098196702401e-02,4.116009757206654809e-04,-9.850573993196019840e-02,-2.017862237030928707e+00
3.223574798061648768e-03,-1.534022725384491309e-03,-5.064626279488545178e-03,-5.715944542204105978e-03,-5.787638061705958382e-03,-1.216740242013268983e-02,-3.887881080157246441e-03,6.779999908827051905e-03,-1.747469091486859166e-02,1.338831084095141663e-02,-3.281820814325621220e-03,1.862785617931244850e-02,1.990398743241286850e+00,-1.027988378751581583e-01,1.843127231575841796e-02,-3.154173873935829653e-02,4.565712098196702401e-02,4.116009757206654809e-04,-9.850573993196019840e-02,-2.017862237030928707e+00
4.674203263031388375e-03,-5.870678424945820553e-03,1.404347665115883393e-03,-2.995578400574606948e-03,-4.888081742437920020e-03,-4.018336138369882349e-03,-4.489681640447930507e-03,1.127371392272956928e-02,-1.910850116262748435e-02,1.386285492029800184e-02,-6.234207730705355888e-03,2.182077861060810475e-02,1.990475112000764435e+00,-1.034651897612136190e-01,1.678757064882094308e-02,-2.730920999708250779e-02,3.877532918505980503e-02,-1.589713650271493747e-03,-9.634047707189012655e-02,-2.020470455048017477e+00
4.674203263031388375e-03,-5.870678424945820553e-03,1.404347665115883393e-03,-2.995578400574606948e-03,-4.888081742437920020e-03,-4.018336138369882349e-03,-4.489681640447930507e-03,1.127371392272956928e-02,-1.910850116262748435e-02,1.386285492029800184e-02,-6.234207730705355888e-03,2.182077861060810475e-02,1.990475112000764435e+00,-1.034651897612136190e-01,1.678757064882094308e-02,-2.730920999708250779e-02,3.877532918505980503e-02,-1.589713650271493747e-03,-9.634047707189012655e-02,-2.020470455048017477e+00
2.143812003150149994e-03,-3.483278029376203969e-03,-3.215239377991337393e-03,-3.574136373843773539e-03,-5.188595791550538495e-03,-8.237049605007431066e-03,-6.489132391867384782e-03,9.901603997197893844e-03,-1.772312627154790793e-02,1.817752347589257980e-02,-2.174671514114246817e-03,2.143292268776861298e-02,1.987607317106969473e+00,-1.034973658156991133e-01,1.510088202880232634e-02,-2.772297107962674173e-02,4.136057020665079992e-02,3.597299342441467526e-03,-9.867098521963303670e-02,-2.021636427952016035e+00
2.143812003150149994e-03,-3.483278029376203969e-03,-3.215239377991337393e-03,-3.574136373843773539e-03,-5.188595791550538495e-03,-8.237049605007431066e-03,-6.489132391867384782e-03,9.901603997197893844e-03,-1.772312627154790793e-02,1.817752347589257980e-02,-2.174671514114246817e-03,2.143292268776861298e-02,1.987607317106969473e+00,-1.034973658156991133e-01,1.510088202880232634e-02,-2.772297107962674173e-02,4.136057020665079992e-02,3.597299342441467526e-03,-9.867098521963303670e-02,-2.021636427952016035e+00
2.143812003150149994e-03,-3.483278029376203969e-03,-3.215239377991337393e-03,-3.574136373843773539e-03,-5.188595791550538495e-03,-8.237049605007431066e-03,-6.489132391867384782e-03,9.901603997197893844e-03,-1.772312627154790793e-02,1.817752347589257980e-02,-2.174671514114246817e-03,2.143292268776861298e-02,1.987607317106969473e+00,-1.034973658156991133e-01,1.510088202880232634e-02,-2.772297107962674173e-02,4.136057020665079992e-02,3.597299342441467526e-03,-9.867098521963303670e-02,-2.021636427952016035e+00
4.435076562259390558e-03,-7.054998702881170626e-03,3.036283489053747883e-03,-4.966689925095393345e-03,-6.424331764280646721e-03,-7.960799378594287171e-03,-4.590726193250692193e-03,1.218145816924696978e-02,-1.604416171525968951e-02,1.586379448154374289e-02,-8.181899596377767772e-03,2.103007824684002824e-02,1.991150214934136686e+00,-1.023857112433041172e-01,1.596108236061311025e-02,-2.407021187865418174e-02,4.190323012226692539e-02,-3.657922447929869169e-04,-9.693986898053762180e-02,-2.018825957911161151e+00
4.435076562259390558e-03,-7.054998702881170626e-03,3.036283489053747883e-03,-4.966689925095393345e-03,-6.424331764280646721e-03,-7.960799378594287171e-03,-4.590726193250692193e-03,1.218145816924696978e-02,-1.604416171525968951e-02,1.586379448154374289e-02,-8.181899596377767772e-03,2.103007824684002824e-02,1.991150214934136686e+00,-1.023857112433041172e-01,1.596108236061311025e-02,-2.407021187865418174e-02,4.190323012226692539e-02,-3.657922447929869169e-04,-9.693986898053762180e-02,-2.018825957911161151e+00
4.435076562259390558e-03,-7.054998702881170626e-03,3.036283489053747883e-03,-4.966689925095393345e-03,-6.424331764280646721e-03,-7.960799378594287171e-03,-4.590726193250692193e-03,1.218145816924696978e-02,-1.604416171525968951e-02,1.586379448154374289e-02,-8.181899596377767772e-03,2.103007824684002824e-02,1.991150214934136686e+00,-1.023857112433041172e-01,1.596108236061311025e-02,-2.407021187865418174e-02,4.190323012226692539e-02,-3.657922447929869169e-04,-9.693986898053762180e-02,-2.018825957911161151e+00
4.435076562259390558e-03,-7.054998702881170626e-03,3.036283489053747883e-03,-4.966689925095393345e-03,-6.424331764280646721e-03,-7.960799378594287171e-03,-4.590726193250692193e-03,1.218145816924696978e-02,-1.604416171525968951e-02,1.586379448154374289e-02,-8.181899596377767772e-03,2.103007824684002824e-02,1.991150214934136686e+00,-1.023857112433041172e-01,1.596108236061311025e-02,-2.407021187865418174e-02,4.190323012226692539e-02,-3.657922447929869169e-04,-9.693986898053762180e-02,-2.018825957911161151e+00
4.435076562259390558e-03,-7.054998702881170626e-03,3.036283489053747883e-03,-4.966689925095393345e-03,-6.424331764280646721e-03,-7.960799378594287171e-03,-4.590726193250692193e-03,1.218145816924696978e-02,-1.604416171525968951e-02,1.586379448154374289e-02,-8.181899596377767772e-03,2.103007824684002824e-02,1.991150214934136686e+00,-1.023857112433041172e-01,1.596108236061311025e-02,-2.407021187865418174e-02,4.190323012226692539e-02,-3.657922447929869169e-04,-9.693986898053762180e-02,-2.018825957911161151e+00
4.435076562259390558e-03,-7.054998702881170626e-03,3.036283489053747883e-03,-4.966689925095393345e-03,-6.424331764280646721e-03,-7.960799378594287171e-03,-4.590726193250692193e-03,1.218145816924696978e-02,-1.604416171525968951e-02,1.586379448154374289e-02,-8.181899596377767772e-03,2.103007824684002824e-02,1.991150214934136686e+00,-1.023857112433041172e-01,1.596108236061311025e-02,-2.407021187865418174e-02,4.190323012226692539e-02,-3.657922447929869169e-04,-9.693986898053762180e-02,-2.018825957911161151e+00
4.435076562259390558e-03,-7.054998702881170626e-03,3.036283489053747883e-03,-4.966689925095393345e-03,-6.424331764280646721e-03,-7.960799378594287171e-03,-4.590726193250692193e-03,1.218145816924696978e-02,-1.604416171525968951e-02,1.586379448154374289e-02,-8.181899596377767772e-03,2.103007824684002824e-02,1.991150214934136686e+00,-1.023857112433041172e-01,1.596108236061311025e-02,-2.407021187865418174e-02,4.190323012226692539e-02,-3.657922447929869169e-04,-9.693986898053762180e-02,-2.018825957911161151e+00
-5.580081200158568729e-04,-3.853483867147926376e-03,9.511622039838047533e-04,-2.623352201167035089e-03,-7.220174390023020167e-03,-7.109135767683147020e-03,-2.638475135660623729e-03,7.967038364596876199e-03,-1.330005803449979714e-02,1.362654958414469090e-02,1.796862732276981710e-04,2.266661195092039768e-02,1.986766691871747259e+00,-1.032244086943148731e-01,1.434999269942378169e-02,-2.223415117197675289e-02,3.991660765700594943e-02,1.679664507896259972e-03,-9.659326534257943464e-02,-2.023945197153876663e+00
-5.580081200158568729e-04,-3.853483867147926376e-03,9.511622039838047533e-04,-2.623352201167035089e-03,-7.220174390023020167e-03,-7.109135767683147020e-03,-2.638475135660623729e-03,7.967038364596876199e-03,-1.330005803449979714e-02,1.362654958414469090e-02,1.796862732276981710e-04,2.266661195092039768e-02,1.986766691871747259e+00,-1.032244086943148731e-01,1.434999269942378169e-02,-2.223415117197675289e-02,3.991660765700594943e-02,1.679664507896259972e-03,-9.659326534257943464e-02,-2.023945197153876663e+00
-5.580081200158568729e-04,-3.853483867147926376e-03,9.511622039838047533e-04,-2.623352201167035089e-03,-7.220174390023020167e-03,-7.109135767683147020e-03,-2.638475135660623729e-03,7.967038364596876199e-03,-1.330005803449979714e-02,1.362654958414469090e-02,1.796862732276981710e-04,2.266661195092039768e-02,1.986766691871747259e+00,-1.032244086943148731e-01,1.434999269942378169e-02,-2.223415117197675289e-02,3.991660765700594943e-02,1.679664507896259972e-03,-9.659326534257943464e-02,-2.023945197153876663e+00
-5.580081200158568729e-04,-3.853483867147926376e-03,9.511622039838047533e-04,-2.623352201167035089e-03,-7.220174390023020167e-03,-7.109135767683147020e-03,-2.638475135660623729e-03,7.967038364596876199e-03,-1.330005803449979714e-02,1.362654958414469090e-02,1.796862732276981710e-04,2.266661195092039768e-02,1.986766691871747259e+00,-1.032244086943148731e-01,1.434999269942378169e-02,-2.223415117197675289e-02,3.991660765700594943e-02,1.679664507896259972e-03,-9.659326534257943464e-02,-2.023945197153876663e+00
-5.580081200158568729e-04,-3.853483867147926376e-03,9.511622039838047533e-04,-2.623352201167035089e-03,-7.220174390023020167e-03,-7.109135767683147020e-03,-2.638475135660623729e-03,7.967038364596876199e-03,-1.330005803449979714e-02,1.362654958414469090e-02,1.796862732276981710e-04,2.266661195092039768e-02,1.986766691871747259e+00,-1.032244086943148731e-01,1.434999269942378169e-02,-2.223415117197675289e-02,3.991660765700594943e-02,1.679664507896259972e-03,-9.659326534257943464e-02,-2.023945197153876663e+00
-5.580081200158568729e-04,-3.853483867147926376e-03,9.511622039838047533e-04,-2.623352201167035089e-03,-7.220174390023020167e-03,-7.109135767683147020e-03,-2.638475135660623729e-03,7.967038364596876199e-03,-1.330005803449979714e-02,1.362654958414469090e-02,1.796862732276981710e-04,2.266661195092039768e-02,1.986766691871747259e+00,-1.032244086943148731e-01,1.434999269942378169e-02,-2.223415117197675289e-02,3.991660765700594943e-02,1.679664507896259972e-03,-9.659326534257943464e-02,-2.023945197153876663e+00
-5.580081200158568729e-04,-3.853483867147926376e-03,9.511622039838047533e-04,-2.623352201167035089e-03,-7.220174390023020167e-03,-7.109135767683147020e-03,-2.638475135660623729e-03,7.967038364596876199e-03,-1.330005803449979714e-02,1.362654958414469090e-02,1.796862732276981710e-04,2.266661195092039768e-02,1.986766691871747259e+00,-1.032244086943148731e-01,1.434999269942378169e-02,-2.223415117197675289e-02,3.991660765700594943e-02,1.679664507896259972e-03,-9.659326534257943464e-02,-2.023945197153876663e+00
4.260329280973777430e-03,-5.403716623237574644e-03,1.626667514538163205e-03,-4.611169739885252056e-03,-2.748470861645099707e-03,-4.756554488521182351e-03,-2.505736692351732069e-05,5.842471333191105905e-03,-9.441088352128881866e-03,1.025172941559191787e-02,-7.913459041317221637e-03,2.096455761272897692e-02,1.983930036120776785e+00,-1.012359593210403613e-01,1.389660564688765393e-02,-2.479217794398279676e-02,3.671140492623355123e-02,1.419913423433010521e-03,-9.821484329161037086e-02,-2.020999664091136960e+00
4.260329280973777430e-03,-5.403716623237574644e-03,1.626667514538163205e-03,-4.611169739885252056e-03,-2.748470861645099707e-03,-4.756554488521182351e-03,-2.505736692351732069e-05,5.842471333191105905e-03,-9.441088352128881866e-03,1.025172941559191787e-02,-7.913459041317221637e-03,2.096455761272897692e-02,1.983930036120776785e+00,-1.012359593210403613e-01,1.389660564688765393e-02,-2.479217794398279676e-02,3.671140492623355123e-02,1.419913423433010521e-03,-9.821484329161037086e-02,-2.020999664091136960e+00
4.260329280973777430e-03,-5.403716623237574644e-03,1.626667514538163205e-03,-4.611169739885252056e-03,-2.748470861645099707e-03,-4.756554488521182351e-03,-2.505736692351732069e-05,5.842471333191105905e-03,-9.441088352128881866e-03,1.025172941559191787e-02,-7.913459041317221637e-03,2.096455761272897692e-02,1.983930036120776785e+00,-1.012359593210403613e-01,1.389660564688765393e-02,-2.479217794398279676e-02,3.671140492623355123e-02,1.419913423433010521e-03,-9.821484329161037086e-02,-2.020999664091136960e+00
4.260329280973777430e-03,-5.403716623237574644e-03,1.626667514538163205e-03,-4.611169739885252056e-03,-2.748470861645099707e-03,-4.756554488521182351e-03,-2.505736692351732069e-05,5.842471333191105905e-03,-9.441088352128881866e-03,1.025172941559191787e-02,-7.913459041317221637e-03,2.096455761272897692e-02,1.983930036120776785e+00,-1.012359593210403613e-01,1.389660564688765393e-02,-2.479217794398279676e-02,3.671140492623355123e-02,1.419913423433010521e-03,-9.821484329161037086e-02,-2.020999664091136960e+00
-3.297704732054943292e-04,-3.687578254125155330e-03,2.331989055108900973e-03,-3.701079406537056103e-03,-1.694698577301022649e-03,-2.025135645897839943e-03,4.742211012654528766e-04,5.337413413451781545e-03,-5.295260141776201440e-03,1.426969109386172496e-02,-3.142361978389770442e-03,2.005251868704137005e-02,1.983256432337629382e+00,-1.007466833670027789e-01,1.259322189515278689e-02,-2.688179425411976742e-02,3.576014859812893382e-02,-5.902343884655789595e-04,-9.844845035130858624e-02,-2.018903564664925376e+00
-3.297704732054943292e-04,-3.687578254125155330e-03,2.331989055108900973e-03,-3.701079406537056103e-03,-1.694698577301022649e-03,-2.025135645897839943e-03,4.742211012654528766e-04,5.337413413451781545e-03,-5.295260141776201440e-03,1.426969109386172496e-02,-3.142361978389770442e-03,2.005251868704137005e-02,1.983256432337629382e+00,-1.007466833670027789e-01,1.259322189515278689e-02,-2.688179425411976742e-02,3.576014859812893382e-02,-5.902343884655789595e-04,-9.844845035130858624e-02,-2.018903564664925376e+00
-3.297704732054943292e-04,-3.687578254125155330e-03,2.331989055108900973e-03,-3.701079406537056103e-03,-1.694698577301022649e-03,-2.025135645897839943e-03,4.742211012654528766e-04,5.337413413451781545e-03,-5.295260141776201440e-03,1.426969109386172496e-02,-3.142361978389770442e-03,2.005251868704137005e-02,1.983256432337629382e+00,-1.007466833670027789e-01,1.259322189515278689e-02,-2.688179425411976742e-02,3.576014859812893382e-02,-5.902343884655789595e-04,-9.844845035130858624e-02,-2.018903564664925376e+00
-3.297704732054943292e-04,-3.687578254125155330e-03,2.331989055108900973e-03,-3.701079406537056103e-03,-1.694698577301022649e-03,-2.025135645897839943e-03,4.742211012654528766e-04,5.337413413451781545e-03,-5.295260141776201440e-03,1.426969109386172496e-02,-3.142361978389770442e-03,2.005251868704137005e-02,1.983256432337629382e+00,-1.007466833670027789e-01,1.259322189515278689e-02,-2.688179425411976742e-02,3.576014859812893382e-02,-5.902343884655789595e-04,-9.844845035130858624e-02,-2.018903564664925376e+00
-3.297704732054943292e-04,-3.687578254125155330e-03,2.331989055108900973e-03,-3.701079406537056103e-03,-1.694698577301022649e-03,-2.025135645897839943e-03,4.742211012654528766e-04,5.337413413451781545e-03,-5.295260141776201440e-03,1.426969109386172496e-02,-3.142361978389770442e-03,2.005251868704137005e-02,1.983256432337629382e+00,-1.007466833670027789e-01,1.259322189515278689e-02,-2.688179425411976742e-02,3.576014859812893382e-02,-5.902343884655789595e-04,-9.844845035130858624e-02,-2.018903564664925376e+00
-3.297704732054943292e-04,-3.687578254125155330e-03,2.331989055108900973e-03,-3.701079406537056103e-03,-1.694698577301022649e-03,-2.025135645897839943e-03,4.742211012654528766e-04,5.337413413451781545e-03,-5.295260141776201440e-03,1.426969109386172496e-02,-3.142361978389770442e-03,2.005251868704137005e-02,1.983256432337629382e+00,-1.007466833670027789e-01,1.259322189515278689e-02,-2.688179425411976742e-02,3.576014859812893382e-02,-5.902343884655789595e-04,-9.844845035130858624e-02,-2.018903564664925376e+00
-3.297704732054943292e-04,-3.687578254125155330e-03,2.331989055108900973e-03,-3.701079406537056103e-03,-1.694698577301022649e-03,-2.025135645897839943e-03,4.742211012654528766e-04,5.337413413451781545e-03,-5.295260141776201440e-03,1.426969109386172496e-02,-3.142361978389770442e-03,2.005251868704137005e-02,1.983256432337629382e+00,-1.007466833670027789e-01,1.259322189515278689e-02,-2.688179425411976742e-02,3.576014859812893382e-02,-5.902343884655789595e-04,-9.844845035130858624e-02,-2.018903564664925376e+00
3.214731617789790864e-03,-3.103188563356067738e-03,7.659972098089449025e-03,-6.415274800542627304e-03,-5.525441676524147326e-03,-6.457584487530804510e-03,-2.174452725209262329e-03,3.598773751184441462e-03,-4.276228870746544286e-03,1.284805646251011534e-02,-6.701011194102791772e-03,2.084530085710017966e-02,1.978824749469920041e+00,-1.010627359000225434e-01,1.263700131302744785e-02,-3.233101513156954460e-02,3.879900382502003697e-02,5.107249913168706570e-04,-9.504227055801262036e-02,-2.018800537366585601e+00
3.214731617789790864e-03,-3.103188563356067738e-03,7.659972098089449025e-03,-6.415274800542627304e-03,-5.525441676524147326e-03,-6.457584487530804510e-03,-2.174452725209262329e-03,3.598773751184441462e-03,-4.276228870746544286e-03,1.284805646251011534e-02,-6.701011194102791772e-03,2.084530085710017966e-02,1.978824749469920041e+00,-1.010627359000225434e-01,1.263700131302744785e-02,-3.233101513156954460e-02,3.879900382502003697e-02,5.107249913168706570e-04,-9.504227055801262036e-02,-2.018800537366585601e+00
3.214731617789790864e-03,-3.103188563356067738e-03,7.659972098089449025e-03,-6.415274800542627304e-03,-5.525441676524147326e-03,-6.457584487530804510e-03,-2.174452725209262329e-03,3.598773751184441462e-03,-4.276228870746544286e-03,1.284805646251011534e-02,-6.701011194102791772e-03,2.084530085710017966e-02,1.978824749469920041e+00,-1.010627359000225434e-01,1.263700131302744785e-02,-3.233101513156954460e-02,3.879900382502003697e-02,5.107249913168706570e-04,-9.504227055801262036e-02,-2.018800537366585601e+00
3.214731617789790864e-03,-3.103188563356067738e-03,7.659972098089449025e-03,-6.415274800542627304e-03,-5.525441676524147326e-03,-6.457584487530804510e-03,-2.174452725209262329e-03,3.598773751184441462e-03,-4.276228870746544286e-03,1.284805646251011534e-02,-6.701011194102791772e-03,2.084530085710017966e-02,1.978824749469920041e+00,-1.010627359000225434e-01,1.263700131302744785e-02,-3.233101513156954460e-02,3.879900382502003697e-02,5.107249913168706570e-04,-9.504227055801262036e-02,-2.018800537366585601e+00
3.214731617789790864e-03,-3.103188563356067738e-03,7.659972098089449025e-03,-6.415274800542627304e-03,-5.525441676524147326e-03,-6.457584487530804510e-03,-2.174452725209262329e-03,3.598773751184441462e-03,-4.276228870746544286e-03,1.284805646251011534e-02,-6.701011194102791772e-03,2.084530085710017966e-02,1.978824749469920041e+00,-1.010627359000225434e-01,1.263700131302744785e-02,-3.233101513156954460e-02,3.879900382502003697e-02,5.107249913168706570e-04,-9.504227055801262036e-02,-2.018800537366585601e+00
3.214731617789790864e-03,-3.103188563356067738e-03,7.659972098089449025e-03,-6.415274800542627304e-03,-5.525441676524147326e-03,-6.457584487530804510e-03,-2.174452725209262329e-03,3.598773751184441462e-03,-4.276228870746544286e-03,1.284805646251011534e-02,-6.701011194102791772e-03,2.084530085710017966e-02,1.978824749469920041e+00,-1.010627359000225434e-01,1.263700131302744785e-02,-3.233101513156954460e-02,3.879900382502003697e-02,5.107249913168706570e-04,-9.504227055801262036e-02,-2.018800537366585601e+00
3.214731617789790864e-03,-3.103188563356067738e-03,7.659972098089449025e-03,-6.415274800542627304e-03,-5.525441676524147326e-03,-6.457584487530804510e-03,-2.174452725209262329e-03,3.598773751184441462e-03,-4.276228870746544286e-03,1.284805646251011534e-02,-6.701011194102791772e-03,2.084530085710017966e-02,1.978824749469920041e+00,-1.010627359000225434e-01,1.263700131302744785e-02,-3.233101513156954460e-02,3.879900382502003697e-02,5.107249913168706570e-04,-9.504227055801262036e-02,-2.018800537366585601e+00
3.214731617789790864e-03,-3.103188563356067738e-03,7.659972098089449025e-03,-6.415274800542627304e-03,-5.525441676524147326e-03,-6.457584487530804510e-03,-2.174452725209262329e-03,3.598773751184441462e-03,-4.276228870746544286e-03,1.284805646251011534e-02,-6.701011194102791772e-03,2.084530085710017966e-02,1.978824749469920041e+00,-1.010627359000225434e-01,1.263700131302744785e-02,-3.233101513156954460e-02,3.879900382502003697e-02,5.107249913168706570e-04,-9.504227055801262036e-02,-2.018800537366585601e+00
3.214731617789790864e-03,-3.103188563356067738e-03,7.659972098089449025e-03,-6.415274800542627304e-03,-5.525441676524147326e-03,-6.457584487530804510e-03,-2.174452725209262329e-03,3.598773751184441462e-03,-4.276228870746544286e-03,1.284805646251011534e-02,-6.701011194102791772e-03,2.084530085710017966e-02,1.978824749469920041e+00,-1.010627359000225434e-01,1.263700131302744785e-02,-3.233101513156954460e-02,3.879900382502003697e-02,5.107249913168706570e-04,-9.504227055801262036e-02,-2.018800537366585601e+00
3.214731617789790864e-03,-3.103188563356067738e-03,7.659972098089449025e-03,-6.415274800542627304e-03,-5.525441676524147326e-03,-6.457584487530804510e-03,-2.174452725209262329e-03,3.598773751184441462e-03,-4.276228870746544286e-03,1.284805646251011534e-02,-6.701011194102791772e-03,2.084530085710017966e-02,1.978824749469920041e+00,-1.010627359000225434e-01,1.263700131302744785e-02,-3.233101513156954460e-02,3.879900382502003697e-02,5.107249913168706570e-04,-9.504227055801262036e-02,-2.018800537366585601e+00
3.214731617789790864e-03,-3.103188563356067738e-03,7.659972098089449025e-03,-6.415274800542627304e-03,-5.525441676524147326e-03,-6.457584487530804510e-03,-2.174452725209262329e-03,3.598773751184441462e-03,-4.276228870746544286e-03,1.284805646251011534e-02,-6.701011194102791772e-03,2.084530085710017966e-02,1.978824749469920041e+00,-1.010627359000225434e-01,1.263700131302744785e-02,-3.233101513156954460e-02,3.879900382502003697e-02,5.107249913168706570e-04,-9.504227055801262036e-02,-2.018800537366585601e+00
3.214731617789790864e-03,-3.103188563356067738e-03,7.659972098089449025e-03,-6.415274800542627304e-03,-5.525441676524147326e-03,-6.457584487530804510e-03,-2.174452725209262329e-03,3.598773751184441462e-03,-4.276228870746544286e-03,1.284805646251011534e-02,-6.701011194102791772e-03,2.084530085710017966e-02,1.978824749469920041e+00,-1.010627359000225434e-01,1.263700131302744785e-02,-3.233101513156954460e-02,3.879900382502003697e-02,5.107249913168706570e-04,-9.504227055801262036e-02,-2.018800537366585601e+00
3.214731617789790864e-03,-3.103188563356067738e-03,7.659972098089449025e-03,-6.415274800542627304e-03,-5.525441676524147326e-03,-6.457584487530804510e-03,-2.174452725209262329e-03,3.598773751184441462e-03,-4.276228870746544286e-03,1.284805646251011534e-02,-6.701011194102791772e-03,2.084530085710017966e-02,1.978824749469920041e+00,-1.010627359000225434e-01,1.263700131302744785e-02,-3.233101513156954460e-02,3.879900382502003697e-02,5.107249913168706570e-04,-9.504227055801262036e-02,-2.018800537366585601e+00
3.214731617789790864e-03,-3.103188563356067738e-03,7.659972098089449025e-03,-6.415274800542627304e-03,-5.525441676524147326e-03,-6.457584487530804510e-03,-2.174452725209262329e-03,3.598773751184441462e-03,-4.276228870746544286e-03,1.284805646251011534e-02,-6.701011194102791772e-03,2.084530085710017966e-02,1.978824749469920041e+00,-1.010627359000225434e-01,1.263700131302744785e-02,-3.233101513156954460e-02,3.879900382502003697e-02,5.107249913168706570e-04,-9.504227055801262036e-02,-2.018800537366585601e+00
1.686652381633314758e-04,-2.728041900848227237e-03,6.239024800634361025e-03,-2.867793747931935994e-03,-2.881676737678310046e-03,-1.027561538894291573e-03,-3.641658145280067364e-03,6.752594608506640693e-03,-5.823524896601524857e-03,1.613216747506805021e-02,-3.899686987779552895e-03,1.669220601088430497e-02,1.979130976719697621e+00,-1.017092246297542774e-01,8.791941216145042134e-03,-3.072235975802427993e-02,3.853990378349590740e-02,1.071987647706780511e-03,-9.634291039086702313e-02,-2.015787824567664810e+00
1.686652381633314758e-04,-2.728041900848227237e-03,6.239024800634361025e-03,-2.867793747931935994e-03,-2.881676737678310046e-03,-1.027561538894291573e-03,-3.641658145280067364e-03,6.752594608506640693e-03,-5.823524896601524857e-03,1.613216747506805021e-02,-3.899686987779552895e-03,1.669220601088430497e-02,1.979130976719697621e+00,-1.017092246297542774e-01,8.791941216145042134e-03,-3.072235975802427993e-02,3.853990378349590740e-02,1.071987647706780511e-03,-9.634291039086702313e-02,-2.015787824567664810e+00
1.686652381633314758e-04,-2.728041900848227237e-03,6.239024800634361025e-03,-2.867793747931935994e-03,-2.881676737678310046e-03,-1.027561538894291573e-03,-3.641658145280067364e-03,6.752594608506640693e-03,-5.823524896601524857e-03,1.613216747506805021e-02,-3.899686987779552895e-03,1.669220601088430497e-02,1.979130976719697621e+00,-1.017092246297542774e-01,8.791941216145042134e-03,-3.072235975802427993e-02,3.853990378349590740e-02,1.071987647706780511e-03,-9.634291039086702313e-02,-2.015787824567664810e+00
1.686652381633314758e-04,-2.728041900848227237e-03,6.239024800634361025e-03,-2.867793747931935994e-03,-2.881676737678310046e-03,-1.027561538894291573e-03,-3.641658145280067364e-03,6.752594608506640693e-03,-5.823524896601524857e-03,1.613216747506805021e-02,-3.899686987779552895e-03,1.669220601088430497e-02,1.979130976719697621e+00,-1.017092246297542774e-01,8.791941216145042134e-03,-3.072235975802427993e-02,3.853990378349590740e-02,1.071987647706780511e-03,-9.634291039086702313e-02,-2.015787824567664810e+00
1.686652381633314758e-04,-2.728041900848227237e-03,6.239024800634361025e-03,-2.867793747931935994e-03,-2.881676737678310046e-03,-1.027561538894291573e-03,-3.641658145280067364e-03,6.752594608506640693e-03,-5.823524896601524857e-03,1.613216747506805021e-02,-3.899686987779552895e-03,1.669220601088430497e-02,1.979130976719697621e+00,-1.017092246297542774e-01,8.791941216145042134e-03,-3.072235975802427993e-02,3.853990378349590740e-02,1.071987647706780511e-03,-9.634291039086702313e-02,-2.015787824567664810e+00
1.686652381633314758e-04,-2.728041900848227237e-03,6.239024800634361025e-03,-2.867793747931935994e-03,-2.881676737678310046e-03,-1.027561538894291573e-03,-3.641658145280067364e-03,6.752594608506640693e-03,-5.823524896601524857e-03,1.613216747506805021e-02,-3.899686987779552895e-03,1.669220601088430497e-02,1.979130976719697621e+00,-1.017092246297542774e-01,8.791941216145042134e-03,-3.072235975802427993e-02,3.853990378349590740e-02,1.071987647706780511e-03,-9.634291039086702313e-02,-2.015787824567664810e+00
1.686652381633314758e-04,-2.728041900848227237e-03,6.239024800634361025e-03,-2.867793747931935994e-03,-2.881676737678310046e-03,-1.027561538894291573e-03,-3.641658145280067364e-03,6.752594608506640693e-03,-5.823524896601524857e-03,1.613216747506805021e-02,-3.899686987779552895e-03,1.669220601088430497e-02,1.979130976719697621e+00,-1.017092246297542774e-01,8.791941216145042134e-03,-3.072235975802427993e-02,3.853990378349590740e-02,1.071987647706780511e-03,-9.634291039086702313e-02,-2.015787824567664810e+00
1.686652381633314758e-04,-2.728041900848227237e-03,6.239024800634361025e-03,-2.867793747931935994e-03,-2.881676737678310046e-03,-1.027561538894291573e-03,-3.641658145280067364e-03,6.752594608506640693e-03,-5.823524896601524857e-03,1.613216747506805021e-02,-3.899686987779552895e-03,1.669220601088430497e-02,1.979130976719697621e+00,-1.017092246297542774e-01,8.791941216145042134e-03,-3.072235975802427993e-02,3.853990378349590740e-02,1.071987647706780511e-03,-9.634291039086702313e-02,-2.015787824567664810e+00
1.686652381633314758e-04,-2.728041900848227237e-03,6.239024800634361025e-03,-2.867793747931935994e-03,-2.881676737678310046e-03,-1.027561538894291573e-03,-3.641658145280067364e-03,6.752594608506640693e-03,-5.823524896601524857e-03,1.613216747506805021e-02,-3.899686987779552895e-03,1.669220601088430497e-02,1.979130976719697621e+00,-1.017092246297542774e-01,8.791941216145042134e-03,-3.072235975802427993e-02,3.853990378349590740e-02,1.071987647706780511e-03,-9.634291039086702313e-02,-2.015787824567664810e+00
1.686652381633314758e-04,-2.728041900848227237e-03,6.239024800634361025e-03,-2.867793747931935994e-03,-2.881676737678310046e-03,-1.027561538894291573e-03,-3.641658145280067364e-03,6.752594608506640693e-03,-5.823524896601524857e-03,1.613216747506805021e-02,-3.899686987779552895e-03,1.669220601088430497e-02,1.979130976719697621e+00,-1.017092246297542774e-01,8.791941216145042134e-03,-3.072235975802427993e-02,3.853990378349590740e-02,1.071987647706780511e-03,-9.634291039086702313e-02,-2.015787824567664810e+00
1.686652381633314758e-04,-2.728041900848227237e-03,6.239024800634361025e-03,-2.867793747931935994e-03,-2.881676737678310046e-03,-1.027561538894291573e-03,-3.641658145280067364e-03,6.752594608506640693e-03,-5.823524896601524857e-03,1.613216747506805021e-02,-3.899686987779552895e-03,1.669220601088430497e-02,1.979130976719697621e+00,-1.017092246297542774e-01,8.791941216145042134e-03,-3.072235975802427993e-02,3.853990378349590740e-02,1.071987647706780511e-03,-9.634291039086702313e-02,-2.015787824567664810e+00
1.686652381633314758e-04,-2.728041900848227237e-03,6.239024800634361025e-03,-2.867793747931935994e-03,-2.881676737678310046e-03,-1.027561538894291573e-03,-3.641658145280067364e-03,6.752594608506640693e-03,-5.823524896601524857e-03,1.613216747506805021e-02,-3.899686987779552895e-03,1.669220601088430497e-02,1.979130976719697621e+00,-1.017092246297542774e-01,8.791941216145042134e-03,-3.072235975802427993e-02,3.853990378349590740e-02,1.071987647706780511e-03,-9.634291039086702313e-02,-2.015787824567664810e+00
1.686652381633314758e-04,-2.728041900848227237e-03,6.239024800634361025e-03,-2.867793747931935994e-03,-2.881676737678310046e-03,-1.027561538894291573e-03,-3.641658145280067364e-03,6.752594608506640693e-03,-5.823524896601524857e-03,1.613216747506805021e-02,-3.899686987779552895e-03,1.669220601088430497e-02,1.979130976719697621e+00,-1.017092246297542774e-01,8.791941216145042134e-03,-3.072235975802427993e-02,3.853990378349590740e-02,1.071987647706780511e-03,-9.634291039086702313e-02,-2.015787824567664810e+00
1.686652381633314758e-04,-2.728041900848227237e-03,6.239024800634361025e-03,-2.867793747931935994e-03,-2.881676737678310046e-03,-1.027561538894291573e-03,-3.641658145280067364e-03,6.752594608506640693e-03,-5.823524896601524857e-03,1.613216747506805021e-02,-3.899686987779552895e-03,1.669220601088430497e-02,1.979130976719697621e+00,-1.017092246297542774e-01,8.791941216145042134e-03,-3.072235975802427993e-02,3.853990378349590740e-02,1.071987647706780511e-03,-9.634291039086702313e-02,-2.015787824567664810e+00
1.686652381633314758e-04,-2.728041900848227237e-03,6.239024800634361025e-03,-2.867793747931935994e-03,-2.881676737678310046e-03,-1.027561538894291573e-03,-3.641658145280067364e-03,6.752594608506640693e-03,-5.823524896601524857e-03,1.613216747506805021e-02,-3.899686987779552895e-03,1.669220601088430497e-02,1.979130976719697621e+00,-1.017092246297542774e-01,8.791941216145042134e-03,-3.072235975802427993e-02,3.853990378349590740e-02,1.071987647706780511e-03,-9.634291039086702313e-02,-2.015787824567664810e+00
1.686652381633314758e-04,-2.728041900848227237e-03,6.239024800634361025e-03,-2.867793747931935994e-03,-2.881676737678310046e-03,-1.027561538894291573e-03,-3.641658145280067364e-03,6.752594608506640693e-03,-5.823524896601524857e-03,1.613216747506805021e-02,-3.899686987779552895e-03,1.669220601088430497e-02,1.979130976719697621e+00,-1.017092246297542774e-01,8.791941216145042134e-03,-3.072235975802427993e-02,3.853990378349590740e-02,1.071987647706780511e-03,-9.634291039086702313e-02,-2.015787824567664810e+00
1.686652381633314758e-04,-2.728041900848227237e-03,6.239024800634361025e-03,-2.867793747931935994e-03,-2.881676737678310046e-03,-1.027561538894291573e-03,-3.641658145280067364e-03,6.752594608506640693e-03,-5.823524896601524857e-03,1.613216747506805021e-02,-3.899686987779552895e-03,1.669220601088430497e-02,1.979130976719697621e+00,-1.017092246297542774e-01,8.791941216145042134e-03,-3.072235975802427993e-02,3.853990378349590740e-02,1.071987647706780511e-03,-9.634291039086702313e-02,-2.015787824567664810e+00
1.686652381633314758e-04,-2.728041900848227237e-03,6.239024800634361025e-03,-2.867793747931935994e-03,-2.881676737678310046e-03,-1.027561538894291573e-03,-3.641658145280067364e-03,6.752594608506640693e-03,-5.823524896601524857e-03,1.613216747506805021e-02,-3.899686987779552895e-03,1.669220601088430497e-02,1.979130976719697621e+00,-1.017092246297542774e-01,8.791941216145042134e-03,-3.072235975802427993e-02,3.853990378349590740e-02,1.071987647706780511e-03,-9.634291039086702313e-02,-2.015787824567664810e+00
1.686652381633314758e-04,-2.728041900848227237e-03,6.239024800634361025e-03,-2.867793747931935994e-03,-2.881676737678310046e-03,-1.027561538894291573e-03,-3.641658145280067364e-03,6.752594608506640693e-03,-5.823524896601524857e-03,1.613216747506805021e-02,-3.899686987779552895e-03,1.669220601088430497e-02,1.979130976719697621e+00,-1.017092246297542774e-01,8.791941216145042134e-03,-3.072235975802427993e-02,3.853990378349590740e-02,1.071987647706780511e-03,-9.634291039086702313e-02,-2.015787824567664810e+00
1.686652381633314758e-04,-2.728041900848227237e-03,6.239024800634361025e-03,-2.867793747931935994e-03,-2.881676737678310046e-03,-1.027561538894291573e-03,-3.641658145280067364e-03,6.752594608506640693e-03,-5.823524896601524857e-03,1.613216747506805021e-02,-3.899686987779552895e-03,1.669220601088430497e-02,1.979130976719697621e+00,-1.017092246297542774e-01,8.791941216145042134e-03,-3.072235975802427993e-02,3.853990378349590740e-02,1.071987647706780511e-03,-9.634291039086702313e-02,-2.015787824567664810e+00
1.686652381633314758e-04,-2.728041900848227237e-03,6.239024800634361025e-03,-2.867793747931935994e-03,-2.881676737678310046e-03,-1.027561538894291573e-03,-3.641658145280067364e-03,6.752594608506640693e-03,-5.823524896601524857e-03,1.613216747506805021e-02,-3.899686987779552895e-03,1.669220601088430497e-02,1.979130976719697621e+00,-1.017092246297542774e-01,8.791941216145042134e-03,-3.072235975802427993e-02,3.853990378349590740e-02,1.071987647706780511e-03,-9.634291039086702313e-02,-2.015787824567664810e+00
1.686652381633314758e-04,-2.728041900848227237e-03,6.239024800634361025e-03,-2.867793747931935994e-03,-2.881676737678310046e-03,-1.027561538894291573e-03,-3.641658145280067364e-03,6.752594608506640693e-03,-5.823524896601524857e-03,1.613216747506805021e-02,-3.899686987779552895e-03,1.669220601088430497e-02,1.979130976719697621e+00,-1.017092246297542774e-01,8.791941216145042134e-03,-3.072235975802427993e-02,3.853990378349590740e-02,1.071987647706780511e-03,-9.634291039086702313e-02,-2.015787824567664810e+00
1.686652381633314758e-04,-2.728041900848227237e-03,6.239024800634361025e-03,-2.867793747931935994e-03,-2.881676737678310046e-03,-1.027561538894291573e-03,-3.641658145280067364e-03,6.752594608506640693e-03,-5.823524896601524857e-03,1.613216747506805021e-02,-3.899686987779552895e-03,1.669220601088430497e-02,1.979130976719697621e+00,-1.017092246297542774e-01,8.791941216145042134e-03,-3.072235975802427993e-02,3.853990378349590740e-02,1.071987647706780511e-03,-9.634291039086702313e-02,-2.015787824567664810e+00
2.552051210530286839e-03,-9.474211321972969948e-04,7.249402351839336588e-03,-9.301116660160915414e-03,-1.975146859453340200e-03,-3.495783805940571795e-03,-4.279520025357188770e-03,2.567452646315097810e-03,-2.143300794854772606e-03,1.094096621712717377e-02,-5.361078374483819846e-03,1.689596582266081684e-02,1.984905470390544213e+00,-9.819377694329459172e-02,7.542081467171736150e-03,-3.193319925059972392e-02,3.937166697484163064e-02,-1.656896480200951201e-03,-9.676867683670262177e-02,-2.016912189869284333e+00
2.552051210530286839e-03,-9.474211321972969948e-04,7.249402351839336588e-03,-9.301116660160915414e-03,-1.975146859453340200e-03,-3.495783805940571795e-03,-4.279520025357188770e-03,2.567452646315097810e-03,-2.143300794854772606e-03,1.094096621712717377e-02,-5.361078374483819846e-03,1.689596582266081684e-02,1.984905470390544213e+00,-9.819377694329459172e-02,7.542081467171736150e-03,-3.193319925059972392e-02,3.937166697484163064e-02,-1.656896480200951201e-03,-9.676867683670262177e-02,-2.016912189869284333e+00
2.552051210530286839e-03,-9.474211321972969948e-04,7.249402351839336588e-03,-9.301116660160915414e-03,-1.975146859453340200e-03,-3.495783805940571795e-03,-4.279520025357188770e-03,2.567452646315097810e-03,-2.143300794854772606e-03,1.094096621712717377e-02,-5.361078374483819846e-03,1.689596582266081684e-02,1.984905470390544213e+00,-9.819377694329459172e-02,7.542081467171736150e-03,-3.193319925059972392e-02,3.937166697484163064e-02,-1.656896480200951201e-03,-9.676867683670262177e-02,-2.016912189869284333e+00
2.552051210530286839e-03,-9.474211321972969948e-04,7.249402351839336588e-03,-9.301116660160915414e-03,-1.975146859453340200e-03,-3.495783805940571795e-03,-4.279520025357188770e-03,2.567452646315097810e-03,-2.143300794854772606e-03,1.094096621712717377e-02,-5.361078374483819846e-03,1.689596582266081684e-02,1.984905470390544213e+00,-9.819377694329459172e-02,7.542081467171736150e-03,-3.193319925059972392e-02,3.937166697484163064e-02,-1.656896480200951201e-03,-9.676867683670262177e-02,-2.016912189869284333e+00
2.552051210530286839e-03,-9.474211321972969948e-04,7.249402351839336588e-03,-9.301116660160915414e-03,-1.975146859453340200e-03,-3.495783805940571795e-03,-4.279520025357188770e-03,2.567452646315097810e-03,-2.143300794854772606e-03,1.094096621712717377e-02,-5.361078374483819846e-03,1.689596582266081684e-02,1.984905470390544213e+00,-9.819377694329459172e-02,7.542081467171736150e-03,-3.193319925059972392e-02,3.937166697484163064e-02,-1.656896480200951201e-03,-9.676867683670262177e-02,-2.016912189869284333e+00
2.552051210530286839e-03,-9.474211321972969948e-04,7.249402351839336588e-03,-9.301116660160915414e-03,-1.975146859453340200e-03,-3.495783805940571795e-03,-4.279520025357188770e-03,2.567452646315097810e-03,-2.143300794854772606e-03,1.094096621712717377e-02,-5.361078374483819846e-03,1.689596582266081684e-02,1.984905470390544213e+00,-9.819377694329459172e-02,7.542081467171736150e-03,-3.193319925059972392e-02,3.937166697484163064e-02,-1.656896480200951201e-03,-9.676867683670262177e-02,-2.016912189869284333e+00
-1.093688498355878478e-03,-1.273655771825644469e-03,7.494827785583245069e-03,-1.036554504227409079e-02,-4.899179991661561061e-03,-1.050210657695976359e-02,-3.646441957834627851e-03,5.379589448524654642e-03,-6.030967027605829874e-03,1.291940985909343503e-02,-3.434576806343412345e-04,1.893165323800688818e-02,1.988967533666698317e+00,-9.922491293349613994e-02,1.007088201093403121e-02,-3.464744959194577395e-02,3.350177552581259238e-02,7.016628901580820431e-04,-9.705270922216054086e-02,-2.016418599116106325e+00
-1.093688498355878478e-03,-1.273655771825644469e-03,7.494827785583245069e-03,-1.036554504227409079e-02,-4.899179991661561061e-03,-1.050210657695976359e-02,-3.646441957834627851e-03,5.379589448524654642e-03,-6.030967027605829874e-03,1.291940985909343503e-02,-3.434576806343412345e-04,1.893165323800688818e-02,1.988967533666698317e+00,-9.922491293349613994e-02,1.007088201093403121e-02,-3.464744959194577395e-02,3.350177552581259238e-02,7.016628901580820431e-04,-9.705270922216054086e-02,-2.016418599116106325e+00
-1.093688498355878478e-03,-1.273655771825644469e-03,7.494827785583245069e-03,-1.036554504227409079e-02,-4.899179991661561061e-03,-1.050210657695976359e-02,-3.646441957834627851e-03,5.379589448524654642e-03,-6.030967027605829874e-03,1.291940985909343503e-02,-3.434576806343412345e-04,1.893165323800688818e-02,1.988967533666698317e+00,-9.922491293349613994e-02,1.007088201093403121e-02,-3.464744959194577395e-02,3.350177552581259238e-02,7.016628901580820431e-04,-9.705270922216054086e-02,-2.016418599116106325e+00
-1.093688498355878478e-03,-1.273655771825644469e-03,7.494827785583245069e-03,-1.036554504227409079e-02,-4.899179991661561061e-03,-1.050210657695976359e-02,-3.646441957834627851e-03,5.379589448524654642e-03,-6.030967027605829874e-03,1.291940985909343503e-02,-3.434576806343412345e-04,1.893165323800688818e-02,1.988967533666698317e+00,-9.922491293349613994e-02,1.007088201093403121e-02,-3.464744959194577395e-02,3.350177552581259238e-02,7.016628901580820431e-04,-9.705270922216054086e-02,-2.016418599116106325e+00
-1.093688498355878478e-03,-1.273655771825644469e-03,7.494827785583245069e-03,-1.036554504227409079e-02,-4.899179991661561061e-03,-1.050210657695976359e-02,-3.646441957834627851e-03,5.379589448524654642e-03,-6.030967027605829874e-03,1.291940985909343503e-02,-3.434576806343412345e-04,1.893165323800688818e-02,1.988967533666698317e+00,-9.922491293349613994e-02,1.007088201093403121e-02,-3.464744959194577395e-02,3.350177552581259238e-02,7.016628901580820431e-04,-9.705270922216054086e-02,-2.016418599116106325e+00
-1.093688498355878478e-03,-1.273655771825644469e-03,7.494827785583245069e-03,-1.036554504227409079e-02,-4.899179991661561061e-03,-1.050210657695976359e-02,-3.646441957834627851e-03,5.379589448524654642e-03,-6.030967027605829874e-03,1.291940985909343503e-02,-3.434576806343412345e-04,1.893165323800688818e-02,1.988967533666698317e+00,-9.922491293349613994e-02,1.007088201093403121e-02,-3.464744959194577395e-02,3.350177552581259238e-02,7.016628901580820431e-04,-9.705270922216054086e-02,-2.016418599116106325e+00
-1.093688498355878478e-03,-1.273655771825644469e-03,7.494827785583245069e-03,-1.036554504227409079e-02,-4.899179991661561061e-03,-1.050210657695976359e-02,-3.646441957834627851e-03,5.379589448524654642e-03,-6.030967027605829874e-03,1.291940985909343503e-02,-3.434576806343412345e-04,1.893165323800688818e-02,1.988967533666698317e+00,-9.922491293349613994e-02,1.007088201093403121e-02,-3.464744959194577395e-02,3.350177552581259238e-02,7.016628901580820431e-04,-9.705270922216054086e-02,-2.016418599116106325e+00
-1.093688498355878478e-03,-1.273655771825644469e-03,7.494827785583245069e-03,-1.036554504227409079e-02,-4.899179991661561061e-03,-1.050210657695976359e-02,-3.646441957834627851e-03,5.379589448524654642e-03,-6.030967027605829874e-03,1.291940985909343503e-02,-3.434576806343412345e-04,1.893165323800688818e-02,1.988967533666698317e+00,-9.922491293349613994e-02,1.007088201093403121e-02,-3.464744959194577395e-02,3.350177552581259238e-02,7.016628901580820431e-04,-9.705270922216054086e-02,-2.016418599116106325e+00
-1.093688498355878478e-03,-1.273655771825644469e-03,7.494827785583245069e-03,-1.036554504227409079e-02,-4.899179991661561061e-03,-1.050210657695976359e-02,-3.646441957834627851e-03,5.379589448524654642e-03,-6.030967027605829874e-03,1.291940985909343503e-02,-3.434576806343412345e-04,1.893165323800688818e-02,1.988967533666698317e+00,-9.922491293349613994e-02,1.007088201093403121e-02,-3.464744959194577395e-02,3.350177552581259238e-02,7.016628901580820431e-04,-9.705270922216054086e-02,-2.016418599116106325e+00
-1.093688498355878478e-03,-1.273655771825644469e-03,7.494827785583245069e-03,-1.036554504227409079e-02,-4.899179991661561061e-03,-1.050210657695976359e-02,-3.646441957834627851e-03,5.379589448524654642e-03,-6.030967027605829874e-03,1.291940985909343503e-02,-3.434576806343412345e-04,1.893165323800688818e-02,1.988967533666698317e+00,-9.922491293349613994e-02,1.007088201093403121e-02,-3.464744959194577395e-02,3.350177552581259238e-02,7.016628901580820431e-04,-9.705270922216054086e-02,-2.016418599116106325e+00
-1.093688498355878478e-03,-1.273655771825644469e-03,7.494827785583245069e-03,-1.036554504227409079e-02,-4.899179991661561061e-03,-1.050210657695976359e-02,-3.646441957834627851e-03,5.379589448524654642e-03,-6.030967027605829874e-03,1.291940985909343503e-02,-3.434576806343412345e-04,1.893165323800688818e-02,1.988967533666698317e+00,-9.922491293349613994e-02,1.007088201093403121e-02,-3.464744959194577395e-02,3.350177552581259238e-02,7.016628901580820431e-04,-9.705270922216054086e-02,-2.016418599116106325e+00
-1.093688498355878478e-03,-1.273655771825644469e-03,7.494827785583245069e-03,-1.036554504227409079e-02,-4.899179991661561061e-03,-1.050210657695976359e-02,-3.646441957834627851e-03,5.379589448524654642e-03,-6.030967027605829874e-03,1.291940985909343503e-02,-3.434576806343412345e-04,1.893165323800688818e-02,1.988967533666698317e+00,-9.922491293349613994e-02,1.007088201093403121e-02,-3.464744959194577395e-02,3.350177552581259238e-02,7.016628901580820431e-04,-9.705270922216054086e-02,-2.016418599116106325e+00
-1.093688498355878478e-03,-1.273655771825644469e-03,7.494827785583245069e-03,-1.036554504227409079e-02,-4.899179991661561061e-03,-1.050210657695976359e-02,-3.646441957834627851e-03,5.379589448524654642e-03,-6.030967027605829874e-03,1.291940985909343503e-02,-3.434576806343412345e-04,1.893165323800688818e-02,1.988967533666698317e+00,-9.922491293349613994e-02,1.007088201093403121e-02,-3.464744959194577395e-02,3.350177552581259238e-02,7.016628901580820431e-04,-9.705270922216054086e-02,-2.016418599116106325e+00
-1.093688498355878478e-03,-1.273655771825644469e-03,7.494827785583245069e-03,-1.036554504227409079e-02,-4.899179991661561061e-03,-1.050210657695976359e-02,-3.646441957834627851e-03,5.379589448524654642e-03,-6.030967027605829874e-03,1.291940985909343503e-02,-3.434576806343412345e-04,1.893165323800688818e-02,1.988967533666698317e+00,-9.922491293349613994e-02,1.007088201093403121e-02,-3.464744959194577395e-02,3.350177552581259238e-02,7.016628901580820431e-04,-9.705270922216054086e-02,-2.016418599116106325e+00
-1.093688498355878478e-03,-1.273655771825644469e-03,7.494827785583245069e-03,-1.036554504227409079e-02,-4.899179991661561061e-03,-1.050210657695976359e-02,-3.646441957834627851e-03,5.379589448524654642e-03,-6.030967027605829874e-03,1.291940985909343503e-02,-3.434576806343412345e-04,1.893165323800688818e-02,1.988967533666698317e+00,-9.922491293349613994e-02,1.007088201093403121e-02,-3.464744959194577395e-02,3.350177552581259238e-02,7.016628901580820431e-04,-9.705270922216054086e-02,-2.016418599116106325e+00
-1.093688498355878478e-03,-1.273655771825644469e-03,7.494827785583245069e-03,-1.036554504227409079e-02,-4.899179991661561061e-03,-1.050210657695976359e-02,-3.646441957834627851e-03,5.379589448524654642e-03,-6.030967027605829874e-03,1.291940985909343503e-02,-3.434576806343412345e-04,1.893165323800688818e-02,1.988967533666698317e+00,-9.922491293349613994e-02,1.007088201093403121e-02,-3.464744959194577395e-02,3.350177552581259238e-02,7.016628901580820431e-04,-9.705270922216054086e-02,-2.016418599116106325e+00
3.083986313292849928e-03,-9.688010071602811942e-04,6.911797884651218506e-03,-8.961036992394099537e-03,-2.112001594513840137e-03,-5.829750838031788791e-03,-7.181962259627304099e-03,3.749736930666916403e-03,-4.881601178308726460e-03,1.390314991064557464e-02,-5.473198526547388455e-03,2.020630620614504575e-02,1.988352055902022242e+00,-9.898972354247388694e-02,1.172088606403362196e-02,-2.991152052087287655e-02,3.383810958211199565e-02,-1.983222031626094301e-03,-9.597896572539590943e-02,-2.009835202068260163e+00
3.083986313292849928e-03,-9.688010071602811942e-04,6.911797884651218506e-03,-8.961036992394099537e-03,-2.112001594513840137e-03,-5.829750838031788791e-03,-7.181962259627304099e-03,3.749736930666916403e-03,-4.881601178308726460e-03,1.390314991064557464e-02,-5.473198526547388455e-03,2.020630620614504575e-02,1.988352055902022242e+00,-9.898972354247388694e-02,1.172088606403362196e-02,-2.991152052087287655e-02,3.383810958211199565e-02,-1.983222031626094301e-03,-9.597896572539590943e-02,-2.009835202068260163e+00
3.083986313292849928e-03,-9.688010071602811942e-04,6.911797884651218506e-03,-8.961036992394099537e-03,-2.112001594513840137e-03,-5.829750838031788791e-03,-7.181962259627304099e-03,3.749736930666916403e-03,-4.881601178308726460e-03,1.390314991064557464e-02,-5.473198526547388455e-03,2.020630620614504575e-02,1.988352055902022242e+00,-9.898972354247388694e-02,1.172088606403362196e-02,-2.991152052087287655e-02,3.383810958211199565e-02,-1.983222031626094301e-03,-9.597896572539590943e-02,-2.009835202068260163e+00
3.083986313292849928e-03,-9.688010071602811942e-04,6.911797884651218506e-03,-8.961036992394099537e-03,-2.112001594513840137e-03,-5.829750838031788791e-03,-7.181962259627304099e-03,3.749736930666916403e-03,-4.881601178308726460e-03,1.390314991064557464e-02,-5.473198526547388455e-03,2.020630620614504575e-02,1.988352055902022242e+00,-9.898972354247388694e-02,1.172088606403362196e-02,-2.991152052087287655e-02,3.383810958211199565e-02,-1.983222031626094301e-03,-9.597896572539590943e-02,-2.009835202068260163e+00
3.083986313292849928e-03,-9.688010071602811942e-04,6.911797884651218506e-03,-8.961036992394099537e-03,-2.112001594513840137e-03,-5.829750838031788791e-03,-7.181962259627304099e-03,3.749736930666916403e-03,-4.881601178308726460e-03,1.390314991064557464e-02,-5.473198526547388455e-03,2.020630620614504575e-02,1.988352055902022242e+00,-9.898972354247388694e-02,1.172088606403362196e-02,-2.991152052087287655e-02,3.383810958211199565e-02,-1.983222031626094301e-03,-9.597896572539590943e-02,-2.009835202068260163e+00
3.083986313292849928e-03,-9.688010071602811942e-04,6.911797884651218506e-03,-8.961036992394099537e-03,-2.112001594513840137e-03,-5.829750838031788791e-03,-7.181962259627304099e-03,3.749736930666916403e-03,-4.881601178308726460e-03,1.390314991064557464e-02,-5.473198526547388455e-03,2.020630620614504575e-02,1.988352055902022242e+00,-9.898972354247388694e-02,1.172088606403362196e-02,-2.991152052087287655e-02,3.383810958211199565e-02,-1.983222031626094301e-03,-9.597896572539590943e-02,-2.009835202068260163e+00
3.083986313292849928e-03,-9.688010071602811942e-04,6.911797884651218506e-03,-8.961036992394099537e-03,-2.112001594513840137e-03,-5.829750838031788791e-03,-7.181962259627304099e-03,3.749736930666916403e-03,-4.881601178308726460e-03,1.390314991064557464e-02,-5.473198526547388455e-03,2.020630620614504575e-02,1.988352055902022242e+00,-9.898972354247388694e-02,1.172088606403362196e-02,-2.991152052087287655e-02,3.383810958211199565e-02,-1.983222031626094301e-03,-9.597896572539590943e-02,-2.009835202068260163e+00
3.083986313292849928e-03,-9.688010071602811942e-04,6.911797884651218506e-03,-8.961036992394099537e-03,-2.112001594513840137e-03,-5.829750838031788791e-03,-7.181962259627304099e-03,3.749736930666916403e-03,-4.881601178308726460e-03,1.390314991064557464e-02,-5.473198526547388455e-03,2.020630620614504575e-02,1.988352055902022242e+00,-9.898972354247388694e-02,1.172088606403362196e-02,-2.991152052087287655e-02,3.383810958211199565e-02,-1.983222031626094301e-03,-9.597896572539590943e-02,-2.009835202068260163e+00
3.083986313292849928e-03,-9.688010071602811942e-04,6.911797884651218506e-03,-8.961036992394099537e-03,-2.112001594513840137e-03,-5.829750838031788791e-03,-7.181962259627304099e-03,3.749736930666916403e-03,-4.881601178308726460e-03,1.390314991064557464e-02,-5.473198526547388455e-03,2.020630620614504575e-02,1.988352055902022242e+00,-9.898972354247388694e-02,1.172088606403362196e-02,-2.991152052087287655e-02,3.383810958211199565e-02,-1.983222031626094301e-03,-9.597896572539590943e-02,-2.009835202068260163e+00
3.083986313292849928e-03,-9.688010071602811942e-04,6.911797884651218506e-03,-8.961036992394099537e-03,-2.112001594513840137e-03,-5.829750838031788791e-03,-7.181962259627304099e-03,3.749736930666916403e-03,-4.881601178308726460e-03,1.390314991064557464e-02,-5.473198526547388455e-03,2.020630620614504575e-02,1.988352055902022242e+00,-9.898972354247388694e-02,1.172088606403362196e-02,-2.991152052087287655e-02,3.383810958211199565e-02,-1.983222031626094301e-03,-9.597896572539590943e-02,-2.009835202068260163e+00
3.083986313292849928e-03,-9.688010071602811942e-04,6.911797884651218506e-03,-8.961036992394099537e-03,-2.112001594513840137e-03,-5.829750838031788791e-03,-7.181962259627304099e-03,3.749736930666916403e-03,-4.881601178308726460e-03,1.390314991064557464e-02,-5.473198526547388455e-03,2.020630620614504575e-02,1.988352055902022242e+00,-9.898972354247388694e-02,1.172088606403362196e-02,-2.991152052087287655e-02,3.383810958211199565e-02,-1.983222031626094301e-03,-9.597896572539590943e-02,-2.009835202068260163e+00
3.083986313292849928e-03,-9.688010071602811942e-04,6.911797884651218506e-03,-8.961036992394099537e-03,-2.112001594513840137e-03,-5.829750838031788791e-03,-7.181962259627304099e-03,3.749736930666916403e-03,-4.881601178308726460e-03,1.390314991064557464e-02,-5.473198526547388455e-03,2.020630620614504575e-02,1.988352055902022242e+00,-9.898972354247388694e-02,1.172088606403362196e-02,-2.991152052087287655e-02,3.383810958211199565e-02,-1.983222031626094301e-03,-9.597896572539590943e-02,-2.009835202068260163e+00
3.083986313292849928e-03,-9.688010071602811942e-04,6.911797884651218506e-03,-8.961036992394099537e-03,-2.112001594513840137e-03,-5.829750838031788791e-03,-7.181962259627304099e-03,3.749736930666916403e-03,-4.881601178308726460e-03,1.390314991064557464e-02,-5.473198526547388455e-03,2.020630620614504575e-02,1.988352055902022242e+00,-9.898972354247388694e-02,1.172088606403362196e-02,-2.991152052087287655e-02,3.383810958211199565e-02,-1.983222031626094301e-03,-9.597896572539590943e-02,-2.009835202068260163e+00
3.083986313292849928e-03,-9.688010071602811942e-04,6.911797884651218506e-03,-8.961036992394099537e-03,-2.112001594513840137e-03,-5.829750838031788791e-03,-7.181962259627304099e-03,3.749736930666916403e-03,-4.881601178308726460e-03,1.390314991064557464e-02,-5.473198526547388455e-03,2.020630620614504575e-02,1.988352055902022242e+00,-9.898972354247388694e-02,1.172088606403362196e-02,-2.991152052087287655e-02,3.383810958211199565e-02,-1.983222031626094301e-03,-9.597896572539590943e-02,-2.009835202068260163e+00
3.083986313292849928e-03,-9.688010071602811942e-04,6.911797884651218506e-03,-8.961036992394099537e-03,-2.112001594513840137e-03,-5.829750838031788791e-03,-7.181962259627304099e-03,3.749736930666916403e-03,-4.881601178308726460e-03,1.390314991064557464e-02,-5.473198526547388455e-03,2.020630620614504575e-02,1.988352055902022242e+00,-9.898972354247388694e-02,1.172088606403362196e-02,-2.991152052087287655e-02,3.383810958211199565e-02,-1.983222031626094301e-03,-9.597896572539590943e-02,-2.009835202068260163e+00
3.083986313292849928e-03,-9.688010071602811942e-04,6.911797884651218506e-03,-8.961036992394099537e-03,-2.112001594513840137e-03,-5.829750838031788791e-03,-7.181962259627304099e-03,3.749736930666916403e-03,-4.881601178308726460e-03,1.390314991064557464e-02,-5.473198526547388455e-03,2.020630620614504575e-02,1.988352055902022242e+00,-9.898972354247388694e-02,1.172088606403362196e-02,-2.991152052087287655e-02,3.383810958211199565e-02,-1.983222031626094301e-03,-9.597896572539590943e-02,-2.009835202068260163e+00
3.083986313292849928e-03,-9.688010071602811942e-04,6.911797884651218506e-03,-8.961036992394099537e-03,-2.112001594513840137e-03,-5.829750838031788791e-03,-7.181962259627304099e-03,3.749736930666916403e-03,-4.881601178308726460e-03,1.390314991064557464e-02,-5.473198526547388455e-03,2.020630620614504575e-02,1.988352055902022242e+00,-9.898972354247388694e-02,1.172088606403362196e-02,-2.991152052087287655e-02,3.383810958211199565e-02,-1.983222031626094301e-03,-9.597896572539590943e-02,-2.009835202068260163e+00
3.083986313292849928e-03,-9.688010071602811942e-04,6.911797884651218506e-03,-8.961036992394099537e-03,-2.112001594513840137e-03,-5.829750838031788791e-03,-7.181962259627304099e-03,3.749736930666916403e-03,-4.881601178308726460e-03,1.390314991064557464e-02,-5.473198526547388455e-03,2.020630620614504575e-02,1.988352055902022242e+00,-9.898972354247388694e-02,1.172088606403362196e-02,-2.991152052087287655e-02,3.383810958211199565e-02,-1.983222031626094301e-03,-9.597896572539590943e-02,-2.009835202068260163e+00
3.083986313292849928e-03,-9.688010071602811942e-04,6.911797884651218506e-03,-8.961036992394099537e-03,-2.112001594513840137e-03,-5.829750838031788791e-03,-7.181962259627304099e-03,3.749736930666916403e-03,-4.881601178308726460e-03,1.390314991064557464e-02,-5.473198526547388455e-03,2.020630620614504575e-02,1.988352055902022242e+00,-9.898972354247388694e-02,1.172088606403362196e-02,-2.991152052087287655e-02,3.383810958211199565e-02,-1.983222031626094301e-03,-9.597896572539590943e-02,-2.009835202068260163e+00
3.083986313292849928e-03,-9.688010071602811942e-04,6.911797884651218506e-03,-8.961036992394099537e-03,-2.112001594513840137e-03,-5.829750838031788791e-03,-7.181962259627304099e-03,3.749736930666916403e-03,-4.881601178308726460e-03,1.390314991064557464e-02,-5.473198526547388455e-03,2.020630620614504575e-02,1.988352055902022242e+00,-9.898972354247388694e-02,1.172088606403362196e-02,-2.991152052087287655e-02,3.383810958211199565e-02,-1.983222031626094301e-03,-9.597896572539590943e-02,-2.009835202068260163e+00
3.083986313292849928e-03,-9.688010071602811942e-04,6.911797884651218506e-03,-8.961036992394099537e-03,-2.112001594513840137e-03,-5.829750838031788791e-03,-7.181962259627304099e-03,3.749736930666916403e-03,-4.881601178308726460e-03,1.390314991064557464e-02,-5.473198526547388455e-03,2.020630620614504575e-02,1.988352055902022242e+00,-9.898972354247388694e-02,1.172088606403362196e-02,-2.991152052087287655e-02,3.383810958211199565e-02,-1.983222031626094301e-03,-9.597896572539590943e-02,-2.009835202068260163e+00
3.083986313292849928e-03,-9.688010071602811942e-04,6.911797884651218506e-03,-8.961036992394099537e-03,-2.112001594513840137e-03,-5.829750838031788791e-03,-7.181962259627304099e-03,3.749736930666916403e-03,-4.881601178308726460e-03,1.390314991064557464e-02,-5.473198526547388455e-03,2.020630620614504575e-02,1.988352055902022242e+00,-9.898972354247388694e-02,1.172088606403362196e-02,-2.991152052087287655e-02,3.383810958211199565e-02,-1.983222031626094301e-03,-9.597896572539590943e-02,-2.009835202068260163e+00
3.083986313292849928e-03,-9.688010071602811942e-04,6.911797884651218506e-03,-8.961036992394099537e-03,-2.112001594513840137e-03,-5.829750838031788791e-03,-7.181962259627304099e-03,3.749736930666916403e-03,-4.881601178308726460e-03,1.390314991064557464e-02,-5.473198526547388455e-03,2.020630620614504575e-02,1.988352055902022242e+00,-9.898972354247388694e-02,1.172088606403362196e-02,-2.991152052087287655e-02,3.383810958211199565e-02,-1.983222031626094301e-03,-9.597896572539590943e-02,-2.009835202068260163e+00
3.083986313292849928e-03,-9.688010071602811942e-04,6.911797884651218506e-03,-8.961036992394099537e-03,-2.112001594513840137e-03,-5.829750838031788791e-03,-7.181962259627304099e-03,3.749736930666916403e-03,-4.881601178308726460e-03,1.390314991064557464e-02,-5.473198526547388455e-03,2.020630620614504575e-02,1.988352055902022242e+00,-9.898972354247388694e-02,1.172088606403362196e-02,-2.991152052087287655e-02,3.383810958211199565e-02,-1.983222031626094301e-03,-9.597896572539590943e-02,-2.009835202068260163e+00
3.083986313292849928e-03,-9.688010071602811942e-04,6.911797884651218506e-03,-8.961036992394099537e-03,-2.112001594513840137e-03,-5.829750838031788791e-03,-7.181962259627304099e-03,3.749736930666916403e-03,-4.881601178308726460e-03,1.390314991064557464e-02,-5.473198526547388455e-03,2.020630620614504575e-02,1.988352055902022242e+00,-9.898972354247388694e-02,1.172088606403362196e-02,-2.991152052087287655e-02,3.383810958211199565e-02,-1.983222031626094301e-03,-9.597896572539590943e-02,-2.009835202068260163e+00
3.083986313292849928e-03,-9.688010071602811942e-04,6.911797884651218506e-03,-8.961036992394099537e-03,-2.112001594513840137e-03,-5.829750838031788791e-03,-7.181962259627304099e-03,3.749736930666916403e-03,-4.881601178308726460e-03,1.390314991064557464e-02,-5.473198526547388455e-03,2.020630620614504575e-02,1.988352055902022242e+00,-9.898972354247388694e-02,1.172088606403362196e-02,-2.991152052087287655e-02,3.383810958211199565e-02,-1.983222031626094301e-03,-9.597896572539590943e-02,-2.009835202068260163e+00
3.083986313292849928e-03,-9.688010071602811942e-04,6.911797884651218506e-03,-8.961036992394099537e-03,-2.112001594513840137e-03,-5.829750838031788791e-03,-7.181962259627304099e-03,3.749736930666916403e-03,-4.881601178308726460e-03,1.390314991064557464e-02,-5.473198526547388455e-03,2.020630620614504575e-02,1.988352055902022242e+00,-9.898972354247388694e-02,1.172088606403362196e-02,-2.991152052087287655e-02,3.383810958211199565e-02,-1.983222031626094301e-03,-9.597896572539590943e-02,-2.009835202068260163e+00
3.083986313292849928e-03,-9.688010071602811942e-04,6.911797884651218506e-03,-8.961036992394099537e-03,-2.112001594513840137e-03,-5.829750838031788791e-03,-7.181962259627304099e-03,3.749736930666916403e-03,-4.881601178308726460e-03,1.390314991064557464e-02,-5.473198526547388455e-03,2.020630620614504575e-02,1.988352055902022242e+00,-9.898972354247388694e-02,1.172088606403362196e-02,-2.991152052087287655e-02,3.383810958211199565e-02,-1.983222031626094301e-03,-9.597896572539590943e-02,-2.009835202068260163e+00
3.083986313292849928e-03,-9.688010071602811942e-04,6.911797884651218506e-03,-8.961036992394099537e-03,-2.112001594513840137e-03,-5.829750838031788791e-03,-7.181962259627304099e-03,3.749736930666916403e-03,-4.881601178308726460e-03,1.390314991064557464e-02,-5.473198526547388455e-03,2.020630620614504575e-02,1.988352055902022242e+00,-9.898972354247388694e-02,1.172088606403362196e-02,-2.991152052087287655e-02,3.383810958211199565e-02,-1.983222031626094301e-03,-9.597896572539590943e-02,-2.009835202068260163e+00
3.083986313292849928e-03,-9.688010071602811942e-04,6.911797884651218506e-03,-8.961036992394099537e-03,-2.112001594513840137e-03,-5.829750838031788791e-03,-7.181962259627304099e-03,3.749736930666916403e-03,-4.881601178308726460e-03,1.390314991064557464e-02,-5.473198526547388455e-03,2.020630620614504575e-02,1.988352055902022242e+00,-9.898972354247388694e-02,1.172088606403362196e-02,-2.991152052087287655e-02,3.383810958211199565e-02,-1.983222031626094301e-03,-9.597896572539590943e-02,-2.009835202068260163e+00
3.083986313292849928e-03,-9.688010071602811942e-04,6.911797884651218506e-03,-8.961036992394099537e-03,-2.112001594513840137e-03,-5.829750838031788791e-03,-7.181962259627304099e-03,3.749736930666916403e-03,-4.881601178308726460e-03,1.390314991064557464e-02,-5.473198526547388455e-03,2.020630620614504575e-02,1.988352055902022242e+00,-9.898972354247388694e-02,1.172088606403362196e-02,-2.991152052087287655e-02,3.383810958211199565e-02,-1.983222031626094301e-03,-9.597896572539590943e-02,-2.009835202068260163e+00
3.083986313292849928e-03,-9.688010071602811942e-04,6.911797884651218506e-03,-8.961036992394099537e-03,-2.112001594513840137e-03,-5.829750838031788791e-03,-7.181962259627304099e-03,3.749736930666916403e-03,-4.881601178308726460e-03,1.390314991064557464e-02,-5.473198526547388455e-03,2.020630620614504575e-02,1.988352055902022242e+00,-9.898972354247388694e-02,1.172088606403362196e-02,-2.991152052087287655e-02,3.383810958211199565e-02,-1.983222031626094301e-03,-9.597896572539590943e-02,-2.009835202068260163e+00
3.083986313292849928e-03,-9.688010071602811942e-04,6.911797884651218506e-03,-8.961036992394099537e-03,-2.112001594513840137e-03,-5.829750838031788791e-03,-7.181962259627304099e-03,3.749736930666916403e-03,-4.881601178308726460e-03,1.390314991064557464e-02,-5.473198526547388455e-03,2.020630620614504575e-02,1.988352055902022242e+00,-9.898972354247388694e-02,1.172088606403362196e-02,-2.991152052087287655e-02,3.383810958211199565e-02,-1.983222031626094301e-03,-9.597896572539590943e-02,-2.009835202068260163e+00
3.083986313292849928e-03,-9.688010071602811942e-04,6.911797884651218506e-03,-8.961036992394099537e-03,-2.112001594513840137e-03,-5.829750838031788791e-03,-7.181962259627304099e-03,3.749736930666916403e-03,-4.881601178308726460e-03,1.390314991064557464e-02,-5.473198526547388455e-03,2.020630620614504575e-02,1.988352055902022242e+00,-9.898972354247388694e-02,1.172088606403362196e-02,-2.991152052087287655e-02,3.383810958211199565e-02,-1.983222031626094301e-03,-9.597896572539590943e-02,-2.009835202068260163e+00
1.261033572846683229e-03,-4.210057648081709514e-03,1.893974204782881933e-03,-3.359792803029505205e-03,-5.995245366320090322e-03,-1.143607425276428440e-02,-1.020450036172280105e-02,8.018411055655698394e-03,-4.315532606021020220e-03,1.092816800993444241e-02,-2.151621842368941790e-03,2.122585169470485311e-02,1.988168546255125291e+00,-1.020669850129395789e-01,1.245120065943463097e-02,-3.056730256294179146e-02,3.237308605962968544e-02,1.231849331085836403e-03,-9.676047507329701980e-02,-2.013809906754137291e+00
1.261033572846683229e-03,-4.210057648081709514e-03,1.893974204782881933e-03,-3.359792803029505205e-03,-5.995245366320090322e-03,-1.143607425276428440e-02,-1.020450036172280105e-02,8.018411055655698394e-03,-4.315532606021020220e-03,1.092816800993444241e-02,-2.151621842368941790e-03,2.122585169470485311e-02,1.988168546255125291e+00,-1.020669850129395789e-01,1.245120065943463097e-02,-3.056730256294179146e-02,3.237308605962968544e-02,1.231849331085836403e-03,-9.676047507329701980e-02,-2.013809906754137291e+00
1.261033572846683229e-03,-4.210057648081709514e-03,1.893974204782881933e-03,-3.359792803029505205e-03,-5.995245366320090322e-03,-1.143607425276428440e-02,-1.020450036172280105e-02,8.018411055655698394e-03,-4.315532606021020220e-03,1.092816800993444241e-02,-2.151621842368941790e-03,2.122585169470485311e-02,1.988168546255125291e+00,-1.020669850129395789e-01,1.245120065943463097e-02,-3.056730256294179146e-02,3.237308605962968544e-02,1.231849331085836403e-03,-9.676047507329701980e-02,-2.013809906754137291e+00
1.261033572846683229e-03,-4.210057648081709514e-03,1.893974204782881933e-03,-3.359792803029505205e-03,-5.995245366320090322e-03,-1.143607425276428440e-02,-1.020450036172280105e-02,8.018411055655698394e-03,-4.315532606021020220e-03,1.092816800993444241e-02,-2.151621842368941790e-03,2.122585169470485311e-02,1.988168546255125291e+00,-1.020669850129395789e-01,1.245120065943463097e-02,-3.056730256294179146e-02,3.237308605962968544e-02,1.231849331085836403e-03,-9.676047507329701980e-02,-2.013809906754137291e+00
1.261033572846683229e-03,-4.210057648081709514e-03,1.893974204782881933e-03,-3.359792803029505205e-03,-5.995245366320090322e-03,-1.143607425276428440e-02,-1.020450036172280105e-02,8.018411055655698394e-03,-4.315532606021020220e-03,1.092816800993444241e-02,-2.151621842368941790e-03,2.122585169470485311e-02,1.988168546255125291e+00,-1.020669850129395789e-01,1.245120065943463097e-02,-3.056730256294179146e-02,3.237308605962968544e-02,1.231849331085836403e-03,-9.676047507329701980e-02,-2.013809906754137291e+00
1.261033572846683229e-03,-4.210057648081709514e-03,1.893974204782881933e-03,-3.359792803029505205e-03,-5.995245366320090322e-03,-1.143607425276428440e-02,-1.020450036172280105e-02,8.018411055655698394e-03,-4.315532606021020220e-03,1.092816800993444241e-02,-2.151621842368941790e-03,2.122585169470485311e-02,1.988168546255125291e+00,-1.020669850129395789e-01,1.245120065943463097e-02,-3.056730256294179146e-02,3.237308605962968544e-02,1.231849331085836403e-03,-9.676047507329701980e-02,-2.013809906754137291e+00
1.261033572846683229e-03,-4.210057648081709514e-03,1.893974204782881933e-03,-3.359792803029505205e-03,-5.995245366320090322e-03,-1.143607425276428440e-02,-1.020450036172280105e-02,8.018411055655698394e-03,-4.315532606021020220e-03,1.092816800993444241e-02,-2.151621842368941790e-03,2.122585169470485311e-02,1.988168546255125291e+00,-1.020669850129395789e-01,1.245120065943463097e-02,-3.056730256294179146e-02,3.237308605962968544e-02,1.231849331085836403e-03,-9.676047507329701980e-02,-2.013809906754137291e+00
1.261033572846683229e-03,-4.210057648081709514e-03,1.893974204782881933e-03,-3.359792803029505205e-03,-5.995245366320090322e-03,-1.143607425276428440e-02,-1.020450036172280105e-02,8.018411055655698394e-03,-4.315532606021020220e-03,1.092816800993444241e-02,-2.151621842368941790e-03,2.122585169470485311e-02,1.988168546255125291e+00,-1.020669850129395789e-01,1.245120065943463097e-02,-3.056730256294179146e-02,3.237308605962968544e-02,1.231849331085836403e-03,-9.676047507329701980e-02,-2.013809906754137291e+00
1.261033572846683229e-03,-4.210057648081709514e-03,1.893974204782881933e-03,-3.359792803029505205e-03,-5.995245366320090322e-03,-1.143607425276428440e-02,-1.020450036172280105e-02,8.018411055655698394e-03,-4.315532606021020220e-03,1.092816800993444241e-02,-2.151621842368941790e-03,2.122585169470485311e-02,1.988168546255125291e+00,-1.020669850129395789e-01,1.245120065943463097e-02,-3.056730256294179146e-02,3.237308605962968544e-02,1.231849331085836403e-03,-9.676047507329701980e-02,-2.013809906754137291e+00
1.261033572846683229e-03,-4.210057648081709514e-03,1.893974204782881933e-03,-3.359792803029505205e-03,-5.995245366320090322e-03,-1.143607425276428440e-02,-1.020450036172280105e-02,8.018411055655698394e-03,-4.315532606021020220e-03,1.092816800993444241e-02,-2.151621842368941790e-03,2.122585169470485311e-02,1.988168546255125291e+00,-1.020669850129395789e-01,1.245120065943463097e-02,-3.056730256294179146e-02,3.237308605962968544e-02,1.231849331085836403e-03,-9.676047507329701980e-02,-2.013809906754137291e+00
1.261033572846683229e-03,-4.210057648081709514e-03,1.893974204782881933e-03,-3.359792803029505205e-03,-5.995245366320090322e-03,-1.143607425276428440e-02,-1.020450036172280105e-02,8.018411055655698394e-03,-4.315532606021020220e-03,1.092816800993444241e-02,-2.151621842368941790e-03,2.122585169470485311e-02,1.988168546255125291e+00,-1.020669850129395789e-01,1.245120065943463097e-02,-3.056730256294179146e-02,3.237308605962968544e-02,1.231849331085836403e-03,-9.676047507329701980e-02,-2.013809906754137291e+00
3.850846570270347220e-03,1.950810814402488026e-04,6.736036909810743170e-03,-6.287282249674746096e-03,-7.545921857825209009e-03,-8.054985296536160827e-03,-1.292650561413305130e-02,4.510297678045780030e-03,-7.501150098825778122e-03,1.104383058525619174e-02,-3.937269173493077729e-03,1.638259979829961854e-02,1.989914118999543735e+00,-1.039766293055341545e-01,1.289522398772628177e-02,-3.053474908391697051e-02,3.236360450371672526e-02,-1.496623187822423290e-03,-9.171270620040382349e-02,-2.012887793815039572e+00
3.850846570270347220e-03,1.950810814402488026e-04,6.736036909810743170e-03,-6.287282249674746096e-03,-7.545921857825209009e-03,-8.054985296536160827e-03,-1.292650561413305130e-02,4.510297678045780030e-03,-7.501150098825778122e-03,1.104383058525619174e-02,-3.937269173493077729e-03,1.638259979829961854e-02,1.989914118999543735e+00,-1.039766293055341545e-01,1.289522398772628177e-02,-3.053474908391697051e-02,3.236360450371672526e-02,-1.496623187822423290e-03,-9.171270620040382349e-02,-2.012887793815039572e+00
3.850846570270347220e-03,1.950810814402488026e-04,6.736036909810743170e-03,-6.287282249674746096e-03,-7.545921857825209009e-03,-8.054985296536160827e-03,-1.292650561413305130e-02,4.510297678045780030e-03,-7.501150098825778122e-03,1.104383058525619174e-02,-3.937269173493077729e-03,1.638259979829961854e-02,1.989914118999543735e+00,-1.039766293055341545e-01,1.289522398772628177e-02,-3.053474908391697051e-02,3.236360450371672526e-02,-1.496623187822423290e-03,-9.171270620040382349e-02,-2.012887793815039572e+00
3.850846570270347220e-03,1.950810814402488026e-04,6.736036909810743170e-03,-6.287282249674746096e-03,-7.545921857825209009e-03,-8.054985296536160827e-03,-1.292650561413305130e-02,4.510297678045780030e-03,-7.501150098825778122e-03,1.104383058525619174e-02,-3.937269173493077729e-03,1.638259979829961854e-02,1.989914118999543735e+00,-1.039766293055341545e-01,1.289522398772628177e-02,-3.053474908391697051e-02,3.236360450371672526e-02,-1.496623187822423290e-03,-9.171270620040382349e-02,-2.012887793815039572e+00
3.850846570270347220e-03,1.950810814402488026e-04,6.736036909810743170e-03,-6.287282249674746096e-03,-7.545921857825209009e-03,-8.054985296536160827e-03,-1.292650561413305130e-02,4.510297678045780030e-03,-7.501150098825778122e-03,1.104383058525619174e-02,-3.937269173493077729e-03,1.638259979829961854e-02,1.989914118999543735e+00,-1.039766293055341545e-01,1.289522398772628177e-02,-3.053474908391697051e-02,3.236360450371672526e-02,-1.496623187822423290e-03,-9.171270620040382349e-02,-2.012887793815039572e+00
7.141066644646379847e-04,-7.333288284918892388e-04,9.087768608883569840e-03,-6.182463282004844844e-03,-7.557783688644564325e-03,-9.738560507032050298e-03,-1.331113891917953644e-02,5.527121537209731851e-03,-5.104162238544172892e-03,1.069925101836000612e-02,2.459614040822575079e-04,1.813831984189781532e-02,1.991060001103311716e+00,-1.013567267154590057e-01,1.495267257566140241e-02,-3.053827498172368218e-02,2.896556843803767267e-02,-1.733870302385574682e-03,-9.507924051046869052e-02,-2.010513552465195364e+00
7.141066644646379847e-04,-7.333288284918892388e-04,9.087768608883569840e-03,-6.182463282004844844e-03,-7.557783688644564325e-03,-9.738560507032050298e-03,-1.331113891917953644e-02,5.527121537209731851e-03,-5.104162238544172892e-03,1.069925101836000612e-02,2.459614040822575079e-04,1.813831984189781532e-02,1.991060001103311716e+00,-1.013567267154590057e-01,1.495267257566140241e-02,-3.053827498172368218e-02,2.896556843803767267e-02,-1.733870302385574682e-03,-9.507924051046869052e-02,-2.010513552465195364e+00
7.141066644646379847e-04,-7.333288284918892388e-04,9.087768608883569840e-03,-6.182463282004844844e-03,-7.557783688644564325e-03,-9.738560507032050298e-03,-1.331113891917953644e-02,5.527121537209731851e-03,-5.104162238544172892e-03,1.069925101836000612e-02,2.459614040822575079e-04,1.813831984189781532e-02,1.991060001103311716e+00,-1.013567267154590057e-01,1.495267257566140241e-02,-3.053827498172368218e-02,2.896556843803767267e-02,-1.733870302385574682e-03,-9.507924051046869052e-02,-2.010513552465195364e+00
1.234834977531525319e-03,-2.975634390844139610e-03,8.682517083816430198e-03,-6.939108077450920932e-03,-9.603725950721160240e-03,-1.397903695315393102e-02,-1.293562013968310200e-02,7.353519983387991031e-03,-3.442948913004057268e-03,8.388857237846370635e-03,-1.264943629186210654e-03,1.700859654497608592e-02,1.992272916679702188e+00,-1.039079355147542183e-01,1.551429293806799725e-02,-2.615837335082791398e-02,2.461549361980711059e-02,1.064440258737623334e-04,-9.200842660412289487e-02,-2.012110007974119874e+00
1.070322309006152550e-03,-1.189263110926128608e-03,9.583492050221763259e-03,-9.180481078903287434e-03,-8.259992800314253092e-03,-1.464930074245951626e-02,-8.343057095480431798e-03,5.587942678826839614e-03,-8.591937112986133482e-03,1.371012437972459960e-02,-1.683190283408518648e-03,1.969267461822162696e-02,1.992586546374305989e+00,-9.979552944659719760e-02,1.879729039378309763e-02,-2.710462130552829252e-02,2.553422873458482609e-02,-3.827361171555307764e-03,-9.568640709958030344e-02,-2.011748467212470803e+00
1.070322309006152550e-03,-1.189263110926128608e-03,9.583492050221763259e-03,-9.180481078903287434e-03,-8.259992800314253092e-03,-1.464930074245951626e-02,-8.343057095480431798e-03,5.587942678826839614e-03,-8.591937112986133482e-03,1.371012437972459960e-02,-1.683190283408518648e-03,1.969267461822162696e-02,1.992586546374305989e+00,-9.979552944659719760e-02,1.879729039378309763e-02,-2.710462130552829252e-02,2.553422873458482609e-02,-3.827361171555307764e-03,-9.568640709958030344e-02,-2.011748467212470803e+00
1.070322309006152550e-03,-1.189263110926128608e-03,9.583492050221763259e-03,-9.180481078903287434e-03,-8.259992800314253092e-03,-1.464930074245951626e-02,-8.343057095480431798e-03,5.587942678826839614e-03,-8.591937112986133482e-03,1.371012437972459960e-02,-1.683190283408518648e-03,1.969267461822162696e-02,1.992586546374305989e+00,-9.979552944659719760e-02,1.879729039378309763e-02,-2.710462130552829252e-02,2.553422873458482609e-02,-3.827361171555307764e-03,-9.568640709958030344e-02,-2.011748467212470803e+00
3.488215490393531144e-03,-1.671349117887311166e-03,6.068197123229478705e-03,-8.877415915890708373e-03,-3.091573837622338915e-03,-1.060026240904611734e-02,-1.418194454978705284e-02,8.157208955838140402e-03,-1.311303128942108154e-02,8.023023722488661566e-03,-1.345687127822635864e-03,1.789181293613199830e-02,1.987129809929592206e+00,-9.973430857776655056e-02,1.988757138719373166e-02,-2.820110715863260314e-02,2.292026106782001083e-02,-4.749100307979364256e-03,-9.690503406749301218e-02,-2.011700184989413831e+00
3.488215490393531144e-03,-1.671349117887311166e-03,6.068197123229478705e-03,-8.877415915890708373e-03,-3.091573837622338915e-03,-1.060026240904611734e-02,-1.418194454978705284e-02,8.157208955838140402e-03,-1.311303128942108154e-02,8.023023722488661566e-03,-1.345687127822635864e-03,1.789181293613199830e-02,1.987129809929592206e+00,-9.973430857776655056e-02,1.988757138719373166e-02,-2.820110715863260314e-02,2.292026106782001083e-02,-4.749100307979364256e-03,-9.690503406749301218e-02,-2.011700184989413831e+00
3.488215490393531144e-03,-1.671349117887311166e-03,6.068197123229478705e-03,-8.877415915890708373e-03,-3.091573837622338915e-03,-1.060026240904611734e-02,-1.418194454978705284e-02,8.157208955838140402e-03,-1.311303128942108154e-02,8.023023722488661566e-03,-1.345687127822635864e-03,1.789181293613199830e-02,1.987129809929592206e+00,-9.973430857776655056e-02,1.988757138719373166e-02,-2.820110715863260314e-02,2.292026106782001083e-02,-4.749100307979364256e-03,-9.690503406749301218e-02,-2.011700184989413831e+00
3.251354415673599844e-03,-6.069646703272081134e-04,8.215603960108949083e-03,-7.609165525854481686e-03,-3.883777673304277499e-03,-1.086003812358763733e-02,-1.685531701935633411e-02,8.970418808144812323e-03,-1.187275063154720825e-02,1.158268652935015401e-02,-2.582019684745048057e-03,1.339490633441844068e-02,1.989715189355558023e+00,-9.864648065986728054e-02,2.144319372380960528e-02,-2.678880878717887840e-02,2.061345262273377860e-02,-8.342526130721157271e-03,-9.759457582734662462e-02,-2.008087852913442273e+00
-1.155282387710534483e-04,-1.578247154581464669e-03,1.114778394075633186e-02,-8.158844118566229917e-03,-7.156298766225909283e-03,-9.798210369905756972e-03,-1.267894500227970817e-02,1.071444826985731326e-02,-9.154014959666252962e-03,1.520874126239178843e-02,-2.014612228191533638e-03,1.001851223666479565e-02,1.994482390097196189e+00,-1.014894280043603658e-01,2.061768523580367538e-02,-2.836277114882371567e-02,2.243297592861131715e-02,-8.990228560239899025e-03,-9.327766973406334539e-02,-2.009551615403109004e+00
-1.155282387710534483e-04,-1.578247154581464669e-03,1.114778394075633186e-02,-8.158844118566229917e-03,-7.156298766225909283e-03,-9.798210369905756972e-03,-1.267894500227970817e-02,1.071444826985731326e-02,-9.154014959666252962e-03,1.520874126239178843e-02,-2.014612228191533638e-03,1.001851223666479565e-02,1.994482390097196189e+00,-1.014894280043603658e-01,2.061768523580367538e-02,-2.836277114882371567e-02,2.243297592861131715e-02,-8.990228560239899025e-03,-9.327766973406334539e-02,-2.009551615403109004e+00
-1.155282387710534483e-04,-1.578247154581464669e-03,1.114778394075633186e-02,-8.158844118566229917e-03,-7.156298766225909283e-03,-9.798210369905756972e-03,-1.267894500227970817e-02,1.071444826985731326e-02,-9.154014959666252962e-03,1.520874126239178843e-02,-2.014612228191533638e-03,1.001851223666479565e-02,1.994482390097196189e+00,-1.014894280043603658e-01,2.061768523580367538e-02,-2.836277114882371567e-02,2.243297592861131715e-02,-8.990228560239899025e-03,-9.327766973406334539e-02,-2.009551615403109004e+00
-1.155282387710534483e-04,-1.578247154581464669e-03,1.114778394075633186e-02,-8.158844118566229917e-03,-7.156298766225909283e-03,-9.798210369905756972e-03,-1.267894500227970817e-02,1.071444826985731326e-02,-9.154014959666252962e-03,1.520874126239178843e-02,-2.014612228191533638e-03,1.001851223666479565e-02,1.994482390097196189e+00,-1.014894280043603658e-01,2.061768523580367538e-02,-2.836277114882371567e-02,2.243297592861131715e-02,-8.990228560239899025e-03,-9.327766973406334539e-02,-2.009551615403109004e+00
-1.155282387710534483e-04,-1.578247154581464669e-03,1.114778394075633186e-02,-8.158844118566229917e-03,-7.156298766225909283e-03,-9.798210369905756972e-03,-1.267894500227970817e-02,1.071444826985731326e-02,-9.154014959666252962e-03,1.520874126239178843e-02,-2.014612228191533638e-03,1.001851223666479565e-02,1.994482390097196189e+00,-1.014894280043603658e-01,2.061768523580367538e-02,-2.836277114882371567e-02,2.243297592861131715e-02,-8.990228560239899025e-03,-9.327766973406334539e-02,-2.009551615403109004e+00
-1.155282387710534483e-04,-1.578247154581464669e-03,1.114778394075633186e-02,-8.158844118566229917e-03,-7.156298766225909283e-03,-9.798210369905756972e-03,-1.267894500227970817e-02,1.071444826985731326e-02,-9.154014959666252962e-03,1.520874126239178843e-02,-2.014612228191533638e-03,1.001851223666479565e-02,1.994482390097196189e+00,-1.014894280043603658e-01,2.061768523580367538e-02,-2.836277114882371567e-02,2.243297592861131715e-02,-8.990228560239899025e-03,-9.327766973406334539e-02,-2.009551615403109004e+00
-1.155282387710534483e-04,-1.578247154581464669e-03,1.114778394075633186e-02,-8.158844118566229917e-03,-7.156298766225909283e-03,-9.798210369905756972e-03,-1.267894500227970817e-02,1.071444826985731326e-02,-9.154014959666252962e-03,1.520874126239178843e-02,-2.014612228191533638e-03,1.001851223666479565e-02,1.994482390097196189e+00,-1.014894280043603658e-01,2.061768523580367538e-02,-2.836277114882371567e-02,2.243297592861131715e-02,-8.990228560239899025e-03,-9.327766973406334539e-02,-2.009551615403109004e+00
-1.155282387710534483e-04,-1.578247154581464669e-03,1.114778394075633186e-02,-8.158844118566229917e-03,-7.156298766225909283e-03,-9.798210369905756972e-03,-1.267894500227970817e-02,1.071444826985731326e-02,-9.154014959666252962e-03,1.520874126239178843e-02,-2.014612228191533638e-03,1.001851223666479565e-02,1.994482390097196189e+00,-1.014894280043603658e-01,2.061768523580367538e-02,-2.836277114882371567e-02,2.243297592861131715e-02,-8.990228560239899025e-03,-9.327766973406334539e-02,-2.009551615403109004e+00
-1.155282387710534483e-04,-1.578247154581464669e-03,1.114778394075633186e-02,-8.158844118566229917e-03,-7.156298766225909283e-03,-9.798210369905756972e-03,-1.267894500227970817e-02,1.071444826985731326e-02,-9.154014959666252962e-03,1.520874126239178843e-02,-2.014612228191533638e-03,1.001851223666479565e-02,1.994482390097196189e+00,-1.014894280043603658e-01,2.061768523580367538e-02,-2.836277114882371567e-02,2.243297592861131715e-02,-8.990228560239899025e-03,-9.327766973406334539e-02,-2.009551615403109004e+00
2.315784932449117470e-03,-4.345314074142754297e-04,1.226913206081042297e-02,-8.600037827795640674e-03,-9.349121834135866449e-03,-1.178326969313505876e-02,-1.551649508715044652e-02,1.078963350706638180e-02,-1.530114565243567704e-02,9.437797633053015764e-03,-2.011916899976738844e-03,6.903623797339802914e-03,1.993451323813247633e+00,-1.016829861629683640e-01,2.002070948736395239e-02,-2.751527482999373969e-02,2.448364074670048365e-02,-2.014744131201856407e-03,-9.563956742014453893e-02,-2.014881044060798931e+00
2.315784932449117470e-03,-4.345314074142754297e-04,1.226913206081042297e-02,-8.600037827795640674e-03,-9.349121834135866449e-03,-1.178326969313505876e-02,-1.551649508715044652e-02,1.078963350706638180e-02,-1.530114565243567704e-02,9.437797633053015764e-03,-2.011916899976738844e-03,6.903623797339802914e-03,1.993451323813247633e+00,-1.016829861629683640e-01,2.002070948736395239e-02,-2.751527482999373969e-02,2.448364074670048365e-02,-2.014744131201856407e-03,-9.563956742014453893e-02,-2.014881044060798931e+00
2.315784932449117470e-03,-4.345314074142754297e-04,1.226913206081042297e-02,-8.600037827795640674e-03,-9.349121834135866449e-03,-1.178326969313505876e-02,-1.551649508715044652e-02,1.078963350706638180e-02,-1.530114565243567704e-02,9.437797633053015764e-03,-2.011916899976738844e-03,6.903623797339802914e-03,1.993451323813247633e+00,-1.016829861629683640e-01,2.002070948736395239e-02,-2.751527482999373969e-02,2.448364074670048365e-02,-2.014744131201856407e-03,-9.563956742014453893e-02,-2.014881044060798931e+00
2.315784932449117470e-03,-4.345314074142754297e-04,1.226913206081042297e-02,-8.600037827795640674e-03,-9.349121834135866449e-03,-1.178326969313505876e-02,-1.551649508715044652e-02,1.078963350706638180e-02,-1.530114565243567704e-02,9.437797633053015764e-03,-2.011916899976738844e-03,6.903623797339802914e-03,1.993451323813247633e+00,-1.016829861629683640e-01,2.002070948736395239e-02,-2.751527482999373969e-02,2.448364074670048365e-02,-2.014744131201856407e-03,-9.563956742014453893e-02,-2.014881044060798931e+00
2.315784932449117470e-03,-4.345314074142754297e-04,1.226913206081042297e-02,-8.600037827795640674e-03,-9.349121834135866449e-03,-1.178326969313505876e-02,-1.551649508715044652e-02,1.078963350706638180e-02,-1.530114565243567704e-02,9.437797633053015764e-03,-2.011916899976738844e-03,6.903623797339802914e-03,1.993451323813247633e+00,-1.016829861629683640e-01,2.002070948736395239e-02,-2.751527482999373969e-02,2.448364074670048365e-02,-2.014744131201856407e-03,-9.563956742014453893e-02,-2.014881044060798931e+00
2.315784932449117470e-03,-4.345314074142754297e-04,1.226913206081042297e-02,-8.600037827795640674e-03,-9.349121834135866449e-03,-1.178326969313505876e-02,-1.551649508715044652e-02,1.078963350706638180e-02,-1.530114565243567704e-02,9.437797633053015764e-03,-2.011916899976738844e-03,6.903623797339802914e-03,1.993451323813247633e+00,-1.016829861629683640e-01,2.002070948736395239e-02,-2.751527482999373969e-02,2.448364074670048365e-02,-2.014744131201856407e-03,-9.563956742014453893e-02,-2.014881044060798931e+00
2.315784932449117470e-03,-4.345314074142754297e-04,1.226913206081042297e-02,-8.600037827795640674e-03,-9.349121834135866449e-03,-1.178326969313505876e-02,-1.551649508715044652e-02,1.078963350706638180e-02,-1.530114565243567704e-02,9.437797633053015764e-03,-2.011916899976738844e-03,6.903623797339802914e-03,1.993451323813247633e+00,-1.016829861629683640e-01,2.002070948736395239e-02,-2.751527482999373969e-02,2.448364074670048365e-02,-2.014744131201856407e-03,-9.563956742014453893e-02,-2.014881044060798931e+00
2.315784932449117470e-03,-4.345314074142754297e-04,1.226913206081042297e-02,-8.600037827795640674e-03,-9.349121834135866449e-03,-1.178326969313505876e-02,-1.551649508715044652e-02,1.078963350706638180e-02,-1.530114565243567704e-02,9.437797633053015764e-03,-2.011916899976738844e-03,6.903623797339802914e-03,1.993451323813247633e+00,-1.016829861629683640e-01,2.002070948736395239e-02,-2.751527482999373969e-02,2.448364074670048365e-02,-2.014744131201856407e-03,-9.563956742014453893e-02,-2.014881044060798931e+00
2.315784932449117470e-03,-4.345314074142754297e-04,1.226913206081042297e-02,-8.600037827795640674e-03,-9.349121834135866449e-03,-1.178326969313505876e-02,-1.551649508715044652e-02,1.078963350706638180e-02,-1.530114565243567704e-02,9.437797633053015764e-03,-2.011916899976738844e-03,6.903623797339802914e-03,1.993451323813247633e+00,-1.016829861629683640e-01,2.002070948736395239e-02,-2.751527482999373969e-02,2.448364074670048365e-02,-2.014744131201856407e-03,-9.563956742014453893e-02,-2.014881044060798931e+00
2.315784932449117470e-03,-4.345314074142754297e-04,1.226913206081042297e-02,-8.600037827795640674e-03,-9.349121834135866449e-03,-1.178326969313505876e-02,-1.551649508715044652e-02,1.078963350706638180e-02,-1.530114565243567704e-02,9.437797633053015764e-03,-2.011916899976738844e-03,6.903623797339802914e-03,1.993451323813247633e+00,-1.016829861629683640e-01,2.002070948736395239e-02,-2.751527482999373969e-02,2.448364074670048365e-02,-2.014744131201856407e-03,-9.563956742014453893e-02,-2.014881044060798931e+00
2.315784932449117470e-03,-4.345314074142754297e-04,1.226913206081042297e-02,-8.600037827795640674e-03,-9.349121834135866449e-03,-1.178326969313505876e-02,-1.551649508715044652e-02,1.078963350706638180e-02,-1.530114565243567704e-02,9.437797633053015764e-03,-2.011916899976738844e-03,6.903623797339802914e-03,1.993451323813247633e+00,-1.016829861629683640e-01,2.002070948736395239e-02,-2.751527482999373969e-02,2.448364074670048365e-02,-2.014744131201856407e-03,-9.563956742014453893e-02,-2.014881044060798931e+00
2.315784932449117470e-03,-4.345314074142754297e-04,1.226913206081042297e-02,-8.600037827795640674e-03,-9.349121834135866449e-03,-1.178326969313505876e-02,-1.551649508715044652e-02,1.078963350706638180e-02,-1.530114565243567704e-02,9.437797633053015764e-03,-2.011916899976738844e-03,6.903623797339802914e-03,1.993451323813247633e+00,-1.016829861629683640e-01,2.002070948736395239e-02,-2.751527482999373969e-02,2.448364074670048365e-02,-2.014744131201856407e-03,-9.563956742014453893e-02,-2.014881044060798931e+00
2.315784932449117470e-03,-4.345314074142754297e-04,1.226913206081042297e-02,-8.600037827795640674e-03,-9.349121834135866449e-03,-1.178326969313505876e-02,-1.551649508715044652e-02,1.078963350706638180e-02,-1.530114565243567704e-02,9.437797633053015764e-03,-2.011916899976738844e-03,6.903623797339802914e-03,1.993451323813247633e+00,-1.016829861629683640e-01,2.002070948736395239e-02,-2.751527482999373969e-02,2.448364074670048365e-02,-2.014744131201856407e-03,-9.563956742014453893e-02,-2.014881044060798931e+00
2.315784932449117470e-03,-4.345314074142754297e-04,1.226913206081042297e-02,-8.600037827795640674e-03,-9.349121834135866449e-03,-1.178326969313505876e-02,-1.551649508715044652e-02,1.078963350706638180e-02,-1.530114565243567704e-02,9.437797633053015764e-03,-2.011916899976738844e-03,6.903623797339802914e-03,1.993451323813247633e+00,-1.016829861629683640e-01,2.002070948736395239e-02,-2.751527482999373969e-02,2.448364074670048365e-02,-2.014744131201856407e-03,-9.563956742014453893e-02,-2.014881044060798931e+00
2.315784932449117470e-03,-4.345314074142754297e-04,1.226913206081042297e-02,-8.600037827795640674e-03,-9.349121834135866449e-03,-1.178326969313505876e-02,-1.551649508715044652e-02,1.078963350706638180e-02,-1.530114565243567704e-02,9.437797633053015764e-03,-2.011916899976738844e-03,6.903623797339802914e-03,1.993451323813247633e+00,-1.016829861629683640e-01,2.002070948736395239e-02,-2.751527482999373969e-02,2.448364074670048365e-02,-2.014744131201856407e-03,-9.563956742014453893e-02,-2.014881044060798931e+00
2.315784932449117470e-03,-4.345314074142754297e-04,1.226913206081042297e-02,-8.600037827795640674e-03,-9.349121834135866449e-03,-1.178326969313505876e-02,-1.551649508715044652e-02,1.078963350706638180e-02,-1.530114565243567704e-02,9.437797633053015764e-03,-2.011916899976738844e-03,6.903623797339802914e-03,1.993451323813247633e+00,-1.016829861629683640e-01,2.002070948736395239e-02,-2.751527482999373969e-02,2.448364074670048365e-02,-2.014744131201856407e-03,-9.563956742014453893e-02,-2.014881044060798931e+00
2.315784932449117470e-03,-4.345314074142754297e-04,1.226913206081042297e-02,-8.600037827795640674e-03,-9.349121834135866449e-03,-1.178326969313505876e-02,-1.551649508715044652e-02,1.078963350706638180e-02,-1.530114565243567704e-02,9.437797633053015764e-03,-2.011916899976738844e-03,6.903623797339802914e-03,1.993451323813247633e+00,-1.016829861629683640e-01,2.002070948736395239e-02,-2.751527482999373969e-02,2.448364074670048365e-02,-2.014744131201856407e-03,-9.563956742014453893e-02,-2.014881044060798931e+00
2.315784932449117470e-03,-4.345314074142754297e-04,1.226913206081042297e-02,-8.600037827795640674e-03,-9.349121834135866449e-03,-1.178326969313505876e-02,-1.551649508715044652e-02,1.078963350706638180e-02,-1.530114565243567704e-02,9.437797633053015764e-03,-2.011916899976738844e-03,6.903623797339802914e-03,1.993451323813247633e+00,-1.016829861629683640e-01,2.002070948736395239e-02,-2.751527482999373969e-02,2.448364074670048365e-02,-2.014744131201856407e-03,-9.563956742014453893e-02,-2.014881044060798931e+00
2.315784932449117470e-03,-4.345314074142754297e-04,1.226913206081042297e-02,-8.600037827795640674e-03,-9.349121834135866449e-03,-1.178326969313505876e-02,-1.551649508715044652e-02,1.078963350706638180e-02,-1.530114565243567704e-02,9.437797633053015764e-03,-2.011916899976738844e-03,6.903623797339802914e-03,1.993451323813247633e+00,-1.016829861629683640e-01,2.002070948736395239e-02,-2.751527482999373969e-02,2.448364074670048365e-02,-2.014744131201856407e-03,-9.563956742014453893e-02,-2.014881044060798931e+00
2.315784932449117470e-03,-4.345314074142754297e-04,1.226913206081042297e-02,-8.600037827795640674e-03,-9.349121834135866449e-03,-1.178326969313505876e-02,-1.551649508715044652e-02,1.078963350706638180e-02,-1.530114565243567704e-02,9.437797633053015764e-03,-2.011916899976738844e-03,6.903623797339802914e-03,1.993451323813247633e+00,-1.016829861629683640e-01,2.002070948736395239e-02,-2.751527482999373969e-02,2.448364074670048365e-02,-2.014744131201856407e-03,-9.563956742014453893e-02,-2.014881044060798931e+00
2.315784932449117470e-03,-4.345314074142754297e-04,1.226913206081042297e-02,-8.600037827795640674e-03,-9.349121834135866449e-03,-1.178326969313505876e-02,-1.551649508715044652e-02,1.078963350706638180e-02,-1.530114565243567704e-02,9.437797633053015764e-03,-2.011916899976738844e-03,6.903623797339802914e-03,1.993451323813247633e+00,-1.016829861629683640e-01,2.002070948736395239e-02,-2.751527482999373969e-02,2.448364074670048365e-02,-2.014744131201856407e-03,-9.563956742014453893e-02,-2.014881044060798931e+00
2.315784932449117470e-03,-4.345314074142754297e-04,1.226913206081042297e-02,-8.600037827795640674e-03,-9.349121834135866449e-03,-1.178326969313505876e-02,-1.551649508715044652e-02,1.078963350706638180e-02,-1.530114565243567704e-02,9.437797633053015764e-03,-2.011916899976738844e-03,6.903623797339802914e-03,1.993451323813247633e+00,-1.016829861629683640e-01,2.002070948736395239e-02,-2.751527482999373969e-02,2.448364074670048365e-02,-2.014744131201856407e-03,-9.563956742014453893e-02,-2.014881044060798931e+00
2.315784932449117470e-03,-4.345314074142754297e-04,1.226913206081042297e-02,-8.600037827795640674e-03,-9.349121834135866449e-03,-1.178326969313505876e-02,-1.551649508715044652e-02,1.078963350706638180e-02,-1.530114565243567704e-02,9.437797633053015764e-03,-2.011916899976738844e-03,6.903623797339802914e-03,1.993451323813247633e+00,-1.016829861629683640e-01,2.002070948736395239e-02,-2.751527482999373969e-02,2.448364074670048365e-02,-2.014744131201856407e-03,-9.563956742014453893e-02,-2.014881044060798931e+00
2.315784932449117470e-03,-4.345314074142754297e-04,1.226913206081042297e-02,-8.600037827795640674e-03,-9.349121834135866449e-03,-1.178326969313505876e-02,-1.551649508715044652e-02,1.078963350706638180e-02,-1.530114565243567704e-02,9.437797633053015764e-03,-2.011916899976738844e-03,6.903623797339802914e-03,1.993451323813247633e+00,-1.016829861629683640e-01,2.002070948736395239e-02,-2.751527482999373969e-02,2.448364074670048365e-02,-2.014744131201856407e-03,-9.563956742014453893e-02,-2.014881044060798931e+00
2.315784932449117470e-03,-4.345314074142754297e-04,1.226913206081042297e-02,-8.600037827795640674e-03,-9.349121834135866449e-03,-1.178326969313505876e-02,-1.551649508715044652e-02,1.078963350706638180e-02,-1.530114565243567704e-02,9.437797633053015764e-03,-2.011916899976738844e-03,6.903623797339802914e-03,1.993451323813247633e+00,-1.016829861629683640e-01,2.002070948736395239e-02,-2.751527482999373969e-02,2.448364074670048365e-02,-2.014744131201856407e-03,-9.563956742014453893e-02,-2.014881044060798931e+00
