2.136090286551022271e-03,-3.483017995002546537e-04,-3.413840630501463989e-03,-9.350214820113748534e-03,-5.307225977609996911e-03,-9.777748837155177813e-03,-7.355597276446637460e-03,1.005492123421727196e-02,-9.676202342648189403e-03,1.625229691355536618e-02,-5.877058385037881028e-03,1.136097708862273716e-02,1.995096627169202774e+00,-1.018683355625182585e-01,1.993902832524185181e-02,-2.739901368703807211e-02,4.637583005238593570e-02,-6.427316338279743385e-03,-9.693492575122017452e-02,-2.018321272310168890e+00
1.328024065151152617e-03,-1.397132067948171109e-03,-2.669332735728994176e-03,-6.328891178684954537e-03,-1.056710953400641188e-02,-1.255808120087900832e-02,-1.031360446671282863e-02,7.492609168431980070e-03,-1.066373917975125402e-02,1.351077760089891729e-02,-4.973598337437769648e-03,1.180262647752733547e-02,1.998634304468465350e+00,-9.943874056906625014e-02,1.747538669368990313e-02,-2.744628335305205821e-02,4.465186091577513089e-02,-7.442690675988484009e-03,-9.665266461514540608e-02,-2.016134424581079720e+00
3.409151762663707383e-03,-1.954421773399413979e-03,-2.344946095682528403e-03,-6.401077879487719439e-03,-1.333922834765920683e-02,-1.578134224062568286e-02,-8.821699411031353605e-03,8.257769636944186503e-03,-9.532421069153801732e-03,1.407346321698441267e-02,-3.762277032072427682e-03,1.054689466933159299e-02,1.999100935421627590e+00,-9.983340588097334989e-02,1.667686833899052062e-02,-2.602897752605348031e-02,4.320464879081342691e-02,-9.809662383824618165e-03,-9.475095749428871783e-02,-2.017461845239532092e+00
1.831752497798454444e-03,-1.876020030219678917e-03,-7.254334920258584700e-04,-6.638535806201821543e-03,-1.232074122832880689e-02,-1.669116397265954857e-02,-8.228004127646871071e-03,9.114796906513889657e-03,-9.997647899281198250e-03,1.503323100126467346e-02,-5.424545349038818048e-03,1.143285494157330294e-02,1.996906423806408259e+00,-1.007662880115832854e-01,2.083572768286225466e-02,-2.475964714977262754e-02,4.273886544317666986e-02,-1.223974068763082970e-02,-9.480611018087710395e-02,-2.016381470426126921e+00
1.739862291418516060e-03,-2.926567508090460474e-03,-1.916072464846167852e-03,-7.176284712845573156e-03,-1.465767695689111812e-02,-1.902435410974204558e-02,-6.184805791554550021e-03,1.001912358039192333e-02,-1.292734017381195338e-02,1.770720585331825303e-02,-3.927920293814482836e-03,1.289858568740759326e-02,1.993757165911458795e+00,-9.997979996015532445e-02,2.376383237446559951e-02,-2.654537344046653188e-02,4.374018506898045416e-02,-8.633347796645405442e-03,-9.388276094725878096e-02,-2.019201399006035125e+00
2.820009736169252785e-03,-3.958425739982846490e-03,7.286581223039439656e-04,-8.221103615390070937e-03,-1.392784571582499596e-02,-1.960168754441770841e-02,-7.300775982281453892e-03,1.279571107311605789e-02,-1.718996033580722990e-02,1.614176279671642594e-02,-2.609982037658169825e-03,1.337028138709695294e-02,1.994093538223387752e+00,-1.013667205065460347e-01,2.309970973404996269e-02,-2.885938402461748001e-02,4.862976693410938495e-02,-5.452763557277781441e-03,-9.670406205924042542e-02,-2.017512226701561939e+00
-1.208511092993171544e-04,-3.606121396752134077e-03,-1.969149634987361203e-03,-6.849782281701277328e-03,-1.138453412048867630e-02,-1.935217454232926459e-02,-6.577301200915193144e-03,1.245779670933847699e-02,-1.519794824626253572e-02,1.733402171204899422e-02,-4.387723884917344754e-03,1.148408349769619585e-02,1.996035369673942128e+00,-9.932558938371112423e-02,2.034305706124273083e-02,-2.803430948066286746e-02,4.822922939441586648e-02,-4.845646203778989670e-03,-9.971045706968272027e-02,-2.021777839640898300e+00
2.050895296496821080e-03,-6.803781091874688911e-04,-3.491787657677065254e-03,-7.390594599699019940e-03,-8.902876268148268019e-03,-2.001291736143857164e-02,-4.051822412595099641e-03,9.094998809735556355e-03,-1.627098587690798542e-02,1.676787394566127062e-02,-3.822444623896596640e-03,1.560559217580377404e-02,1.995135058701094755e+00,-1.009710933712914538e-01,2.070373441813433066e-02,-2.930834706794503003e-02,4.724327054721697700e-02,-3.975371650663785984e-03,-9.893085390516387356e-02,-2.023562610053756039e+00
3.241747358576124206e-03,-1.154628926887396470e-03,-4.656225273638985550e-03,-8.654664488053296842e-03,-1.164228114791145477e-02,-2.198664115620750995e-02,-7.375649144009494181e-03,1.089594532710825257e-02,-1.658086112247757204e-02,1.713260954653858525e-02,-3.895943106849484791e-03,1.465649262897282708e-02,1.995543542298002349e+00,-1.010943861644606062e-01,1.837910932098856670e-02,-2.982425193797337559e-02,4.634181193240456686e-02,-3.352476576168965036e-03,-9.826514681087414327e-02,-2.022856994353363635e+00
3.624689043054362108e-03,-1.455214530926904250e-03,-6.593446855125396910e-03,-9.728246644604653798e-03,-8.298895995040146342e-03,-2.037409721993014428e-02,-9.535238135081398891e-03,9.817643816518450972e-03,-1.927168279507704071e-02,1.525929235653207365e-02,-3.601162258710958672e-03,1.492488562507930661e-02,1.994291622037713374e+00,-1.035608352173927466e-01,2.043474202700652081e-02,-2.868980787385094766e-02,4.389647507730105869e-02,-4.059150097738944626e-03,-9.454329901348350329e-02,-2.023546620708274180e+00
3.624689043054362108e-03,-1.455214530926904250e-03,-6.593446855125396910e-03,-9.728246644604653798e-03,-8.298895995040146342e-03,-2.037409721993014428e-02,-9.535238135081398891e-03,9.817643816518450972e-03,-1.927168279507704071e-02,1.525929235653207365e-02,-3.601162258710958672e-03,1.492488562507930661e-02,1.994291622037713374e+00,-1.035608352173927466e-01,2.043474202700652081e-02,-2.868980787385094766e-02,4.389647507730105869e-02,-4.059150097738944626e-03,-9.454329901348350329e-02,-2.023546620708274180e+00
6.577906380028104155e-03,-5.239877889339898155e-04,-3.380445306362515803e-03,-7.861512582401723390e-03,-8.973765348173196738e-03,-1.509638544461348354e-02,-9.222480004535904552e-03,1.105490958005105225e-02,-2.278970389986153741e-02,1.473524801941395769e-02,-6.025349768956203556e-03,1.832497045576359646e-02,1.993327189234324281e+00,-1.047656995458576962e-01,1.900664393034270233e-02,-2.652846252836644006e-02,3.855738375481340685e-02,-5.238221125883081239e-03,-9.445993311037656492e-02,-2.025252515418923149e+00
5.683284583784386536e-03,-4.874908147734477275e-03,-3.164674566584712873e-03,-7.984994957018487494e-03,-3.398090404924100204e-03,-1.347345394792145122e-02,-1.465758969121117375e-02,1.066921742128932628e-02,-2.214078829279154254e-02,1.784458076766774065e-02,-5.605296483749582989e-03,1.868726546580700906e-02,1.992480136772390775e+00,-1.041753492306624479e-01,1.803297992885936896e-02,-2.623374719950852252e-02,3.807644087338098865e-02,-2.022293118020557830e-03,-9.605143911347722996e-02,-2.022554727545723186e+00
2.234215879862910727e-03,-3.378006298999208226e-04,-6.523800312343088631e-03,-6.394395396092289810e-03,-5.402934818735126432e-03,-1.366359421299130107e-02,-1.573866327819007163e-02,1.253523518030720540e-02,-2.211898295142209619e-02,2.031173609661261759e-02,-3.791987334963836751e-03,2.072008456985312275e-02,1.990329449701283782e+00,-1.020864134269594825e-01,1.749078472580520294e-02,-2.640783950901675822e-02,3.915299132469256954e-02,1.909597134854353452e-03,-9.747229323667785938e-02,-2.022697998607117409e+00
4.273099014225499939e-03,-2.318019936358419342e-03,-4.988512945410271404e-03,-5.202244967098797711e-03,-7.506276141624100562e-03,-1.257605903067772653e-02,-1.329325758993136868e-02,1.211093980609778686e-02,-2.380207500774409596e-02,1.913057352312596410e-02,1.910130880748806687e-03,1.884450003154724065e-02,1.990085080209224477e+00,-1.035151329009246779e-01,1.452132348175045815e-02,-2.769164736262665766e-02,3.928328569888217547e-02,3.676503046251482047e-03,-9.703440475096655748e-02,-2.022857631681969082e+00
2.984066364385389979e-03,-1.519947098790621308e-03,-6.354813193503387747e-03,-5.493110530649098280e-03,-9.928828840085819271e-03,-1.249742072926253098e-02,-1.482487469729413913e-02,1.026472651594757812e-02,-2.488908651012531822e-02,1.464230258872611760e-02,6.853675573701767994e-06,1.808175685760294443e-02,1.989475823248470387e+00,-1.012311801723440596e-01,1.717844543747475486e-02,-2.492049062987290037e-02,3.601367230425615851e-02,1.745950892551832809e-03,-9.614139400621925236e-02,-2.023918069118164187e+00
6.936173075086610011e-03,-4.168526343681902037e-03,-2.467630723796063186e-03,-6.226215020343057321e-03,-1.139840177919632970e-02,-1.149384356644008592e-02,-1.246701888308396344e-02,1.485711315650882144e-02,-2.321807657931536373e-02,1.479302015787991101e-02,2.175727346276029681e-04,1.876843620760403411e-02,1.991403243544805468e+00,-1.009072630468466070e-01,1.774116769055140638e-02,-2.242618295286101168e-02,3.612095302047573647e-02,-8.271854963321661515e-04,-9.587176398038260716e-02,-2.021827960654968059e+00
2.750286473851295665e-03,-4.658420710601244435e-03,-1.350218618650191656e-03,-2.937913279355487423e-03,-1.337536765244953275e-02,-9.610036890207947907e-03,-1.374488187657831213e-02,1.315260174747769246e-02,-2.251376415220534416e-02,1.523693008382615878e-02,-2.166099411273015099e-03,1.987908513609634373e-02,1.991278746025985980e+00,-1.022895783349953430e-01,1.678879247968878205e-02,-1.939380173880166092e-02,3.643528294296972253e-02,1.094266529496675119e-04,-9.322215096701981507e-02,-2.022660761552185882e+00
6.976014808638400164e-03,-3.648892987549884684e-03,9.228097157660666633e-04,-3.223251594589331224e-03,-1.366882031926804596e-02,-1.131831974700673281e-02,-1.173060317041599646e-02,1.363171403466822799e-02,-2.243734951638757733e-02,1.651433054442481840e-02,-4.157520268934117649e-03,1.788189966656571553e-02,1.992924419009512338e+00,-1.050268818265395337e-01,1.756017055814149477e-02,-2.084560329814798274e-02,3.592429349125608046e-02,-2.284020404399585103e-04,-9.214585156694912738e-02,-2.023097367200664465e+00
9.470478797051448336e-03,-4.777001155858143569e-03,1.347421879030469955e-04,-3.895548174061838273e-03,-1.258614947194953634e-02,-7.099946117242764317e-03,-1.163296568194747971e-02,1.262184612796127259e-02,-2.347789142635861928e-02,1.706357704840009981e-02,-4.910203345318642741e-03,1.966567112112337090e-02,1.990791867826902095e+00,-1.044225812536964393e-01,1.816702045485424355e-02,-2.136812432654883881e-02,3.279602160237177905e-02,-1.049688440883541924e-03,-9.316945055034843437e-02,-2.024782894145554568e+00
3.902658737035500161e-03,-4.197105090000229945e-03,2.840813559098979979e-03,-5.482309510747763841e-03,-7.113375290258917502e-03,-8.019484308599819644e-03,-1.148812371635508575e-02,1.302688951820608204e-02,-2.373417420200376465e-02,1.788414183423491649e-02,-4.054055759980762334e-03,2.135637668718295273e-02,1.991993684325951808e+00,-1.061935425699527535e-01,1.913350629609713097e-02,-2.045659939650112946e-02,2.930084274872402431e-02,-4.068965865638894674e-03,-9.237934787570102613e-02,-2.025485308131536488e+00
4.599751687535540666e-03,-4.924754062807086726e-03,-1.762758108548341659e-04,-6.772053856137908931e-03,-4.695459855913519664e-03,-8.376194067267426005e-03,-1.115002535091870993e-02,1.185356761020823352e-02,-2.444532712026376009e-02,1.856293395796400000e-02,-4.260641285154430358e-03,2.338392503269367401e-02,1.991249603148172787e+00,-1.042336268445538394e-01,1.525031439246111141e-02,-2.233197126086276796e-02,2.925194236055967192e-02,-4.730879499142315488e-03,-9.391508474958117081e-02,-2.024272010630590035e+00
5.871140177148231366e-03,-4.515950088598884651e-03,-1.193724366668935975e-04,-1.058978444031012309e-02,-2.856587754475903036e-03,-3.639045711595965352e-03,-8.866652611084498148e-03,1.245439648093425895e-02,-2.276795289200949507e-02,1.484178714470408417e-02,-4.765137690707368923e-03,2.416955444389036131e-02,1.993868266823203728e+00,-1.016254955957787004e-01,1.649558754988603160e-02,-2.530223316931176636e-02,2.979112387258969416e-02,-3.952411823034680631e-03,-9.479969224501468006e-02,-2.026985528023862670e+00
1.704559953080399346e-03,-6.209466348519583276e-03,2.908598712688570138e-03,-7.173720060461660601e-03,-2.578654959008814303e-03,-2.127585870814308663e-03,-7.662003837562105305e-03,1.126728253961719640e-02,-2.089359989255059127e-02,1.377009306900974471e-02,1.040695413590472535e-03,2.615341553795556828e-02,1.992852765413127614e+00,-1.032326720278818749e-01,1.549166645133471035e-02,-2.228627282158336317e-02,3.046431685004612894e-02,-3.461973332817355406e-03,-9.630702867875930162e-02,-2.029171189166625755e+00
4.853049504987828368e-03,-3.377408684844580063e-03,3.826682100152259403e-03,-6.925137174345277410e-03,-4.612048155615212225e-03,-3.687629906125483668e-03,-8.687728216277820770e-03,1.005799326273085562e-02,-1.759278242048848556e-02,1.423257532705292025e-02,-8.164218821842743161e-04,2.710450155829632890e-02,1.993932926249288640e+00,-1.039265856886637945e-01,1.472438080862200661e-02,-2.397990912733511185e-02,3.039142521978272643e-02,-3.021580156120051187e-03,-9.565338820976519718e-02,-2.030235401652406235e+00
2.117493490660098295e-03,-3.758801594232882501e-03,5.350821285650463749e-03,-7.080184181557817175e-03,-2.038552015739141660e-03,-1.645059294256832915e-04,-7.351808205544523717e-03,1.032066367968710596e-02,-1.902248103402280968e-02,1.361209692616226034e-02,-1.255216424896516813e-03,2.408261301918535394e-02,1.997427940409728597e+00,-1.014980509122727775e-01,1.428423354106881510e-02,-2.310859620740877626e-02,3.006581232686067126e-02,-6.240347213754208165e-03,-9.717914208785448371e-02,-2.029980522221315198e+00
1.139828737881297144e-03,-4.510706511532595539e-03,5.635251185548971996e-03,-1.056275883947879572e-02,-7.660055157631840556e-03,-3.154738279011676423e-03,-1.185471108594130310e-02,1.077748255419763192e-02,-1.877299614173743095e-02,1.387130731031364222e-02,-2.976808314063118343e-04,2.065044743430925756e-02,1.998629931404811044e+00,-9.945951870182818955e-02,1.272544760727902478e-02,-2.914485440672548444e-02,2.727406634754281356e-02,-5.131775116065254508e-03,-9.549000485353512091e-02,-2.028986331373287655e+00
1.934677493219005232e-03,-3.572956096778931185e-03,8.860374622297554487e-03,-1.026373867923524238e-02,-7.498072648534474111e-03,-3.148511571752558597e-03,-1.336755723337733695e-02,1.315486771276369420e-02,-1.636280468757967538e-02,1.701445998968387219e-02,3.994481214723878546e-05,2.063880059206173526e-02,1.997730993720575610e+00,-1.016156606711454691e-01,1.525599266156154286e-02,-3.024030481491494365e-02,3.033271887384088317e-02,-4.779875727294457567e-03,-9.499494285996817888e-02,-2.028592925247445056e+00
1.338292214628143640e-03,-3.837004680129327619e-03,8.313738562897531742e-03,-9.409140426205121407e-03,-7.438127921409107973e-03,-3.404311967952055890e-03,-1.286873979473950741e-02,1.315821419138888532e-02,-1.846744814040336691e-02,1.597379296452946726e-02,1.928887335580687376e-03,2.095080907536536405e-02,1.997098852404009195e+00,-1.043080261459157498e-01,1.868655876870280175e-02,-2.868279121070033133e-02,2.895194756963694049e-02,-6.509573291938987143e-03,-9.374896619070557935e-02,-2.028872678912365224e+00
-1.372967154231816286e-04,-2.959816815654087770e-03,8.816943125134462517e-03,-9.900559329247415538e-03,-6.066762609359222652e-03,-4.136616485132882728e-03,-1.312297457508695628e-02,1.350924801542946647e-02,-1.907419493255938653e-02,1.797575177051342898e-02,3.738572981972007082e-03,2.362650266668136351e-02,1.996859154899439215e+00,-1.025806805169826030e-01,1.731990017208734703e-02,-2.718768209594265781e-02,2.677398975134405099e-02,-4.654026608679604458e-03,-9.604564687052428995e-02,-2.030966855349432887e+00
2.578917956105576236e-03,-2.488974661081236328e-03,8.284004900463760174e-03,-8.840266265339079971e-03,-5.280895903676123375e-03,-9.979655957498274714e-04,-1.040343823271184381e-02,1.215168719809740089e-02,-1.683529287341074820e-02,1.637399678990071952e-02,8.422719262893443946e-04,2.379807338456696800e-02,1.994236849829951419e+00,-9.956555989266160922e-02,1.698479628061558971e-02,-2.867925719613629437e-02,2.385864617101712479e-02,-4.283365738733496166e-03,-9.867582942307104310e-02,-2.028501359138187965e+00
2.276073539498532639e-03,-4.347496726542171216e-03,9.719099537650842391e-03,-6.738998041550032028e-03,-2.539910901236882689e-03,-1.966661454823267509e-04,-1.191920435138821635e-02,1.358311083460604987e-02,-1.778026949022817882e-02,1.731434163390453349e-02,-7.555614002494430437e-04,2.237357065121297131e-02,1.992728116894942891e+00,-9.829469485856376365e-02,1.792934492559014256e-02,-2.631357547502767916e-02,2.520467668796215477e-02,-8.116776488788252086e-03,-1.016555818139300987e-01,-2.029482073763778871e+00
3.438168243584881559e-03,-4.747693914829206191e-03,1.186410387740277454e-02,-7.385703731847834477e-03,-1.564905349819818844e-03,-5.709892732053827328e-04,-1.321181798351869080e-02,1.414427826276288755e-02,-1.901672275004316973e-02,1.792779969761029366e-02,-3.315607160986719544e-03,2.159495704204844255e-02,1.989385701571082521e+00,-9.830375562567920944e-02,1.438349858892854806e-02,-2.580389661045114427e-02,2.503738333498000193e-02,-8.991415057515758646e-03,-1.008021716826907055e-01,-2.032728435227372898e+00
1.968365389703210372e-03,-6.127219568143710618e-03,1.048061272007428865e-02,-9.292856210918007398e-03,-1.380017804823827684e-03,4.272376155166366448e-04,-1.055285811775475910e-02,1.449467525543898794e-02,-1.948848726427402159e-02,2.180398550495538101e-02,-4.936955559020187595e-03,2.048573014557908759e-02,1.987681484767564122e+00,-9.782633552196973170e-02,1.493283076177297913e-02,-2.832502575827852004e-02,2.495194407963332792e-02,-6.229574705510679267e-03,-1.005684613233599756e-01,-2.031080772851244554e+00
2.175644914974979478e-03,-6.662573710304488597e-03,1.069299272320390487e-02,-8.390528274923420363e-03,1.580613059817976770e-03,4.145902016994568000e-03,-9.398184786335623750e-03,1.293647814572844099e-02,-1.622858073391096612e-02,2.213301670451190903e-02,-5.046255124566287331e-03,2.059595835774924444e-02,1.986183326315213105e+00,-9.707154989379880583e-02,1.441552227077357376e-02,-2.905079968621730388e-02,2.373031480527200768e-02,-7.235871831422826909e-03,-1.003514581047978416e-01,-2.028928760758168970e+00
2.670168010924445050e-03,-3.577755508761470190e-03,9.814779401220616664e-03,-7.355611383734105002e-03,6.783042635003429808e-04,4.619363828999801559e-03,-8.655006918484867834e-03,1.094771250540387507e-02,-1.396203682109653683e-02,2.245001924538854096e-02,-5.409825121986887655e-03,2.120533523184758157e-02,1.984612304455891429e+00,-9.723741718452730276e-02,1.570873070904133667e-02,-2.777354583712073749e-02,2.465370771298362393e-02,-9.110919745377841356e-03,-1.013617698786275639e-01,-2.029935976339026116e+00
4.754955348481889991e-03,-4.474553232405090869e-03,1.381433536666059128e-02,-6.247989450341646586e-03,9.665293189461657448e-04,6.193546853741894315e-03,-1.409624495592484011e-02,1.162149171252032341e-02,-9.660053319971719302e-03,2.149483024484004010e-02,-5.312609010624953429e-03,1.779936177781288320e-02,1.984814765726077512e+00,-9.806033689328987057e-02,1.525097230068301127e-02,-3.004813931539412897e-02,2.653545920326993990e-02,-9.456027885810460235e-03,-1.023876897810318265e-01,-2.032934198720346863e+00
3.384012533037686950e-03,-5.036205353305659230e-03,1.204575346933171517e-02,-6.352413932862638161e-03,-2.746572587085026828e-04,9.159034216853548932e-03,-1.226304476956971076e-02,1.261921044279669564e-02,-1.127795526114967056e-02,1.899319655952022567e-02,-5.307678297197115577e-03,1.728226752931056112e-02,1.984369646820299371e+00,-9.717809257036742754e-02,1.344637876770533695e-02,-3.111532182096955063e-02,2.836795511793335084e-02,-1.091441359491001142e-02,-1.025402206223201829e-01,-2.035454752075985585e+00
1.191657575029274243e-03,-7.558430929818821427e-03,1.327536453153361357e-02,-3.937683338859349416e-03,-5.358051696179113883e-04,8.715815261357791333e-03,-4.693293193753092854e-03,1.129901574262207227e-02,-1.111627844867744963e-02,1.706397016824914500e-02,-4.524398581018806639e-03,1.842790581243191478e-02,1.988208212836947819e+00,-9.818457742469606508e-02,1.431597030815079212e-02,-3.127369121003162333e-02,2.939142542010655945e-02,-1.095238697452103477e-02,-1.028068201829231282e-01,-2.035172272041489983e+00
4.572530542407229914e-04,-8.171988954111251632e-03,1.212418713400590167e-02,-2.601037768635734108e-03,-7.427471541614268785e-04,1.003324637810545233e-02,-5.395509367338622783e-03,1.415370134574559131e-02,-1.079129663643073334e-02,1.691213552139159138e-02,-5.103815980824846082e-03,1.952632430158775939e-02,1.989989275493001086e+00,-9.645368255243197408e-02,1.470265153883882486e-02,-2.980936932814143639e-02,3.174228973159173850e-02,-1.232244595876412149e-02,-1.041075249869816005e-01,-2.037336253464377300e+00
3.305118583055115158e-03,-5.907295826077287211e-03,1.241716699770847865e-02,-6.877434036133240475e-03,3.891942895497456042e-04,7.868658515466735864e-03,-7.033632791772030483e-03,1.195296827904777925e-02,-1.240358333910159504e-02,1.391321010606041443e-02,-3.965555372689540635e-03,1.736915001841185524e-02,1.988265998139932211e+00,-9.725248941964749483e-02,1.253379407712083143e-02,-2.934332107501233175e-02,3.147535771179250930e-02,-1.027207332068170303e-02,-1.029701843482284801e-01,-2.032822946414169163e+00
3.455925465943570068e-03,-6.993668496073233466e-03,1.534766396134396027e-02,-8.941186104135937993e-03,1.526602739553351885e-03,6.065444186698385615e-03,-7.997996042636673977e-03,8.611244874615167286e-03,-1.142117873713620335e-02,1.378682994501284273e-02,-5.134457454160053572e-03,1.888950800654003517e-02,1.983563601541563637e+00,-9.932926269529512853e-02,1.269169673972561641e-02,-3.300515407093321946e-02,3.220733266661619798e-02,-9.785954761046600225e-03,-9.999032971106071310e-02,-2.032751684513499857e+00
3.817471656007059670e-03,-5.015436723048606084e-03,1.355176710345026153e-02,-8.178719609552690534e-03,2.585206270853306412e-03,4.951137885863093370e-03,-1.033376805077042965e-02,1.124735952242022184e-02,-1.237535765528588808e-02,1.215589736054024581e-02,-5.010229666712832236e-03,1.856009004760001552e-02,1.987788109225153255e+00,-9.786557460138631259e-02,1.123469415820028440e-02,-3.350705274168909453e-02,3.362546851904651968e-02,-1.018545158455047388e-02,-1.019610481379814027e-01,-2.031987712296890347e+00
5.321954302689388579e-03,-4.540476316024558839e-03,1.208055976640364654e-02,-6.321053685477252305e-03,3.144564836188068740e-03,5.594740105158386295e-03,-9.975816479651462843e-03,9.465819293177923227e-03,-1.457653741071295722e-02,8.878598235812331166e-03,-5.366348999670065428e-03,1.722003656530806878e-02,1.990210489101370106e+00,-9.985118775627520316e-02,8.314018695688828869e-03,-3.349218161292173007e-02,3.395392649887158526e-02,-5.777140088859236862e-03,-1.018080731738524175e-01,-2.027149076846507914e+00
3.714701288469399350e-03,-3.864009295089119219e-03,6.886796067469068243e-03,-5.834021248293111764e-03,6.064580580879854604e-03,4.464020461443829295e-03,-1.202982326450751510e-02,1.037545601728515239e-02,-1.424665447679442434e-02,1.241349711389885639e-02,-2.834658076201008493e-03,1.858352515358242113e-02,1.989971865306756404e+00,-1.004427446678428371e-01,7.799878253896652507e-03,-3.181619886389436269e-02,3.379651734766537380e-02,-4.898047160700340179e-03,-1.013505032493795532e-01,-2.026642402745282290e+00
3.008416611783288393e-03,-3.744960206094595252e-03,6.042103477926632354e-03,-9.731553351730932999e-03,3.868348550113492705e-03,4.000360271344584502e-03,-1.338565778336019488e-02,9.118613358599314545e-03,-1.374732754958680331e-02,1.365662062260503129e-02,-3.343819433385448233e-03,1.857281719546171467e-02,1.986971156650004566e+00,-9.835734153884836961e-02,8.734178355983340455e-03,-2.828573765978434698e-02,3.587031397102815461e-02,-3.638808655766743744e-04,-1.016847423645674403e-01,-2.028727539385077439e+00
2.712603743200535465e-03,-1.068438095915462752e-03,7.251187689643321700e-03,-7.437659399106680974e-03,2.128345799391564031e-03,1.491777435372726272e-03,-1.304465555648125392e-02,9.938485968193081638e-03,-1.457302857502294248e-02,1.566348633097048443e-02,-1.553415762133198829e-03,1.872929006917322184e-02,1.989218713614342215e+00,-9.772324486414538103e-02,9.364133741901497013e-03,-2.811738345133035777e-02,3.501802340573400424e-02,-1.513879707937289612e-03,-1.031531796831613446e-01,-2.028397707805729588e+00
3.150935217213212802e-03,-1.004423043845520478e-03,7.033533572593250391e-03,-1.021662364894407142e-02,-5.593103028705871541e-04,9.194179886066851859e-04,-1.014593846793623508e-02,9.517801880958246669e-03,-1.712351040824426629e-02,1.452659850526951540e-02,-2.959671694398155820e-03,1.756635240230787834e-02,1.987730621804681519e+00,-9.818883680314084705e-02,6.490708174459581745e-03,-3.135549268084850821e-02,3.517645209598652123e-02,-4.898588169725586394e-04,-1.011373676295133778e-01,-2.030859854824849098e+00
5.642677381497286475e-03,-1.644235252270977513e-03,5.418445311257102590e-03,-1.060512668937307196e-02,-8.777140835673059947e-04,4.096018821790778537e-03,-1.240423534708137189e-02,8.781480458980828532e-03,-1.666400403779500286e-02,1.260407555905460400e-02,-1.722679391185346449e-03,1.722293806697571678e-02,1.991198344721202274e+00,-9.885021808188113046e-02,4.909557416649184929e-03,-3.333480506568400892e-02,3.907738960452122878e-02,-9.817868653794364128e-04,-9.901960968226836135e-02,-2.030698695757545913e+00
6.199791676816919853e-03,1.470486784314526372e-04,5.865129933465986975e-03,-8.648313636245985939e-03,-3.067723170109899321e-03,4.119314491260686432e-03,-1.376107007497216414e-02,8.246127442788986697e-03,-1.392562312340713503e-02,1.255183917013435839e-02,-2.225648505218201685e-03,1.965475100223401661e-02,1.991120103827684007e+00,-9.547281942895159690e-02,4.632049291646660877e-03,-3.282748337001666072e-02,3.695284193671231204e-02,-2.323413196367564004e-03,-1.004224578133408874e-01,-2.030295716186653276e+00
6.064490074654578164e-03,-1.269980296647045233e-03,5.815461578644248904e-03,-7.125769789717495938e-03,-1.682753004565826389e-03,4.790580879146299174e-03,-1.229158482347631268e-02,8.476206804332477376e-03,-1.555796814610072368e-02,1.183948301483692296e-02,-2.645814529560450742e-04,2.293682269423271552e-02,1.989138881875327947e+00,-9.807201880951446626e-02,2.656116191145352183e-03,-2.893382448268249502e-02,4.073417917192719007e-02,-2.782889892959665174e-03,-9.960900304463515820e-02,-2.033976327309666488e+00
4.018227863027915708e-03,-2.060215702130196655e-03,5.019283956486280188e-03,-8.942293592628077284e-03,-3.471069174701690418e-03,2.796754104377101400e-03,-1.188670731745203671e-02,8.126858918873946375e-03,-1.713143298361384861e-02,1.245632924148851010e-02,1.711411256805484135e-03,2.465012021178111801e-02,1.989800235691485453e+00,-9.721155122987594488e-02,4.339768369371804768e-03,-2.879556329285491711e-02,4.264139210862064044e-02,-2.920960902530694500e-03,-9.839724675481721639e-02,-2.033256516616201548e+00
2.628052565658625488e-03,-2.918756590261206880e-03,4.209750389698219825e-03,-9.661094460645860277e-03,-4.992147963501959371e-03,2.292806110503294546e-03,-1.310653404996445399e-02,9.229406405948567191e-03,-1.324767393288968538e-02,1.413565959807320215e-02,8.794892422358594180e-04,2.460548178288828741e-02,1.991697402303422626e+00,-9.664056918610905433e-02,6.961432927606545432e-03,-3.213241934604744998e-02,4.225892476776484108e-02,-6.613783945353823466e-04,-1.006857120874431605e-01,-2.031404154505677795e+00
4.521680217060489518e-03,-2.242669691930646546e-03,5.161172305289815458e-03,-7.386237282041243149e-03,-3.206325795497344533e-03,3.887924542707749901e-03,-1.368931646079094358e-02,8.053764837157438572e-03,-1.450680284033691904e-02,1.499687118843249373e-02,-3.758212257366938557e-04,2.646097099743180414e-02,1.993480474939788527e+00,-9.639623171594192963e-02,7.879740135983024849e-03,-3.350460426729268831e-02,4.355880589143059506e-02,1.139930520126923482e-04,-1.026867293598103525e-01,-2.029453368803688207e+00
4.090419115810915197e-03,-1.939392200026947765e-03,3.719873756079221643e-03,-6.093749359416771386e-03,-1.269737752317387156e-03,-6.926587129977001276e-05,-1.233856032299456007e-02,5.547510827051523041e-03,-1.593326635958252496e-02,9.394737383388567648e-03,-1.485826469010276350e-03,2.371346373323336351e-02,1.992276467071193657e+00,-9.594622079155554206e-02,7.682245970901713933e-03,-3.172142066789263026e-02,4.282655954438292084e-02,3.258513853591861790e-04,-1.041211643296682393e-01,-2.028565967966882599e+00
6.427110377385635530e-03,-3.188284585468866960e-03,2.629913212738557021e-03,-6.526959899873433293e-03,1.168511460420684550e-03,5.341389632828477327e-03,-1.205570333430367597e-02,7.105567707973963441e-03,-1.551313597475546813e-02,1.155458011709603432e-02,7.740291447653365169e-04,2.128665101321217806e-02,1.990581921215045735e+00,-9.738196038349822281e-02,5.641172915694877416e-03,-3.109891454775567249e-02,4.142850181523544117e-02,9.020099998480832909e-04,-1.031549978902400327e-01,-2.026464908580187352e+00
4.306825875175867777e-03,-1.294170188628149644e-03,-7.202448376706700088e-04,-7.920879903225406388e-03,2.612311356381214009e-04,4.482929246094499894e-03,-1.210622688250591501e-02,5.259974145089181714e-03,-1.168008357722576801e-02,8.140830043701051399e-03,-4.210186971488344941e-03,2.278802957851640276e-02,1.991150733030976561e+00,-9.542720591088335591e-02,4.571734237973121284e-03,-3.232984974172988663e-02,4.237039926061090395e-02,-2.703251641845050464e-04,-1.022299647795664179e-01,-2.027216849494835493e+00
7.085783884227303368e-03,-3.149828999926172161e-03,1.969014707442498079e-03,-7.510524905792719669e-03,-1.137857636218851621e-04,2.614676556439347096e-03,-1.302488315232227037e-02,6.975431662334945389e-03,-1.393194802760032262e-02,1.300443284126805328e-02,-2.107932383652226602e-03,2.217848840009388478e-02,1.993988523002283797e+00,-9.560952316501324100e-02,1.943715658493990394e-03,-3.085221471156329373e-02,4.091328973842112138e-02,-2.838128309048526011e-03,-1.032536924851650273e-01,-2.030323693444703537e+00
4.681098847996375233e-03,-2.500885709596320072e-03,3.346733280260105552e-04,-9.823849812864212522e-03,-1.653617568983585149e-04,3.484383566596263148e-03,-1.272956650105367717e-02,8.209055063641576208e-03,-1.398220547779757336e-02,1.156911217155108182e-02,-6.969144730389016445e-04,2.711650917865280480e-02,1.993021389256571796e+00,-9.482910195914991125e-02,4.166178096323501674e-03,-2.858219877169208487e-02,3.934134532740940493e-02,-2.152821921124084201e-03,-1.025864283369245095e-01,-2.028910806440972880e+00
4.991106109022298495e-03,-4.005467353348691854e-03,-4.114764328929293447e-03,-1.058912402326668556e-02,1.548720034733781130e-03,2.270125386979548240e-03,-1.351189887087518755e-02,6.544965504040945077e-03,-1.206496004836086003e-02,1.512088368671840599e-02,-4.078337789124842315e-03,2.835329979858558502e-02,1.996265889652083070e+00,-9.471726337168734355e-02,4.639345875132030658e-03,-3.047732847377863236e-02,3.755884592573609237e-02,-4.123985036598891603e-03,-1.013701430590676633e-01,-2.030130398374081047e+00
6.639011335649551773e-03,-2.309002356078273307e-03,-3.144233678482491728e-03,-1.293302532997270098e-02,1.285811048008059752e-03,1.059289188256092940e-03,-1.339943054042558659e-02,6.088022845672818456e-03,-1.204763670904315624e-02,1.695048239182929059e-02,-9.799879447139601442e-04,2.684100747554516581e-02,1.992999071992671789e+00,-9.831059071510499237e-02,5.253227130706762324e-03,-2.838267512396996234e-02,3.751286113338352796e-02,-2.333945605268544082e-03,-9.910309242024109566e-02,-2.029250593946035686e+00
4.986730851999341720e-03,-1.945910980991317823e-03,-4.822698328128745032e-04,-1.122415529104037538e-02,3.987921269627738713e-04,6.707383712441051605e-04,-1.519900898488881283e-02,6.506254989178179848e-03,-1.003213365287572954e-02,1.765544369426524582e-02,-1.316761527018625198e-03,2.649149688423293666e-02,1.992070776399650578e+00,-9.805466325536525696e-02,6.977374403726677686e-03,-3.010329002703161783e-02,3.719315858118225210e-02,-6.586753051362259810e-03,-9.739599828625399025e-02,-2.033015723742144232e+00
3.555251209726550086e-03,-8.198382347824190175e-04,2.055628226186417785e-04,-1.191561608562103323e-02,5.756758089448139057e-04,-2.272505830829716408e-03,-1.485094847674229245e-02,7.566302741940503403e-03,-1.105596065341963273e-02,1.678535394783834192e-02,1.823639362289785791e-03,2.423460475332606459e-02,1.992290809367733617e+00,-9.671325538122646504e-02,5.783874515855393604e-03,-2.647609921111541281e-02,3.896094235925293831e-02,-9.369076972469152567e-03,-9.974607106031439796e-02,-2.033765002262994059e+00
3.199602039041916143e-03,-8.647243994952434013e-04,9.837995895839450784e-04,-1.088600998450830679e-02,-3.674423131877635885e-04,-3.906478449380720690e-03,-1.480527378972300995e-02,1.036926350969640670e-02,-9.543967075023239779e-03,1.584574241375527257e-02,-6.029698606952130918e-04,2.573281676350008818e-02,1.992434539186041853e+00,-9.572906005976135335e-02,6.391373128753342729e-03,-2.723568472046727570e-02,3.798723208212247821e-02,-1.187161834362053699e-02,-9.987070220788266117e-02,-2.034097113495096476e+00
2.598127763738228464e-03,-3.511813952154445913e-03,4.414944443234272925e-04,-1.142318190426171859e-02,-5.252944552269545909e-04,-9.888600529404508940e-04,-1.904079676909924482e-02,8.743777183526164204e-03,-1.164988855141188898e-02,1.479707288811616880e-02,2.206059373199241165e-04,2.690385117220824365e-02,1.993108751657037159e+00,-9.565940314565672675e-02,4.500708658199821001e-03,-2.876170476120483779e-02,3.949782598772200171e-02,-1.200630246706153176e-02,-9.895814858218758558e-02,-2.035980710458602516e+00
2.956123537006744365e-03,-5.388679003451117382e-03,-1.265636636611272049e-03,-1.407146918525992683e-02,2.457586407020189573e-03,-3.430891060005839964e-04,-1.907801515840290910e-02,8.553509210072814117e-03,-1.142272263708110636e-02,1.341470582403567896e-02,3.374759161469138152e-03,2.383501146167823700e-02,1.992302523161169514e+00,-9.525074695683202752e-02,4.592919093490140103e-03,-2.864871620165193936e-02,4.206406017287506877e-02,-6.847112114870652737e-03,-9.958570969417952778e-02,-2.038377321990419322e+00
1.866493335670707044e-03,-5.469678636360980790e-03,-2.958944424061778992e-03,-1.391254649703013886e-02,-1.185087795627244459e-03,3.164389405721818754e-06,-1.998958338695775924e-02,1.225492410742584290e-02,-1.210717049014655745e-02,1.141283273076911658e-02,3.323549270754800385e-03,2.607705874751988992e-02,1.988506325808467867e+00,-9.401083642684636421e-02,3.411980786215314861e-03,-2.786806595256614144e-02,4.222461975045648658e-02,-7.230521223880554890e-03,-9.885237202726845918e-02,-2.033839185519469517e+00
2.730233670144243362e-03,-4.129249288185993932e-03,-1.515920968473226339e-03,-1.216242147593422918e-02,-1.982448191168665903e-03,-1.368341707873632455e-03,-1.798012775464116059e-02,1.342272077435763614e-02,-1.473088446707584813e-02,1.133313021538200419e-02,-2.177139926107538666e-04,2.837015271767659441e-02,1.988451877359494580e+00,-9.283327272853011958e-02,1.913819501755243020e-03,-2.401180938960973538e-02,4.164841082831906988e-02,-6.223082939912652489e-03,-9.846280629177560362e-02,-2.034497499846189328e+00
6.890839091025026441e-04,-3.845602259957179529e-03,-3.834461263547386551e-03,-1.010878137316181466e-02,9.789000818967866571e-04,-2.220555084016981665e-03,-1.538902447445672853e-02,1.096745078162965348e-02,-1.731218044727783276e-02,1.170831908705930770e-02,1.576202250556973895e-03,2.983024464266844505e-02,1.984107448690606512e+00,-9.565752455221081252e-02,1.516913288546263431e-03,-2.178144127811380143e-02,4.184559254426904740e-02,-7.770343665995818258e-03,-9.833214289684748255e-02,-2.037310678268668074e+00
3.631799175022053933e-03,-4.281005539741985534e-03,1.761296481956352083e-04,-8.646938817518991585e-03,-5.436708551449602727e-05,-1.593890280490697009e-03,-1.625564232675469692e-02,1.140683016342578307e-02,-1.854760184061286787e-02,1.168745538806976320e-02,2.586269469609222584e-03,2.915951946888329510e-02,1.984301925377774056e+00,-9.334466294787285845e-02,-7.540729327324132781e-04,-2.436805950949794825e-02,4.328525736549717479e-02,-9.013300184208202642e-03,-9.846900469866363970e-02,-2.037359332682797675e+00
2.481514537461459655e-03,-2.817949372144756999e-03,-1.757890336348896668e-03,-9.874055630103536693e-03,1.551994438751399912e-03,-2.951852156529851073e-04,-1.600422565612801690e-02,8.249994507092290111e-03,-1.599093669641832305e-02,1.414994014074673345e-02,2.617265824519455011e-03,2.775281558091742540e-02,1.983925964114272800e+00,-9.397418582556542332e-02,-1.156824767090757974e-03,-2.644551715731253624e-02,4.217498462168907392e-02,-8.056780374917560036e-03,-1.008074069005394785e-01,-2.038120961457218883e+00
5.023055763950737100e-03,-6.527100472645051658e-04,2.667222003052485148e-04,-8.871294468691863153e-03,1.916675512520068549e-03,-6.056308322440629582e-04,-1.636877598947557994e-02,5.765543700109761541e-03,-1.376457389654116986e-02,1.106364573897329964e-02,2.606896543554086546e-04,2.772535969982841547e-02,1.987605327434522895e+00,-9.427765094304442484e-02,2.807184832199380265e-04,-2.641175146671785254e-02,4.454926128353869919e-02,-8.072588524391726555e-03,-1.009827628583955389e-01,-2.036170381541392960e+00
6.884944582786239886e-03,5.440469603449443704e-04,2.456897639012324162e-04,-1.024845790004820512e-02,-3.438597694808504727e-04,9.712703207621824295e-04,-1.665020624340366254e-02,6.116163474899472159e-03,-1.809444765145946585e-02,1.032452628757280118e-02,1.326209910456600371e-03,2.902243134802642149e-02,1.986599819094471364e+00,-9.480484089095522759e-02,3.574656448828153303e-03,-2.238193102265392115e-02,4.362692586647385490e-02,-5.477654379929951418e-03,-1.012464954926723809e-01,-2.034257646133183162e+00
4.289507792540305647e-03,-5.646304400025795034e-04,-3.752355573178701303e-03,-1.050853617819600370e-02,4.654170323846638750e-03,1.911339206435441187e-03,-1.736469657153683066e-02,4.705838276912373622e-03,-1.893819236907007264e-02,1.293651222865577037e-02,1.365767985033392571e-04,3.126190641968015077e-02,1.986444320133377683e+00,-9.443110902034515530e-02,5.908208327666357451e-03,-2.253942843028092224e-02,4.621161787684142236e-02,-5.257881803656203924e-03,-1.023616124899880825e-01,-2.032659208832150011e+00
6.529246779159170178e-03,-1.279410470461015336e-03,-5.678972236975641380e-03,-8.829032842675214876e-03,7.308856598894064843e-04,1.978459563760819398e-03,-1.464561622261214245e-02,5.175549858828370174e-03,-1.573685601824467359e-02,1.448070163071749766e-02,-5.161130643563168353e-04,3.178047428034906641e-02,1.986928231845256354e+00,-9.391585524859415168e-02,8.446271895675249233e-03,-2.533590458042129026e-02,4.697440928919308784e-02,-7.640844977140676467e-03,-1.032215820528962075e-01,-2.031170339895768340e+00
8.766383280662166239e-03,-2.066606046653569374e-03,-4.214139206677828924e-03,-7.525346936960525257e-03,2.457655651681695148e-03,2.667344658446210194e-03,-1.577816292194823139e-02,3.340463774355474820e-03,-1.647709883561293207e-02,1.343594740130467022e-02,4.623648538735646756e-04,3.024806654302183984e-02,1.985959688073078322e+00,-9.528406931511347600e-02,1.148857551716424633e-02,-2.471433134669502596e-02,4.760509108868870437e-02,-8.021975658271517789e-03,-1.034765547456949486e-01,-2.032221453987245852e+00
6.210768947831593785e-03,-1.222896936146445311e-03,-2.436789525985409710e-03,-8.094618822200453159e-03,8.245910333302351172e-04,2.470364626324841884e-03,-1.440199092887812019e-02,3.263285520012150845e-03,-1.483085566662135750e-02,1.264533228206889993e-02,1.492263817963866744e-03,3.523913227206811744e-02,1.987129400325234885e+00,-9.734833017824254253e-02,1.216517232639030728e-02,-2.503408693795038456e-02,4.887408866212926417e-02,-7.827520974201803566e-03,-1.008954361977711239e-01,-2.031301485362984494e+00
6.210768947831593785e-03,-1.222896936146445311e-03,-2.436789525985409710e-03,-8.094618822200453159e-03,8.245910333302351172e-04,2.470364626324841884e-03,-1.440199092887812019e-02,3.263285520012150845e-03,-1.483085566662135750e-02,1.264533228206889993e-02,1.492263817963866744e-03,3.523913227206811744e-02,1.987129400325234885e+00,-9.734833017824254253e-02,1.216517232639030728e-02,-2.503408693795038456e-02,4.887408866212926417e-02,-7.827520974201803566e-03,-1.008954361977711239e-01,-2.031301485362984494e+00
6.176127350764702879e-03,-8.781393404029936645e-04,-1.001159934827603186e-04,-1.246444243774975751e-02,2.437927086057895942e-03,4.918879806896052712e-03,-1.461738671291213515e-02,-5.087182802455564876e-04,-1.178092937186448266e-02,9.923279522419212184e-03,2.918839421897927080e-04,3.564942184101242695e-02,1.990292700362881195e+00,-9.515537471949990500e-02,1.164796087324684870e-02,-2.459171156508749290e-02,4.960815162281445589e-02,-9.898116744484906221e-03,-1.016198402321605437e-01,-2.030423039485449888e+00
7.440638977717365689e-03,1.689169465520153589e-03,-1.552272879528472996e-03,-1.164989663926905249e-02,2.516319133896158852e-03,3.125673435052692042e-03,-1.597668610512918350e-02,-2.079023657925992054e-03,-1.223242253094925479e-02,9.335354691197894628e-03,1.768515055347746152e-03,3.263165797410356311e-02,1.988440187550558402e+00,-9.481172423421035944e-02,9.945217966261549192e-03,-2.435927841481876077e-02,5.228308386013116871e-02,-9.561617611081704021e-03,-1.025152215338033801e-01,-2.031976274043595154e+00
6.794291999932946385e-03,2.431654802240424372e-03,5.599548379408137268e-04,-7.714790341218489243e-03,9.733470455014312395e-04,7.002697858576984683e-04,-1.805833405497152266e-02,-2.263737201670115978e-03,-8.602496191983839691e-03,9.088737206627072601e-03,-1.325183958573411362e-03,3.432464088957037224e-02,1.986582996362939779e+00,-9.652609830895279852e-02,1.232044554236224471e-02,-2.580837225228617068e-02,5.058084981713945050e-02,-8.387878068264005213e-03,-1.026209098468535974e-01,-2.033117781834279825e+00
7.715341959565732120e-03,2.305913691917834156e-04,-1.605980826092247467e-03,-8.653974200547101536e-03,-2.101982353709390405e-03,-9.577201883290140712e-04,-1.681016127124472515e-02,-2.805213995334968936e-03,-5.761258787703846598e-03,1.040198716883406621e-02,-1.417550092849715173e-03,3.415071014639071284e-02,1.984706933767435677e+00,-9.608636883868353074e-02,1.478399098617864948e-02,-2.695754665998209565e-02,5.205404823346878457e-02,-4.401459034401688022e-03,-1.033604705329238954e-01,-2.036185583072848804e+00
7.537448813553761229e-03,-2.215550424999741640e-05,9.788516479881743861e-04,-8.090180945271762541e-03,-2.698799867809631003e-03,-2.466931340969425335e-03,-1.548581109430589506e-02,-2.372808251670379103e-03,-4.651980508767448314e-03,9.081805894154465833e-03,2.533902272055608279e-04,3.166078966526051502e-02,1.984131976524607932e+00,-9.721075670978458760e-02,1.437682067602754840e-02,-2.776393566527688220e-02,5.330720036010386936e-02,-3.367495044312766861e-03,-1.039894568231893440e-01,-2.036699015854956496e+00
7.979406090914048510e-03,-2.257556385040972603e-03,1.607481976725246269e-03,-6.677330608508608503e-03,-4.578583521066415495e-03,-5.871801433375975141e-03,-1.821199036674788635e-02,-4.238566958745430087e-04,-3.796332132598753510e-03,7.825689299051733286e-03,-2.276044834052208445e-03,3.364143753270153192e-02,1.984457462686334717e+00,-9.792029800476130530e-02,1.401778302254210427e-02,-2.973549754251448782e-02,5.378393729289982633e-02,-1.959244756633768837e-03,-1.033644373244521769e-01,-2.034475982983453335e+00
6.285036160151830954e-03,-2.131673292653129322e-03,3.913211352980838775e-03,-1.048822613906248355e-02,-3.915105422382880729e-03,-9.429985844098480452e-03,-1.702495884137937565e-02,-1.230421697625600668e-04,-5.947984839414392072e-03,9.236164272934952249e-03,1.468728482476028621e-03,3.530477659588864003e-02,1.986803146372906115e+00,-9.923392737895059268e-02,1.598198015957988036e-02,-3.127909101705847461e-02,5.021793322536872994e-02,-7.812463649834189023e-04,-1.027279157702339907e-01,-2.034201805066433888e+00
5.388108666388509438e-03,-8.555670532423110619e-04,6.112683401259186300e-03,-1.278946011928365489e-02,-4.815525299024976842e-03,-6.621867151637136906e-03,-1.792281614881213389e-02,-3.547207294596198160e-04,-7.688030283293708148e-03,8.061965632740572540e-03,2.517220426322923279e-03,3.811558165345220461e-02,1.988324758821628180e+00,-1.003263042079336614e-01,1.702622051152186816e-02,-2.967341778491766613e-02,4.985893112147345152e-02,5.517191482201839504e-04,-1.004176006593388848e-01,-2.033611187454221980e+00
7.024543002565079505e-03,-2.644384016969405973e-03,4.071786312082935864e-03,-1.135092062182102741e-02,-6.020435767460742722e-03,-8.360335157571945064e-03,-1.802872626305808065e-02,-3.093003208789206395e-04,-6.512156005569179514e-03,8.126385256901914531e-03,-1.098082090384861279e-03,3.846759140975905544e-02,1.990819092694704473e+00,-1.004751489403018783e-01,1.817477989388020798e-02,-2.847785472628897030e-02,4.945236803071510756e-02,7.675975335263374383e-04,-1.010646676795832893e-01,-2.031667135778275401e+00
7.868330694070606313e-03,-2.336295478427014537e-03,6.120764889322428091e-03,-9.232790724745009933e-03,-3.418316138460430857e-03,-6.801935607134606751e-03,-1.899082414595257978e-02,1.233939856900108248e-03,-7.753613963593705173e-03,1.043063220308566678e-02,2.108849503921378680e-04,3.935111461457516807e-02,1.987973239445944174e+00,-1.037270102721981335e-01,2.011322985462891955e-02,-3.142962902566371480e-02,4.794625675018992367e-02,2.211957859195874242e-03,-1.012002515933368707e-01,-2.026673690469887656e+00
4.568575707940069480e-03,-3.119799406967460956e-03,2.013862590416878959e-03,-1.258426145499715910e-02,-3.266546819954125377e-03,-4.918032152196291293e-03,-1.708917910516981678e-02,2.139781284320601157e-05,-6.391399948266290876e-03,1.306736136119143049e-02,5.226219141906796040e-03,4.041559434931703276e-02,1.988583916437013599e+00,-1.012082197879516504e-01,2.057016607331335276e-02,-3.339525044999125392e-02,4.511415984519148020e-02,2.722383347349841692e-03,-9.875021690324549406e-02,-2.026510496207093670e+00
3.385621631665720714e-03,-7.708231552204277814e-04,9.221167158535288578e-04,-9.038776602878648148e-03,-1.346449870041440582e-03,-4.338173921198000549e-03,-1.545116637185843002e-02,5.658120081839477242e-04,-3.653150156895278861e-03,1.122772388735652702e-02,2.935733878149902019e-03,4.337442428067109224e-02,1.988271804627516959e+00,-1.034712878583606693e-01,2.303292752698026663e-02,-3.238020935237041764e-02,4.794357261270210807e-02,9.994604129705837031e-04,-1.013122789900534615e-01,-2.024513024222319935e+00
4.960410428666074158e-03,-4.617346337490014704e-03,2.020127677964968053e-03,-8.919575879379887384e-03,-2.280762155105631010e-03,-4.363711509576845282e-03,-1.742155883536343139e-02,-7.579154807032355279e-04,-6.642237974473695801e-03,1.064320877310411494e-02,3.365415217162336364e-03,4.461260682285241724e-02,1.986661128883139060e+00,-1.011891083833080379e-01,2.318293456050253554e-02,-3.353389604162391319e-02,4.852755369425740262e-02,-2.453087877364129761e-03,-1.009914975677514010e-01,-2.023897948387511470e+00
6.970117046128885933e-03,-4.421906764453966028e-03,2.564820280029657222e-03,-6.961252518355060502e-03,-3.573781620296813746e-03,-5.043001917691130633e-03,-1.974015402284347298e-02,-8.319600112854498662e-04,-4.440990439085907085e-03,8.691654129903440482e-03,9.944680198014704472e-04,4.675731603449687079e-02,1.985046755197305668e+00,-1.022598544317944724e-01,2.332923392460749604e-02,-3.412028541416125410e-02,4.531267242380750127e-02,-5.545955839426251581e-03,-9.962936713500977759e-02,-2.025817139184937776e+00
5.802223817367920325e-03,-4.410658998780067792e-03,8.125493325801309450e-04,-6.917731758715259770e-03,-7.239438245051785237e-03,-4.971108339106893731e-03,-2.076252146545956578e-02,1.164938822546808354e-03,-4.080872604106658072e-03,7.203993139986869000e-03,1.893351753013415659e-03,4.366388900900137343e-02,1.985395679107262001e+00,-9.995765832885278313e-02,2.218213248661754164e-02,-3.232325207375025961e-02,4.682722622303475690e-02,-3.752468111844624397e-03,-9.955231074980877559e-02,-2.023667657897259886e+00
4.602924218490867317e-03,-2.506303576330283066e-03,1.319952204675661940e-03,-6.672155534201465107e-03,-8.959624138247962791e-03,-6.013260253741681619e-03,-1.808047531394336993e-02,9.090467436389294571e-04,-8.577330371309564022e-03,8.279210997257622356e-03,2.555453724269014619e-03,4.394508731516514471e-02,1.988626586457411971e+00,-1.018860390636099345e-01,2.159773356464815552e-02,-3.179191478800386106e-02,4.734291138921035980e-02,-1.330222620585616144e-03,-9.700414908560239802e-02,-2.021608296989357179e+00
6.304481789994034399e-03,-2.731268968722637067e-03,3.625552812570041836e-03,-5.999767728246611052e-03,-6.899367734758848382e-03,-5.045398237847253595e-03,-1.892675320309242931e-02,8.988447560195113057e-04,-7.451653234695663867e-03,1.267172399232635409e-02,4.113824966119863230e-03,4.243717589624809022e-02,1.987424313687894184e+00,-1.026955199220334763e-01,2.253791496355359372e-02,-3.057313919537068408e-02,4.597916231059479691e-02,-1.333748806771493413e-03,-9.795462114935025999e-02,-2.024615800035126867e+00
3.482440741103454921e-03,1.363747320039560181e-03,1.627324305993749741e-03,-7.967446212136479813e-03,-5.579437956157807035e-03,-3.069000223680999617e-03,-2.070598417730112883e-02,-2.037451242018039742e-03,-1.002496371725034204e-02,9.998517898132840837e-03,6.375374852156836039e-03,4.294927551491910939e-02,1.985866860209712037e+00,-1.028319222350333045e-01,2.478587992681872965e-02,-3.208491660847457433e-02,4.979316412353374660e-02,2.948352823490564371e-03,-1.006427550528714576e-01,-2.023290416228222366e+00
3.971904559200180145e-03,1.054100527609021882e-03,-1.928889521117591716e-04,-1.046690650951529605e-02,-3.312124171258729478e-03,-5.754954976884434949e-03,-1.773714626698685154e-02,-9.280642169340068198e-04,-7.929044843876322662e-03,8.378787540591415769e-03,6.594292915354141305e-03,4.313554480986490219e-02,1.988114273003217081e+00,-1.007279681383577846e-01,2.168173185525620883e-02,-3.169313483682018040e-02,4.809033999363974271e-02,1.592383305646791680e-03,-1.012827383111088442e-01,-2.022254635977612125e+00
4.177220157984044835e-03,8.781612746839910716e-04,-1.728367823231085048e-03,-1.018450901734378397e-02,-3.271574879238621763e-03,-5.941221403457457549e-03,-1.798495604607958792e-02,-3.164088726973019339e-03,-5.920665569991531707e-03,7.216958870354469799e-03,7.373518174835190508e-03,4.758037041380303034e-02,1.986331692382548253e+00,-9.824389080461901069e-02,1.854565613815028005e-02,-2.958893815227944118e-02,4.887741539488085069e-02,5.519585222137696938e-04,-1.013286916837398688e-01,-2.021010009206130498e+00
3.489117981067708756e-03,1.656178250418059890e-06,7.964626460766415731e-04,-6.819937108886980903e-03,-4.286288509842619589e-03,-8.427101567676302876e-03,-1.828389884550865943e-02,-3.350280674888595715e-03,-3.089363329606111853e-03,1.179575559581080846e-02,7.193286623729919400e-03,4.753768180104898933e-02,1.985041283067452644e+00,-1.006202004481942802e-01,1.991186257845823857e-02,-3.228741676588359200e-02,4.696067912247955251e-02,3.973724343824584782e-03,-1.006980271512460667e-01,-2.020098933855995149e+00
4.560492471069284466e-03,-1.675830931900504795e-03,1.613964332136177406e-04,-8.988666649766193298e-03,-5.533496568530847995e-03,-8.561176249211727846e-03,-1.806861429031382180e-02,-2.536403823557656541e-03,-3.992733771019249360e-03,1.066206774183747590e-02,3.741588849427858032e-03,4.452298528244725412e-02,1.982722909548017665e+00,-1.006937214171373107e-01,2.032932413803292815e-02,-3.368867349975183251e-02,4.515436694011013691e-02,4.103169058250081234e-03,-9.948865338004625469e-02,-2.018555920139811111e+00
7.638631535822354261e-03,-7.825715300928827011e-04,2.049789106963689420e-03,-1.069005603565213562e-02,-1.379056807674672617e-03,-6.616574141195060051e-03,-1.909901054305924648e-02,-3.456738083310533817e-03,-2.680449584762797759e-03,1.272657022692570174e-02,3.988443108447554258e-03,4.590616294985586099e-02,1.981990480472926031e+00,-1.018648039944007322e-01,2.145246254199525276e-02,-3.138712071702557532e-02,4.499400418152979531e-02,1.946181824025482133e-03,-9.867561657153420263e-02,-2.015306507252843993e+00
5.335193069585650837e-03,-3.068781503087272388e-03,2.625010554291029412e-03,-7.634460096075649203e-03,-7.063547758015782186e-04,-8.091716720566060478e-03,-1.967375072099419864e-02,-3.665438716178543149e-03,-4.873114079875014593e-06,1.504128140067352570e-02,-5.303007925247581016e-04,4.610913805002361116e-02,1.984460740528015910e+00,-1.038950214874008182e-01,2.006656645908896919e-02,-2.920299957188609782e-02,4.443181958490740463e-02,-6.494799135019138766e-04,-9.672612030548556616e-02,-2.013274357951101656e+00
5.303369804016075557e-03,-2.938369218178724790e-03,3.857918945804202863e-03,-8.712468228611850926e-03,-4.736815912483320797e-03,-9.921419707239790067e-03,-1.714090924149474018e-02,-3.311584043169069243e-03,3.435472394835139155e-03,1.150651584517633011e-02,1.480082955227251000e-03,4.506884959266434232e-02,1.983438750117222149e+00,-1.047208080998736496e-01,2.005848900996716477e-02,-2.790226893063997571e-02,4.466660351752910207e-02,-3.660530450992679889e-04,-9.474017423476990829e-02,-2.013739484885325393e+00
5.428407824788433408e-03,-1.570643474572157652e-03,8.566705055645031531e-04,-1.051820769421783763e-02,-3.880937839489164050e-03,-1.532618881574768221e-02,-1.339648619759175110e-02,-2.505796287609311605e-03,3.691255932214140573e-03,1.286510691484012148e-02,1.435019036191397587e-03,4.429979964308069368e-02,1.982357253770659744e+00,-1.016099690876504646e-01,2.176948964832494879e-02,-2.821227413651867383e-02,4.935584234589002195e-02,-7.665033748719564778e-04,-9.559188961210153546e-02,-2.012912416611408961e+00
4.809824475754288266e-03,-8.454438366391475853e-04,2.275723471756397676e-04,-7.689430355753428155e-03,-8.338901793984892716e-03,-1.671462085658207211e-02,-1.529962767369588174e-02,-3.235447360293838837e-03,5.897684220160321657e-03,9.740981874850205419e-03,6.438198767175697546e-04,3.968593749102899970e-02,1.983469420212857326e+00,-1.011105674787265568e-01,2.189666320792045540e-02,-3.052662858289240805e-02,4.996315796505389206e-02,3.693754125945743574e-05,-9.845604870698440592e-02,-2.011968629836095701e+00
4.511367118176995601e-03,-2.834824966973268062e-03,2.335549197402491187e-03,-1.076232708085168854e-02,-3.247483652684562874e-03,-1.695113792089099694e-02,-1.498159408243543780e-02,-2.130834210908458086e-03,6.000907583465467550e-03,8.985363802549344373e-03,-1.008806959296050694e-03,3.935256841601036948e-02,1.981697625785910244e+00,-1.000184942390160564e-01,2.305286889904858971e-02,-3.064449965747727267e-02,5.087372217553346593e-02,1.017977922230008656e-04,-9.947481468010023475e-02,-2.012170248904168179e+00
3.832894412262771982e-03,-2.040772454362122304e-03,3.108756413784639645e-03,-9.667285975160831712e-03,-4.600049500261589250e-03,-1.840428000905229566e-02,-1.199423880444543296e-02,-2.202749611480619117e-03,1.169605049650336050e-02,1.000623209564179342e-02,-1.470926481871082754e-03,3.622164706939905165e-02,1.984588161230035341e+00,-1.022036629869684521e-01,2.360028388522775536e-02,-3.147740520839017314e-02,5.323232487384336326e-02,-4.352864577972509605e-04,-9.878631301116130858e-02,-2.012870359438605039e+00
5.850965727901612755e-03,-2.915431858196358174e-03,3.335683897828649845e-03,-1.140344292459671317e-02,-5.302783414726008025e-03,-1.562430896446488290e-02,-1.341208519368770891e-02,-1.078164620486181261e-03,1.287220358756535968e-02,9.039697991855059206e-03,-1.340699191614391989e-03,3.554208552595203296e-02,1.983352367788974835e+00,-9.988242442175386537e-02,2.378380625712476701e-02,-3.386394159215951050e-02,5.436912068400034242e-02,1.850986256858682105e-03,-1.008491112646234950e-01,-2.014400088213832873e+00
1.983551078201162190e-03,-7.411823367755753693e-04,2.896559573211428783e-03,-1.281939546988247573e-02,-2.758201334670407762e-03,-1.693769695043446932e-02,-1.481586126942032074e-02,-2.376948839841166485e-03,1.261129553509954433e-02,9.697387367503777431e-03,-3.612832330246404725e-03,3.301878467676548634e-02,1.982819336291103740e+00,-1.007553890988703571e-01,2.375604964197550878e-02,-3.548649165118476084e-02,5.098575548582076622e-02,1.105993545202351358e-03,-9.948347603505443282e-02,-2.012556922765414313e+00
3.906628869411862479e-03,-1.057244758850517082e-03,4.916129374448301344e-03,-1.214729682876263678e-02,-4.107453712142605795e-03,-1.469161517781049017e-02,-1.545795348234594094e-02,-3.867033495067233925e-03,1.351405136267629439e-02,1.180685552557800624e-02,-2.697178080923779992e-03,3.010159751291533251e-02,1.979863421664880718e+00,-1.034401556248605580e-01,2.581463172429239797e-02,-3.587683711573314005e-02,5.327400210905660488e-02,1.183407012082973980e-03,-9.643702391860457801e-02,-2.013424615234014503e+00
4.412492323153585118e-03,-1.405770395044347908e-03,2.382036171281587573e-03,-1.158138063498326611e-02,-6.065437147383129918e-03,-1.272100856149867634e-02,-1.260882157094080601e-02,-1.579429009077952181e-03,1.423611002883925364e-02,1.096272429111260112e-02,-2.164141474341562624e-03,2.775359737304773297e-02,1.978868872816996749e+00,-1.013388925062906898e-01,2.634826925525050184e-02,-3.871960895008669939e-02,5.111825443029681393e-02,2.737085663144407221e-03,-9.797135205856524753e-02,-2.013738556070638008e+00
2.317007232791059700e-03,-1.885654846777086663e-03,2.963418251272849097e-03,-7.302554363985368918e-03,-5.568155435862814570e-03,-8.236733466641537466e-03,-1.062791761707918177e-02,-4.605789583695260418e-03,1.261416767385060977e-02,9.857618094862774169e-03,-3.999865618233549441e-03,2.802138222641390938e-02,1.976132274208092010e+00,-1.032432367017511038e-01,2.438770359375250912e-02,-3.890629659762478987e-02,5.174257106086727065e-02,4.396940164760327133e-03,-9.912560531020761512e-02,-2.014329227209546325e+00
5.283442207962649011e-03,-9.760900874129601040e-05,5.389619342635631680e-03,-7.543328830442195231e-03,-5.018796470258011198e-03,-1.171907602584242383e-02,-1.113927710294510161e-02,-4.914610945139621760e-03,1.144238631516574650e-02,1.311212050871865369e-02,-5.175002599035337554e-03,3.114300980807810371e-02,1.977693508817023771e+00,-1.040326886205950596e-01,2.628803182209422246e-02,-3.809986521120693748e-02,4.705994089696660665e-02,7.165934757731607166e-03,-9.964326574106789625e-02,-2.014458975790775153e+00
5.283442207962649011e-03,-9.760900874129601040e-05,5.389619342635631680e-03,-7.543328830442195231e-03,-5.018796470258011198e-03,-1.171907602584242383e-02,-1.113927710294510161e-02,-4.914610945139621760e-03,1.144238631516574650e-02,1.311212050871865369e-02,-5.175002599035337554e-03,3.114300980807810371e-02,1.977693508817023771e+00,-1.040326886205950596e-01,2.628803182209422246e-02,-3.809986521120693748e-02,4.705994089696660665e-02,7.165934757731607166e-03,-9.964326574106789625e-02,-2.014458975790775153e+00
8.363697371696914365e-03,-3.689149135832331785e-04,4.131595892808206764e-03,-7.950636485194352218e-03,-6.266541090280593369e-03,-8.443615206597390038e-03,-1.030563650032536964e-02,-5.220376999962782379e-03,1.148142726875434928e-02,1.045908171337022602e-02,-6.608301957503987141e-03,3.091971726908437912e-02,1.976317652168199768e+00,-1.034721699498922232e-01,2.521111998880079183e-02,-4.063004180649094910e-02,4.684182259002952348e-02,6.556367363496741832e-03,-9.914365423528108401e-02,-2.013860530992521714e+00
8.506622370516921106e-03,-8.646338096549475386e-04,4.553050675165539254e-03,-5.724274252266105256e-03,-4.708674176970779543e-03,-1.081167249479735200e-02,-1.094289237286178926e-02,-5.252438315986154675e-03,1.199097698226810581e-02,7.777249339008279749e-03,-8.414311489313668416e-03,2.903175885436540607e-02,1.976541506743670240e+00,-1.024979301827125960e-01,2.504267364375742030e-02,-4.126271369094028363e-02,4.677006851950498562e-02,6.656302450154438256e-03,-1.015268180685857252e-01,-2.015206669782543702e+00
8.004897885596920851e-03,-2.088964123483322104e-03,1.399966903367319852e-03,-4.410088941671846778e-03,-2.700757173809624490e-03,-1.376671763364140967e-02,-1.187077281760309626e-02,-4.330456104333486184e-03,1.117397947755955322e-02,8.532955169914147042e-03,-6.657754073125307127e-03,2.675790024872020875e-02,1.977188334144668103e+00,-1.026100522260843806e-01,2.264616638237215360e-02,-4.111261570128357107e-02,4.978488901855981918e-02,4.616667934753484331e-03,-1.030520223304032673e-01,-2.013637766212403868e+00
5.558895376513568916e-03,-2.251080116751458682e-03,-1.161567818868931281e-03,-5.300336935566311164e-03,-1.907939872620833654e-03,-1.399311591378391353e-02,-1.133467160093078012e-02,-7.681012349164059727e-03,8.454087492979614482e-03,8.669218161300900824e-03,-4.893909607249425330e-03,2.599647334662786788e-02,1.979294215660755363e+00,-1.028235060357121367e-01,2.347325880903395126e-02,-4.040607879814372971e-02,5.022039395658844940e-02,7.621890528239376808e-03,-1.037823778814805920e-01,-2.015863141821917282e+00
4.840207792263723392e-03,1.818585715161647950e-03,1.505567075431066965e-03,-4.879520983232185811e-03,-2.750618621400600927e-03,-1.175057451214874329e-02,-1.453309879107907501e-02,-4.955770856526152922e-03,8.650145999822618503e-03,9.443078956362784687e-03,-8.878835985507583378e-03,2.205321680240882737e-02,1.980292302742419963e+00,-1.052416110412772582e-01,2.375619902367726369e-02,-3.898148657946388235e-02,4.767276577140996258e-02,8.024359509371237903e-03,-1.009244444089812953e-01,-2.015419375948261038e+00
1.027128960628699572e-02,2.919000884802240743e-03,-2.191736753887012885e-04,-8.129252732804853263e-03,-2.173266051444803799e-03,-8.962170044749863743e-03,-1.357443354391696909e-02,-3.363885771550408250e-03,9.362169449451162098e-03,9.595303706129277785e-03,-4.445866149038687348e-03,1.973429145053419084e-02,1.977563336828810137e+00,-1.041428090200216816e-01,2.519092102936425562e-02,-4.189666581483458829e-02,4.759850181824913651e-02,5.862255768133051333e-03,-9.977119573978637801e-02,-2.014251625562107684e+00
3.643373053386154102e-03,4.470990248408986080e-04,7.179303329805185709e-04,-4.910725547069581809e-03,-1.104410368990517075e-03,-7.377224568537038563e-03,-1.459386362217126622e-02,-2.863936427706777199e-03,9.080529859315851493e-03,7.000866645329123159e-03,-4.794232875621865647e-03,1.550436142283654999e-02,1.976582506063931266e+00,-1.047624877597791854e-01,2.863493094065626757e-02,-4.217813027902524853e-02,4.838025961954727644e-02,5.980111421244786209e-03,-1.031625255163384769e-01,-2.016904735854943009e+00
3.872296029988250496e-03,3.753533051993655778e-03,-2.015016528353977873e-03,-2.698565695839530085e-03,1.534773400124037383e-04,-5.868277495050928938e-03,-1.308792331137481786e-02,-1.193213055932462914e-03,8.473238305730683081e-03,7.365584555774273498e-03,-4.885677009557827348e-03,1.505259170548668701e-02,1.976630386844542286e+00,-1.044807254956330450e-01,2.635143296991722742e-02,-4.331858608335668187e-02,4.687258532451666487e-02,7.480545872285606496e-03,-1.040051357584816372e-01,-2.014767137960131294e+00
3.109221525868545877e-03,2.360537348109395268e-03,-1.896451376799007421e-04,-3.557406515049921052e-03,1.417087000397063709e-03,-6.511097546550777271e-03,-1.459704051834450136e-02,-4.330813413362703639e-03,6.768065961934734316e-03,6.891726476230042309e-03,-2.394234733749452115e-03,1.162721898143539989e-02,1.976837022343372219e+00,-1.048566663393742660e-01,2.627589982198741403e-02,-4.047581061508283284e-02,4.606578826026477835e-02,6.932389035055624808e-03,-1.029200901909694543e-01,-2.015796240778833237e+00
3.039097889993098468e-03,5.497489924858236371e-03,-2.974222538046317893e-03,-6.242921711258822906e-03,1.765445174761219637e-03,-5.458019596944575086e-03,-1.119169687936855291e-02,-5.287294802122061155e-03,4.581416289877780247e-03,9.115787652468995694e-03,-2.408225856184770166e-03,1.128570051594082746e-02,1.976393771857351878e+00,-1.043597171553174441e-01,2.785170910958832680e-02,-3.683415548117511401e-02,4.911005992870736553e-02,7.500075478242763244e-03,-1.021149734936229875e-01,-2.016176359915319072e+00
2.679066965494081732e-03,3.261405293388198925e-03,-3.153206917339190698e-03,-8.587924730385099875e-03,-2.711660491623221151e-03,-4.703960961829890992e-03,-1.310900286672824454e-02,-4.561170379901727072e-03,3.739601332298610453e-03,7.262688879443892492e-03,1.173510492796108774e-04,1.160022977250935519e-02,1.979719415640800451e+00,-1.039715407968440919e-01,2.802410063960895231e-02,-3.432121779473278067e-02,5.054501516299789859e-02,1.132018503398057180e-02,-9.975347831137938714e-02,-2.013752298882650837e+00
5.383364911214186428e-03,5.206753228723035032e-03,-2.700528000001943974e-03,-5.839084448506584764e-03,-2.040865046727919057e-03,-6.077817850426442924e-03,-1.156142849199593911e-02,-2.997735169447195494e-03,4.949824217504957859e-04,7.700892123400907528e-03,-3.003504795547905920e-03,1.523843770573175480e-02,1.981101003600154842e+00,-1.059331830486977405e-01,2.900915459581121861e-02,-3.292991626753078577e-02,4.935871508312228428e-02,1.182273815228065093e-02,-1.004356207425108616e-01,-2.015457033090596095e+00
4.628903609993994736e-03,1.725826502105681434e-03,-2.801888901270870643e-03,-5.202063355325357505e-03,-2.930802996969709626e-03,-7.711886134465426902e-03,-1.263491598994106666e-02,-1.974226945453840150e-03,-5.433102239320664398e-04,7.941812518124998985e-03,-3.947425743657356247e-03,1.553575499274730681e-02,1.977845014589111328e+00,-1.067591946232013395e-01,3.117775673268871270e-02,-3.103514217422918484e-02,4.261609927024124361e-02,1.193945765239804412e-02,-1.017028184036867233e-01,-2.015460128219517255e+00
3.126082819654459402e-03,2.328343418758378747e-03,-1.462577955377676771e-03,-3.458499120112131474e-03,-1.139322312928476221e-03,-6.721229264069481998e-03,-6.794396356659664765e-03,-2.609916356800769804e-03,-3.861468327999491561e-03,9.485417043637207890e-03,-4.339542974702337991e-03,1.620688436984302552e-02,1.983283541912449710e+00,-1.089549244911050124e-01,3.227465219148223374e-02,-3.322597547225360909e-02,4.698451058506088185e-02,1.075228925708100573e-02,-1.002939507823317616e-01,-2.015627967411706578e+00
4.335489082566558287e-03,1.364067765269871184e-03,-1.601172855328626384e-03,-4.267269234284343411e-03,-6.358196468471813195e-04,-7.513871876127222946e-03,-6.780986784506292525e-03,-1.710218461872634868e-03,-4.445383415475867919e-03,1.292457654485103594e-02,-1.191742980778899910e-03,1.279987851173713422e-02,1.985120541980318842e+00,-1.087295946751067055e-01,2.915529755884156693e-02,-3.090272109507224280e-02,4.934844295643409096e-02,8.682648830609276946e-03,-1.002162036585029226e-01,-2.015953582453304360e+00
3.552698989222383662e-03,3.339550912095834347e-03,-2.386936380211259704e-03,-3.776369467287352816e-03,-4.726380239972471659e-04,-5.044078415603589320e-03,-7.494191724406009010e-03,1.099511092195677373e-03,-4.048692527486692783e-03,9.246651176419345974e-03,1.034896286473965202e-04,1.655401350065579397e-02,1.984808061661747391e+00,-1.099639237360065247e-01,3.047375443008323165e-02,-3.314534563409343021e-02,4.853388379652975870e-02,1.007354433090374562e-02,-1.005240429119122342e-01,-2.017126008386536107e+00
2.960508561373639564e-03,1.707591133071406381e-03,-2.331488120687895491e-03,-2.331999410380668214e-03,-2.411000533542336129e-03,-5.131308544551713841e-03,-8.619299452361650279e-03,-1.336936256700591496e-03,-2.260597004035425246e-03,1.071999449036813851e-02,-2.786380823831480225e-03,1.568870483173707281e-02,1.983766808137815030e+00,-1.099444941170092671e-01,2.853050818923413834e-02,-3.029827937453394987e-02,4.905418524619805515e-02,8.696205742801768265e-03,-9.809351264876854659e-02,-2.019136831391636466e+00
2.565045497546929610e-03,1.399254587222899379e-03,7.897601592882063509e-04,-3.948279935599276723e-03,-5.189938966261575803e-03,-6.965490484981073059e-03,-8.155752374630753990e-03,1.974982379780617617e-04,-1.302636824874713268e-03,1.245125563293012980e-02,-2.202447076443501441e-03,1.652335437909196666e-02,1.985714862339261533e+00,-1.086546635362488078e-01,2.778427606371631012e-02,-3.378657677387305464e-02,5.106033594319759478e-02,6.902673404935019338e-03,-9.942621332538942314e-02,-2.019288855997991128e+00
1.439939927269377707e-03,2.722976847522909274e-03,1.422711534913885653e-04,-6.336399030901725994e-03,-5.048351822533596323e-03,-6.186317812267650047e-03,-8.135825430950847231e-03,-8.714267256332472976e-04,-3.227396184167837662e-03,1.338028567618509274e-02,-5.046049236296059476e-03,1.558555811147556251e-02,1.986451681030302563e+00,-1.090833858226240571e-01,3.170269220257575932e-02,-3.801806066182039645e-02,5.247424287880786409e-02,7.214104555110649117e-03,-9.815738686240947641e-02,-2.018305574537143876e+00
2.876909363071075785e-03,-2.693794980257952832e-04,-2.243719912566001853e-03,-3.939959334636110311e-03,-8.319715870361220691e-03,-6.193018927962604114e-03,-4.805371213584063751e-03,-8.335743906690580964e-04,1.644221291307107957e-03,1.457143928367195425e-02,-5.290330972634808837e-03,1.472209489932825403e-02,1.987489229970884841e+00,-1.077610242843805993e-01,3.101176871210058889e-02,-4.093154445850162582e-02,5.475276614713845552e-02,8.723960385720439317e-03,-1.007614873439120623e-01,-2.018419986963631896e+00
3.105918302695683669e-03,-2.641094391172609142e-03,-3.743493023686681170e-03,-5.396286068443402993e-04,-9.327643584379808478e-03,-8.796099925865687869e-03,-7.026172230298535250e-03,2.794083365507953921e-03,3.081884205515262373e-03,1.145247168356692061e-02,-4.720943936328595401e-03,1.679511723000472537e-02,1.987077272462925093e+00,-1.089758008949755497e-01,3.157369135988354752e-02,-4.104422078142639513e-02,5.337121806196720719e-02,1.052856942439039413e-02,-1.019412411495662640e-01,-2.020301836702159015e+00
3.105918302695683669e-03,-2.641094391172609142e-03,-3.743493023686681170e-03,-5.396286068443402993e-04,-9.327643584379808478e-03,-8.796099925865687869e-03,-7.026172230298535250e-03,2.794083365507953921e-03,3.081884205515262373e-03,1.145247168356692061e-02,-4.720943936328595401e-03,1.679511723000472537e-02,1.987077272462925093e+00,-1.089758008949755497e-01,3.157369135988354752e-02,-4.104422078142639513e-02,5.337121806196720719e-02,1.052856942439039413e-02,-1.019412411495662640e-01,-2.020301836702159015e+00
2.638761707189841293e-03,-5.618298239066148690e-03,-6.539856791837836761e-03,-9.130478823765008061e-04,-8.731861737654177807e-03,-4.959215540092726943e-03,-6.960145138434158281e-03,3.605660584141406368e-03,4.717474586937961054e-03,1.104326098000468770e-02,-4.940330341365457324e-03,1.764259091292729245e-02,1.985833791222927580e+00,-1.091548598418720928e-01,3.299583341780923385e-02,-4.117930249013634914e-02,5.455561615595196784e-02,7.256444216716648882e-03,-9.853421339573426030e-02,-2.021558432351562296e+00
-1.826855209408272628e-04,-4.696640130940539851e-03,-7.224682978120917226e-03,-1.208627864792592450e-03,-8.877959864161580339e-03,-6.297339960514276511e-03,-4.497374085857849639e-03,5.292284777124511841e-03,5.618345937759983665e-03,1.081493462412431994e-02,-4.748836198868323921e-03,1.626895800241789924e-02,1.985779512473672348e+00,-1.099679449571423218e-01,2.996430672137120887e-02,-3.668608086981035160e-02,6.052995196333610384e-02,7.874656714023925766e-03,-9.751400473521597279e-02,-2.023294149389947449e+00
5.662850988675536060e-04,-2.844269467875475740e-03,-4.270167956194058020e-03,-2.911597862243404423e-03,-1.107793824722451761e-02,-7.869534939733812545e-03,-3.787939800537327116e-03,3.812949127861944062e-03,1.264707488836603472e-03,1.550562812107090897e-02,-7.103003924750107313e-03,1.607015619076458679e-02,1.985182090772646291e+00,-1.073136692226492606e-01,2.700184417045992102e-02,-3.715272824745730756e-02,5.821960711824736984e-02,7.166538479863136281e-03,-9.818666123832131554e-02,-2.022208072139537904e+00
3.933552231167076682e-03,-3.571247893938486653e-03,-3.232210225762498224e-03,-1.724304001306904092e-03,-1.096005910682603009e-02,-5.613186027647357537e-03,-6.283673785086722231e-03,4.331374839622999413e-03,1.736237173241107507e-03,1.489768785187653433e-02,-6.927844243290249768e-03,1.559630167776538193e-02,1.986665443748315329e+00,-1.063633360952129098e-01,2.697257508361194933e-02,-3.588830890526158862e-02,5.609129645890695987e-02,6.690786488767612103e-03,-9.957578387938936793e-02,-2.024821434088260208e+00
3.933552231167076682e-03,-3.571247893938486653e-03,-3.232210225762498224e-03,-1.724304001306904092e-03,-1.096005910682603009e-02,-5.613186027647357537e-03,-6.283673785086722231e-03,4.331374839622999413e-03,1.736237173241107507e-03,1.489768785187653433e-02,-6.927844243290249768e-03,1.559630167776538193e-02,1.986665443748315329e+00,-1.063633360952129098e-01,2.697257508361194933e-02,-3.588830890526158862e-02,5.609129645890695987e-02,6.690786488767612103e-03,-9.957578387938936793e-02,-2.024821434088260208e+00
3.243961500867377588e-03,-3.967927259499810094e-03,-2.231816445595918852e-03,-1.449250498361459106e-03,-9.986027355621299520e-03,-8.784620938435766524e-03,-5.891164667757690238e-03,1.019380866879958034e-02,3.248105023321972654e-03,1.541936026918039847e-02,-1.127584393183373584e-02,1.744177341938327880e-02,1.983827878054963856e+00,-1.075169406460943916e-01,2.730803332913406614e-02,-3.784573383143595426e-02,5.845493400177249194e-02,5.559844973726858243e-03,-1.005151137211845458e-01,-2.022018514765585806e+00
7.632968999986093454e-03,-7.880603591038337977e-03,-4.066483950908859543e-03,-1.051218832930843306e-04,-1.008679854349765585e-02,-7.624516605858003108e-03,-6.672551983600383090e-03,8.939086411193380294e-03,2.766773301090750137e-03,1.666559701976225161e-02,-1.158528254621094856e-02,1.793956710569648977e-02,1.987317980893864355e+00,-1.068259295700608735e-01,2.929007485085726933e-02,-3.926675920393370850e-02,6.104588046080127589e-02,5.467832815072811922e-03,-1.013363747698313583e-01,-2.020645409215624078e+00
4.645438102862406091e-03,-6.711922091255367352e-03,-4.027126137592689642e-03,2.753108723963356916e-03,-7.393707299680012807e-03,-4.883153396738924151e-03,-7.466420532662651488e-03,9.359435791449696729e-03,1.721580012904438701e-03,1.913634600146303655e-02,-1.177708931627824071e-02,2.099487305778494073e-02,1.992039058778593219e+00,-1.087271305315060110e-01,3.240846465018199646e-02,-3.986830398372623319e-02,5.644739687576526277e-02,5.951126798758504810e-03,-1.041714629672885473e-01,-2.018614497799532614e+00
4.421513151086578323e-03,-5.915800445509973235e-03,-6.723936632974931819e-03,3.874891615843128329e-03,-1.019440326151406680e-02,-2.997389563831442515e-03,-5.646503814739249789e-03,9.134684833511640470e-03,4.389899837420311972e-03,2.126325812334014381e-02,-1.367213447641441905e-02,2.398535115036928497e-02,1.993281080538622740e+00,-1.063759440812966500e-01,2.767797977579162724e-02,-3.756412244033285192e-02,5.911491837702911173e-02,1.626048947262161235e-03,-1.027283411728536905e-01,-2.021161787461944748e+00
7.768060767383237059e-03,-6.908996284831899100e-03,-5.634276756996348112e-03,3.104310464365386737e-03,-1.245174807835265976e-02,-3.772600311254090295e-03,-8.158924357725780979e-03,6.095741265957996084e-03,2.794384878947263513e-03,2.112276929828868499e-02,-1.327282540191611349e-02,2.114320506002227013e-02,1.992230926358590448e+00,-1.068348955535036171e-01,2.758861655724392792e-02,-4.043663932920603388e-02,5.568433134280612040e-02,6.955490086578224561e-04,-9.959513133032572851e-02,-2.022214509866256726e+00
5.561468278166357103e-03,-6.430114953598771790e-03,-7.386105043208153649e-03,3.316285733479869702e-03,-1.109090772269696011e-02,-5.170804311529652100e-03,-9.980043882369680000e-03,5.887463758393805986e-03,-1.236813236613830652e-04,2.174155506488843759e-02,-1.357091031324043559e-02,2.086703452917876636e-02,1.990853357905713938e+00,-1.109673067410182484e-01,2.973165780916008083e-02,-3.878332385347825484e-02,5.936367744213314618e-02,2.906219063194201560e-05,-9.779622002400172043e-02,-2.022635208670461093e+00
5.721808876909314362e-03,-5.310813234554788084e-03,-8.763752309013588676e-03,2.406930079793144148e-04,-1.152530172836419356e-02,-6.199655165260981211e-03,-1.042221462301831832e-02,5.386588751461893025e-03,-6.832563157652447134e-04,2.251904166012733827e-02,-1.242335559357493277e-02,2.316396975297608379e-02,1.991486073004484547e+00,-1.091633351523283307e-01,2.696236346631693606e-02,-3.643370422888267401e-02,5.837834629488379556e-02,2.345062789523247749e-03,-9.681146647818242301e-02,-2.026604136837756975e+00
4.553187380720274090e-03,-2.251718752368292876e-03,-5.406730595073220950e-03,1.430727069214656052e-03,-7.544341949945101294e-03,-3.026877068566843475e-03,-9.208187072632626965e-03,5.808342342041643465e-03,4.069849552091920632e-04,2.080385298007203856e-02,-1.152324275509956746e-02,2.044840714910037272e-02,1.991142739183553223e+00,-1.105233572580391482e-01,2.422191132266892158e-02,-3.845010228655759699e-02,6.081068568643195615e-02,-4.427668492511355430e-05,-9.879645414665060021e-02,-2.030396700651628805e+00
7.419216191436973223e-03,-2.871639947106951075e-03,-8.128417056670772869e-03,-5.665538501606693159e-04,-6.908646524486721473e-03,-2.429723098022959060e-03,-8.798493258738307801e-03,3.565518126676359232e-03,-2.276326335068705378e-03,2.003761972498254579e-02,-9.266312894863647232e-03,1.975011089946358475e-02,1.989839861477135985e+00,-1.087967153668125686e-01,2.305299918487946007e-02,-3.967003391759249542e-02,6.166677741768733512e-02,3.883625914710419312e-03,-9.890696812008162309e-02,-2.028911545096436342e+00
5.960346100712520835e-03,-8.466814093138449234e-04,-6.478068659693066687e-03,-3.389606313605689029e-03,-1.109274543904940381e-02,-4.466714197535514089e-04,-1.002767435112125564e-02,2.113703552975485043e-03,-1.775714732539436730e-03,1.887622513576572153e-02,-7.819089219085422968e-03,2.162850152654904878e-02,1.990077901843541719e+00,-1.054656176693440500e-01,2.510757630943209751e-02,-3.922938468427440012e-02,5.884938187314407015e-02,4.319881132642761599e-03,-9.910610005809594725e-02,-2.026317104478630782e+00
7.589191297259573199e-03,-9.055085943945868996e-04,-3.701733844259493932e-03,-4.114284769326665044e-03,-1.249756804215574127e-02,-2.082817683432552512e-04,-9.402118870310121820e-03,3.924831936525723444e-03,-4.766504712665663862e-03,2.142248253066016475e-02,-9.789505054131578121e-03,1.924988945740315274e-02,1.993584386103869788e+00,-1.038893860289568510e-01,2.376997096975656462e-02,-3.698498392592741713e-02,6.120275559215627992e-02,4.425483849075057680e-03,-1.018203749860549651e-01,-2.031518479275806754e+00
5.541306149524998469e-03,-1.396531683663603494e-03,-7.402156601640653543e-04,-2.584897941026642089e-03,-1.207414250222456353e-02,-2.208801350830244883e-03,-9.318633899809813242e-03,3.065236389245904001e-03,-4.933485645437751463e-03,2.421550229564366566e-02,-9.017991523378305480e-03,1.940846455479987992e-02,1.994695643252895501e+00,-1.045479736938788873e-01,2.517775590605589309e-02,-3.346719175966102189e-02,5.995087985547635501e-02,3.872950091378919626e-03,-1.021616196795233078e-01,-2.030599454599060660e+00
4.733690610646424518e-03,-2.708494273872189342e-03,1.327248855876647768e-04,-2.616868067755795391e-03,-1.467756069384900698e-02,-6.399959172869193989e-03,-9.574259828814313950e-03,6.747945554871183707e-03,-2.488879811143947414e-03,2.280950141705174322e-02,-7.446006009683827330e-03,1.994880096908781264e-02,1.994937872143434321e+00,-1.061171148012969995e-01,2.556239807919895649e-02,-3.188023299544460315e-02,5.550290458616657235e-02,5.094315064597326921e-03,-1.004117835336257036e-01,-2.032304239885446506e+00
3.358340987529611493e-03,-3.054052399855268496e-03,3.586041774480256718e-04,-7.350143137147420978e-03,-1.557012687357015902e-02,-9.373373309089001737e-03,-7.457896615744953606e-03,8.693306985016113417e-03,-4.216864494676270288e-03,2.526167041085169637e-02,-7.648301087058309057e-03,2.302575257442353654e-02,1.993899309072300730e+00,-1.040390438600551914e-01,2.813192572631396243e-02,-3.433955551400234146e-02,5.371074662607377287e-02,2.998033665870547277e-03,-1.002668878506649819e-01,-2.033539252288649291e+00
3.389817788663428665e-03,-3.375241323308988267e-03,-3.457935872411559315e-04,-7.022125199529848094e-03,-1.573830196374812959e-02,-9.224659280313528970e-03,-9.218987829193989181e-03,7.670861522953062103e-03,-3.715399539120486840e-03,2.475128508307298386e-02,-5.281239262949466960e-03,2.189875833586068729e-02,1.996983270638154728e+00,-1.036626674478603877e-01,2.920526976240755274e-02,-3.319866960255695582e-02,5.263291461512509262e-02,3.625266998720174522e-03,-1.009001572554675819e-01,-2.033700882410680588e+00
1.646552997514559580e-03,-3.068937343573782586e-03,-7.535069803245091026e-04,-7.610537633240489243e-03,-1.544947529174983160e-02,-6.962366531911773522e-03,-1.000172422821452370e-02,7.820000547993175705e-03,-1.258093803897461678e-03,2.431711335341766103e-02,-3.667314105952674663e-03,2.244148850869810002e-02,1.995117213384510091e+00,-1.036802862022551119e-01,2.754317862369580830e-02,-3.218864649524558197e-02,5.335066233068359171e-02,2.921507349015394113e-03,-1.007438582182059034e-01,-2.034503029489279857e+00
2.597160239289131312e-03,-3.335368812381652847e-03,-1.042358848950620262e-03,-6.487295404180634835e-03,-1.089445940685836688e-02,-7.649158152905526434e-03,-1.443926631005723604e-02,6.516618210439642338e-03,-5.937574970492572740e-03,2.014008613082836005e-02,-3.557816080877170516e-03,2.207236771402104961e-02,1.990976548100727994e+00,-1.027846503082387453e-01,2.825297631808313184e-02,-3.479328788887946916e-02,4.978160211029974969e-02,2.527994846258060143e-03,-1.020256236819825774e-01,-2.036033226499598836e+00
4.588203598641713357e-03,8.986691767299084289e-04,-1.621969496674463074e-03,-4.503913866322839001e-03,-9.570670300105492412e-03,-4.901446796968702245e-03,-1.634949975468292030e-02,7.404441183817847549e-03,-9.594984980841698638e-03,2.068934825495135493e-02,-3.952299722810138395e-03,2.148908657513534659e-02,1.989011851591918401e+00,-1.056057267266237720e-01,2.909619776493532067e-02,-3.581770573781634798e-02,5.097174495996742438e-02,1.436002070338488314e-03,-1.027527779950345999e-01,-2.037790745371048651e+00
6.258205354520617048e-03,9.636573061388763271e-04,3.418361263110035247e-04,-2.287572455031509303e-03,-9.889335591293103855e-03,-5.728953036105465142e-03,-1.788686756840471292e-02,7.598801043298324641e-03,-6.659321735980381837e-03,2.093079186357912208e-02,-5.262063197105441327e-03,1.917213473335564744e-02,1.990839604378950245e+00,-1.077323478206537177e-01,2.605940904076531686e-02,-3.833398218006589531e-02,4.950138768593681515e-02,3.090753971204928448e-03,-1.019025852870442672e-01,-2.035153547559270137e+00
8.861487460673384345e-03,-1.446216965361855076e-03,1.835862391958358519e-03,-2.585158858310935507e-03,-7.465378471840750443e-03,-7.332796672577228218e-03,-2.091879527219594331e-02,5.932334787134715959e-03,-7.105619651247261498e-03,2.153433666708885058e-02,-7.202716848588834250e-03,1.632404658783659021e-02,1.990782553103884078e+00,-1.065262357077399746e-01,2.747954753199423339e-02,-3.871580168322555360e-02,4.563451215435803537e-02,1.003136923551609062e-03,-1.013676207298870730e-01,-2.033584259435870845e+00
5.359428887136364651e-03,-1.226104922474592152e-03,4.836423714897310905e-03,-5.228621463149871022e-03,-1.168374126611289483e-02,-3.836558300519672410e-03,-1.929759773426115849e-02,9.966248176886976021e-03,-4.896296091543662042e-03,2.352441799934217384e-02,-7.048799903779676655e-03,1.503243069040684395e-02,1.993334740422739948e+00,-1.072259965195929282e-01,2.747340642502634281e-02,-3.890342376071789093e-02,4.594926460818644226e-02,2.262650446715422522e-04,-9.944263943040541898e-02,-2.033058173695616144e+00
5.657929700603731189e-03,-4.033218082477255800e-03,4.775242304800788630e-03,-7.481448852746686549e-03,-1.226669124650409635e-02,-1.671390494802598011e-03,-2.060841947065801191e-02,9.015791209066124218e-03,-3.825043905609692031e-03,2.200217774066103374e-02,-4.979384249816294281e-03,1.695078748194632848e-02,1.990871132415467537e+00,-1.085055150322527806e-01,2.942635372450621775e-02,-4.166612498422309768e-02,4.548489586774825261e-02,-2.188698555126432441e-03,-9.390249895408826764e-02,-2.032968738359429928e+00
7.415201174278610377e-03,-2.964065751939907252e-04,1.474666574813556907e-03,-7.248621746714495155e-03,-1.282471096497244008e-02,-7.105462988555339039e-04,-2.084006352904582693e-02,8.811163791121916569e-03,-7.172757806029560895e-03,1.795600953650943951e-02,-5.994395846012932905e-03,1.787442084353552119e-02,1.992686564651823700e+00,-1.063432512311285050e-01,2.603322260966716567e-02,-3.848099716711549795e-02,4.589789568887831656e-02,-3.335655853712861125e-03,-9.525914907631163886e-02,-2.035869130160482765e+00
7.017637539510511967e-03,-2.077158541688187642e-05,3.724027777441491806e-03,-5.831171465885371524e-03,-1.076574826839889198e-02,2.130769842614756854e-03,-2.217493263924494307e-02,7.940470935023835955e-03,-4.049128900589379042e-03,2.109631528386578941e-02,-7.825891960986867957e-03,1.793148445673380803e-02,1.992224249552106308e+00,-1.065560396159332818e-01,2.329987928078766993e-02,-3.761983640229186326e-02,4.471282040819014869e-02,-1.375075058550079624e-03,-9.527940284207944699e-02,-2.038063596055604609e+00
6.435864918591219924e-03,-8.204776317856272982e-04,5.383090085987833270e-03,-7.434007807892556961e-03,-1.009751448861633330e-02,1.278558201852172081e-03,-2.259440830734743555e-02,9.361561925192525904e-03,-2.423909424272631483e-03,1.745872157885083875e-02,-5.473256093465464663e-03,1.732514372126882710e-02,1.993334030818639135e+00,-1.075073386683839533e-01,2.426211028209194695e-02,-3.964829863374128710e-02,4.391096057624698651e-02,6.583828444959847516e-04,-9.638372916720441830e-02,-2.037280144499814760e+00
5.548643667094657096e-03,-2.027862545546308282e-03,4.545730273092683446e-03,-5.402812768777370649e-03,-6.972284289400090297e-03,1.369968342976101133e-03,-1.957838825579841235e-02,8.601088483663617626e-03,-4.284623025645131408e-03,1.866771009660213657e-02,-6.649242854620007227e-03,1.684417591628862079e-02,1.993019311073748190e+00,-1.095254305000992467e-01,2.249880141279041526e-02,-3.602975368483139068e-02,4.407208775053283317e-02,9.220411632305195587e-04,-9.708657593684302811e-02,-2.037701114441092809e+00
4.867238848665232133e-03,-1.028961461131134257e-03,5.748282335363673855e-03,-6.260358007178832770e-03,-8.188642708795636216e-03,2.497715202344007288e-04,-1.973094513391025068e-02,4.149593764635802623e-03,-3.975283581935555761e-03,1.856324088571065234e-02,-6.611347703087395652e-03,1.666396205622764845e-02,1.994806435230308983e+00,-1.062433776253958184e-01,2.397804087889224278e-02,-3.670278724710282492e-02,4.314079579336731890e-02,-6.263645319827923941e-05,-9.890568747688889550e-02,-2.036686620221305866e+00
6.336870337512941730e-03,-6.651550521369486860e-04,6.130628410198685728e-03,-6.939759315036543932e-03,-1.065142627215670372e-02,-3.339049488668995643e-03,-1.630405847848483830e-02,5.175692142675891033e-03,-7.269869237285864552e-03,1.725888913939914449e-02,-3.958900934581689388e-03,1.575153814666696572e-02,1.993750141740870285e+00,-1.060617397132251200e-01,2.217310653566937489e-02,-3.822565794259356886e-02,4.072622335239497321e-02,1.039225119380070891e-03,-9.833491283467078736e-02,-2.034286713428653748e+00
5.794740175548312479e-03,-1.969651739874984844e-03,9.685606872866469458e-03,-7.833313289979625116e-03,-9.719658467553347544e-03,-7.157222310781726719e-04,-1.788068938109328015e-02,4.689189989661613801e-03,-6.799294330218100257e-03,1.868070476577375974e-02,-3.565861382541436492e-03,1.923543560297283003e-02,1.992244985795681211e+00,-1.063253525878621181e-01,2.244861858956972989e-02,-3.645003528381665636e-02,4.129454274534771763e-02,4.518783823591661190e-03,-9.874929691818847000e-02,-2.034026578600008239e+00
5.406707402149593319e-03,-1.340120862420205762e-03,1.578689331812676427e-02,-8.593082835666796329e-03,-9.793592369124090938e-03,-2.468866959565116283e-03,-2.039882726735425117e-02,8.449230988041747659e-03,-1.022693711702059652e-02,1.538479256346176466e-02,-2.572654346167285548e-03,1.768226788387168916e-02,1.992922295549859557e+00,-1.078278521697774300e-01,2.272911134616857620e-02,-3.540000698998980316e-02,4.314508107629890649e-02,8.209301535475067510e-03,-9.961781630876172244e-02,-2.037499725195258460e+00
6.224906699826272122e-03,-5.172041698835406695e-03,1.022444605474230779e-02,-7.486468505398581087e-03,-9.079885207998714819e-03,-3.327599901367567486e-03,-2.286897812313821304e-02,7.424565349163084020e-03,-1.060136671374549769e-02,1.351492582948907867e-02,-4.575459348917620961e-03,1.897684152161305954e-02,1.990600053367401756e+00,-1.081399954821495452e-01,2.405087430432780587e-02,-3.437199703021999453e-02,4.449746629292352512e-02,9.787651098184208670e-03,-9.924526212664255831e-02,-2.037296653363327437e+00
7.366494668225972292e-03,-3.006004657735422171e-03,1.092533965252893806e-02,-1.062480598469809322e-02,-1.044322183596726496e-02,-3.423410836400238126e-03,-1.986756791496840577e-02,7.637577604441556263e-03,-1.025328480391146310e-02,1.470517485572913827e-02,-6.700596768499568305e-03,1.842797209346306794e-02,1.990248377339981500e+00,-1.066485678505024320e-01,2.437067461865478901e-02,-3.337207278909315455e-02,4.227275155621397495e-02,1.141616370759289747e-02,-9.947374120068798453e-02,-2.036307845506861280e+00
7.449684165686265742e-03,-2.694689732635095931e-03,1.086373628264664798e-02,-9.352104457015361291e-03,-1.207913278535620479e-02,-2.333527706926161009e-03,-2.351969672361449437e-02,9.472950236928788167e-03,-1.218258188283456549e-02,1.578187530117979021e-02,-5.085907146841823177e-03,1.884117914396745558e-02,1.990943778072308934e+00,-1.073569770369610238e-01,2.614462921740378504e-02,-3.525011311716553380e-02,3.985978126587422232e-02,1.315497333356701812e-02,-9.939628541551211172e-02,-2.035918809469002611e+00
7.758335231571957674e-03,-2.421819490877183921e-03,1.401606964437167833e-02,-7.827662998815121745e-03,-9.221293879876107935e-03,-2.530919259784326393e-03,-2.370280520580044306e-02,1.062402129980123330e-02,-1.011500054141305227e-02,1.370111048943067553e-02,-6.699221781282659223e-03,1.807597784529451496e-02,1.988631534958621661e+00,-1.098083304827614931e-01,2.353857821450652810e-02,-3.566096941619059657e-02,4.104928113455533906e-02,1.532631319755749927e-02,-9.733344240078378728e-02,-2.031766490314278251e+00
6.118560186017208032e-03,-2.926969184309752541e-03,1.482835063526961698e-02,-8.840886378739976070e-03,-4.748610017563006068e-03,5.599508566257078990e-04,-2.450763159725123652e-02,7.340992044186878292e-03,-1.152108650736156405e-02,1.699894227350268530e-02,-5.247008343994042506e-03,1.738601290814285882e-02,1.991747067827978279e+00,-1.115246571704061052e-01,2.106643931610549872e-02,-3.551738126456718825e-02,3.965054317733224254e-02,1.428817568071237727e-02,-9.864138465236675646e-02,-2.033410963294853602e+00
9.867121457999417436e-03,-8.583238608760483191e-04,1.492286166563424471e-02,-1.005500345308383940e-02,-5.910773515252828493e-03,-4.784681608442053189e-04,-2.518409139718181741e-02,9.058840547274392765e-03,-1.186689465446862275e-02,1.742738745395016470e-02,-6.172360034489900518e-03,1.846255540545936602e-02,1.992843424673388153e+00,-1.117837132610074308e-01,1.863859130953890789e-02,-3.448008807278779564e-02,4.059893522029809493e-02,1.550271139512713128e-02,-9.681457583185845706e-02,-2.033682279970872475e+00
9.163689228263193973e-03,7.888464408624978235e-04,1.363804535730467338e-02,-1.030748684112392684e-02,-7.908514146717122995e-03,-2.960233894573179470e-03,-2.218738619165118442e-02,9.687509599218963041e-03,-1.551967337235630323e-02,1.614197727058547943e-02,-4.789467900858322344e-03,1.881536791426571126e-02,1.992437001088073201e+00,-1.109844248776682279e-01,1.929728620144634255e-02,-3.672674986695646099e-02,4.135344212909567579e-02,1.486288381843983708e-02,-9.542940593549580075e-02,-2.033423789741922949e+00
8.467202981160314515e-03,-1.576435331689748313e-03,1.244382611987671257e-02,-9.139034044677014565e-03,-9.324714127238042591e-03,-3.250818877971773128e-04,-2.453627056946443286e-02,9.131982965320119272e-03,-1.692740282480859060e-02,1.730693064070995893e-02,-4.910893061221645317e-03,1.794361031416559504e-02,1.992181548178631578e+00,-1.120229036653839355e-01,1.943772423505508301e-02,-3.701244152454817582e-02,4.393831015964582559e-02,1.655346721676670060e-02,-9.633407629482930445e-02,-2.032537546365578152e+00
6.215055644653810947e-03,-1.955208957808278762e-04,9.927586548237386441e-03,-5.370027282611701709e-03,-8.142201099503743739e-03,-1.533570488888964193e-03,-2.519707298669831425e-02,1.022568482335714513e-02,-1.788123922582023073e-02,1.685148733506341284e-02,-5.375957639379909912e-03,1.906209675590406216e-02,1.993741562355878072e+00,-1.135691422242094961e-01,1.877463583322256171e-02,-3.503167734885526824e-02,4.682079639304771723e-02,1.576490463932970001e-02,-9.555968122053912217e-02,-2.029808324273607578e+00
6.182288589829667939e-03,-2.511287537942703037e-03,6.722029828543871557e-03,-5.901568986897730469e-03,-9.325636867445131345e-03,-6.249421146713957185e-04,-2.604779368860652908e-02,9.851330680149449071e-03,-1.603644591312765322e-02,1.692183287223228416e-02,-5.388035845513801554e-03,1.641607560696346432e-02,1.989534919914761169e+00,-1.118822383498054157e-01,1.937369210679375578e-02,-3.539993341302418578e-02,4.791155967050719083e-02,1.335817537445169872e-02,-9.614419852769710839e-02,-2.027683444582037531e+00
7.384419955447574062e-03,9.829271828657943147e-04,1.001646094511345411e-02,-4.163242138622024607e-03,-7.354118802403141961e-03,-5.936090392259777597e-04,-2.347129932752455364e-02,9.640970066679552947e-03,-1.568655564705557712e-02,1.633191835832656369e-02,-4.311446707890305430e-03,1.602629665539289858e-02,1.986271256321442857e+00,-1.117270348420281167e-01,2.089921958738119936e-02,-3.631582110000474567e-02,4.773956394209207671e-02,1.407760673012208898e-02,-9.510654776675671329e-02,-2.028700857871970520e+00
7.022907222755392365e-03,-2.345248938704314664e-03,5.784548137073316706e-03,-4.398968883206187501e-03,-7.727980719986636896e-03,-1.483190870889506893e-03,-2.249326076799960938e-02,1.111049175217745065e-02,-1.656159674571881443e-02,1.638539176838187117e-02,-3.558550522458288606e-03,1.734103624117157294e-02,1.987686521924863392e+00,-1.135465392175043636e-01,2.235632944557904359e-02,-3.968157403791591070e-02,4.649931031642108581e-02,1.437803729835775146e-02,-9.406182043614229327e-02,-2.027365469102325957e+00
6.542489367964316425e-03,-3.299794391199558415e-03,6.203517590337269058e-03,-4.530576969831319120e-03,-8.517273742452717913e-03,-2.568116460894618539e-03,-2.426562504654684524e-02,1.332360847319634736e-02,-1.281213340099769497e-02,1.816412293949300205e-02,-5.802791891065455648e-03,1.466462795464219988e-02,1.988250252354573755e+00,-1.140378574660789734e-01,2.040715381080376520e-02,-3.999231500677208340e-02,4.796703872153505743e-02,1.722191182088656652e-02,-9.448854261803733834e-02,-2.024332021074739085e+00
7.164851994333688162e-03,-4.179947179773118963e-03,6.979055845373660465e-03,-1.392331071261324006e-03,-1.013401685188144649e-02,-2.926021891647619892e-03,-2.566315585515417663e-02,1.053609858426135179e-02,-1.066116962271755272e-02,1.685364581818432628e-02,-6.441640933557909142e-03,1.339130435825324275e-02,1.987364889260875067e+00,-1.147709012924670313e-01,2.203035704390312460e-02,-3.919808324182243175e-02,4.886482571723620855e-02,1.417281114832707502e-02,-9.478576804890877228e-02,-2.025051475232367171e+00
5.780531942800590413e-03,-3.407198751059711123e-03,5.535190581038514773e-03,2.545823071210507986e-03,-5.982323971465628755e-03,-5.079721632940737731e-03,-2.780272055461258107e-02,1.285733006683229852e-02,-9.786483352947301928e-03,1.710560860808437930e-02,-6.208969819185604713e-03,1.068991419729983967e-02,1.988186161636420923e+00,-1.150740348045847655e-01,2.555644938114831274e-02,-3.771577683880100035e-02,4.777656347450851687e-02,8.644720785966113208e-03,-9.749431903923269638e-02,-2.026152360579039691e+00
6.690405486566216101e-03,-3.229298117373486602e-03,4.332800932868993357e-03,-2.336265025222477015e-03,-7.400738818758992484e-03,-3.092095935292200459e-03,-2.394408172917336999e-02,1.273345128276380869e-02,-8.121832976277276739e-03,1.643664833688917443e-02,-6.969077533183988017e-03,1.167023484614668552e-02,1.987269993161660198e+00,-1.128325717355321833e-01,2.442690633737694059e-02,-3.580716144653212779e-02,4.639401268746144724e-02,6.675842385199956541e-03,-9.628168566322822808e-02,-2.023754875941948139e+00
7.278158726194545319e-03,-1.284961530405476096e-03,6.871851431864483412e-03,-2.184215682213512012e-03,-5.126629995488816115e-03,-6.265285812569024865e-03,-2.494517628384269881e-02,1.203015179677390661e-02,-6.673914349714623120e-03,1.704293046122733885e-02,-7.867566440974816874e-03,7.872859357543357181e-03,1.991266956165274937e+00,-1.127426714508168865e-01,2.262353443281965928e-02,-3.486065021646149453e-02,4.568855816747818127e-02,6.596821354992950942e-03,-9.652537855094435459e-02,-2.024915729534757514e+00
6.475224195045325287e-03,-1.832767871216832737e-03,5.736510089892872012e-03,-1.549608171176038900e-03,-4.743822657338750241e-03,-5.476824706025549584e-03,-2.573315255237823215e-02,1.280134966625491241e-02,-1.094307637397020846e-02,1.587081039675675501e-02,-7.565354014383737086e-03,7.952248051034097390e-03,1.989634558544799203e+00,-1.138403972071640319e-01,2.250406986074309640e-02,-3.812947926082654176e-02,4.328368167014694928e-02,2.940236069050122542e-03,-9.535356937769699781e-02,-2.023861084056431281e+00
5.003112234153918141e-03,-2.877602290679847317e-03,4.936032923236078652e-03,-3.146056544008590285e-03,-4.207137838209384396e-03,-8.967679296892889064e-04,-2.591315614418150323e-02,1.070993362921851544e-02,-1.054389922244170115e-02,1.633021610934825424e-02,-4.950620045634097389e-03,5.158774071759496434e-03,1.991219278599917653e+00,-1.098261179589056780e-01,2.165234848974787255e-02,-3.389818685526724273e-02,4.252048580128645755e-02,1.328800534641786128e-03,-9.594500697085493746e-02,-2.024603854075005316e+00
6.172181732247444645e-03,-3.342449941785309293e-04,7.375667805125411466e-03,-2.214378865698890964e-03,-5.791018546127462037e-03,-2.266100346990001027e-03,-2.427400732057157645e-02,1.480911669787492863e-02,-1.124453456357973197e-02,1.814210002207568284e-02,-6.961486534034756757e-03,5.837026124044406190e-03,1.993075133078056282e+00,-1.087814055855689382e-01,1.997858941725433324e-02,-3.408509993926959331e-02,4.380075796878310501e-02,8.552263894610323807e-04,-9.895139180006236324e-02,-2.027581799139747343e+00
6.380249593952956426e-03,-1.589521666454187833e-03,7.771210132575663738e-03,-1.376793698517799446e-03,-4.844225580020209559e-03,-2.624280759154252150e-03,-2.490894010658046762e-02,1.065074032139295274e-02,-1.311536975768951702e-02,1.580028937794010144e-02,-7.646015487092905002e-03,7.378034567958045506e-03,1.996076693371566568e+00,-1.084460171448921595e-01,1.930992504372438384e-02,-3.377012917591089292e-02,4.418386110565770269e-02,1.655865823177683424e-03,-1.008373608871068611e-01,-2.028076441440910038e+00
5.349397865617245944e-03,1.263914905023761324e-03,6.436670416378665292e-03,5.245398752237549886e-04,-1.080727742720963367e-03,-1.295913143466760923e-03,-2.069755750238082975e-02,7.555551134321563181e-03,-1.254432115409591028e-02,1.866713708099324021e-02,-6.367656670518979933e-03,7.705176825387597891e-03,1.993710044261274961e+00,-1.081031162094867465e-01,2.053622105061431863e-02,-3.266862243366594476e-02,4.212565820586840204e-02,3.816926375308591496e-03,-1.036726646640508676e-01,-2.024860596800383217e+00
5.877815462426193467e-03,-2.705479890217889422e-04,2.014171756056651677e-03,-1.980380335338534727e-05,-2.826562778341454134e-03,6.121544109458400273e-04,-1.749803557809991375e-02,5.460170684756513945e-03,-1.224736482803552746e-02,1.816379545716707150e-02,-5.605249719933867378e-03,9.701611430945562831e-03,1.994217219293317411e+00,-1.065653693002153457e-01,2.164861466503776796e-02,-3.327357581839612832e-02,4.211483758681535544e-02,6.263460265792935612e-03,-1.025170507372145656e-01,-2.023654085655444135e+00
5.966197078746272864e-03,-4.779717299467475453e-05,1.570266235646133098e-03,-2.267753504069855257e-03,-4.142485022638349099e-03,-1.015972339682143710e-03,-1.515488958520509917e-02,1.042969821618855431e-02,-1.238404127075623182e-02,1.844363615494713435e-02,-7.207626914833434664e-03,9.651185394258859560e-03,1.991827615563235732e+00,-1.076304796159902599e-01,2.162421704721316507e-02,-3.477756047996532346e-02,4.177758740417175654e-02,2.138199328793908682e-03,-1.002186686191440801e-01,-2.028160179288973630e+00
